26 64
25 -0.17985603 0.010323132 0.118489206 0.03206876 -0.22108282 -0.038506363 0.11914457 0.23578762 -0.26563168 -0.024816746 0.1735038 -0.07981644 0.05600611 0.022497248 -0.08374869 0.016353155 0.12222318 0.10833962 0.012942408 0.09597223 -0.01838823 -0.013528721 0.22941402 -0.08635567 -0.13751175 0.16739364 -0.28521365 -0.23981239 -0.004740777 0.017745843 -0.36014998 0.08808088 0.033877674 -0.034263767 -0.017072061 0.08101399 0.017313557 0.047712844 -0.04044973 -0.028901253 -0.02004655 0.027781358 -0.08848814 0.031978484 -0.089325935 0.090547524 0.0046040798 -0.12179136 -0.047020454 0.012182194 0.04813503 0.041253988 0.06295129 0.008362244 0.13898084 0.021421269 0.060878538 0.17950556 0.12828141 0.064919695 0.0020806966 0.05719851 0.045050595 -0.0721216
3 -0.1236579 0.034588013 0.1684827 -0.028625073 -0.24488471 -0.03514134 0.10372188 0.22829111 -0.26735938 -0.059430905 0.30567566 -0.06854065 0.016154299 0.018229812 -0.01662299 0.044565994 0.19023912 0.13752867 0.013398196 0.14590824 -0.044615977 -0.010805985 0.31762525 -0.12378485 -0.1737996 0.14432122 -0.29290923 -0.28471106 -0.0024751443 -0.027722917 -0.32040334 0.007833217 0.06853776 -0.0031651082 -0.01969138 0.06052157 0.0008212866 0.00981821 -0.09195567 -0.018401388 0.02038301 -0.038979687 -0.042528417 0.0042076334 -0.09957252 0.041407056 0.00825541 -0.11013767 -0.040654894 0.022671597 0.051613793 0.030294204 0.026738333 -0.010090578 0.074772745 0.020954806 0.02339243 0.082789645 0.04365237 0.02483366 -0.05656123 0.10199339 0.026216853 -0.06480404
19 -0.15572321 -0.014500686 0.17059223 0.044654056 -0.23146011 0.0042354786 0.12767881 0.2121355 -0.35775208 -0.07563913 0.3613879 -0.11378499 0.06423029 0.052292936 0.016050324 -0.026994806 0.1050779 0.1048937 0.0042292955 0.10530707 -0.0042755026 0.0073984326 0.25436616 -0.06789938 -0.14088686 0.11314217 -0.3355894 -0.23958004 -0.041693408 0.074505046 -0.36032298 0.10089374 0.1274265 -0.014112034 -0.024308287 0.051318612 0.0033023763 0.012423944 -0.091314055 -0.012693649 -0.010491906 -0.00043138943 -0.10363897 0.03159234 -0.06633319 0.039967477 0.020850996 -0.029876824 -0.053156953 0.0153802745 0.017399425 0.016845297 0.028380886 0.041020006 0.116881914 -0.009969279 0.041199856 0.11351008 0.02958823 0.043495853 -0.03261586 0.024229536 0.103281885 -0.13784198
24 -0.10454985 -0.009239977 0.08374787 0.1511122 -0.25911304 -0.11805724 0.05609936 0.32041743 -0.26318923 0.011448006 0.13129012 -0.025493933 0.06620157 2.0029227e-05 -0.051804937 0.0071609095 0.144198 0.029001655 -0.015051107 0.12194587 -0.051801134 0.039246585 0.19724841 -0.0507264 -0.13854918 0.14480327 -0.25720027 -0.20784678 -0.028794099 -0.01361431 -0.33747 -0.013637457 -0.022869198 0.0015970948 0.005788335 0.041549608 0.011891473 0.052715935 -0.045578104 -0.0354803 -0.029569397 0.03755326 0.008214473 0.026471613 0.035950366 0.046231207 -0.07625554 -0.18469179 0.05498721 -0.053882666 0.015140843 0.018683605 0.048428692 -0.024697648 0.07082737 0.007868072 0.06738925 0.12891616 0.10171292 0.047119115 -0.018047089 0.017837286 -0.036717493 0.06942629
17 -0.11004143 0.15331088 -0.17508855 -0.00068514614 -0.12866502 -0.050488766 0.025717082 0.473979 -0.24968351 0.08983706 -0.2846343 0.009798358 0.21123372 0.032474935 -0.26686993 -0.040532764 0.16417529 -0.20166461 -0.12005717 0.22855526 -0.044468876 -0.029314158 0.093295746 -0.08019996 -0.28908688 -0.33664626 -0.67177033 -0.017870573 -0.06531597 0.21320671 0.043188907 0.03883749 -0.16093342 0.03220588 0.053023916 -0.021989306 0.019184405 0.10657518 -0.075478315 -0.024502942 -0.043186847 0.037308406 0.09763356 0.020403942 0.21589436 0.018907046 -0.10353581 -0.028104056 0.032316677 -0.03077857 -0.034547344 -0.018135563 -0.004245759 0.02318982 0.018973855 -0.027939906 0.00847496 0.050207492 -0.017611127 0.012807243 -0.0020475748 0.0006556512 0.0007617712 -0.047163337
2 -0.16486028 -0.0763291 0.22591536 0.10818996 -0.26207355 -0.1310955 0.11393875 0.22395155 -0.19893126 -0.022023687 0.19202466 -0.05440804 0.07810591 0.031205753 -0.07188972 0.0070157065 0.1350032 0.16323598 0.041434485 0.07208715 -0.06665662 0.05515735 0.24154107 -0.058243282 -0.17109677 0.06515788 -0.33607596 -0.18619579 -0.010386505 0.053056467 -0.28631857 0.03876354 -0.06626793 -0.038269825 -0.0031861905 0.111781076 0.023683114 0.040939227 -0.0018691911 0.03214621 -0.046390213 0.07246213 0.017413314 0.0313572 -0.076164916 0.0912421 -0.00635843 -0.14127494 -0.037128884 0.012481224 0.05470442 0.05082038 0.086508766 -0.014773737 0.13144554 0.038642146 0.07316836 0.17421795 0.15104455 0.0682543 -0.003705705 0.08251128 0.019293142 0.00010389345
15 -0.07821065 0.07787213 -0.1599466 0.109097116 -0.15614298 -0.05763156 0.05522659 0.42011416 -0.20594333 0.07503724 -0.3790852 -0.06457066 0.19289963 0.027213853 -0.30575547 0.015522037 0.22986865 -0.12338418 -0.07814916 0.21344233 -0.096429765 -0.023337651 0.10347005 -0.10377899 -0.2667158 -0.3319089 -0.54952234 -0.015263833 -0.009156874 0.15599167 -0.052251637 0.026957646 -0.047460984 0.019507807 0.036077492 0.031124495 0.020435994 0.13728781 -0.1788093 -0.09801112 -0.07377831 0.041643698 0.18235195 0.049461424 0.17633873 0.029651182 -0.12626566 -0.1471921 0.102522835 -0.09860901 -0.051105812 -0.022010563 0.033649635 0.0053383 0.08078215 -0.030667974 -0.009492142 0.056975823 -0.0037988038 0.009913847 -0.014996867 -0.0051142876 0.014153946 0.028743034
12 -0.08565725 0.013084861 0.004148723 0.094884925 -0.16390082 -0.058671962 0.07486557 0.32834834 -0.24599469 0.052013744 -0.20634313 -0.10948725 0.20608203 0.024485894 -0.34915918 0.051043306 0.20695376 -0.13030764 -0.07952853 0.20060576 -0.10717992 -0.0055694734 0.076557525 -0.08335436 -0.21830189 -0.23870514 -0.49198005 0.009581998 0.04021724 0.094028994 -0.14982603 0.13408114 -0.10346575 0.0066360324 0.03436789 -0.008380793 0.019119073 0.13413475 -0.08677389 -0.102423064 -0.03943644 0.00637465 0.18638961 0.021318026 0.14178427 0.05452493 -0.08830288 -0.09211004 0.08085272 -0.064581074 -0.04394164 -0.017225025 0.008651392 -0.0010877358 0.014824856 -0.017051404 -0.013798111 0.08766079 0.08702729 0.028794806 0.008017315 -0.067773044 -0.037252966 0.099753946
1 -0.111675315 0.020144211 0.07981895 -0.019610314 -0.1457828 -0.08605493 0.04580586 0.3390932 -0.29518762 0.0039414605 0.13096239 -0.056271113 0.110134915 0.054777823 0.0028078244 0.010703573 0.13131124 0.105154894 0.0068697543 0.113109946 -0.07382581 0.11139459 0.24600643 -0.014966175 -0.1048855 0.16701846 -0.23787634 -0.24340227 -0.036866974 0.018162107 -0.29063955 0.04431001 0.072613485 0.02408869 -0.0038556652 -0.017277846 -0.0054564234 0.0038927188 -0.077112086 -0.020936977 -0.058741093 0.06657803 -0.08259564 0.0711957 0.08116781 -0.030347496 -0.070693456 -0.08059137 0.017482473 -0.04129328 0.021599945 0.027932791 0.0788247 -0.003271282 0.1384474 0.018598443 0.057409957 0.200419 0.13007061 0.0643946 0.0192875 0.08722252 -0.06490777 -0.0226725
20 -0.12860468 0.13816288 -0.25638825 0.07726759 -0.17046702 -0.07464892 0.06776321 0.54453945 -0.1987418 0.087399095 -0.4281104 -0.02699052 0.1962347 0.029767271 -0.34480003 -0.041579336 0.16950358 -0.16965228 -0.10181 0.20878212 -0.002386423 -0.16370144 0.0971605 -0.17411277 -0.27765158 -0.3153589 -0.64409447 -0.07125535 -0.07079811 0.2628179 0.06572036 0.061515465 -0.011317573 0.001967869 0.033585142 -0.008009376 0.008611321 0.03752183 -0.0064140246 -0.080134 -0.053171873 0.048463393 0.052498065 0.039522354 0.15583071 0.0052561313 -0.07602161 -0.028644485 0.05858655 -0.055367738 -0.05234788 -0.025073724 0.020079745 0.01176 0.035092317 -0.031304188 0.016561052 0.040172677 -0.000581043 0.01389488 0.029011108 0.031620115 0.033903725 0.018035376
5 -0.0812225 0.1840059 -0.2575852 -0.04809503 -0.13457535 -0.118325844 0.024104977 0.48212832 -0.2215046 0.15061176 -0.42293623 0.062476765 0.16283087 -0.03126129 -0.36660463 0.014424257 0.26746514 -0.17062367 -0.10820737 0.2705249 -0.05076642 -0.14356734 0.15669164 -0.20069636 -0.30810583 -0.33022118 -0.6451606 -0.07946188 -0.072737545 0.18996255 0.06280785 -0.01848431 -0.007944381 -0.0036625187 0.022616632 -0.023531875 -0.0015039782 -0.024162222 0.115660295 -0.07957344 -0.025563031 0.04599145 -0.084538534 0.0388101 0.10975982 -0.08735009 -0.071003236 -0.05570059 0.15807639 -0.13059513 -0.024392528 -0.015092436 0.05958367 -0.06386306 0.027029026 0.0060194046 0.029022016 0.0058565615 0.00034858994 -0.009508636 0.09208147 0.16532466 0.05605487 -0.013292947
9 -0.10334068 -0.029988738 0.112499036 0.039771963 -0.17933445 -0.083154455 0.09024252 0.25442114 -0.25506285 0.051598843 -0.08286885 -0.060549174 0.17271781 0.0297828 -0.31645587 0.07807199 0.19393378 0.020769706 -0.010711481 0.13048947 -0.1124775 0.021371644 0.13870598 -0.07803633 -0.20765367 -0.055575617 -0.36899295 -0.13573614 0.030832414 0.1080954 -0.09995904 0.01999288 -0.13606106 0.0038768162 0.032589365 0.056152374 0.037153352 0.17822067 -0.07548477 -0.106981866 -0.057554007 0.067747355 0.23050211 0.01395507 0.07768538 0.21313165 -0.10154774 -0.2606068 0.04561268 -0.02168219 -0.0015209594 0.011684744 0.0021312896 -0.027955128 -0.0073987525 -0.004167458 0.038602237 0.08534643 0.15091553 0.05019738 -0.013817025 -0.088982314 -0.076814346 0.13076705
18 -0.19703887 0.013010294 0.21206942 -0.048696686 -0.24551839 0.008172647 0.14182818 0.21858689 -0.2758897 -0.05716421 0.36000937 -0.05547818 -0.008340585 0.0016771215 -0.0011683627 0.001904124 0.116988674 0.109011196 -0.00080080284 0.12502407 0.010067977 -0.03639812 0.312489 -0.11530717 -0.1185972 0.1270075 -0.30367613 -0.24982709 -0.060777094 0.05605334 -0.31695607 0.05851073 0.18786992 0.02832581 -0.020127147 -0.015249131 -0.007925169 0.03291115 -0.21521442 -0.074964024 -0.0046004257 -0.04479372 -0.0982595 0.052454516 0.0005014793 -0.0097251 -0.020721318 -0.053471517 -0.014400105 -0.011271613 0.0368683 0.021093251 0.022705402 0.010418605 0.126665 0.0023871898 -0.0058618113 0.13996103 0.046110973 0.037306093 -0.041154463 0.088119954 0.027499648 -0.13580476
4 -0.18984894 -0.008046598 0.21663253 -0.044692162 -0.25449163 0.029440835 0.17478243 0.124404654 -0.2521467 -0.054838464 0.33256686 -0.056131355 0.0497229 0.05602899 0.07454656 -0.045943975 0.16523866 0.11580117 -0.002582765 0.15756509 -0.03534865 0.022384305 0.31716523 -0.09343742 -0.123197414 0.17530422 -0.35581806 -0.27856568 -0.07533253 0.1012314 -0.30612215 0.06419853 0.15481098 0.04643238 -0.0040040617 -0.011691031 -0.0037105065 0.025197493 -0.1574068 -0.053795103 -0.017657934 0.025962256 -0.13543192 0.039344247 -0.026888132 0.0185289 -0.01638652 -0.077837154 -0.03830709 0.0064318036 0.04410489 0.023660338 0.034990825 0.014735007 0.112494014 0.0010448529 0.054930773 0.12274538 0.02373406 0.03532241 -0.0065485006 0.05724222 0.038229313 -0.18242851
21 -0.17356387 -0.01969778 0.14134087 0.07944532 -0.29927084 -0.10673624 0.15118285 0.20991677 -0.17644423 0.04117833 -0.006347008 -0.015207685 0.046981636 -0.04213917 -0.15891072 0.06813656 0.14900623 0.08850381 0.022880955 0.074584424 -0.04826268 -0.006352032 0.19046292 -0.08453824 -0.17888114 0.06456042 -0.27909806 -0.13869858 -0.010445685 0.05677984 -0.3352354 -0.01798303 -0.18633959 -0.044082772 0.022330254 0.14686573 0.05505312 0.17953204 -0.0026864195 -0.061699424 -0.07967852 0.12765758 0.08205391 0.037166707 0.02676566 0.17953615 -0.09354046 -0.29201108 0.083918184 -0.07671122 0.022457214 0.028014416 0.053160507 -0.03459811 0.0888053 0.006341754 0.08482524 0.12107582 0.13237615 0.058851276 -0.005160846 -0.06598743 -0.0099290125 0.08631183
16 -0.22111419 0.17440085 -0.29233676 0.013672363 -0.17302233 -0.07780627 0.098230764 0.51711714 -0.13917896 0.07168674 -0.43629342 -0.060725085 0.21827988 0.0868842 -0.32795963 -0.07101585 0.20630503 -0.1089937 -0.07799478 0.21142271 -0.06181677 -0.13333395 0.12803656 -0.1940326 -0.241168 -0.28468227 -0.64686704 -0.055006977 -0.071709074 0.24448985 0.09012989 0.127371 -0.08728322 0.020706477 0.038277067 -0.041351747 0.0075597526 0.044876106 -0.008356043 -0.054734014 -0.010282488 0.009088028 0.14363344 -0.015959129 0.10817187 -0.0015184723 -0.033272993 0.03275725 0.067204304 -0.051208667 -0.001983537 -0.0017323948 0.044124823 -0.049044203 0.024656657 0.015591552 -0.013109147 0.08856926 0.090541355 0.016331073 0.077070154 0.17116152 -0.05058988 0.03363356
10 -0.119069226 0.084254675 -0.010940635 0.015208427 -0.13735832 0.09351983 0.12194291 0.4540593 -0.20372908 0.077466786 -0.35923767 -0.092984095 0.22626987 0.066022016 -0.28346792 0.082675315 0.15747906 -0.023599876 -0.029350692 0.1283622 -0.11977077 0.114925735 0.053465106 0.023002865 -0.31084946 -0.30550274 -0.5835086 -0.004165086 0.02520287 0.18329552 -0.09288501 0.06397415 -0.2437177 -0.02099011 0.03378398 0.056171916 0.03404778 0.16707082 -0.041514616 -0.074385054 -0.028223608 -0.030546742 0.22023991 0.010517712 0.17299804 0.15437251 -0.14656582 -0.22888397 -0.02673734 0.006612797 0.029342355 0.014292495 -0.04199678 0.03521646 0.052315347 -0.018808603 -0.06636428 -0.0045362036 -0.023991926 -0.010324327 -0.08795515 -0.124654636 -0.13646564 0.051498074
23 -0.13750608 -0.06588214 0.14312908 0.10346745 -0.17396422 -0.10006739 0.07151902 0.2819902 -0.19711371 0.0671269 0.04812167 0.021006972 0.09681226 -0.04213182 -0.3133913 0.06559731 0.08407521 0.027304487 -0.004012469 0.06523741 -0.04893259 0.04126274 0.14392954 -0.02457114 -0.18338141 -0.0698395 -0.371739 -0.068266355 -0.026201284 0.111640535 -0.37869734 0.037755534 -0.19744325 -0.07205963 0.009589681 0.068378456 0.035985336 0.10756467 0.105906695 -0.071667105 -0.055155758 0.02323789 0.2036639 0.0431764 0.12589471 0.16144958 -0.12749735 -0.27429214 0.03791459 -0.010562625 0.030303178 0.029396815 -0.010517291 -0.048556175 0.008385132 0.019179873 -0.013836216 0.09152898 0.16186468 0.050538465 -0.067978315 -0.11197895 -0.08613665 0.11256538
11 0.0050760144 0.08201268 0.016091896 0.017982796 -0.07109577 -0.13607109 -0.11975444 0.51154447 -0.42674252 0.17693877 -0.3580547 0.06630994 0.13476026 -0.042920712 -0.17083582 0.025777997 0.24594736 -0.11294767 -0.07708103 0.22492594 -0.10612251 0.09133072 0.09560966 -0.0073582307 -0.20769879 -0.13587911 -0.31657678 -0.16340157 0.000609715 0.036481127 -0.043832265 -0.0950691 0.09144335 0.040773723 0.042600572 -0.051603083 -0.010494855 0.027026761 -0.123355396 -0.12488332 -0.106527336 0.09980345 -0.03656895 0.113145985 0.21468827 -0.14386941 -0.11597669 -0.008206548 0.13766146 -0.14602648 -0.10778587 -0.037055373 0.12900312 0.017254999 0.12186884 -0.029130371 0.06645499 0.09089438 0.030252133 0.012689594 0.19826318 0.19373937 0.09006216 0.08889347
8 -0.09863722 0.19905323 -0.20765562 -0.10053933 -0.1911482 -0.073706746 0.09527994 0.58405936 -0.16465712 0.14101104 -0.49384755 0.077846296 0.1300403 -0.022224756 -0.32417092 -0.015459515 0.18480457 -0.13147818 -0.09762114 0.23026626 0.051311124 -0.27156174 0.18722111 -0.26813388 -0.2962113 -0.31747237 -0.655921 -0.16256917 -0.17790025 0.35103893 0.18238494 -0.04267198 0.040020097 -0.05165927 -0.0041750045 0.039293896 0.0018007813 -0.08431268 0.21570078 -0.040636845 -0.041364465 0.07151182 -0.12520596 0.05277581 0.12244315 -0.085408956 -0.08012183 -0.06623634 0.1717057 -0.15853514 0.0075805048 -0.00014134836 0.07391017 -0.06303118 0.09304599 0.010729467 0.020536335 0.028471505 -0.011467336 -0.005918543 0.041708402 0.18419862 -0.05043024 0.04939303
22 -0.10652562 0.12224762 -0.046123546 -0.07331893 -0.16934896 0.04244892 0.15524498 0.4367258 -0.12681682 0.060757782 -0.41418397 -0.12837312 0.2128131 0.05975242 -0.24477835 0.11001581 0.19152297 -0.039966617 -0.03575902 0.149868 -0.14672893 0.097548716 0.09324421 -0.019364055 -0.32499775 -0.29773393 -0.6064993 0.0023760682 0.044506006 0.1632613 -0.15838793 0.08703014 -0.19130217 0.05331968 0.046046082 -0.019737681 0.023347786 0.18768735 -0.1505944 -0.071859844 -0.012838568 -0.014009611 0.14016084 -0.003461166 0.16335723 0.104012065 -0.1065006 -0.10949344 -0.0068875146 0.010565988 0.0067084916 -0.0043962323 -0.09199229 0.03808334 -0.04598408 -0.039187577 -0.026807284 -0.008665983 0.002543476 0.0027437992 -0.09539766 -0.22811034 -0.18794365 0.13898113
0 -0.21788242 0.032547656 0.2076375 -0.17556155 -0.21836726 0.006814008 0.18216012 0.12236065 -0.36154523 -0.068434 0.3799386 -0.108866826 0.015571203 0.035542108 0.05467669 -0.013126493 0.11974728 0.23541582 0.06567624 0.054302692 -0.02479833 -0.0020986053 0.34081006 -0.114140175 -0.13675244 0.04662683 -0.33972207 -0.21723346 -0.07625095 0.112226166 -0.36287656 0.10192624 0.15251936 0.016451722 -0.015051341 0.010382493 0.00743538 0.07708111 -0.20239136 -0.07458065 -0.014564944 0.0014740448 -0.07832884 0.034534834 -0.045024913 -0.017117467 0.032876007 0.039921567 0.03311005 -0.048289403 0.017204333 0.008902384 0.04261249 -0.012850681 0.11561325 -0.0040623434 0.0021957331 0.07468672 0.022330549 0.01998567 0.044620264 0.15627581 0.12756506 -0.19160022
14 0.15111037 0.14333703 0.05804904 -0.18675971 -0.10084964 -0.17596701 -0.086446136 0.56110835 -0.3278999 0.20987853 -0.493351 0.13825044 0.1270281 -0.09085379 -0.33876976 0.06718895 0.17668928 -0.22100858 -0.1340158 0.25238115 0.024717603 -0.17880793 0.13174622 -0.18078262 -0.25837055 -0.18573362 -0.4639548 -0.25615156 -0.13153142 0.21967562 0.020763477 -0.12049601 0.17783569 0.0120744575 0.013834108 -0.046347532 -0.019554598 -0.07667276 0.0541491 -0.09577668 -0.08043497 0.09802516 -0.17393255 0.11269483 0.21713753 -0.19543755 -0.0897285 0.06677161 0.17636095 -0.15760797 -0.080684416 -0.03295366 0.09056449 -0.01322511 0.055278406 -0.02471047 0.09880215 0.09912674 0.057429083 0.030277018 0.107995175 0.19488822 -0.02340225 0.2062924
6 -0.03715288 0.17115776 0.022883028 -0.21346907 -0.13561076 -0.033105105 0.004538052 0.53475034 -0.3113228 0.20652714 -0.51656747 0.1797066 -0.0042096484 -0.15282364 -0.4161658 0.06382194 0.22180417 -0.23056689 -0.15043849 0.305319 0.08135514 -0.29484102 0.1950259 -0.26921064 -0.28675765 -0.3393973 -0.4926397 -0.2474292 -0.15276834 0.26876712 0.11404756 -0.21512192 0.15548566 -0.055966478 -0.04212724 0.034526728 -0.015010728 -0.10955766 0.11383254 -0.052630387 -0.0009977506 -0.024549937 -0.23531504 0.07357433 0.024959646 -0.17066588 -0.053168673 -0.07846657 0.20692435 -0.1876736 0.012888302 0.009322141 0.08944734 -0.07642742 0.102379285 0.024973907 0.011009141 0.08720636 0.06250075 -0.0014276003 0.048215367 0.2509046 -0.124597125 0.19018947
7 0.056764238 0.21501894 0.11506257 -0.37077856 -0.19164129 -0.08769901 0.08145667 0.6068286 -0.24682778 0.20854105 -0.57988167 0.119132854 0.06709248 -0.14775358 -0.4508043 0.18237144 0.18457806 -0.15922418 -0.11325906 0.2463331 0.09204637 -0.3305914 0.18199536 -0.28913715 -0.3188728 -0.30595082 -0.5183204 -0.2012602 -0.12477405 0.30105308 0.19327423 -0.10699453 0.105640784 -0.09209371 -0.029552057 0.09717658 0.002943097 -0.09634353 0.2511243 -0.0466008 -0.0757152 0.1080701 -0.2949211 0.12247119 0.10932761 -0.14318821 -0.07284734 -0.038505457 0.1984278 -0.20495968 0.0059850807 0.009725036 0.09974421 -0.028280282 0.1711637 0.009965015 0.041042432 0.08726338 0.019606898 0.017864838 0.03929934 0.17483068 -0.028718641 0.1104064
13 0.024531469 0.09367545 0.022959314 -0.06971407 -0.0031633496 -0.07561941 -0.1576824 0.52018636 -0.40497717 0.14740519 -0.31555265 0.10037898 0.20041573 0.06142507 0.03343038 -0.099017516 0.29818195 -0.08613407 -0.11993733 0.3654306 -0.109091096 0.18057995 0.2784112 0.005532369 -0.0018826141 0.23778227 -0.087599695 -0.40259615 -0.12896939 0.06198292 -0.2041768 -0.08700543 0.13100079 0.043552574 0.03575373 -0.10637998 -0.03762485 -0.1447404 0.0495885 -0.027881132 -0.13449134 0.15588266 -0.0688866 0.12580086 0.36228806 -0.307791 -0.16404574 0.10328553 0.15963224 -0.1729328 -0.12298357 -0.048441052 0.16765901 0.023992382 0.12473085 -0.011162181 0.053007573 0.13461299 0.02051239 -0.00013145276 0.21537542 0.19293912 -0.16133319 0.19984163
