26 64
3 -0.21414782 -0.08265581 0.04459502 -0.014832523 0.38572282 -0.093388215 -0.01285001 0.03601378 0.064556904 -0.28276768 0.10302016 0.115227446 -0.14278422 -0.006697231 -0.4897385 0.08557866 -0.014383346 0.113721766 -0.23729251 0.092041224 0.5673904 0.0928355 0.2774668 0.03376277 0.24819455 -0.28909704 0.22049879 -0.26049152 0.28759792 -0.13449432 -0.13311973 -0.21982689 0.097256005 -0.00995255 -0.19039933 0.007289406 -0.06402666 -0.054539565 -0.012735313 -0.10225482 -0.09282011 0.020186711 -0.04550752 -0.14157668 0.026847351 -0.017036507 0.0065433304 -0.027194878 0.01791562 0.044694502 0.010986679 0.0533181 -0.0011214352 -0.024735112 -0.12536801 -0.019205762 0.039235782 0.028057365 -0.005674008 -0.10299777 0.051277634 0.010656807 -0.037351064 0.03760103
25 -0.22914664 -0.19363545 0.052800156 -0.051368363 0.35268384 -0.13881992 0.02186725 0.075135045 0.027035892 -0.2110309 0.12066856 0.112463385 -0.15289757 -0.046974692 -0.5958794 0.113913395 -0.016644439 0.11411551 -0.2328031 0.028057091 0.47902372 0.108571894 0.22802028 0.048808675 0.28134578 -0.33163556 0.18394814 -0.23611234 0.23329248 -0.19264962 -0.15959212 -0.23351523 0.080451675 -0.0015845726 -0.11889097 -0.003434565 -0.066962294 0.0044628405 -0.015283373 -0.0488334 -0.023372116 -0.007013861 -0.0021169365 -0.04265329 -0.009924102 0.025657281 0.0101973275 0.012592932 0.028725307 0.024567423 0.021438165 0.07137018 0.009208419 -0.0056558275 -0.05931911 -0.016580122 -0.000458426 0.07031499 0.009474207 -0.07593802 0.06678099 0.059093796 -0.025500135 -0.010772913
24 -0.21219419 -0.18510962 0.0687839 -0.038738433 0.34872115 -0.09972671 -0.007460579 0.10498338 0.1011438 -0.18523398 0.013156754 0.094732024 -0.08407282 -0.008097791 -0.43700773 0.05059717 0.025048448 0.16195963 -0.22329435 0.03519324 0.52774334 0.07706997 0.21742666 0.061030358 0.15255365 -0.3063583 0.23282087 -0.16353376 0.20297882 -0.24406251 -0.15766875 -0.2257824 0.04788017 0.0013672822 -0.11980993 -0.0008976807 -0.029517973 -0.028674502 -0.013349536 -0.056979105 -0.04921005 -0.039809097 0.00043246223 -0.0052143503 0.0392945 -0.020830471 -0.046377134 -0.045737874 0.0040869056 0.023806648 -0.014712497 0.024823323 0.021204889 -0.0042230114 -0.07651676 -0.004123889 -0.017680053 0.020133473 0.029457193 -0.035668865 0.077620134 0.0331112 -0.057498615 -0.03421799
19 -0.24120575 -0.10575052 0.061625496 -0.020831319 0.35844576 -0.086631104 0.0085408585 0.046787642 0.01268574 -0.22462425 0.14871554 0.19389878 -0.15003905 -0.06092205 -0.5919308 0.11378384 -0.026565764 0.08928658 -0.21670258 0.090435855 0.5235729 0.09167008 0.2579474 0.034212433 0.2769561 -0.26207128 0.20302606 -0.19964379 0.2836666 -0.11690028 -0.13222702 -0.31902847 0.09203516 -0.0027743832 -0.14709654 -0.023466833 -0.094531916 0.022348657 -0.0116188815 -0.07109594 -0.07714424 0.009035455 -0.039729167 -0.10841312 0.01180235 -0.015159933 -0.03353147 -0.006420841 0.03557486 0.052204963 0.010511419 0.10414602 0.015810505 -0.019506218 -0.13586639 -0.03765306 0.0037306205 -0.024414992 -0.023209548 -0.1927481 0.086385 0.062212564 -0.039392788 -0.013216221
2 -0.21174012 -0.13628094 0.051529318 -0.035124924 0.33425662 -0.09537333 -0.0007295512 0.07327065 0.11434987 -0.2716982 -0.0076731686 0.15853712 -0.10261105 -0.023661217 -0.5393863 0.07004724 0.0077789766 0.14175183 -0.22855552 -0.0006141182 0.44949102 0.09829837 0.20254457 0.051582415 0.20950902 -0.3389689 0.2176564 -0.21030095 0.21242996 -0.26673335 -0.16662915 -0.24785346 0.047453687 -0.002690588 -0.12512761 -0.028963642 -0.06530021 -0.019161718 -0.017909955 -0.086636186 0.0029102883 0.004446486 0.011025435 -0.023831386 0.011322669 -0.017564846 0.009404876 -0.017119005 -0.01207676 -0.005223878 -0.01114432 -0.029734526 -0.011743328 -0.005966643 0.008602332 -0.004247087 -0.008187768 0.00781887 0.0065557486 0.026736448 0.036145836 -0.010402684 -0.04475977 -0.048362166
1 -0.26665443 -0.094632365 0.018468132 -0.040722862 0.27055123 -0.09137977 0.058906514 0.048626587 0.06714319 -0.16913134 -0.013325814 0.077087924 -0.10927046 -0.027372688 -0.50499266 0.07500335 -0.011177668 0.12084405 -0.23618694 0.047809575 0.51420367 0.101317324 0.24480373 0.044572134 0.19024889 -0.27361408 0.21276161 -0.18300788 0.28820467 -0.2434544 -0.17454255 -0.28836992 0.09801426 -0.03241689 -0.12803516 0.0019477704 -0.07035728 -0.006659132 0.05554105 -0.0783372 -0.07086976 -0.037407916 0.007991507 -0.068389244 0.06068581 -0.027376479 -0.03871865 -0.07685529 0.010555623 0.04277545 -0.024168916 0.043813452 0.034825698 -0.01085677 -0.15007521 -0.012503532 -0.057641003 0.025372976 0.09460778 -0.10959926 0.014040398 0.013202466 -0.03678014 -0.0062820516
15 -0.13780905 -0.08546111 -0.079673454 -0.043869767 0.36959177 -0.08374915 -0.035183284 0.044162184 0.06090617 -0.022124048 0.046330262 0.013644061 -0.0019111735 -0.08225896 -0.27447894 0.020430032 -0.103313796 -0.037323657 -0.19084716 0.05687802 0.24969193 0.13331017 0.23508959 -0.040057007 -0.20455854 -0.23031615 0.22401495 0.15849486 0.13329723 -0.1000692 -0.06945644 -0.13444215 -0.04736632 0.008430476 0.06570184 -0.026298461 0.010660575 0.03453518 -0.00076998875 0.028283741 0.029818406 0.039407425 -0.040851828 0.046750262 -0.04224556 0.006839311 -0.00836583 0.05805318 -0.004617256 -0.01569021 0.0005250754 -0.015586043 -0.0022590114 0.0081690615 0.047769535 0.006558417 0.026610773 -0.058370385 -0.058963522 -0.0035310953 -0.041450594 -0.05142673 0.020335041 -0.020725308
12 -0.220087 -0.12693125 -0.053721435 -0.026719974 0.30909917 0.008177611 0.0077106636 0.10805321 0.07649294 -0.12418112 -0.007656431 0.020820493 -0.085104585 0.005714734 -0.28611255 0.040601686 -0.078918695 0.00026194117 -0.19716917 0.07478856 0.33587378 0.117758185 0.2470452 -0.022659974 -0.12543458 -0.2472388 0.20192732 0.073029496 0.15194699 -0.16150896 -0.09890916 -0.20702392 -0.060589515 0.0059520057 0.084559776 -0.012121918 0.031259835 0.0046015284 -0.005375063 0.029796572 0.04355192 0.009257489 0.016471796 0.032819767 -0.015086525 0.0008383781 0.019597048 0.018282002 -0.025133071 -0.027495284 -0.00842408 -0.06802854 -0.017128555 0.0053642187 0.075013064 0.018519903 0.031103149 -0.07644644 -0.057821486 0.028100412 -0.04296862 -0.05066456 0.019614305 -0.006025352
4 -0.24200943 -0.0873123 0.024303468 0.010325096 0.37369418 -0.13156642 0.048341565 -0.0008404492 0.03828701 -0.27462354 0.14519247 0.11147899 -0.18400759 -0.03340063 -0.5944535 0.1286089 -0.02336256 0.08965525 -0.20508593 0.07269554 0.49000466 0.09026298 0.23348436 0.04133139 0.32043505 -0.21387973 0.25571108 -0.20905145 0.26202068 -0.12299959 -0.14609398 -0.3726796 0.12833405 -0.02985442 -0.16654834 0.020424953 -0.0829283 -0.03191495 0.025894247 -0.09325343 -0.03830529 -0.00038204013 0.00038301176 -0.078474626 0.010832125 -0.0007144006 -0.0022176902 -0.014536153 0.024773628 0.04578596 -0.01274862 0.075870275 0.023885556 -0.01735465 -0.14477062 -0.03794164 0.023677016 0.01674016 -0.07443619 -0.20164151 0.07572469 0.06716711 0.00017691396 0.035891723
9 -0.19816977 -0.19243786 0.013731632 -0.019370042 0.30881488 0.0540538 -0.018073454 0.1305389 0.09929307 -0.19955933 -0.02161594 0.063638695 -0.09651565 -0.0018677654 -0.37469086 0.05362176 -0.07246691 0.02359073 -0.22278364 0.034797404 0.32883513 0.13475348 0.24274056 -0.015160696 0.052894183 -0.35766768 0.18839878 -0.069126725 0.1888833 -0.1642157 -0.12087199 -0.20881762 -0.054632474 0.010174876 0.087416954 0.0019629593 0.051097624 0.023228167 0.008604997 0.062125787 0.038420558 -0.044694334 0.061347485 0.03570719 0.009156944 0.0027925137 -0.0016999503 -0.0047520488 -0.03672348 -0.02464633 -0.049046967 -0.081766374 0.010369925 0.0112902615 0.04290251 0.015781319 -0.026075095 -0.04495657 -0.02911526 0.10191329 -0.032465506 -0.019170335 0.01726469 -0.07471947
17 -0.15495414 -0.07511471 -0.089379884 -0.022060236 0.37226197 -0.066762865 -0.009670847 0.01292479 0.088671446 -0.012396399 0.008518227 -0.061499033 0.0041886414 -0.10908709 -0.2614503 0.025289152 -0.15152441 -0.086499415 -0.22016704 0.03427294 0.18149397 0.18115154 0.2577498 -0.06519548 -0.15936024 -0.20750001 0.17716648 0.11870011 0.14953402 -0.026458265 -0.056437716 -0.13397725 -0.024883168 -0.00034873516 0.067139715 0.022209395 0.05165723 0.01910482 0.03382416 0.06241105 0.028618896 0.039648797 -0.006270139 -0.042604264 -0.046110645 0.029742522 0.040243983 0.066395976 0.011868282 0.012244029 -0.017935893 0.034076758 0.020677924 -0.0009059416 -0.051917586 -0.024458485 0.056373227 -0.15281706 -0.07569828 0.02943372 -0.03951915 -0.07619714 -0.013401257 0.010348034
18 -0.2344515 -0.082209 -0.0043680714 -0.040930543 0.45029816 -0.14431615 -0.022496233 0.05971138 0.05915301 -0.26685035 0.1497141 0.16836253 -0.10492661 -0.07033384 -0.52346057 0.084850006 -0.024104921 0.064918965 -0.17944583 0.12700681 0.487284 0.06341454 0.2517886 0.01026878 0.31865332 -0.27196172 0.21065147 -0.27231407 0.31781408 -0.1029842 -0.1289419 -0.330356 0.090634935 -0.010533304 -0.166874 -0.012232493 -0.08821834 -0.034349278 -0.020863492 -0.10696748 -0.042823292 0.011948319 -0.015890613 -0.07468099 0.027525393 -0.027335856 -0.017739417 -0.036385484 0.025745189 0.046737418 0.011266079 0.070651315 0.0008031053 -0.02579029 -0.13329636 -0.03187381 -0.00095598545 0.054775912 -0.053423136 -0.23990671 0.10519255 0.08939478 -0.009690695 -0.0023809713
21 -0.29362032 -0.24948359 0.07025572 -0.08470145 0.25050846 -0.06660563 0.015448561 0.26305652 0.1285546 -0.25602403 -0.023755688 0.119479924 -0.09460448 0.018408028 -0.4952951 0.046323657 -0.027267972 0.09756392 -0.24270701 -0.0021951653 0.38841683 0.12558867 0.22604 0.01765256 0.13171822 -0.28844932 0.20012711 -0.16856094 0.24330488 -0.26407588 -0.15043584 -0.15444362 -0.0045872997 -0.0038723 -0.010982925 0.00691819 0.012702225 -0.02963315 0.0044231014 -0.0124118645 -0.019628178 -0.034992296 0.0074738613 0.0045441967 0.020660698 0.026631027 0.022560352 -0.017250147 -0.022632226 -0.0040378436 -0.022072667 -0.06062337 0.00798608 0.0011230838 -0.029540699 0.02665278 -0.010896417 0.0073966444 -0.019456565 0.061181188 -0.052344844 -0.031496357 0.033052474 -0.022121271
20 -0.10560374 -0.010714713 -0.10144636 -0.01055281 0.4283813 -0.088393055 -0.038651165 -0.0699384 0.07195617 -0.04576712 -0.016066337 -0.07659005 0.024762826 -0.12323983 -0.3020712 0.022006704 -0.13791628 -0.07301483 -0.21560676 -0.014900613 0.10673067 0.18174537 0.22016011 -0.06450189 -0.18250163 -0.08542176 0.17785229 0.09971606 0.15777153 -0.11586977 -0.0652418 -0.023903826 -0.012757395 0.019784033 0.016460527 -0.0016127524 -0.006313511 -0.009268738 -0.067085095 0.011072782 0.018791702 0.05943074 -0.03066848 -0.03960799 -0.048984874 0.031444635 0.042094044 0.05325404 0.046334248 0.0105671305 0.08579607 0.09278736 -0.039275445 -0.011604823 0.03155849 -0.018310014 0.06631017 0.03651755 0.028871868 0.031705998 0.016732931 0.006219646 -0.03457507 0.07087764
5 -0.113028765 -0.108883314 -0.07522271 0.015462905 0.46004516 -0.006419899 -0.047737166 -0.021829937 0.07118061 -0.044845067 -0.06205088 0.015340875 0.02235945 -0.08783805 -0.27122068 0.015601837 -0.14550295 -0.08301572 -0.21117567 -0.07188191 0.0008615538 0.19947205 0.17974938 -0.06489299 -0.13264245 0.035184965 0.18028225 0.16161895 0.1127766 -0.12709513 -0.064421475 -0.09597637 0.05379168 0.018095935 -0.10954883 -0.03146243 -0.07818506 0.022507679 -0.060252454 -0.047709163 -0.053951982 0.047583975 -0.07160507 -0.0741195 0.00019710537 -0.008426859 -0.004075949 0.0010515763 0.02203188 0.008255123 0.050631654 0.046501502 -0.025946893 -0.008306916 0.019580437 -0.004005933 0.022242047 0.0374182 0.0118255885 0.026570452 0.037014253 0.060125913 -0.00901375 0.010715236
16 -0.047967046 -0.14553858 -0.206246 -0.058315367 0.373289 -0.060226265 -0.045401696 0.03499958 0.08502143 0.012290033 -0.00060160557 -0.025425846 0.03081976 -0.11857143 -0.33329695 0.01879874 -0.14526972 -0.08451589 -0.20692445 -0.032064073 0.06160243 0.18822987 0.20094338 -0.06285852 -0.16997251 -0.1296786 0.21156956 0.15231706 0.1132346 -0.05792584 -0.05095461 -0.08710923 0.0067698904 0.010853328 -0.025421297 -0.012601585 -0.015718713 0.01282697 -0.020461258 -0.0007284508 -0.029486116 0.06108821 -0.039978508 -0.11101419 -0.011225147 -0.009380601 0.06523709 0.007199117 0.018562902 0.011983428 0.045624122 0.029356282 -0.044424117 -0.024407396 -0.00920763 -0.022034103 0.060933437 -0.014168343 0.02692887 0.046362657 0.036838096 -0.013875463 -0.067658335 0.013666528
23 -0.30318853 -0.19789451 -0.009617556 -0.042342983 0.3451522 0.040075887 0.019955952 0.16011718 0.10287954 -0.2264364 -0.028801946 0.088735305 -0.11521115 0.0155756045 -0.4302101 0.05835664 -0.0531294 0.061455235 -0.23938136 0.035848934 0.40533456 0.1306683 0.25248995 0.005836582 0.17524147 -0.281879 0.14444976 -0.18211946 0.19814393 -0.21481581 -0.14173663 -0.19724934 -0.024428502 -0.005951656 0.043741617 0.004301787 0.025701592 -0.0017180167 0.023627892 0.017581614 0.053734064 -0.038826633 0.072821654 0.019109786 0.0072263293 0.024906674 0.03805223 0.0027488586 -0.054817233 -0.046500288 -0.05971654 -0.133491 0.009637066 0.021184329 0.08992144 0.03649166 -0.008746128 -0.051918224 -0.04749618 0.19391327 -0.07392097 -0.053780407 0.026344383 -0.07901222
10 -0.09970023 -0.1947446 -0.1517826 0.03580269 0.4004734 0.13675177 -0.052564934 0.104645744 0.07143162 -0.08587169 0.040439047 -0.06510053 -0.076899484 -0.06417484 -0.25837597 0.06642221 -0.108067214 -0.031666476 -0.22136843 0.07030067 0.29214406 0.14493002 0.27635574 -0.05533114 -0.09013809 -0.3968151 0.19163708 0.02924429 0.13439581 0.031920873 -0.020803643 -0.023881545 -0.024458166 -0.021014523 0.108531624 0.0093232095 0.042789165 0.06599812 0.10253758 0.07440664 0.13970846 0.01237917 0.06348738 0.08485352 -0.084834 0.056815587 0.022039287 0.11076063 -0.012990259 -0.013553418 -0.085622564 -0.017366981 0.06769558 0.026158653 -0.028186519 -0.016453136 -0.0331121 -0.107586116 -0.13413028 0.0028340432 -0.104157954 -0.0640213 0.10794888 -0.04367825
11 -0.23946027 -0.06638199 0.07554463 0.009094727 0.28681916 -0.09034453 0.068851404 -0.04888645 0.049192883 -0.078470275 -0.09417547 -0.07226254 -0.10715902 0.040251926 -0.17772205 0.045438156 -0.12125995 -0.022664936 -0.23427357 -0.011710448 0.2538767 0.18450643 0.22480819 -0.0021063497 -0.08241982 -0.1528164 0.19356379 0.12917855 0.09589918 -0.14397717 -0.11994745 -0.32107857 0.0729356 -0.026913615 -0.12144795 0.0021800771 -0.04441409 -0.021544356 0.05159251 -0.07540708 -0.13445978 -0.03453641 -0.07538393 -0.004378074 0.0907239 -0.0757625 -0.09414482 -0.10662407 -0.037461136 0.0044780313 -0.03610879 -0.07313075 0.014178151 0.0014110572 -0.03465956 0.04101766 -0.06920214 0.08800121 0.08842461 -0.14080462 -0.023018794 0.012929832 0.026900196 0.0077230525
0 -0.21633607 -0.073565915 0.023802735 0.015646815 0.4346008 -0.11801374 -0.0140462695 0.048573546 0.029791078 -0.34901786 0.23226304 0.18735087 -0.16470236 -0.038737614 -0.5767066 0.11470919 -0.06155729 0.02736922 -0.20161544 0.12890771 0.47060147 0.09642316 0.28150067 -0.006163879 0.36203685 -0.19990088 0.23338339 -0.2807509 0.31198642 -0.033565234 -0.09706446 -0.31867036 0.05577695 -0.0001394868 -0.087501235 -0.01090747 -0.05975361 -0.0005339157 -0.022688685 -0.045881715 -0.09000141 0.03515896 -0.077018596 -0.086904876 0.021183738 -0.0485797 -0.04352061 -0.029325785 0.030558547 0.05906488 0.025319971 0.085347176 -0.010510467 -0.035588376 -0.15330386 -0.03468468 0.009161763 0.033142418 -0.044232212 -0.3190724 0.050260793 0.06922275 0.03535536 0.07267691
22 -0.21927932 -0.1990617 -0.17250256 -0.030860936 0.3653425 0.14563383 -0.014037754 0.16518022 0.0848579 -0.095353566 -0.015030717 -0.13045184 -0.120136864 -0.06993838 -0.31117907 0.091638595 -0.087907456 -0.02867656 -0.17633188 0.107850485 0.3113963 0.103572704 0.25458652 -0.046380308 -0.11768091 -0.36625502 0.21684413 0.053994395 0.19398524 0.11896453 0.0134619195 -0.07393592 -0.02575446 -0.03957037 0.12968308 0.03569535 0.043344535 -0.014554191 0.08140601 0.031089576 0.20483117 -0.054421887 0.2021233 0.07095325 -0.06287602 0.0876862 0.0646993 0.08104638 -0.01668404 -0.016267419 -0.08975258 -0.025665384 0.05972635 0.02240554 -0.018427206 -0.024217289 0.007954486 -0.13871811 -0.19802193 0.0219121 -0.015556721 -0.061999213 0.016924534 -0.10421918
14 -0.2405762 -0.13297747 0.06095281 -0.0007913137 0.4091079 -0.02367672 0.008914087 -0.0028200408 0.09253024 -0.09176326 -0.23967221 -0.043625094 -0.023399753 -0.013419524 -0.15269744 0.011514219 -0.1691437 -0.07647743 -0.2565225 -0.1149791 0.03518134 0.24729194 0.18970735 -0.03331527 -0.0727434 0.019458054 0.01639723 0.14115416 0.00425908 -0.10894064 -0.06715358 -0.2235554 0.07996394 -0.021035094 -0.15019827 -0.02697401 -0.0991318 -0.034041192 -0.0040590107 -0.12581332 -0.12595432 -0.015668405 -0.09562155 0.0015967421 0.06555285 -0.045451272 -0.06900739 -0.077415965 -0.0020764242 0.018483447 0.026973618 -0.008338043 -0.013145393 -0.011660282 -0.048042584 0.029233411 -0.07370687 0.18324172 0.061910424 -0.2576892 0.0370036 0.08323997 0.037979748 -0.011947963
8 -0.042834517 -0.15621528 -0.05658539 0.005197334 0.43477115 -0.061037656 -0.07105377 0.0050036577 0.12360276 -0.1267623 -0.07745114 0.014307361 0.09010817 -0.101837106 -0.2877795 -0.021929536 -0.18129627 -0.09093186 -0.28798154 -0.1509933 -0.05889363 0.27436462 0.20748058 -0.081149705 -0.11903838 0.034236256 0.16143961 0.117152505 -0.011421172 -0.10621887 -0.029289966 0.036594305 0.07611864 0.019037755 -0.14378862 0.0055907257 -0.059364844 -0.0279466 -0.0786149 -0.050102066 -0.04851578 0.03663715 -0.022801721 -0.13409825 -0.0030081773 -0.0040887864 0.03514307 -0.009038933 0.05172552 0.046285294 0.07311337 0.119225495 -0.03912495 -0.035334878 -0.07965408 -0.044532035 0.060267106 0.04316615 0.010301937 0.019873604 0.09644525 0.060128342 -0.06446013 0.05074183
6 -0.09764495 -0.12997343 0.0915792 0.019972755 0.4482319 0.016476974 -0.11231532 0.029865101 0.13512407 -0.20760565 -0.15994687 0.10420557 0.07795793 -0.042235393 -0.12604262 -0.044885114 -0.19972236 -0.10374363 -0.31002763 -0.11916125 0.00060545246 0.287185 0.2526263 -0.089165926 -0.11631269 -0.08491047 0.015551246 0.11969925 -0.12892652 -0.11220382 -0.020606874 -0.01306858 0.0819603 0.02709688 -0.24518004 -0.059232883 -0.12822321 -0.029282255 -0.114029035 -0.14343528 -0.08079103 0.008776913 -0.066440456 -0.032130625 0.041597884 -0.06222258 -0.06304462 -0.055491034 0.0059239273 0.011063882 0.055306874 0.009560234 -0.049365167 -0.020470368 0.019658025 0.00864053 -0.06567499 0.27378055 0.024682246 -0.15727633 0.14281449 0.1793184 0.020723404 -0.064029545
7 -0.15742984 -0.19808982 0.087172605 0.037547234 0.42791352 0.14575036 -0.06556263 0.023923261 0.13761978 -0.12251499 -0.2827666 -0.01372108 0.02102836 -0.02615547 -0.1513764 -0.011150533 -0.21272118 -0.09986665 -0.3321371 -0.16505218 -0.014993355 0.31806624 0.23984215 -0.06795529 -0.03307825 0.039567024 -0.08400351 0.10332309 -0.1373711 -0.13648756 -0.04639175 -0.09875307 0.11059106 0.004040782 -0.19833563 -0.028053725 -0.13567746 -0.029009108 -0.08419342 -0.12822671 -0.024514036 0.010418971 -0.018238429 -0.046965048 -0.012730512 0.017186472 0.013613183 0.007976035 0.044058703 0.021033887 0.08944047 0.08980957 -0.04480623 -0.019612536 0.0025186471 -0.014265528 -0.016141782 0.2939771 -0.04315301 -0.23996706 0.19888003 0.25182924 0.026999753 -0.018678332
13 -0.20699945 -0.08920476 0.009277401 0.0898261 0.27036086 -0.022158816 0.09036582 -0.016536206 0.029089592 -0.16325155 -0.09952077 -0.17750855 -0.21851023 0.0704623 -0.2277308 0.118062094 -0.024945237 0.09660827 -0.21487826 -0.0016669037 0.3953849 0.114955656 0.19355969 0.048125044 0.008230334 -0.0051824907 0.43622968 0.058315188 0.25733837 -0.09074382 -0.08887497 -0.3262087 0.1716627 -0.07336283 -0.25707358 0.033321824 -0.087355085 -0.0832047 0.121153615 -0.17774603 -0.22793588 -0.17108363 -0.023468435 0.05947615 0.24641666 -0.15128243 -0.24742365 -0.3038672 -0.048396602 0.04246675 -0.08949805 -0.0653972 0.074724816 0.004856277 -0.18071687 0.058219418 -0.24293105 0.12199928 0.2520926 -0.2946726 -0.012682846 0.09670833 0.043670587 0.020228274
