26 64
25 -0.13963778 0.04829472 -0.40502688 -0.013025997 0.10645029 -0.16984096 -0.0017605961 0.0025212017 0.07290796 0.15759939 -0.046620473 -0.058745217 0.12192107 0.068706356 -0.027129766 0.038050238 -0.26066706 0.08207651 -0.26099765 -0.23561959 0.10761672 -0.08528918 0.29251698 0.016018236 -0.10310564 0.08623154 -0.20457053 -0.057193197 -0.22072922 0.03900288 -0.1318176 0.039413117 -0.048367642 0.0033629413 0.010252784 0.0053504515 -0.044706576 0.07168231 0.005141504 0.018909149 -0.002887234 -0.013903874 0.03145089 -0.032674808 -0.034212418 0.0076556993 -0.042518426 0.0012498762 0.013739593 -0.01129586 -0.0031731997 0.01143713 -0.00980499 0.0428387 -0.019199628 0.030501505 -0.020497432 -0.019225901 0.011916726 0.0019194261 0.032208268 -0.0036783675 -0.0050364654 -0.04326352
3 -0.09779372 0.012605295 -0.39245588 0.034057558 0.10845912 -0.15685575 0.049471796 -0.012626479 0.10775999 0.18617092 -0.063538104 -0.06805474 0.15808783 0.044195868 -0.012269492 0.05602624 -0.2732154 0.102144375 -0.26457155 -0.29664233 0.094982974 -0.085415274 0.27407733 0.0019637381 -0.1158418 0.046749376 -0.19711551 -0.037969276 -0.26285136 0.07116206 -0.10223577 0.05255146 -0.029159615 -0.00018568133 -0.0198313 0.052447878 -0.034575738 0.018734807 -0.0012945419 -0.012730478 0.019133085 0.014703545 0.009725455 -0.020650908 -0.020401469 -0.0030936394 -0.0018695333 -0.010079636 -0.02345618 0.011861591 -0.011283837 -0.0058133258 0.015178789 0.037790157 0.022256283 -0.0506635 -0.053747132 -0.017729951 0.050158303 0.034632564 0.0031971058 0.024369163 -0.056292556 -0.03707583
19 -0.13774024 0.033593368 -0.4414817 -0.033054084 0.118067615 -0.21273546 -0.025220094 0.043441392 0.08682786 0.16208936 -0.019772302 -0.08117415 0.16506618 0.0587365 0.010411152 0.067821704 -0.25154793 0.0899484 -0.24065544 -0.21200801 0.08250575 -0.11253245 0.28040078 0.0016740935 -0.16551925 0.061682064 -0.19730632 -0.03365262 -0.26574498 0.023866734 -0.13021103 0.01025326 0.0036192392 -0.02943721 0.058916014 0.060188085 -0.010240287 -2.9932191e-05 0.023033105 -0.071443796 0.028690333 0.009246361 0.026213977 -0.035675064 -0.021235734 0.017749049 0.0075760246 0.00337305 -0.029024703 0.01845308 0.025995342 -0.006934549 0.025556795 0.034066062 0.04845529 -0.06398917 0.009108156 -0.024080442 0.022822296 0.0022255017 -0.03897013 0.036668234 -0.02670854 -0.030672425
24 -0.04904852 0.12431248 -0.24876739 -0.046106666 0.1063154 -0.17158875 0.12784791 -0.09675348 0.074370176 0.12001156 -0.025965016 -0.042785134 0.10627752 0.026375154 -0.03004359 0.01577714 -0.23121087 0.05217596 -0.23319814 -0.22853056 0.107620016 -0.06983683 0.23464546 0.05100196 -0.17247814 0.16356629 -0.21149674 -0.059199564 -0.24975003 -0.1404653 -0.1585317 0.0190575 -0.07452847 0.021348676 -0.022692129 0.0420945 -0.121654496 0.06481552 0.000932092 0.027849205 -0.038049933 -0.023186706 -0.002913312 0.0119682755 -0.014197619 -0.025918413 -0.08015595 -0.022237128 0.024535274 -0.015654767 0.0063321004 0.01619815 -0.017346622 0.0035856515 -0.026087858 0.02819395 0.008955073 -0.01696777 0.004721809 0.014399675 0.10052813 -0.0255376 -0.0040325513 -0.029528651
2 -0.08067038 0.11224305 -0.2786078 -0.015859082 0.08677445 -0.12949038 0.022935174 -0.0071335887 0.043777037 0.08702134 -0.035313834 -0.019440502 0.050176125 0.044482067 -0.029100642 0.010169207 -0.24090254 0.041988343 -0.29630318 -0.18287507 0.11941319 -0.0545258 0.3070159 0.07157983 -0.1294901 0.16270082 -0.223089 -0.12359457 -0.33814865 -0.007587475 -0.13160768 0.09523039 -0.06327382 -0.0065956293 0.010480158 0.015675701 -0.028254077 0.10769312 0.0017455285 0.017304663 -0.05978326 -0.008964154 -0.00971006 0.0393414 0.013055056 -0.0030865334 -0.10085302 5.6458928e-05 0.04671675 -0.02993977 0.022292694 0.039605733 -0.032873914 0.008765604 -0.042919207 0.009355907 0.003603562 -0.034934856 0.0087207835 -0.014962906 0.07627193 0.017430386 0.014794012 -0.103323765
1 0.055397253 0.092706315 -0.19234365 -0.018142072 0.1108387 -0.23435014 0.16074172 -0.04522051 0.063207686 0.14364617 -0.04921817 -0.062457256 0.12462874 0.031458404 -0.01577897 0.037687954 -0.27549976 0.09431973 -0.25230792 -0.3212611 0.09028877 -0.10249922 0.23866783 0.02296815 -0.14655319 0.122811124 -0.22661608 -0.040070213 -0.244114 -0.07189879 -0.14823729 0.03367921 -0.015151073 -0.013890511 -0.040421464 0.05093042 0.04969368 0.023372788 -0.01272935 -0.019413361 0.016585413 0.012566778 0.014694972 -0.028016787 -0.03219252 -0.00392794 0.020495767 0.0038847346 -0.016545571 0.01946131 0.05144332 -0.035035096 0.025821207 -0.052257992 0.045124546 0.08026935 0.04752838 -0.028361898 -0.021567844 -0.023278462 -0.06007611 0.0007392573 0.012326115 -0.033043757
15 0.123354845 0.41744825 -0.2183322 -0.30014408 0.225454 -0.03265424 0.43608224 -0.21676563 -0.26605657 -0.19827771 0.004291525 0.029651795 -0.20050095 -0.04616788 -0.005907995 -0.07177346 -0.23509227 0.093651585 -0.1324173 -0.17671385 0.14660421 -0.095290005 0.27573642 -0.068803735 -0.2568082 0.11955614 -0.25142413 -0.014392509 -0.18667442 -0.09686093 -0.2587438 -0.115721345 -0.01015828 0.0011048667 -0.028589245 0.029889246 -0.0034552754 0.00037775858 -0.00748009 -0.004406662 0.029040318 0.0053134398 0.060691506 -0.07584311 -0.061767418 0.033779074 0.014820163 0.032891117 0.010929305 -0.018299138 -0.068886384 0.02724624 -0.023504833 0.08891821 -0.051321566 -0.030057693 -0.15127958 0.105025545 0.062058236 0.08831095 0.26968777 -0.021481259 -0.031931 0.10489993
17 0.06482061 0.398397 -0.24215852 -0.3066415 0.21580797 -0.030939696 0.4016301 -0.23538487 -0.3278976 -0.23774806 -0.01379451 0.040072974 -0.26034847 -0.02391297 0.016163971 -0.059017558 -0.27118176 0.13533205 -0.14188284 -0.22799973 0.13043742 -0.13223049 0.29645374 -0.109464414 -0.20585795 0.035697572 -0.2911931 0.012288681 -0.16630162 0.077326365 -0.2584985 -0.10038119 -0.029806891 0.020562565 -0.060913865 -0.027304932 0.010090025 0.040053114 -0.021859342 0.059503358 0.049727373 -0.012057034 0.08930241 -0.12563755 -0.109576024 0.024942769 0.03421972 0.029511595 0.005300352 -0.0158865 -0.08896053 0.011728467 -0.019496435 0.10642838 -0.057210565 0.033850577 -0.135573 0.09246311 0.05713597 0.097890384 0.2454996 -0.04351829 -0.046962574 0.11503626
12 0.063804425 0.34045902 -0.17703427 -0.1548732 0.15936266 -0.13477048 0.2918285 -0.16431406 -0.16269796 -0.16642603 -0.00056175346 0.054631628 -0.17516738 -0.042226218 0.014483626 -0.044802338 -0.23102337 0.05058204 -0.21292129 -0.1694835 0.17713247 -0.027596166 0.30867496 0.005886589 -0.23695956 0.1348384 -0.2339988 -0.009337995 -0.18495871 -0.15133353 -0.22911714 -0.088719614 -0.0003207244 0.036408678 -0.060076945 -0.027491309 -0.041743033 -0.038551368 -0.016460085 0.051788602 -0.008947745 -0.051705476 0.04832357 -0.059384212 -0.058869082 0.006403133 0.019564822 0.032819346 0.06189502 -0.049950935 -0.09664992 0.04151223 -0.06510107 0.0425474 -0.12756367 0.08601717 -0.0061551677 0.07995259 0.028367402 0.087389424 0.30779707 -0.042735454 -0.027631376 0.1303332
20 0.111007884 0.42695603 -0.23052731 -0.3932033 0.25405136 -0.045489483 0.5254299 -0.31553727 -0.3280162 -0.21065857 -0.011633121 0.021341369 -0.23441716 -0.00872679 -0.002209535 -0.0635884 -0.27327862 0.15239972 -0.11187087 -0.2580302 0.09722217 -0.17309847 0.2517937 -0.1232234 -0.1984828 0.001384012 -0.27918065 0.03131061 -0.1708133 0.10397332 -0.23249339 -0.0913997 -0.07031568 0.019237448 0.005725116 -0.042857934 -0.064608045 0.11209802 0.00020004854 0.069919445 0.028833916 0.004987446 0.027611187 -0.04760526 -0.04257461 0.0008921062 0.018876191 -0.00032185295 0.018647658 -0.023542864 -0.07439119 0.022122262 -0.02697477 0.10345034 -0.06467549 0.035226084 -0.16864736 0.11180512 0.051760066 0.082853556 0.12935238 -0.03304706 -0.04227083 0.15620717
4 -0.15581974 0.059407372 -0.46689728 0.0042780796 0.12539752 -0.20599571 0.023912368 -0.020410022 0.12631066 0.20633031 -0.037002306 -0.072573006 0.1702453 0.10176065 -0.03157919 0.054456938 -0.24574654 0.09644031 -0.21245335 -0.27805987 0.083796814 -0.09041806 0.22581244 -0.007938812 -0.14664824 0.035679303 -0.20896669 0.0029341034 -0.21514763 0.020091012 -0.12959053 0.006296202 0.010304701 -0.014641996 0.007904735 0.023911819 0.025055906 -0.008149011 0.0015052246 -0.028449338 0.03278486 0.02848123 -0.010516655 -0.0018518354 0.012587794 0.0080495225 0.0860453 0.0148503715 -0.028501747 0.018307408 0.0017027591 -0.0064518093 0.018710338 -0.016885076 0.037535593 -0.10688135 -0.026766203 0.014669592 0.04331002 0.016874276 -0.11311389 0.08079966 -0.050376773 0.020394225
9 -0.010766691 0.27373362 -0.13247779 -0.081182 0.09777098 -0.0791 0.17648114 -0.14400887 0.007621499 -0.07445177 -0.009881662 0.08949972 -0.13864185 0.06635027 0.017492894 0.00406841 -0.1990404 0.021420458 -0.23106006 -0.111090265 0.20252596 0.039236482 0.33340195 0.0227958 -0.21957979 0.23366617 -0.24837145 -0.120549135 -0.24752186 -0.13824618 -0.25791654 -0.04480094 -0.02522271 0.022217318 -0.02250015 -0.057958458 -0.017333647 0.043975454 -0.011759122 0.067408316 -0.027258096 -0.016002623 0.045814086 -0.04374356 -0.065400355 0.002455223 -0.083117366 0.010545899 0.08895497 -0.06389151 -0.021010136 0.07356003 -0.0722618 0.06343121 -0.1167386 0.0496 0.049278237 0.038344838 0.04204352 0.10522328 0.20389785 -0.023592677 -0.08306919 0.119253196
18 -0.12156547 0.1035729 -0.46235028 0.02957095 0.12795933 -0.17306854 0.019327106 0.021579709 0.13652338 0.2247733 -0.06572124 -0.08111679 0.18686214 0.09102265 0.00021285136 0.08693093 -0.20378849 0.09767108 -0.18498752 -0.22549428 0.04236993 -0.08710191 0.19571032 -0.026243668 -0.21027707 0.039242532 -0.21929148 -0.024219004 -0.29483137 0.06319343 -0.1587306 -0.022942321 0.02604018 -0.021033661 0.08992003 0.0025801393 -0.02332663 -0.02096043 0.028654978 -0.049798395 0.026015129 0.02988538 0.0010980698 -0.010360774 -0.004973477 0.0030226745 0.009504251 -0.008705011 -0.009528193 0.0011097796 -0.0094153 0.020534547 0.0014222121 0.041858952 0.009339166 -0.12592985 -0.059869997 0.0054505696 0.0012526761 -0.0056680925 -0.054190274 -0.008827051 0.003017953 -0.008119151
5 0.18003415 0.4321852 -0.24828306 -0.5136494 0.30064932 -0.047615115 0.5979441 -0.3006351 -0.3342812 -0.18603343 -0.0142426565 -0.011362124 -0.18198697 -0.052139245 -0.0010027755 -0.06364534 -0.31206176 0.16197777 -0.15252626 -0.26538423 0.112026535 -0.19781695 0.30990973 -0.119328715 -0.15693586 -0.029187784 -0.17915086 0.02898431 -0.17130548 0.100368135 -0.13180517 -0.051767062 -0.0597298 -0.0011709172 0.10594351 -0.039038733 -0.09667754 0.11493673 0.036152925 0.020590367 -0.0007619502 -0.029840775 0.011643188 -0.009702556 -7.808363e-06 0.003924238 -0.023457108 -0.010017198 0.039235238 -0.03476897 -0.03657204 0.035977345 -0.03464019 0.12221348 -0.07002195 0.0728688 -0.050772343 0.05345281 0.030969426 0.04607475 0.06872732 -0.01118847 -0.032757305 0.11443659
21 -0.0634029 0.11960956 -0.2787206 -0.046350252 0.10772515 -0.15197569 0.100615814 -0.06917842 0.043866325 0.015058257 -0.011909879 0.0552698 -0.06844297 0.11475221 -0.043755766 -0.013041722 -0.2008928 -0.007747691 -0.2697971 -0.088730775 0.1915884 0.020018939 0.3333748 0.08721133 -0.086206555 0.26209816 -0.21723025 -0.18458378 -0.29182196 -0.09215331 -0.15511969 0.11278989 -0.078784026 -0.007045736 0.06708994 -0.060134005 -0.03182505 0.17624941 0.012067999 0.057257053 -0.06952877 0.017899714 -0.01695308 0.0525972 0.011598709 -0.0076492317 -0.14136589 -0.007769951 0.08097225 -0.051104628 0.042835798 0.065217994 -0.0550679 0.011968148 -0.07188935 0.02766379 0.0070629735 0.045173846 0.005652734 0.042290766 0.16642088 -0.026552968 -0.005489974 0.0679785
16 0.11437166 0.3971734 -0.2159145 -0.427035 0.25270274 -0.06830552 0.51463115 -0.30600598 -0.36189088 -0.2236174 -0.020777471 0.017497215 -0.25496194 0.017483661 0.030512486 -0.034548122 -0.27432513 0.14237514 -0.15053625 -0.22203954 0.081621185 -0.18604001 0.2779286 -0.09576101 -0.16606203 -0.0039752433 -0.2984502 0.01119355 -0.18317991 0.17806455 -0.23406003 -0.064682044 -0.09663824 0.022526192 0.004423687 -0.06444819 -0.06388831 0.16528091 -0.00270276 0.09866624 0.049571186 0.03528737 0.053580195 -0.08104118 -0.07820786 0.009431387 -0.022214772 -0.010089165 -0.015052806 0.0007990068 -0.043867473 -0.006404572 0.0068860673 0.11923408 -0.009503938 0.046643734 -0.17360155 0.095014974 0.09109443 0.12574361 0.1695717 -0.027325934 -0.099844605 0.15502097
10 0.04370338 0.56072986 -0.17586087 -0.22029215 0.17260551 -0.02775649 0.27523422 -0.15749264 -0.14700396 -0.10965767 -0.035408303 0.061858725 -0.19309516 0.07689585 -0.004373174 -0.021598624 -0.20479906 0.049108993 -0.19164059 -0.091083035 0.203215 0.012599583 0.3519305 -0.0358607 -0.2509207 0.13371722 -0.19708075 -0.051520195 -0.13102788 -0.08115743 -0.26986915 -0.16103613 0.01852037 0.0154718375 -0.079358846 -0.093332 0.12860227 0.012768905 -0.038335983 0.0801202 0.07209161 -0.00873015 0.15318619 -0.19353232 -0.15527168 0.078239135 0.044324115 0.077255435 -0.0050600315 -0.0072915717 -0.07097831 0.005447328 -0.0083717825 0.09729861 -0.034280133 0.013065613 -0.09613489 0.07719282 0.14689828 0.1930975 0.37011316 0.016287025 -0.16919276 0.13190487
23 -0.008800978 0.25135785 -0.1751403 -0.09151613 0.105415896 -0.101136975 0.13402383 -0.080043025 0.07269955 -0.023215769 0.003486026 0.08066368 -0.08063941 0.06257122 -0.017841863 -0.01328648 -0.16352017 -0.009808881 -0.24713424 -0.0038061736 0.19511053 0.05495492 0.35903063 0.050210252 -0.1630916 0.30198455 -0.20236912 -0.2395567 -0.3312411 -0.08635207 -0.21128772 0.042791035 -0.08112488 0.019367266 0.021222385 -0.066205435 -0.06299899 0.14411551 0.0039005827 0.08446832 -0.063093826 -0.05318661 0.020175401 0.0036042805 -0.020687174 -0.008410614 -0.14111936 -0.013458208 0.085867204 -0.06327358 -0.029188292 0.06547252 -0.0691361 0.09354641 -0.11983387 0.10134092 -0.0062870057 0.041883856 0.024029505 0.08118748 0.19612351 -0.06482277 -0.047376405 0.11593865
11 0.24523821 0.2863335 -0.09129847 -0.20445015 0.20167005 -0.044988398 0.5244923 -0.2351855 -0.106331065 -0.059072252 -0.040896114 -0.016519215 -0.030061182 -0.114697985 0.029657723 -0.009363493 -0.34119153 0.1603231 -0.17736045 -0.44489384 0.1517632 -0.13023981 0.2527584 -0.08647356 -0.26976684 0.057534564 -0.11575839 0.075894654 -0.14952402 -0.2555598 -0.12873776 -0.120575584 0.077031024 -0.0070980447 0.12362727 -0.030174963 -0.06859741 -0.116161756 0.042288203 -0.0584245 -0.014056072 -0.03445686 -0.019412223 0.00773852 -0.01076265 -0.04763577 0.009088994 -0.02752737 0.043311592 -0.03336247 -0.035198063 0.04957562 -0.04425353 0.008298147 -0.06756195 -0.0642608 0.049661625 0.05220662 -0.12226258 -0.044433568 0.09002648 -0.15239802 0.12606108 0.09723205
22 0.0010191516 0.5002727 -0.27446055 -0.1530599 0.1814116 -0.0075994735 0.29125792 -0.18411328 -0.10122487 -0.12319135 -0.0189378 0.08879949 -0.2023841 0.06325194 -0.012688695 -0.035980046 -0.21276692 0.071317576 -0.15370463 -0.10484143 0.26620024 0.06381965 0.393578 -0.10954689 -0.18000008 0.12298638 -0.19512072 -0.058294088 -0.057060525 -0.015185491 -0.27235898 -0.15543984 0.018270427 0.01654593 -0.1249582 -0.07370544 0.15954249 0.005352691 -0.05303809 0.081700206 0.11219943 0.015956583 0.2082187 -0.26909292 -0.22297779 0.099534206 0.037352163 0.08631291 -0.004761035 -0.007915406 -0.07416847 0.0013263014 -0.007475861 0.110561244 -0.037074506 0.042414047 -0.16361168 0.10577844 0.10578348 0.17075711 0.36981836 -0.05221668 -0.11388786 0.1458542
0 -0.21781869 0.05544749 -0.52378577 -0.009820058 0.13047625 -0.37059408 -0.03698398 -0.011703849 0.15866165 0.14367117 0.030189369 -0.056967415 0.17467335 0.058930613 0.030098278 0.07626058 -0.21157423 0.09233851 -0.18357648 -0.18686448 0.059440922 -0.10362133 0.2289666 -0.026778009 -0.21232143 0.0011274487 -0.17715004 0.014875933 -0.21794145 0.046331547 -0.14853144 -0.07104531 0.0447751 -0.0077156913 0.056204896 0.0074828938 -0.024894288 -0.07489806 0.022390075 -0.048593912 0.062656485 -0.03401505 -0.016406102 -0.017116487 0.029977089 -0.0020457224 0.20662004 0.015043662 -0.056277543 0.029525738 -0.082299955 -0.023332233 0.02271633 -0.013919251 0.025323328 -0.14265543 -0.06889933 0.06962317 0.030402541 0.01377021 -0.16083609 0.062350925 -0.033587202 0.12871079
14 0.2444624 0.507329 -0.17627347 -0.43531454 0.2977685 -0.066156745 0.67687714 -0.34916994 -0.08541973 -0.08419096 -0.021605449 -0.0019283176 -0.029658852 -0.16045792 0.0377529 -0.020443464 -0.38231862 0.19663574 -0.21454619 -0.42324838 0.17871138 -0.13704534 0.36687246 -0.14416723 -0.13563825 -0.054191325 0.08578435 0.009800972 -0.13396922 -0.013821247 0.05090325 -0.0500141 0.03286847 -0.033631966 0.19725797 -0.065399185 -0.030084455 0.019652331 0.059382755 -0.049797103 -0.0545762 -0.10252577 -0.039148342 0.05067418 0.04070614 -0.050423548 -0.02166292 -0.036497075 0.04238658 -0.033795126 -0.022634942 0.05836041 -0.04198417 0.035348605 -0.0592029 -0.09534106 0.014249358 0.015073827 -0.10510466 -0.06834485 0.01500858 -0.12472661 0.12189235 0.027227221
8 0.08598848 0.51773816 -0.26556605 -0.4635233 0.29792053 -0.15605299 0.6389825 -0.45267183 -0.24778798 -0.2351927 0.008396858 0.050104234 -0.23525198 0.012739687 0.1192975 0.03433559 -0.30843434 0.15157747 -0.19460163 -0.2589102 0.13902353 -0.13791151 0.35078165 -0.11082333 -0.1279015 -0.14529786 -0.1391961 0.09241175 -0.13743299 0.21401127 -0.07692454 -0.063892975 -0.095146306 0.016403329 0.17589144 -0.15144914 -0.16899724 0.20611602 0.048474167 0.10158126 0.024262069 0.074726574 0.0055501135 -0.016353784 -0.04287315 -0.022345642 -0.11556202 -0.06042848 0.019436497 -0.013371885 0.052859902 0.021965105 -0.0016532921 0.09042799 0.004675918 0.027628208 2.1859218e-05 0.02452256 0.046181552 0.09684594 0.012424474 -0.030608451 -0.108821064 0.14559847
6 0.1409548 0.5985561 -0.31306607 -0.47553295 0.33914125 -0.16720973 0.7018502 -0.43894646 -0.115940556 -0.21318892 0.024716374 0.061178304 -0.14210962 -0.15875976 0.10211502 -0.0067571877 -0.35239002 0.14747618 -0.27324265 -0.32427612 0.22499646 -0.050285965 0.4395428 -0.09959573 -0.02542847 -0.15322751 0.07727107 0.04992278 -0.12643823 0.14838737 0.1288292 0.037477612 -0.010826953 -0.025117442 0.18862078 -0.06733111 -0.072563685 0.08085097 0.05556427 -0.018002432 -0.07232619 -0.057337534 -0.053491473 0.08148588 0.05787465 -0.039063938 -0.055069815 -0.02452089 0.08110542 -0.05692144 0.00514588 0.09191823 -0.06797294 0.017766308 -0.08775136 -0.11479268 0.037246637 -0.004924233 -0.0070888037 -0.008978494 0.0077786073 0.010839743 0.008698937 -0.0036409553
7 0.18083492 0.700482 -0.35493577 -0.47392407 0.37685877 -0.25515208 0.7492462 -0.4338179 -0.12683739 -0.20219593 0.0027419345 0.05706545 -0.1478423 -0.14055173 0.11245155 0.010036534 -0.3214377 0.15210405 -0.25139377 -0.2954808 0.18444462 -0.05408438 0.40638146 -0.11365746 -0.018419167 -0.21603388 0.08768867 0.054666452 -0.17617844 0.26387098 0.16417226 0.058337685 0.0008939579 -0.031819988 0.18339993 -0.07880397 -0.023475606 0.080787845 0.050930467 -0.018766712 -0.07637574 -0.048161175 -0.06483658 0.09811507 0.075425476 -0.034042474 -0.038521074 -0.014691096 0.09517546 -0.06464843 0.013699228 0.095512554 -0.07589926 0.011821001 -0.10049514 -0.074932866 0.0842005 -0.015037534 0.020508347 0.019093666 -0.022239989 0.052543566 -0.043571115 0.015426194
13 0.45269224 0.32592645 0.19092025 -0.19114137 0.16705933 -0.2802899 0.5140452 -0.12913658 -0.027865991 0.20467336 -0.15125757 -0.111792766 0.13552482 0.03576188 -0.027095968 0.053665396 -0.4024797 0.14435367 -0.32065162 -0.5823593 0.04673509 -0.23971319 0.18571089 0.07733875 -0.1634995 0.1097953 -0.046901897 -0.0069364966 -0.18761986 -0.26592827 -0.023704331 0.016725294 0.1058468 -0.035475735 0.1587326 -0.17596863 0.14590557 -0.026322361 0.028853044 -0.003698285 0.017856475 -0.09136876 -0.022885518 -0.032236557 -0.046672355 -0.09614637 0.17133665 -0.026671315 -0.098134175 0.07784596 0.018411754 -0.10451928 0.07902099 -0.19280806 0.12757501 -0.017997663 0.106903486 0.040304694 -0.23244375 -0.12426586 0.02512438 -0.25222388 0.23864564 0.09072888
