26 64
3 -0.506507 -0.12663081 -0.298683 -0.0333519 -0.1621222 0.092692256 -0.14754109 -0.06525254 0.3155994 0.03753447 0.19783655 0.24326314 0.2588476 -0.022070615 -0.037969917 -0.40508667 -0.14205128 0.09982663 0.18382831 0.00907235 -0.04673882 -0.013157626 0.07325766 0.0520557 0.31661898 0.16076834 0.02165376 -0.030569272 -0.1578483 0.009780583 -0.17819728 -0.11636517 0.064928174 0.17955163 0.16280605 -0.14477594 0.21586773 -0.21489954 0.12437249 0.23208128 0.1822355 -0.068526685 0.07911726 0.05243167 0.18555097 0.15795493 -0.20014296 0.09641532 0.15607597 -0.16493526 -0.021463817 -0.24195865 0.10506414 0.077792756 0.04120612 -0.16177596 0.3243918 0.005818546 0.17793213 -0.046944696 -0.073966496 -0.14785668 0.104418345 -0.04464371
25 -0.5035778 -0.095010266 -0.20503126 -0.024543636 -0.2108419 0.00027972792 -0.08389898 -0.011463203 0.2799245 0.10918137 0.1554487 0.22521508 0.1990962 -0.066252016 -0.0052021523 -0.39930633 -0.16190054 0.104701824 0.23624973 -0.050383948 -0.026810328 0.017586278 0.050248973 0.07544885 0.28241715 0.1277626 -0.0803793 -0.15885818 -0.08406735 -0.0013026098 -0.12206706 -0.0890917 0.11328409 0.14208868 0.20412348 -0.111628085 0.14683115 -0.13739353 0.17610803 0.2316785 0.23495188 -0.058940914 0.19318596 0.028830862 0.1771308 0.16433778 -0.15711917 0.019098518 0.12521407 -0.13666193 -0.014124142 -0.20299438 0.12361945 0.09092543 0.03139249 -0.17174351 0.30683622 -0.0046263793 0.12714817 -0.055997897 -0.06309267 -0.121705554 0.06232045 -0.075994276
19 -0.48040396 -0.11032285 -0.2321836 -0.027668694 -0.16993563 0.053590417 -0.10232168 -0.039143775 0.34743786 0.056539502 0.1881491 0.25168055 0.24799003 -0.008127137 -0.075011395 -0.44415957 -0.1595548 0.088949844 0.21246582 -0.031788737 -0.085759364 0.004566905 0.062612675 0.056034207 0.32977048 0.1562001 -0.07910258 -0.11328795 -0.10938295 0.06518546 -0.13540749 -0.111595616 0.08518414 0.1090136 0.22348619 -0.16077901 0.17717154 -0.18910277 0.09579172 0.22767179 0.14624898 -0.016266478 0.08450258 0.07847402 0.13511658 0.14105576 -0.14005555 0.078353524 0.1552127 -0.15325248 -0.036250677 -0.20154028 0.12265154 0.068187 0.032146305 -0.16383214 0.3834917 -0.04856652 0.14059773 0.048189253 -0.1042544 -0.11144722 0.099353306 -0.018841123
2 -0.35010773 -0.06325042 -0.20107709 -0.107734986 -0.21723343 -0.10213979 9.497713e-05 0.00868295 0.25464827 0.039814714 0.04598255 0.18957098 0.19606853 -0.024775915 -0.034898035 -0.35360977 -0.19755824 0.09587352 0.24059781 0.005672725 -0.0062784078 -0.027710436 0.078105204 0.1002368 0.26106584 0.115008764 -0.03558592 -0.16885313 -0.04812425 0.026046842 -0.20173955 -0.09883456 0.07236414 0.10950544 0.13648562 -0.06616531 0.14171338 -0.10356218 0.110685416 0.15364566 0.2406253 -0.015102084 0.17626294 0.008378091 0.14822887 0.09100269 -0.1581496 0.008878467 0.11503249 -0.10638475 -0.01927823 -0.17381418 0.16468908 0.106779285 0.029271323 -0.16958687 0.25006998 0.07605221 0.1358908 -0.15261275 0.0056026564 -0.0777822 0.07412189 -0.09853702
17 -0.42557997 -0.4617193 0.12121096 -0.4593533 0.14406005 -0.27016652 -0.17053999 -0.35738426 0.011858013 -0.23695746 0.093676805 -0.03614725 0.04977343 0.15615 -0.115369655 -0.19415937 -0.108269304 -0.045242768 0.06921743 0.035263296 0.043811865 -0.06259973 0.019573618 0.10206055 0.16399819 0.07581601 -0.01826722 -0.090484545 0.060002968 -0.03538597 -0.0800121 -0.0013293201 0.07937333 0.06116071 -0.18525298 0.1616159 0.067835115 0.1656102 0.097110614 -0.10799585 0.07683756 0.060886297 0.05147987 -0.17321692 -0.15492576 -0.0990719 0.24747339 -0.15079705 -0.044370603 0.028576292 0.029591603 0.06543619 -0.109380156 -0.053677943 0.017095707 0.092325136 0.1295741 0.22385104 -0.05724145 0.033468492 0.35352007 -0.10223126 0.08706452 -0.27919215
5 -0.29754978 -0.59485316 0.1852745 -0.55619764 0.2497215 -0.39912826 -0.23669946 -0.38086292 0.08817964 -0.29686183 0.10726684 0.03957569 0.13153346 0.13743989 -0.11459527 -0.13483699 -0.011724139 -0.0013301788 -0.024278663 0.107686095 0.067262635 -0.06882613 0.02437207 0.07401462 0.23825486 0.112349175 -0.029961288 -0.15148555 0.17114194 -0.13329832 -0.14899932 0.039532095 0.03134035 0.045663945 -0.13045835 0.13472126 0.050502185 0.118650384 0.06811362 -0.08291388 0.053774722 -0.23389323 0.13517752 -0.2354835 0.0029806981 -0.005346208 0.19738322 -0.19227114 -0.10770872 0.017881302 0.09921012 -0.010363269 -0.27575296 -0.07330601 0.018932424 0.14971791 0.07082264 0.099761814 -0.121027745 -0.036225725 0.31980857 0.038613524 0.041802093 -0.30302933
15 -0.37055776 -0.4369849 0.076286405 -0.40680796 0.1920636 -0.1490915 -0.15624851 -0.3846832 0.07872835 -0.18716832 0.07813552 0.032918796 0.14397223 0.15653218 -0.042876743 -0.19969879 -0.108512685 -0.08601965 0.02971663 0.042719394 -0.05529551 -0.075555414 0.035129223 0.049071543 0.21454336 0.09693786 -0.028577644 -0.12542318 0.10043297 0.0013402331 -0.06272691 0.014964389 0.11767159 -0.091872774 -0.09769104 0.13901564 0.042343188 0.2322668 0.026785094 -0.14479153 0.022079185 0.03141832 0.066920534 -0.15206584 -0.12876168 -0.08571709 0.26696438 -0.14811464 -0.05394165 0.011662303 0.036530025 0.058375724 -0.17832246 -0.08640078 0.007716433 0.108806305 0.14072831 0.30051303 -0.0010610765 -0.062133607 0.34794363 -0.03111126 0.08565047 -0.30998278
12 -0.23410764 -0.25397134 0.01868275 -0.2575556 0.02412319 -0.12464167 0.07321897 -0.1503128 0.2218958 -0.06394111 0.043157693 0.061487388 0.116070814 0.14409919 -0.15033622 -0.18067205 -0.09750773 -0.026144534 0.042722844 0.07363757 -0.025423955 -0.07518822 0.053888243 0.04813623 0.23939094 0.11207184 -0.09805841 -0.12126073 0.034153324 0.05849208 -0.20408839 -0.03971736 -0.0043327636 0.018215543 -0.20059972 0.13319717 0.03082075 0.124177754 0.0076628616 -0.13619657 0.04717447 0.036030862 0.08921643 -0.18107685 -0.1296275 -0.11223922 0.23016597 -0.16537665 -0.06438218 0.0680208 0.026931636 0.06742657 -0.022655291 0.0009929594 0.0010300723 0.056778226 0.25165316 0.17231223 0.040875845 -0.04333514 0.34789324 -0.11022428 0.029613396 -0.2954244
20 -0.37273115 -0.557227 0.15604404 -0.39376393 0.2871561 -0.23130241 -0.25095055 -0.47687852 0.027480092 -0.34014666 0.083110675 0.007837652 0.07440255 0.12801613 -0.12998217 -0.15692315 -0.12504603 -0.013163356 0.09691667 0.06622336 0.10345196 -0.07815619 0.030667692 0.14555222 0.3046251 0.15079218 -0.07196794 -0.107890666 0.17696333 -0.0793945 -0.08898241 0.100267135 0.03854801 0.037858173 -0.15784828 0.1850095 0.019786326 0.16891164 0.0689389 -0.12075793 0.0981586 -0.0899499 0.11992674 -0.16687277 -0.037768092 -0.032013193 0.17758025 -0.14266686 -0.07609267 0.028150817 0.061095927 0.04864845 -0.1656449 -0.054813046 0.018590651 0.10429364 0.03801802 0.18405356 -0.1931081 0.030055407 0.42728037 0.076581284 0.050094783 -0.3667812
4 -0.51174456 -0.10326412 -0.35400656 -0.09855047 -0.19718051 0.12295415 -0.089771055 -0.04055248 0.34113574 0.08490428 0.16066514 0.26315016 0.3202781 0.020603586 -0.081538916 -0.47487777 -0.14908127 0.103558876 0.17793386 0.006982584 -0.15081641 -0.0095320335 0.10131494 -0.016883787 0.31764242 0.1583071 0.030329192 -0.025917387 -0.113699995 0.09217729 -0.16820721 -0.113968454 0.07891042 0.069059655 0.22912277 -0.1605185 0.18803966 -0.18036343 0.04792606 0.20015445 0.2208349 -0.025151085 0.17093842 0.06810301 0.16957504 0.1724988 -0.16046432 0.057562128 0.18936777 -0.19656053 -0.027661283 -0.24714372 0.11492648 0.0735452 0.060571842 -0.1796873 0.33069065 -0.090013646 0.08120113 0.10083755 -0.07623569 -0.07084806 0.06360601 0.00934076
18 -0.43073565 -0.1309709 -0.28404477 -0.010995519 -0.11991965 0.12336454 -0.1239346 -0.062259577 0.29383814 0.01957825 0.21281005 0.22276157 0.25024852 0.015257359 -0.12222105 -0.4306263 -0.18626301 0.12495673 0.22235982 0.04788926 -0.11366717 -0.038726967 0.11377093 0.062172543 0.35528755 0.17944562 -0.04324128 -0.031469412 -0.09356658 0.057448428 -0.18209587 -0.11812398 0.06977882 0.06105228 0.19134407 -0.19298235 0.19039607 -0.19124223 0.041012205 0.19569893 0.19953091 -0.07223672 0.18203583 0.06271948 0.17549443 0.19644591 -0.12526338 0.054053217 0.18948588 -0.20971426 -0.018337825 -0.28169033 0.089066036 0.073232174 0.061458807 -0.17698382 0.40345508 -0.036655348 0.1689391 0.11592108 -0.10599589 -0.13637577 0.076499924 0.0007653635
24 -0.3633656 -0.09067788 -0.09912452 -0.05424031 -0.14874502 -0.039820384 0.016943948 -0.024807854 0.3339656 0.07130881 0.09330585 0.21566807 0.20047574 0.012317326 0.04153903 -0.42296395 -0.22603238 0.052545525 0.2716992 -0.07515092 -0.03861316 0.0015336293 0.05324143 0.08893726 0.19527365 0.08100679 -0.040950734 -0.1765606 -0.11193924 0.004855907 -0.21790913 -0.13198651 0.056966823 0.19633275 0.08998942 -0.048100375 0.09620939 -0.12087468 0.18550293 0.18475518 0.28099364 -0.043259263 0.14274026 -0.039562386 0.16674417 0.05109605 -0.19764526 0.026272736 0.12159128 -0.107584015 -0.028656086 -0.1962418 0.18848358 0.11930224 0.017439341 -0.186358 0.2083222 0.009924517 0.07694066 -0.077480756 0.024459422 -0.014621916 0.07787298 -0.107351676
16 -0.3996196 -0.5520552 0.1087603 -0.45889235 0.23154011 -0.2991946 -0.23397575 -0.47021687 -0.011120318 -0.33562803 0.013402259 -0.023835296 0.08732512 0.120774455 -0.10063565 -0.14066285 -0.12703826 -0.041109525 0.08551588 0.0522927 0.1149481 -0.078346804 0.0225942 0.13246286 0.2956281 0.14133911 -0.079288125 -0.1435686 0.2286114 -0.07330959 -0.076963864 0.122669674 0.08339166 0.011061263 -0.14501859 0.19284442 0.053866375 0.20916642 0.082479596 -0.13014673 0.062372386 -0.10977406 0.10991073 -0.19490175 -0.028178705 0.041604802 0.20810768 -0.16420086 -0.086678386 0.035869237 0.05947943 0.061013244 -0.15438633 -0.04979615 0.0077394615 0.09094179 0.11039056 0.10704277 -0.15061846 -0.021406904 0.3559334 0.09849734 0.023494152 -0.33200517
9 -0.2301714 -0.1223857 -0.14704645 -0.11811819 -0.15716021 -0.19389464 0.048183173 -0.022486055 0.18028441 0.007306366 0.055569753 0.060000174 0.025639936 0.02561105 -0.024520913 -0.25701007 -0.2360152 -0.0035882303 0.2374442 -0.02228226 -0.025899678 -0.048472174 0.05088444 0.14433318 0.2034484 0.07089476 0.0121891145 -0.31215426 -0.04662971 -0.1477259 -0.22663152 -0.11418962 0.04585919 0.0037470441 -0.08574074 -0.0066692224 0.017931173 0.05418932 0.06794886 -0.014397621 0.11705973 0.031794623 0.1397141 -0.06356511 -0.0011630878 0.000763559 0.04907878 -0.068726815 0.030721638 -0.03947189 -0.0017492988 -0.064830154 0.018674325 0.020484796 0.004504855 -0.042269457 0.15540436 0.2600714 0.17592905 -0.1357451 0.09243807 -0.12639455 0.12817483 -0.14667189
21 -0.18291563 -0.07532039 -0.20527437 -0.045811206 -0.18021001 -0.18074664 0.016716031 0.0075416625 0.25617218 -0.044980105 0.046696078 0.12751518 0.10648569 0.003640434 -0.08581804 -0.28100258 -0.21539198 0.05177873 0.22410177 0.0581166 0.049817 -0.07733359 0.07274386 0.1779309 0.2580599 0.10747912 -0.06513746 -0.24500324 -0.07435339 -0.0135592 -0.28162652 -0.12440312 -0.017451862 0.12378255 -0.042826306 -0.011794039 0.084000066 -0.07144492 0.081482 0.060320463 0.14880326 -0.08091309 0.11610315 -0.030072505 0.15172505 0.05578403 -0.14621297 0.0015022042 0.012103974 -0.0141953975 0.0075504496 -0.108230196 0.11921275 0.10322829 -0.0100749275 -0.10890747 0.21093063 0.14180936 0.22642201 -0.29086146 0.055888314 -0.11377587 0.061929554 -0.16105741
10 -0.46708304 -0.3583657 -0.005842813 -0.30223244 -0.01515872 -0.085536614 0.033583034 -0.14139614 0.11162282 -0.15537086 0.0766491 -0.044441678 -0.041947067 0.18565741 -0.2422639 -0.14584003 -0.10417528 0.038262222 0.134943 -0.021519318 -0.011428862 -0.003167503 0.02509889 0.064736664 0.02611575 0.0061707194 -0.19549973 -0.06524814 0.052174617 0.13284186 -0.23399599 -0.11470332 0.02024161 0.088389724 -0.21704283 0.13150358 -0.09308663 0.12403602 0.10029823 -0.08625711 0.083836004 0.0020813157 0.08636647 -0.21884762 -0.1910856 -0.10916108 0.2862498 -0.20573477 0.0029186588 0.021496156 0.0123876985 0.061419908 -0.055119082 -0.042661082 0.050242618 0.10022662 0.20558265 0.21197695 0.02420878 0.05202008 0.30019516 -0.20991334 0.122873634 -0.25154936
1 -0.46856672 -0.1958126 -0.21821232 0.007640361 -0.16149597 0.0407348 0.04845417 -0.035872523 0.33783138 0.077599615 0.19862424 0.21298951 0.16637851 -0.0075379405 0.056497645 -0.38966656 -0.19094165 0.011043194 0.2320705 -0.11139627 -0.04180374 0.020491 0.017513288 0.08157349 0.2759039 0.13337299 -0.05688796 -0.10363723 -0.13751255 -0.0026034545 -0.1627048 -0.12370475 0.06809908 0.22631663 0.22048408 -0.081991404 0.1960211 -0.20122142 0.18409164 0.26230925 0.21662162 -0.07222939 0.08569012 -0.0023268722 0.19276269 0.13436715 -0.18408014 0.06826356 0.16178377 -0.17725128 -0.02283257 -0.24866532 0.07059471 0.056541815 0.041158065 -0.14606342 0.32177648 0.017459465 0.119842224 -0.05685693 -0.03488686 -0.0459001 0.1324043 -0.11238203
8 -0.26076877 -0.5628763 0.13529877 -0.4846414 0.28823495 -0.41604835 -0.2661958 -0.5316996 0.09220068 -0.32744142 0.09656973 -0.020041931 0.10106073 0.19834833 -0.1927146 -0.1774491 -0.036187313 -0.06691856 -0.058395274 0.14448974 0.040400933 -0.11415792 0.036222756 0.07937389 0.25911856 0.100950174 -0.015033096 -0.30842036 0.19767575 -0.053588048 -0.09596018 0.11289501 0.046032306 0.15492408 -0.10094931 0.19640322 0.061175637 0.11579015 0.18827811 -0.023192344 0.07803533 -0.10314351 0.18946208 -0.12218551 0.03910882 0.15537573 0.13308421 -0.17943832 -0.08167663 -0.020694973 0.10942899 0.078701094 -0.33103943 -0.12875986 0.074023254 0.17052618 0.021867715 0.09219377 -0.16344084 -0.013583828 0.37387013 0.0065291957 -0.068376824 -0.32001802
6 -0.14666174 -0.49730855 0.077348396 -0.5832965 0.23204397 -0.39659643 -0.23270021 -0.36465496 0.3393926 -0.3363958 0.03745642 0.108003706 0.15902144 0.21912731 -0.30573758 -0.050529435 0.10539198 -0.026950236 -0.14078632 0.05405219 -0.114248686 -0.008565248 -0.004724896 -0.05487704 0.21942914 0.07156105 -0.038555216 -0.3920099 0.18595482 -0.10505003 -0.120224714 0.06874291 0.037899695 0.114656426 0.10654833 0.038684834 -0.0642521 0.0072794505 0.22709982 0.13625446 0.08109858 -0.21263453 0.3080971 -0.19900046 0.053355254 0.18202654 0.17759721 -0.27822816 -0.1678981 0.030682487 0.15058953 0.14529985 -0.46553436 -0.18055087 0.06394273 0.2663032 0.0490997 0.14948045 -0.20452663 -0.053591557 0.5249476 -0.054809596 -0.084586464 -0.44824764
23 -0.15204848 -0.04274002 -0.13938336 -0.1712727 -0.1496454 -0.14298686 -0.07700892 0.0804983 0.14692202 0.08526157 0.14662933 0.07740982 0.038674343 0.012729593 -0.106819965 -0.32614312 -0.22607827 0.13452555 0.26668388 0.08791438 -0.03299622 -0.0724975 0.11698737 0.15723772 0.16052996 0.048037466 0.0040362524 -0.29454383 -0.08730072 -0.08417918 -0.2495423 -0.15846743 0.022132114 -0.010764556 -0.09888229 0.0006563044 -0.060432594 0.062343698 0.04873207 -0.03092724 0.18363102 -0.062230628 0.2575384 -0.001720679 0.09402242 -0.023502557 -0.071761 -0.06736181 -0.038685504 0.019036 0.029407524 -0.054337513 0.06386113 0.08178162 -0.016251713 -0.06943332 0.15184365 0.20628777 0.17070724 -0.246641 0.1466771 -0.12573212 0.06743095 -0.22689256
0 -0.48775482 -0.2039628 -0.35485932 -0.05601867 -0.13946135 0.13341074 -0.08596958 -0.056048058 0.27613503 0.2058546 0.29544473 0.22419031 0.2322895 -0.042259075 -0.11176372 -0.44785526 -0.1319136 0.1422607 0.1737336 0.05710938 -0.10192029 -0.025585791 0.1091506 0.020104185 0.45063514 0.23301831 -0.037673187 0.002738717 -0.11992974 0.06011175 -0.13309582 -0.11250357 0.027690943 0.04124596 0.2078818 -0.2194669 0.2092777 -0.237468 -0.026164768 0.19032711 0.15572023 -0.0653462 0.26405722 0.1474661 0.17308307 0.21321084 -0.10911528 0.021344755 0.1689025 -0.2079446 0.009301676 -0.28114226 0.04054274 0.06687162 0.0775093 -0.1513167 0.31675377 -0.09727222 0.062078174 0.10864064 -0.10361486 -0.1327941 0.04291959 -0.0058741462
11 -0.17012998 -0.21407281 0.20641603 -0.32772776 0.1355256 -0.21562026 -0.08023708 -0.26454738 0.54746795 -0.1668099 -0.12375222 0.2963038 0.38449836 0.04178326 -0.12431684 -0.19824205 0.014662563 0.06184537 0.046100672 -0.09119889 -0.033484396 0.07649222 -0.0068319105 -0.07649786 0.060342494 0.020083224 0.14248736 -0.121549815 -0.014524893 -0.10123049 -0.22382973 -0.03498088 0.05511217 -0.19558437 0.12114106 0.22162144 0.057265386 0.2371424 -0.10150618 -0.16827632 0.05556964 -0.109269954 0.1216152 -0.28650498 -0.048652217 -0.03505476 0.3095962 -0.20609696 -0.13600273 0.026673356 0.10308145 0.05842192 -0.45383823 -0.19026278 0.014585986 0.2794783 0.18569802 0.29926434 0.1559099 0.07159802 0.42860648 -0.19335563 -0.03361437 -0.33289367
14 -0.18781862 -0.45805463 0.11765691 -0.49427658 0.18618335 -0.26832995 -0.096920155 -0.2495563 0.48157302 -0.2926791 0.11995186 0.24612688 0.3192016 0.21450303 -0.21846859 -0.16379423 0.08008629 -0.08098299 -0.16655448 0.08275695 -0.124668546 -0.046946406 0.0073998817 -0.05447281 0.2251317 0.10678697 0.08958576 -0.15376896 0.1762144 -0.20715795 -0.070160754 0.14445676 0.07873941 -0.057837777 0.11410017 0.12117589 -0.007325035 0.15039404 0.09034745 -0.012868041 0.12336304 -0.22293891 0.20438105 -0.26683697 0.08402322 0.04659451 0.12927462 -0.19208062 -0.2865978 0.1346356 0.15072468 0.1413838 -0.4503782 -0.14314897 -0.050420903 0.25829944 -0.016910283 0.2464714 -0.020003812 0.08156741 0.45199284 -0.09527708 -0.149974 -0.30274072
22 -0.50516766 -0.38364524 0.061345257 -0.29625735 0.021008657 -0.10684844 0.047139633 -0.2220335 0.112119414 -0.15688676 0.06525458 -0.05178393 -0.045555774 0.23218061 -0.19245696 -0.17823775 -0.14652129 -0.069660544 0.11671765 -0.041722897 -0.09943409 -0.029855622 0.016117252 0.07033888 0.10248316 0.03105671 -0.24811609 -0.18431175 0.08294731 0.110886514 -0.22745588 -0.13393323 0.09227536 0.05983417 -0.24717946 0.037187144 -0.14386901 0.14910975 0.18096033 -0.045728803 0.009854643 0.0812043 0.008667687 -0.2487554 -0.29412514 -0.13346983 0.35430768 -0.21922313 0.003807238 0.039627783 -0.015269424 0.11345671 -0.016323034 -0.05141093 0.029833129 0.08875332 0.08515751 0.32701764 0.02063747 0.18987423 0.23618288 -0.26148957 0.14500459 -0.103551015
7 -0.278323 -0.5743424 0.13858028 -0.42619267 0.22237876 -0.47577983 -0.19274122 -0.4635829 0.41948134 -0.39163527 0.11927461 0.16126482 0.13953854 0.2789401 -0.29876068 0.025866017 0.15083016 -0.09433383 -0.2825989 0.19341137 -0.14238362 -0.09733795 0.021779673 -0.055486333 0.13801046 0.023226699 -0.06896031 -0.45555782 0.21179499 -0.14721695 -0.10300616 0.16497077 0.071059175 0.16520353 -0.09153161 0.05202373 -0.16132666 0.086118035 0.33642727 0.10074031 0.09655356 -0.16596356 0.36643803 -0.07236983 0.04877844 0.28891376 0.16568312 -0.25154442 -0.019735046 -0.09775488 0.11087916 0.10164593 -0.43982565 -0.21359603 0.13501538 0.22109754 0.021993414 0.14175999 -0.16544786 -0.106470235 0.3887035 -0.10684758 -0.055363 -0.40314415
13 -0.24234644 -0.08993144 0.45287117 -0.20205732 0.15718912 -0.16183428 0.012317869 -0.33665147 0.69367266 -0.073452264 -0.23250267 0.4328482 0.57850254 -0.04131183 -0.10213907 -0.22355714 0.039151315 0.11904788 0.042661365 -0.063490726 0.057480354 0.080226414 0.0037923881 -0.08789408 0.1839568 0.08088099 0.0130783245 -0.14555666 0.041314386 0.08016568 -0.23119153 0.047701143 0.21119227 -0.27558756 0.2926805 0.5337574 0.14274983 0.5128626 -0.07569492 -0.2851321 0.12015051 -0.06387104 0.11117321 -0.317802 0.0064137625 0.033450313 0.25267446 -0.19453058 -0.21158294 0.10180656 0.12046033 0.19714935 -0.4810014 -0.21430324 0.0061556185 0.33017662 0.15409842 0.3538487 0.2975647 0.04225021 0.39006925 -0.2964427 -0.26204512 -0.27772903
