26 64
25 0.24056779 0.07209992 -0.049308438 0.0799952 -0.0054721157 0.17336698 0.007877788 0.007916594 -0.17498021 0.17367698 0.004825367 0.35852745 -0.009434956 0.15018596 -0.0281373 0.052227546 -0.053446427 -0.014721568 -0.1121369 -0.06235086 -0.012684843 -0.14255293 0.16142972 0.027245255 0.07357615 -0.31113675 -0.23721905 0.1860042 0.23721111 0.032289203 0.17971575 -0.24906959 -0.01462066 0.027615344 0.016786013 0.0054085245 -0.06042119 0.019416267 -0.022197595 0.0074248174 0.0014997604 -0.0010042564 -0.0006950807 0.0014615608 -0.0061190273 0.018609531 -0.0110591035 0.0032556856 0.029326262 -0.010848997 0.017341768 -0.011084438 -0.033690453 -0.029406667 0.028645428 0.018035308 -0.026538858 -0.0032222487 0.012295189 -0.010502791 0.08274413 -0.07233534 -0.033755302 -0.043237276
3 0.3355877 0.03763731 -0.06532871 0.07472716 -0.029210432 0.29685262 0.039518196 0.02983649 -0.15136608 0.12868741 -0.02508046 0.34491113 -0.049674053 0.1547787 -0.02180243 0.068536445 -0.02884982 -0.018747099 -0.09337553 -0.0840456 -0.052372597 -0.09888148 0.094813175 0.025131876 0.07298145 -0.33562666 -0.16271241 0.151966 0.25003412 0.066544436 0.1524897 -0.2569274 0.066546395 -0.0086794915 0.043882363 -0.012066848 -0.049787387 0.00411008 -0.052257694 0.044780254 -0.017511958 -0.023928436 -0.036826916 -0.006328141 0.03628402 -0.004706419 0.007166209 0.00017755188 0.06997332 0.014865732 0.07261709 -0.03396991 -0.07399759 -0.027154395 -0.0028790457 0.056225248 -0.014841968 0.0034580159 -0.009878765 0.0057129813 0.13685519 -0.060167316 -0.07183373 -0.038181163
24 0.11007545 0.065037616 -0.046156757 0.079424605 -0.0042098095 0.098689355 0.07306872 0.005791253 -0.1490906 0.1753135 0.09361551 0.35407525 -0.028978406 0.051608197 -0.049175512 0.041743528 -0.019337341 0.016928298 -0.04280084 0.036245603 -0.034644 -0.14837359 0.1273212 -0.003442513 0.05460562 -0.36961147 -0.217841 0.17881131 0.2847829 0.06556159 0.14719847 -0.31339395 -0.029872417 0.04658335 -0.037490416 0.00487585 -0.02553033 0.054526255 -0.014040285 -0.03316779 0.009296902 0.030338539 -0.0033080366 -0.022351973 -0.0080567105 0.07794635 0.011907621 0.041115426 0.0031952683 0.0145920515 0.061600693 0.009610105 -0.06473351 0.033418026 -0.024305448 0.03318729 -0.0069265296 -0.016996566 0.029404571 -0.05712038 -0.00063278625 -0.010467919 -0.086924195 -0.024918798
19 0.3039541 0.05964085 -0.041582808 0.05289669 0.039438657 0.28715888 0.013775377 0.11292174 -0.10164874 0.14895402 -0.0380269 0.27647698 0.0054424806 0.16588943 -0.014281109 0.03131765 -0.060591504 0.010910804 -0.08750668 -0.089425586 -0.04457414 -0.086857565 0.09799209 0.049820907 0.055050083 -0.2944667 -0.23877814 0.17665765 0.22249748 0.07106753 0.21190362 -0.30872118 0.041642673 0.07492654 0.033051692 -0.020105515 -0.07711024 0.03427506 -0.044178255 0.034071926 0.008576211 -0.032183267 -0.022680622 0.019821623 0.010039686 -0.017703705 0.007403044 0.01819841 0.08512339 -0.024888277 0.060482815 -0.04544662 -0.036032062 -0.07159872 0.034515202 0.054759946 -0.029786464 0.022016313 0.020870902 -0.014463044 0.15821476 -0.11875691 -0.08352944 -0.05836975
2 0.23927437 0.016320243 -0.07353204 0.17288807 0.0077549107 0.10039778 0.043207638 -0.023985008 -0.1475893 0.16552894 0.023641864 0.39120176 -0.043131508 0.12082775 -0.08000979 0.02349031 -0.044317935 0.01267531 -0.08020758 -0.016498474 -0.04148921 -0.16000405 0.15069647 0.024173709 0.122356825 -0.35865828 -0.20150954 0.14716978 0.24508072 0.033649262 0.1738143 -0.24219245 0.021830628 0.078844726 0.0058442457 0.0068452475 -0.02308386 0.0033072676 -0.00876228 -0.034099463 0.016929366 -0.0066927695 -0.030559048 -0.00050431635 -0.023390876 0.027260521 -0.0047179027 0.029162293 -0.0015910518 0.005037233 0.008610635 0.0008118466 -0.02753447 0.006430825 -0.0054126442 0.005627361 0.022932768 0.023706857 0.028549224 -0.0056273425 -0.009659232 0.031265046 -0.021062475 0.0039129397
12 -0.03771434 0.26425606 -0.0022443677 0.052706283 -0.044957824 -0.049631298 0.084605284 0.09328118 0.21280299 0.08502417 0.03824497 0.298209 -0.17824928 -0.016424807 -0.10128111 -0.05384398 -0.06365251 -0.00303458 -0.074354395 -0.021741329 0.056200862 -0.095281206 0.14304586 0.026925268 0.11656351 -0.41691482 -0.30239606 0.1703202 0.28391403 0.13259366 0.26678318 -0.36473542 -0.10092948 -0.17442992 -0.08693132 0.0012271974 0.117485605 0.012425239 0.05618469 0.0033234253 -0.03973095 0.094344184 0.14621505 -0.027639158 0.0013403809 -0.0011350724 -0.021355297 -0.097087376 -0.07784146 -0.006781065 -0.0044872053 0.0041775247 0.11257413 0.07282635 -0.12259432 -0.020891722 0.019580271 -0.08378455 -0.014869848 0.010107848 -0.1317959 0.15300336 0.069207855 0.0144805005
15 -0.09032054 0.3300382 0.022858407 0.039673112 -0.011410963 0.0022087337 0.1204513 0.13535704 0.28826207 0.011462467 0.08574591 0.18313879 -0.21918027 -0.11817139 -0.06730195 -0.025818963 -0.07981043 -0.040089123 -0.113090254 -0.039364494 0.14346224 -0.08279065 0.19621143 -0.0006020005 0.10930631 -0.47607788 -0.2975199 0.11899283 0.30316094 0.13958634 0.22967178 -0.5163898 -0.10688445 -0.15862359 -0.048266616 0.027374791 0.0019072996 0.038409263 -0.0042857733 0.003214385 -0.059099942 0.07622364 0.02791305 -0.078291275 0.04052847 0.0676453 -0.00033384867 -0.049900435 -0.056899704 0.047138616 0.059190456 0.019551242 0.042318493 0.11936459 -0.14561658 0.011620455 0.0077409926 -0.122097924 -0.083082676 0.03042302 -0.112969086 0.12968943 0.1348299 0.10433252
1 0.14670363 0.012341803 -0.0061752475 0.04377822 -0.0861048 0.12424188 0.08411332 0.12444628 -0.13792053 0.162539 0.08745982 0.3202525 -0.020692123 0.059002634 -0.054783314 0.043881617 -0.021114958 0.035260614 -0.05977336 -0.014568907 -0.1347225 -0.1762962 0.110164985 0.026982047 0.057259433 -0.3780076 -0.17439437 0.19263516 0.2976861 0.038876586 0.13498521 -0.30369008 0.013182267 0.07910185 -0.010257984 0.007607632 -0.09216794 0.07548995 -0.06743034 -0.027075388 0.0051008123 -0.0068353303 0.010657369 0.012420722 0.017025348 -0.044490058 0.030286403 0.0047951457 0.07080881 -0.021425791 0.06487708 -0.056971636 -0.029747251 -0.056051254 -0.011813601 0.0565541 -0.015821246 -0.03999137 0.07311013 -0.06437476 0.058529146 -0.03639389 -0.06032355 -0.031163484
17 -0.10647091 0.21850003 0.006527385 0.04280269 -0.04288319 -0.026418757 0.15919508 0.12281596 0.36401004 -0.024290863 0.08250789 0.21104175 -0.28270942 -0.14150606 -0.15219325 -0.07131053 -0.0906316 -0.04456167 -0.1335333 -0.11193987 0.10833541 -0.057273548 0.16186467 0.041282915 0.12916322 -0.49026126 -0.29165825 0.13741532 0.31375915 0.13900143 0.25894752 -0.49848986 -0.10518646 -0.20105238 -0.046731796 0.054540645 -0.038776767 0.054206915 -0.04913802 -0.016532084 -0.065678135 0.07820382 0.061731786 -0.06786579 0.058189914 -0.042992055 0.032607965 -0.0900588 -0.03566825 0.028103368 0.0531615 -0.023999168 0.10526407 0.083850764 -0.17758393 0.016416678 0.03646681 -0.074625336 -0.04957836 0.06311294 -0.047025025 0.15108204 0.12388239 0.08572784
20 -0.056862164 0.28347898 -0.0077418606 0.029874355 -0.13898453 -0.020025223 0.18481241 0.15340179 0.392807 -0.015373679 0.1637133 0.22943182 -0.30921564 -0.20731133 -0.18867235 -0.067429066 -0.109921254 -0.12025599 -0.24210122 -0.2305883 0.14140294 -0.084172994 0.22807486 0.06646065 0.037201133 -0.4219001 -0.29082888 0.17399469 0.30977502 0.173339 0.24073358 -0.50769925 -0.055028334 -0.09693638 -0.003060446 0.057783138 -0.046168663 0.002919841 -0.033380825 -0.041330907 -0.069944 0.053564817 -0.015012565 -0.08465157 0.033705093 0.018322963 -0.016347382 -0.08106165 -0.021560898 0.02456338 0.02138886 -0.01884153 0.0030175578 0.043258205 -0.09783053 0.009390529 0.033019204 -0.10792862 -0.045948308 0.05432324 -0.11469298 0.1853795 0.16328059 0.08860511
9 0.11173891 0.07736567 -0.04571762 0.20957261 0.05062683 0.06129399 0.11736424 0.016192557 0.055655435 0.073982045 0.043164536 0.2795285 -0.12368275 0.0074535473 -0.117243886 -0.028869795 -0.057819363 0.02424901 -0.060268607 -0.012490573 -0.007802599 -0.118874416 0.1300237 0.03126132 0.16498736 -0.4656472 -0.1904913 0.105058484 0.2966395 0.14799449 0.21290384 -0.2920525 -0.054651327 -0.04892149 -0.100659214 0.017663741 0.07782671 0.045359883 0.0183792 -0.07420575 -0.0037553296 0.0401156 0.06736901 -0.0028906583 -0.012231663 0.010428629 -0.008879927 -0.025154749 -0.11815875 0.019997878 -0.03206379 0.047807645 0.109793104 0.119297676 -0.11311407 -0.050277013 0.05104201 -0.05156589 0.03925423 -0.054520983 -0.18283938 0.15721136 0.03237071 0.10420052
5 -0.00023074145 0.3809814 -0.057680998 0.04379705 -0.14738315 -0.07147858 0.15957208 0.14495605 0.36369932 -0.05348791 0.22572307 0.22272496 -0.34849963 -0.28767434 -0.20138156 -0.044099823 -0.1219324 -0.08851394 -0.22780015 -0.17988989 0.14161879 -0.1212269 0.2680505 0.046916764 0.0749766 -0.47289017 -0.23954092 0.19231966 0.35391706 0.1794436 0.23373978 -0.40984297 -0.04333055 -0.015693324 0.0077500814 0.0255583 -0.07932475 0.031927634 -0.037301768 -0.0057850997 -0.041728675 -0.024395423 -0.052136004 -0.023746837 0.028171498 0.012649291 -0.03902519 -0.04111792 0.008772964 -0.008948564 0.028877402 -0.029978503 0.058980227 0.0018946837 -0.062499687 0.01771593 0.018257976 -0.12606578 -0.0009928382 0.03470815 0.056599233 0.09968927 0.13395524 0.096106775
18 0.2325014 0.049508553 -0.029959561 0.081102446 -0.0020230715 0.2619585 0.07557423 0.06779966 -0.17408544 0.14436692 -0.038187213 0.25650138 0.02880662 0.17702192 0.031796154 0.07541593 -0.045019664 -0.020834409 -0.11195634 -0.13021734 -0.05817358 -0.08667371 0.090803735 0.046713542 0.012068949 -0.31875756 -0.22436251 0.21347481 0.2754823 0.11848717 0.1916163 -0.29765993 0.10088929 0.06221056 0.06438677 -0.0075996043 -0.046374656 -0.027190784 -0.04029591 0.016958293 -0.004570695 -0.02347425 -0.04896126 -0.0061586024 0.016293814 -0.004137075 0.008391877 0.012891483 0.03871181 0.010101395 0.003459177 -0.0024434538 -0.068517685 -0.032379996 0.05685455 0.011456704 -0.022374112 0.04112199 -0.028843386 0.005237027 0.16142142 -0.12880118 -0.07153882 -0.0002839477
4 0.2962823 0.11816979 -0.037538994 0.027120868 -0.0047032214 0.26977074 0.010537803 0.125561 -0.16975406 0.16628739 -0.014262996 0.2797665 0.024535105 0.16424365 0.047456585 0.08705935 -0.055770162 -0.01136502 -0.120388925 -0.14117542 -0.07342746 -0.10112757 0.10327203 0.055218842 0.033335086 -0.30520263 -0.17861304 0.1841923 0.25280097 0.1451717 0.20795734 -0.25877452 0.043726988 0.01979597 0.06794009 -0.013820752 -0.03316504 -0.04227289 -0.0038736698 0.051867705 -0.009437564 -0.016892027 -0.04263179 -0.010911882 0.016787084 -0.009290105 0.006996395 0.002168077 0.09037736 -0.009112221 0.047290172 -0.045494247 -0.08463256 -0.07714231 0.050306674 0.051165067 -0.032065243 -0.023836035 -0.026424566 0.010494597 0.18976337 -0.104225166 -0.03714424 -0.006002033
21 0.18616965 0.08852534 -0.10195065 0.20483573 0.016118208 0.089876145 0.09570067 -0.10413572 -0.10275729 0.12744595 0.06913965 0.33601254 -0.063953385 0.043829065 -0.10922885 0.0048709065 -0.050385304 0.03090781 -0.048174 0.019783225 -0.007876218 -0.13329563 0.13878575 0.015514589 0.1746487 -0.37816682 -0.27962834 0.13170536 0.22999974 0.058891594 0.2382753 -0.237057 -0.109963946 -0.002069535 -0.09261895 0.022467503 0.037650876 0.0511689 0.0339126 -0.07317716 0.014795244 0.00891057 0.019137036 0.0097228605 -0.045194883 0.028392848 -0.036683712 -0.003452024 -0.037186597 -0.024562554 -0.042777047 0.014286701 0.017997479 -0.0020540878 0.017911237 -0.028200123 -0.0050736894 -0.03225683 0.030724635 -0.062644206 -0.16923727 0.03788512 0.02059534 0.013351403
16 -0.0647643 0.27819884 -0.017291915 0.048407916 -0.17283627 -0.0005735759 0.2293633 0.10889839 0.36909685 -0.016830673 0.109765574 0.2887259 -0.3319072 -0.14386818 -0.1928799 -0.054722898 -0.13359863 -0.13673241 -0.26006863 -0.23785849 0.22535129 -0.056373853 0.26212454 0.05109013 0.038117178 -0.40197238 -0.2877698 0.16067974 0.29316086 0.14860281 0.21140176 -0.47374725 -0.2297543 -0.22648576 -0.049356878 0.11941729 -0.12003982 0.06062932 -0.05552406 -0.0708012 -0.07808947 0.023360481 -0.02224643 -0.066919245 0.052387945 -0.01476745 -0.023492306 -0.095818795 -0.002707779 0.016399879 0.034214124 -0.036588553 0.0678577 0.031570055 -0.116542555 0.017409058 0.03489628 -0.11317029 -0.0060097435 0.07315077 0.004216739 0.15211058 0.20219415 0.10188438
10 -0.0003065443 0.10425169 0.02374705 -0.066158384 0.054275464 0.10053647 -0.03489027 0.038110055 0.31387374 0.026360735 0.012331905 0.20801571 -0.20844714 -0.024981327 -0.0877359 -0.043273937 -0.08798248 -0.014823166 -0.119379394 -0.051973876 0.08095285 -0.110890746 0.1982649 0.018263139 0.18102276 -0.4937482 -0.23791164 0.10232123 0.28861353 0.115642026 0.27208093 -0.47095898 -0.1305348 -0.18339504 -0.094351925 -0.01610247 0.08761835 0.054041695 0.04600383 0.042391386 -0.06137637 0.103068665 0.12827843 -0.054145053 0.035773806 0.018761937 -0.005314763 -0.096853405 -0.13959026 0.03477051 -0.036405828 0.048977487 0.16794513 0.1521373 -0.16491912 -0.06111235 0.050794914 -0.15476657 -0.04281647 0.058996785 -0.09309745 0.23089308 0.21207316 0.16366328
23 0.06426578 0.0703669 -0.093510754 0.15987584 0.09044591 0.09150524 0.10420952 -0.15240176 0.026543606 0.12596372 0.05809687 0.3952215 -0.13406023 0.034095097 -0.16734597 -0.04425984 -0.06490259 0.070015125 -0.016159482 0.040788773 -0.018729255 -0.11715295 0.11910504 0.025452698 0.19424863 -0.40994605 -0.25174507 0.10036998 0.23764029 0.120264255 0.26340282 -0.25520083 -0.08501932 -0.054047648 -0.13765837 -0.0046243956 0.12829454 0.060411576 0.052867524 -0.06168307 0.011069014 0.04681195 0.078427255 0.0035664362 -0.02621705 -0.026051976 0.01065552 -0.020842267 -0.11159936 -0.00029589725 -0.07679581 0.05020987 0.10298906 0.076785035 -0.04739637 -0.07020008 0.049225643 -0.004613391 0.012788629 -0.02529234 -0.1113734 0.11146661 0.0010442303 0.08644933
11 0.075763784 0.36317348 0.05004155 0.09989942 -0.18446125 -0.034167584 0.10435816 0.25387865 0.16837618 0.08264392 0.29330605 0.16516045 -0.13134636 -0.25702247 -0.12449794 -0.030597163 -0.046132337 0.024344973 -0.074072935 0.11111196 0.019135566 -0.26067588 0.2670167 -0.02797107 -0.047603436 -0.3796465 -0.27254543 0.2464008 0.34109607 0.061289262 0.10565661 -0.44544172 0.04907792 0.15546189 -0.08408158 -0.05171131 0.06691664 0.077966176 0.014633752 -0.040497918 -0.017439105 0.12135731 0.07880777 -0.074397035 0.038448833 -0.13243829 0.14464115 -0.03687787 0.017486379 0.011505555 0.07464293 -0.06420117 0.036111042 0.02318485 -0.15048963 0.048284505 0.028332155 -0.074614346 0.06941927 -0.015695298 -0.048432957 0.10778503 0.08790157 0.05244691
0 0.25860867 0.1159518 -0.0025288889 -0.010678829 -0.04627656 0.39152524 0.055150524 0.0704361 -0.13584091 0.14851333 -0.04394944 0.22909082 0.044500273 0.19601569 0.008444268 0.062101033 -0.054542065 0.022489715 -0.06297129 -0.0817831 -0.044759374 -0.04386368 0.06449296 0.025512632 -0.05297004 -0.28588343 -0.1970317 0.22805583 0.28370538 0.20398283 0.198284 -0.30310574 0.03935292 -0.019857403 0.052295543 -0.0034208004 -0.03314323 -0.02815776 -0.021941464 0.04097007 -0.011279027 -0.047955807 -0.063294105 0.0030907793 0.0567622 -0.074935086 0.04784813 0.010471093 0.09397983 0.010132274 0.024243997 -0.024828698 -0.084709406 -0.07511272 0.08921979 0.034424193 -0.054845806 -0.031347007 -0.048545353 0.0030606042 0.20125031 -0.18817383 0.03400846 0.076632656
8 -0.023988152 0.29335657 -0.062269956 0.025185216 -0.17638345 -0.012137375 0.19912413 0.061509907 0.3740882 -0.07346658 0.3225578 0.27480704 -0.41440752 -0.38099802 -0.29469576 -0.053235866 -0.12960188 -0.1267336 -0.27066806 -0.204908 0.19476105 -0.12809375 0.31395888 0.034456413 0.087998435 -0.49060774 -0.21258642 0.14961988 0.35075042 0.24539134 0.24751556 -0.4166158 -0.13429095 -0.074870594 -0.015830275 0.05198435 -0.093966015 0.045320645 -0.027554274 -0.019755896 -0.01820692 -0.047158826 -0.09087546 -0.012064317 0.015903387 0.028193712 -0.029835423 0.004309791 0.005851039 -0.0073343697 -0.011058644 0.005123327 0.015838347 -0.013086704 0.027474396 -0.006324535 -0.0046174973 -0.06778743 -0.014659443 0.014446546 0.08629392 -0.008712126 0.07413389 0.08142629
22 -0.06879167 0.061751924 0.10824612 -0.0055262493 0.024076194 0.06281591 0.009229782 0.12154553 0.30744928 -0.011023631 -0.0055566425 0.14182185 -0.20449924 -0.025954641 -0.04286619 -0.011413339 -0.08181438 -0.019448131 -0.1328032 -0.05636329 0.057391357 -0.14118241 0.2159669 0.011263604 0.29920772 -0.56963015 -0.23359396 0.028759096 0.27313083 0.08547534 0.30463064 -0.49041086 -0.16727443 -0.26125526 -0.092889875 0.0006625195 0.071148515 0.05514652 0.035083063 0.053765003 -0.06283552 0.1008769 0.14285357 -0.04656586 0.04442319 -0.030762862 0.009648576 -0.11221231 -0.10754284 0.020913374 -0.060423654 0.0322981 0.14794242 0.09771135 -0.11025443 -0.06321256 -0.01805128 -0.1837479 -0.092042886 0.011267121 -0.158325 0.10120257 0.23279607 0.17067064
14 0.08258033 0.30264592 0.05589262 0.06493581 -0.34418234 -0.04564864 0.13219106 0.20576118 0.34966418 -0.05256991 0.3621345 0.13477172 -0.3120392 -0.41386953 -0.21337864 -0.03552139 -0.047651704 -0.088177525 -0.17323907 0.0063248393 0.13483703 -0.2192713 0.3125831 -0.045222897 0.02056243 -0.46982616 -0.27189648 0.24246414 0.38044938 0.13706055 0.20294175 -0.47735327 0.088842586 0.17085429 -0.025122829 -0.089683525 0.09323314 0.014080624 0.053694163 0.03511805 0.011540178 0.06098222 0.029504437 -0.03265742 0.0011954859 -0.071375765 0.08757913 0.00683519 0.005258226 -0.0091847265 -0.03826663 -0.0114332 -0.003262059 -0.032574438 0.027103975 -0.015390794 -0.018169498 0.014426988 0.020434214 0.00589608 0.048904248 -0.06550163 0.028967598 -0.015982412
6 0.07955155 0.42099515 0.010401531 0.10293629 -0.18744338 0.016907694 0.09754224 0.06331394 0.4229212 -0.10545446 0.28237045 0.18060479 -0.3988158 -0.37537554 -0.24208136 -0.049034134 -0.11708585 -0.14497662 -0.2820008 -0.048302695 0.29315418 -0.26311687 0.47601858 -0.04627251 0.07839809 -0.5493996 -0.14978749 0.17620513 0.42155915 0.23821947 0.17135099 -0.34835607 0.094224736 0.09519076 -0.008303029 -0.078987665 0.07772125 0.0057654497 0.029683629 0.055223893 0.023813093 0.011779015 0.03588706 0.017536832 -0.0010237918 -0.056269873 0.049891043 0.018480483 0.045773588 -0.014122356 -0.020117743 -0.010733711 -0.08157631 -0.06986305 0.095245905 0.0050940346 -0.062296312 -0.07821186 0.0071758935 -0.10350708 0.063660786 -0.1397649 -0.0732094 0.020932114
7 0.16012797 0.2557148 0.016815832 0.045423258 -0.21388559 0.0037126364 0.036683958 0.16298853 0.46093905 -0.074886896 0.3759677 0.20810425 -0.39945117 -0.4489046 -0.3424968 -0.1065566 -0.10834248 -0.1835456 -0.3417231 -0.11801159 0.24191162 -0.3072044 0.48968986 -0.0074643777 -0.0018157506 -0.5369297 -0.08851442 0.2582278 0.47960338 0.303244 0.16919284 -0.30731624 0.041119866 0.05368528 0.0064890245 -0.053310875 0.06339257 -0.022143418 0.046095237 0.04986053 0.019659905 -0.03145584 0.04191039 0.055569112 -0.009346555 -0.017353734 -0.020928195 0.0037437084 0.0011577242 -0.03492967 -0.06137585 0.016659537 0.012787705 -0.05180316 0.10090581 -0.031914696 -0.04794397 -0.000598444 0.07116687 -0.06648722 0.05579246 -0.13934618 -0.030796673 -0.046854835
13 0.12580663 0.27035117 0.025049567 -0.03668688 -0.4504172 0.081079625 0.2049638 0.23383833 -0.056376487 0.11783467 0.47125965 0.21899937 -0.1248148 -0.34942973 -0.03274178 0.14277104 0.03497027 0.023668118 -0.06405436 0.09476378 -0.18909623 -0.32766455 0.200337 -0.047063477 -0.040247735 -0.3392455 -0.23818181 0.25470284 0.3075562 -0.12488804 0.024071563 -0.44307053 0.09328363 0.31438676 -0.14759013 -0.13423686 0.07494818 0.19380896 -0.00045149054 -0.0056007346 -0.036141936 0.16435336 0.13038386 -0.09472526 0.043569148 -0.13378881 0.14460681 -0.07494208 0.067702346 -0.0294955 0.06399615 -0.10926171 -0.055995706 -0.071365885 -0.084422 0.06839033 -0.006972725 -0.20904528 0.13986298 -0.113644764 0.03447327 0.11115203 -0.041782584 -0.041206114
