26 64
25 0.0830849 0.43181401 0.31100127 -0.07691668 0.05252843 0.026039753 0.33024347 -0.29539028 0.6999812 0.08779677 0.109089024 0.0018874692 -0.1372373 -0.12737599 0.013154505 0.01635375 0.061727315 0.3254188 0.05379764 -0.057576634 -0.13011944 -0.022718782 0.26352498 0.14119236 0.32090163 0.34919536 0.42412284 -0.19312008 -0.11878711 0.5543734 0.31075588 0.22230858 -0.13477013 0.056389 0.11506755 0.049242325 0.0465464 0.08650252 -0.02909827 0.03479923 -0.06045661 -0.081781544 -0.014967784 -0.096004866 -0.07987116 -0.09129968 0.016862553 -0.28466007 -0.00688671 0.22380327 0.0013701768 0.06801963 0.053504035 0.10634568 -0.08779842 0.07839442 0.09096252 0.052103743 -0.10787481 -0.046708502 0.017014889 -0.0645065 0.092519544 0.07387374
3 0.11586378 0.4598 0.32238868 -0.06596012 0.11954582 0.1326635 0.34625044 -0.29858485 0.72253263 0.1052181 0.1377621 0.025462745 -0.18223576 -0.1657351 -0.012951454 0.08121156 0.012187574 0.2226201 0.058961775 -0.044175606 -0.07828689 -0.038115334 0.28048858 0.10301326 0.27390036 0.3412277 0.42193884 -0.18618615 -0.075518064 0.52686346 0.27867165 0.20908222 -0.109176084 0.020439895 0.034671005 0.040071305 0.020880986 0.058336813 -0.05012416 0.060609415 -0.01919731 -0.12247081 -0.066467196 -0.12739237 -0.109767854 -0.11193606 0.10109218 -0.32947165 -0.017180992 0.3114584 0.02483942 0.07605915 0.118985355 0.11660128 -0.07028597 0.15764533 0.046680838 -0.011156024 -0.060051125 -0.14330359 0.019764252 -0.01134595 0.16377178 0.06315183
19 0.026464555 0.5200629 0.34319952 -0.06675328 0.15822461 0.0056448136 0.36959365 -0.28426874 0.686614 0.124335 0.111500986 0.049517684 -0.14192535 -0.17471138 0.014109035 0.10122787 0.05461177 0.29478395 0.07804609 -0.05134148 -0.10608876 -0.026107756 0.30190125 0.113024116 0.28445545 0.33757806 0.42915842 -0.16150878 -0.05273088 0.5146742 0.29336774 0.21102388 -0.08117447 0.018534208 0.043752946 0.018367318 0.026332226 0.046784904 -0.059450623 0.038630635 -0.044817727 -0.06927063 -0.07094349 -0.09079699 -0.059984908 -0.11151894 0.08611863 -0.3375026 -0.020774195 0.32987612 0.056688946 0.09603433 0.1342921 0.08992116 -0.042461075 0.15062602 0.1151146 0.017655723 -0.08587515 -0.1643576 0.010390278 -0.06252947 0.13079719 0.0634254
24 0.105699606 0.39637437 0.24597785 -0.04669435 0.041716233 0.111876525 0.31006497 -0.2709765 0.7295929 0.07147564 0.1303877 0.033589073 -0.18066604 -0.20390753 0.021384967 0.0619527 0.025509397 0.19899237 0.03313248 -0.15016219 -0.15054877 -0.06511154 0.23411639 0.13991079 0.31407452 0.28850397 0.38549358 -0.14661543 -0.05768011 0.477633 0.36275786 0.23995893 -0.08954279 0.06776788 0.07300417 0.046721693 0.0533627 0.06961482 -0.08539755 0.028723776 -0.018462902 -0.022424184 -0.081146464 -0.012551244 -0.0065851314 -0.0349088 0.09441664 -0.22775389 -0.005195483 0.1390131 -0.033945147 0.04268262 0.03301189 0.11970237 -0.10493537 0.07992263 -0.0011209273 -0.015360639 -0.09871476 -0.04680376 0.030992815 -0.0063397526 0.11727672 0.0532503
2 0.09980567 0.37484923 0.3394243 -0.1383712 0.07441251 0.06804842 0.2827656 -0.24878843 0.78184086 0.09954481 0.11308132 -0.0051946244 -0.16216242 -0.14786012 0.021735437 0.049549654 0.047582056 0.2277366 0.054702837 -0.1506552 -0.10245024 0.032518633 0.19654384 0.16328695 0.31524214 0.30128634 0.40610087 -0.14414296 -0.03906762 0.48736623 0.39218202 0.24422367 -0.119143106 0.039294224 0.08330127 0.033624746 0.0616144 0.07199087 -0.039995503 0.022084476 -0.061038204 -0.041697603 -0.039859664 -0.12904698 -0.052924752 -0.16832621 0.03805603 -0.3036273 -0.017706621 0.06810197 -0.015758853 0.06164711 0.02965118 0.1260245 -0.035432506 0.13650061 0.0005598507 -0.013118354 -0.026574532 -0.010955572 0.001644953 0.011800003 0.093239315 0.033755906
1 0.114584915 0.43765572 0.30742928 -0.03200316 0.105981335 0.15691563 0.33055732 -0.24353755 0.79366493 0.10068757 0.13780609 0.017735906 -0.22272949 -0.1845021 -0.0082813455 0.14625752 0.06259579 0.24783218 0.048212763 -0.072629094 -0.13931869 -0.062059708 0.23971988 0.09284432 0.26391372 0.2700513 0.36531106 -0.1058035 -0.018171255 0.41598275 0.2853303 0.19031784 -0.09612393 0.029960817 0.14904496 -0.006781542 0.010812567 0.0631825 -0.034632966 0.029796733 -0.004009276 0.00715143 -0.10520319 -0.053158063 0.028133284 -0.033813924 0.10172906 -0.27639034 -0.015042702 0.17987505 0.0038799345 0.07130775 0.11104653 0.09084534 -0.1250857 0.08358956 0.044676255 0.059876986 -0.14660779 -0.023977283 0.053382233 -0.044407673 0.13671347 0.10747223
18 0.096202455 0.45680335 0.31861174 -0.029076943 0.06524048 0.08381067 0.3529346 -0.26357192 0.73683417 0.103367835 0.09750571 0.044825345 -0.1566992 -0.22562888 0.06062268 0.11487559 0.010033723 0.2625902 0.06822276 -0.073447205 -0.08034833 -0.015486034 0.32423806 0.14545903 0.27200532 0.36420533 0.41754067 -0.2351932 -0.14423655 0.56915736 0.25752378 0.19815311 -0.028489294 -0.0016035966 0.043976188 -0.011136991 -0.057008106 0.016432924 -0.057794422 0.069982834 -0.04261966 -0.090863936 -0.0681045 -0.11825404 -0.084026955 -0.13331033 0.090591334 -0.35449857 -0.022628387 0.3515048 0.07801801 0.08338964 0.16203 0.109046 -0.06974072 0.12579378 0.09542348 -0.009112675 -0.14458786 -0.117188975 0.0072796335 -0.07785605 0.08822873 0.040528607
15 0.23599769 0.29136145 0.10422898 0.073958434 -0.15989575 0.043611128 0.20747 -0.5652669 0.722297 0.055959485 0.012002137 -0.03176401 -0.15626976 -0.400739 0.2634006 0.05167991 -0.008991452 0.013340659 0.04368414 -0.13870884 -0.10641723 -0.124283224 0.22487472 0.0269652 0.13075644 0.28172994 0.49643984 0.14261484 0.38292134 0.22135364 0.4431369 0.07065205 0.04489869 0.03168243 0.0830558 -0.015745329 -0.08895522 -0.0019666762 -0.030794224 0.035163373 0.030870367 0.0071635125 0.0057035973 0.08340476 0.021424461 0.11524827 -0.0003013352 0.114445545 0.0123737035 0.018620718 0.006977558 -0.069617145 -0.01941811 -0.020947088 0.0177992 -0.05491096 0.0103198495 0.0002775617 0.07978133 -0.085691564 -0.0053162407 0.0018051758 -0.07032469 -0.041686933
12 0.16051309 0.2932654 0.07843047 0.11348701 -0.13353798 -0.00053422 0.22829722 -0.44756517 0.7794869 0.0172778 0.109257825 -0.0585234 -0.23773581 -0.21988623 0.06504284 0.04711392 0.018098826 0.08883262 0.010239867 -0.15026009 -0.16275236 -0.12593475 0.17429084 0.07245653 0.18437058 0.2806061 0.4832034 0.10306712 0.32953808 0.2728708 0.41208294 0.14309648 -0.0106097665 0.010380178 0.020738956 0.005595348 0.0051500984 0.009079185 0.008256544 -0.0033687695 0.022951629 0.0120435795 0.0046321885 -0.042006776 0.012788527 0.0039658654 -0.014744577 0.024308568 0.00776734 -0.051725235 -0.018091928 -0.036632624 -0.0544808 -0.011787502 0.044297908 -0.010262242 0.006476495 -0.01906507 -0.012967265 -0.0071128523 -0.009765003 -0.010791829 -0.020529468 -0.01846567
4 0.0732609 0.55832934 0.32822052 -0.008933541 0.13252646 0.09102899 0.42556986 -0.30437282 0.6919836 0.11042164 0.08156696 -0.015563649 -0.1258015 -0.12541397 0.037962526 0.03792444 0.0077662696 0.2726251 0.04789135 -0.053872522 -0.07920045 -0.0057401042 0.27871343 0.15565725 0.25160128 0.37396255 0.44533712 -0.20585747 -0.07986444 0.5571854 0.21768999 0.19824988 -0.07711825 -0.020916427 0.020449594 0.0034973703 -0.025131784 0.028036222 -0.021502621 0.06816768 -0.0487856 -0.09145408 -0.05562695 -0.1266692 -0.082305275 -0.11926996 0.06776512 -0.3639703 -0.013299916 0.36447537 0.032846536 0.09765766 0.09823686 0.14087473 -0.0905631 0.12687309 0.1034094 0.046275385 -0.12462507 -0.052908007 0.010984189 -0.07339796 0.10492182 0.07604331
17 0.21388936 0.31037688 -0.007869211 0.040624924 -0.19415317 0.0780187 0.25105292 -0.59450495 0.7252218 0.06096806 -0.012750089 -0.021197487 -0.0988453 -0.36622143 0.28309318 0.019193185 -0.007379502 0.046136755 0.020858182 -0.10744349 -0.12854522 -0.14064804 0.1867525 0.03529907 0.13458997 0.2832953 0.5206776 0.19496395 0.4526709 0.19514515 0.46276614 0.07386596 0.02517745 -0.01743164 0.050476655 -0.03562637 -0.050279405 -0.015221436 0.04384157 -0.0019808046 0.004261968 -0.011628929 0.012777926 0.020081671 0.0019223897 0.084054664 -0.022984464 -0.004779111 0.0121801635 -0.062168352 0.009805964 -0.052405506 0.007883824 -0.07339976 -0.043827627 -0.13776228 0.05553671 -0.0035296082 0.04115841 -0.04956273 -0.03464869 -0.03847363 -0.103888385 -0.05722979
9 0.12132754 0.2509469 0.13961272 -0.057621382 -0.07587745 0.034956433 0.20794559 -0.31665498 0.8330635 0.078805216 0.10291328 -0.045166973 -0.1655061 -0.17954007 0.072596475 -0.031990558 0.0722245 0.15749265 0.020793702 -0.18239036 -0.18414545 -0.08312174 0.17386954 0.09619126 0.23051183 0.3442404 0.4788104 -0.010558494 0.13136189 0.39611545 0.39480528 0.12623121 0.01587054 -0.01591934 -0.0940708 0.010995368 0.024644205 -0.017430408 -0.030949472 -0.0002851399 -0.018340299 0.011903185 -0.0094383815 0.013990929 0.001967114 -0.05677055 0.01749203 -0.004968199 -0.0055564796 0.019500915 -0.025795182 0.069832996 -0.04062063 0.038843412 0.028910719 0.08600753 -0.051462095 -0.0049849655 0.011668944 0.083185256 0.0023289619 0.034582235 0.0102208 0.005365245
20 0.22242787 0.33335158 -0.0318277 0.041755512 -0.24265704 0.057598308 0.27624094 -0.6566591 0.7140019 0.029703017 -0.008518046 0.085442245 -0.049595747 -0.39324 0.28688917 0.055504445 0.047169514 0.18965065 0.057931844 -0.07534434 -0.13457312 -0.09369922 0.24897146 0.058650475 0.14748378 0.22355787 0.48140347 0.24362949 0.5043139 0.14021312 0.33016184 0.12481154 0.018317696 0.031734884 0.118898645 -0.011872642 -0.08986911 0.007872194 0.039770003 0.025773736 -0.021485325 0.0060272734 0.031597976 0.10072002 0.02514707 0.15920137 -0.05465789 0.017344845 0.0061215367 -0.04626064 -0.05160214 -0.0069469544 0.03045653 -0.07245057 -0.06638654 -0.018912584 0.09288296 -0.06633471 0.046131544 -0.22563046 -0.04593717 -0.035778187 -0.005694523 -0.059309497
5 0.3052276 0.2939589 0.01768822 0.031304616 -0.3046124 0.102469444 0.28427634 -0.67944413 0.6649938 0.02030977 -0.0019416212 0.05521437 -0.075485185 -0.3619474 0.2550736 0.06530956 0.062770456 0.2565468 0.083954535 -0.014353473 -0.15663491 -0.15200374 0.35570458 0.021762522 0.09992997 0.2167854 0.47606552 0.2238134 0.51516724 0.13270113 0.26161343 0.10861073 -0.058509596 0.032088432 0.19234523 -0.01209805 -0.09233086 0.04802103 0.019180804 0.06336106 -0.006934475 0.02708073 -0.0115579115 0.043103904 0.046289835 0.10102411 -0.013931373 -0.05279892 0.020119289 -0.000879419 -0.13315758 -0.033758596 -0.09531474 0.10435055 -0.113034606 0.020766523 0.036462624 -0.070422344 0.080341585 -0.13165118 -0.05470312 -0.007788239 -0.06602999 -0.08636577
21 0.11289573 0.29331538 0.2790088 -0.015698722 0.06000436 0.046310183 0.18646461 -0.2433988 0.77696776 0.0776288 0.091516234 -0.08562812 -0.1830982 -0.17031325 0.07241328 -0.024144089 0.101085834 0.28260133 0.043485116 -0.1542084 -0.17138691 -0.014851217 0.20359543 0.14445601 0.29622954 0.36775416 0.4680365 -0.09024204 -0.008903336 0.48868987 0.36447844 0.15837148 -0.056018725 0.06642012 0.07268832 0.043013696 0.051011395 0.054156173 -0.042025384 -0.0045017353 -0.051774982 0.009792332 0.0396431 -0.034823075 -0.0109185865 -0.07319468 -0.059820767 -0.03537409 -0.008905413 0.008637023 -0.08027224 0.025540339 -0.039456036 0.1637692 -0.034998108 0.16342741 -0.066521294 -0.014885442 -0.04415078 0.032179937 0.03470043 0.03894888 0.084312536 0.039678466
16 0.2375803 0.290345 -0.100064546 -0.05817512 -0.21824668 0.1963825 0.2805178 -0.61425006 0.7697436 0.077934556 -0.025727723 0.053740058 -0.0010541095 -0.34287527 0.30197 -0.020750273 0.021136697 0.19156885 0.04850216 -0.07417903 -0.10147399 -0.048874546 0.22744626 0.09773986 0.12253428 0.28337735 0.5461376 0.26674703 0.5364317 0.15988548 0.30096832 0.06585551 -0.06005557 0.032935686 0.10926683 0.020129586 -0.01655611 0.041861277 0.052862097 0.014379344 -0.04186543 -0.06223221 0.068384066 0.059690762 -0.051727656 0.111976035 -0.07750598 -0.005156359 0.014668137 -0.046673883 -0.030474467 -0.042020574 -0.010104895 -0.060776792 -0.05269353 -0.090725675 0.10631281 0.015921291 0.12839831 -0.14680474 -0.048846014 -0.032931253 -0.07201245 -0.050959833
23 0.10870377 0.28439835 0.12545933 -0.07345368 -0.022224365 0.02873404 0.19990183 -0.3810618 0.81649643 0.100652285 0.10636763 -0.06573271 -0.17046067 -0.19125341 0.07662292 -0.05935311 0.15265505 0.1922343 0.021338837 -0.22495483 -0.27467737 -0.12493526 0.13499287 0.06688038 0.30421108 0.26462364 0.38543206 -0.069271885 0.023059625 0.40233523 0.45051298 0.21066236 -0.027140114 0.011068735 -0.09990127 0.04781327 0.099001855 0.010313559 -0.028607924 -0.029318277 -0.029179124 0.01633484 -0.0010186787 -0.055009995 -0.008994063 -0.14614022 0.003050854 -0.029822819 -0.0035746123 0.0007642608 -0.06599194 0.08383008 -0.084351644 0.07351614 0.02554318 0.12293594 -0.037948057 -0.048644137 -0.046093196 0.06853807 -0.010650971 0.020019503 0.04647514 0.0015020941
10 0.09552017 0.29014283 -0.07081513 0.109456345 -0.06662491 -0.03948559 0.17640132 -0.53482825 0.7430902 0.06992081 -0.0015880824 -0.08512197 -0.12684327 -0.282679 0.23129296 0.007119822 0.021625359 0.12460021 0.024880193 -0.17137152 -0.1586086 -0.092385575 0.19315657 0.107300036 0.19132769 0.31479323 0.53546196 0.098069854 0.36563602 0.3109176 0.45077142 0.16578951 0.0563268 -0.07654018 -0.14802401 -0.035626426 0.008664622 -0.060678463 0.00094142347 -0.015528948 0.004344919 0.042010665 -0.050808147 0.099699534 0.046014648 0.012694083 0.0689185 0.03254784 -0.009612252 -0.053479772 0.08970564 -0.022293948 0.053246584 -0.047507193 0.047191825 -0.07088881 -0.04142642 0.03446481 0.13143036 0.059801295 -0.0076242886 0.059840515 -0.010572943 0.0011014261
11 0.30993763 0.39320987 0.22677067 -0.036523648 -0.15575463 0.24954362 0.3561928 -0.50890356 0.67809707 0.061871257 0.17859714 0.100018345 -0.22070417 -0.1739941 -0.07838265 0.16730092 0.11880441 0.13091129 0.041130584 -0.08527664 -0.2210939 -0.21630712 0.24183121 -0.06129795 0.12831871 0.21403988 0.41924423 0.16589877 0.35355446 0.15401858 0.33816352 0.052511986 -0.036597047 0.03468674 0.20044373 -0.025881954 -0.13448904 0.04063889 -0.022683652 0.09471395 0.094340965 0.029409679 -0.10605037 0.095417246 0.07180344 0.15904514 0.13043568 0.034067336 0.0054158834 0.019816274 -0.034918837 0.01527295 0.038138937 0.010258516 -0.1489179 -0.06413199 -0.030540936 0.03488356 -0.013752174 0.013126072 0.03498285 0.019820651 0.055604342 0.04780127
0 0.018696161 0.585615 0.32626504 -0.02069379 0.21596844 0.008617289 0.38264024 -0.35739437 0.6654464 0.1299082 0.08664105 0.021115804 -0.11435889 -0.14947782 0.03513428 0.06643737 0.03954399 0.28996056 0.06762748 -0.11511168 -0.1393113 -0.050547305 0.34024465 0.15084599 0.22188151 0.37805206 0.45334676 -0.15584697 -0.030353297 0.5124031 0.21222211 0.15327895 -0.037050273 -0.009981435 0.07119297 -0.027474407 -0.091047704 0.019786576 -0.08115418 0.10213752 0.012145717 -0.07933022 -0.09541731 -0.22217132 -0.07429363 -0.19006273 0.11982773 -0.34432313 -0.029358748 0.44375572 0.10417815 0.11480823 0.17789838 0.1147325 -0.012711098 0.19770995 0.10908997 0.05150139 -0.17956711 -0.08644397 0.038554665 -0.0814681 0.16500144 0.11216953
8 0.29924455 0.36877808 -0.022142759 -0.048671916 -0.24153937 0.15891506 0.2977509 -0.7940354 0.639168 0.080936566 -0.07782064 0.10720798 0.051827688 -0.44098824 0.38886783 0.028421078 0.07149556 0.25469434 0.08316634 0.018624011 -0.1489418 -0.15146914 0.32727715 -0.0019561092 0.09458231 0.22145912 0.47200057 0.30518603 0.5368878 0.07192189 0.23653938 0.03233362 -0.09589474 0.06580974 0.1853759 0.017673532 0.030264562 0.076605834 0.0045969244 -0.0024303694 -0.03404325 0.0292948 -0.0063448856 0.03891848 0.04738557 0.09605926 -0.031768285 -0.114277646 0.009541688 -0.04538288 -0.16383326 0.008149171 -0.060983595 0.12281403 -0.16140461 0.07828286 -0.0033059434 -0.048156526 -0.0035047962 -0.08605594 -0.0024386677 0.008688779 0.037968755 -0.012447532
14 0.41612515 0.44601756 0.23071726 3.9229326e-05 -0.3457715 0.2068335 0.41543993 -0.74214447 0.55095816 0.04424596 0.07713532 0.20358095 -0.11773115 -0.3339976 0.091890134 0.26320732 0.14998776 0.23599783 0.103349105 -0.006451491 -0.20130876 -0.21151209 0.3688996 -0.09260247 0.103806034 0.16610985 0.40029562 0.2425851 0.43523696 0.066864416 0.27240646 0.03172655 -0.037765063 0.049749084 0.1868292 -0.027499462 -0.028665144 0.04775693 -0.053092103 0.023167476 0.038432725 0.14879544 -0.1190912 0.0745888 0.16222419 0.03032433 0.101832695 -0.01415867 -0.00037548997 -0.11182062 -0.08066395 -0.03556651 -0.032096755 0.14728412 -0.12789974 0.01168823 -0.0689048 -0.034397922 -0.010528589 0.017938005 0.017246734 0.03959339 0.030457135 0.0008580556
22 0.16933745 0.2774967 -0.03173698 0.21328442 -0.062168665 -0.017082855 0.12849794 -0.603944 0.74019605 0.11832936 -0.018049868 -0.1863192 -0.20154402 -0.29545167 0.2409915 0.061410297 0.105258085 0.084428184 0.03501604 -0.12323496 -0.15054062 -0.087775186 0.11369565 -0.010161223 0.15608974 0.34191245 0.54333115 0.094699554 0.33233652 0.3058238 0.46609163 0.07737753 0.028729089 -0.059627764 -0.12164467 -0.016296035 0.052371465 -0.04083146 0.031301856 -0.04803424 -0.059177373 -0.005869217 0.005995595 0.11992115 -0.007330699 0.018919045 0.004681088 -0.018066362 -0.009244957 -0.015892131 0.095344104 -0.0072704135 0.032868136 -0.021238293 0.05975152 -0.060428217 -0.017744657 0.054857563 0.059288934 0.10921873 -0.004441101 0.011659771 -0.07376514 -0.0045871097
6 0.39286265 0.36885703 0.06994299 -0.028995119 -0.45287326 0.068376355 0.36362326 -0.89060265 0.5075057 0.014359459 0.035727434 0.19233069 -0.02509115 -0.34722537 0.17736712 0.1065131 0.07582465 0.29243273 0.10352065 0.100076444 -0.17808272 -0.26386988 0.47331917 -0.076173835 0.09009498 0.2501078 0.46918732 0.21778448 0.43164262 0.14088902 0.22280009 0.017406242 -0.12069704 0.06663485 0.19092041 0.014161761 0.030974058 0.091123775 -0.06742199 0.03164542 0.06256072 0.09127583 -0.10966421 0.0049324026 0.11571817 0.05052071 0.09595466 -0.05582881 0.018636739 -0.10178158 -0.1935623 -0.07894691 -0.14206927 0.26141298 -0.19306518 0.044371232 -0.13618962 -0.09701326 0.035666637 0.0017932066 0.010585253 0.09244874 0.03963707 -0.032363545
7 0.4416244 0.34858298 0.21223079 -0.008590438 -0.49706736 0.026730841 0.3275854 -0.8689656 0.51390195 -0.0030542726 -0.013699244 0.20339377 0.00426793 -0.40117848 0.25924367 0.13807137 0.13512579 0.32668748 0.12752718 0.13297786 -0.18026188 -0.25038603 0.46424803 -0.12528622 0.116282344 0.19559437 0.45026305 0.2944594 0.50628716 0.06840228 0.255869 0.040443104 -0.11563088 0.09492271 0.13405094 0.058835234 0.08295077 0.094181575 -0.059545167 0.0014240217 -0.064989164 0.10017428 -0.076084495 0.15544426 0.111609295 0.04498323 0.05339489 -0.13542627 -0.00271475 -0.049844828 -0.18643579 0.093445756 -0.09750498 0.21838702 -0.16338223 0.16982792 -0.11836238 -0.06864968 -0.042338554 0.05891466 0.022653122 0.06845656 0.08317182 0.011855168
13 0.3149784 0.5423798 0.21840453 0.06841271 -0.010218476 0.4887672 0.49082395 -0.41623995 0.6987725 0.110903166 0.20698904 0.10160336 -0.33197433 -0.21507904 -0.1326017 0.36151385 0.15985575 0.21489643 0.04129089 -0.07941334 -0.24187583 -0.18172213 0.21780825 -0.03444514 0.17453435 0.10831055 0.26936927 0.029241253 0.16210675 0.18564594 0.20955926 0.15809385 -0.08820546 0.030827826 0.26318222 -0.05238522 -0.06347529 0.06762226 -0.041681696 0.059485037 0.096330725 0.15619293 -0.23423333 0.24522883 0.2368689 0.2848743 0.2342333 -0.08843284 0.020370942 0.11724583 -0.06840112 -0.024941586 0.021069549 0.11807824 -0.29298982 -0.13796063 0.02202905 0.12432055 -0.11142772 0.044775933 0.07081888 -0.043245345 0.0532091 0.107698366
