26 64
25 -0.11170197 -0.36468297 0.2885506 0.21142322 -0.11626237 0.019522259 -0.24008763 0.037551943 -0.12504162 -0.21999687 0.47953072 0.13244583 -0.059733626 0.04550012 -0.12583543 0.11693176 -0.5428613 -0.0027067354 -0.04274347 -0.41117933 0.374588 0.06186733 0.085902534 -0.26361728 0.22248636 0.05418635 0.16934797 0.13980597 -0.13705823 -0.2242988 0.07842979 0.22208755 0.07497253 0.0051553925 -0.009573882 -0.028068459 -0.09920597 -0.051510446 0.0143205235 0.026472485 0.04009725 0.14585055 0.036864646 0.022885175 -0.015650412 0.17583692 0.19513172 0.025568908 -0.016249683 0.032079235 -0.061878722 0.06899588 -0.021020934 -0.03000263 0.06491715 -0.0005268473 -0.04579494 -0.06349091 -0.03951081 0.19194198 -0.025806298 -0.008252853 -0.005464746 -0.020554094
3 -0.15651865 -0.43181917 0.2660084 0.21309803 -0.10445813 0.0040112087 -0.25015083 0.12828931 -0.09928591 -0.2387144 0.5215923 0.1523887 -0.010554526 0.0762481 -0.04184862 0.065992564 -0.5621738 -0.013013202 -0.054291863 -0.42286643 0.3880051 0.0689528 0.064679734 -0.27990577 0.19144666 0.060799066 0.1260381 0.09712396 -0.14588624 -0.2652428 0.11891214 0.2696995 0.06513515 0.016623735 0.0023938618 -0.025327832 -0.09308897 -0.054884065 0.053944856 0.01905887 0.04535665 0.08769762 0.045497622 0.023854338 -0.022307856 0.18795522 0.20722525 0.054915465 -0.017229313 0.032674905 -0.059785604 0.06362493 -0.013037444 -0.02222954 0.06453536 -0.0034894259 -0.06639279 -0.0985122 -0.024428455 0.21736652 -0.0030105277 -0.012888598 0.028706552 -0.124546595
24 -0.19175413 -0.39487454 0.22891064 0.18337455 -0.04900563 0.0055707116 -0.25184888 0.048745625 -0.092821926 -0.17717135 0.4534802 0.1343465 -0.07016261 0.030316275 -0.19222815 0.16669737 -0.4691441 0.0068550315 -0.0164455 -0.3362209 0.3265101 0.049481563 0.082472205 -0.21989894 0.17225307 -0.012758999 0.11533654 0.15025984 -0.07034945 -0.17272796 0.068440214 0.20151904 0.07154907 0.02177097 -0.012094725 -0.0976807 -0.12565137 -0.066516206 -0.003473535 0.042459656 -0.0228947 0.0946368 0.030401224 0.051043935 -0.016786428 0.10915994 0.12845938 -0.08224268 0.006048874 0.047584493 -0.10598493 0.0709099 -0.0013242181 -0.010027542 0.030938858 -0.0077769393 -0.026730223 -0.07008822 -0.06419727 0.18720907 -0.119810924 0.027612425 0.04214455 0.05650502
19 -0.15543048 -0.42681113 0.16875467 0.24242806 -0.116590574 -0.036907498 -0.20102374 0.13275774 -0.085797384 -0.25574505 0.6022235 0.15207192 -0.06538915 0.09612375 -0.12298815 0.08632175 -0.5646495 -0.018431187 -0.069023184 -0.44785398 0.3837532 0.06934462 0.07446529 -0.28340343 0.22402562 0.02402039 0.17130446 0.08166832 -0.09928761 -0.20209497 0.11139371 0.25734884 0.009702997 0.030806264 0.036639605 -0.0060998974 -0.031357974 -0.015236503 0.09538865 -0.006619786 0.038477354 -0.0031362693 0.0035978714 0.04866836 -0.03609825 0.18833013 0.17511055 0.0106707895 0.008915876 0.01610227 -0.054647055 0.052709583 -0.037647016 -0.039100606 0.009985695 0.009648566 -0.09531719 -0.063587226 -0.053266734 0.17856137 0.032728635 0.0481159 0.041591205 -0.14523044
2 -0.1335366 -0.37374076 0.2468322 0.21490692 -0.14075348 0.049583614 -0.23628381 0.02592861 -0.118566036 -0.21587409 0.4656233 0.25109184 -0.03438776 0.08623405 -0.15070024 0.12161049 -0.47462043 -0.00670814 -0.044676676 -0.35162798 0.3333925 0.05844927 0.047225133 -0.23999281 0.21113822 -0.07193002 0.1101316 0.1036516 -0.12433198 -0.23699349 0.057662282 0.19125764 0.06888747 0.0074773654 -0.026291827 -0.06661379 -0.104136154 -0.066630915 -0.016847668 0.04109468 -0.0068413573 0.039947968 0.0007063037 0.049996994 -0.023005988 0.20711088 0.110847935 -0.013412113 -0.014887327 0.04018341 -0.07484448 0.07281698 -0.010904269 -0.024301648 0.06989497 0.0011148817 -0.04507836 -0.05224767 -0.115589164 0.22058448 -0.14441527 -0.03023679 0.03412395 0.0369887
12 -0.13528268 -0.3203696 0.20317796 0.24124973 -0.14901002 0.03977648 -0.22400512 -0.13305548 -0.12843822 -0.08311294 0.22575466 0.22928302 0.04097475 0.06792257 -0.10495528 0.19494219 -0.23764195 0.062717274 0.20029026 0.07156105 0.18765788 -0.0010209067 0.050615393 -0.03258827 0.24281608 -0.06438077 0.10760456 0.19375852 -0.022428062 -0.08835163 0.050335534 0.10861522 -0.0042000944 0.024922026 -0.011334869 -0.062218778 -0.026185242 -0.051277593 0.01980165 0.025647298 -0.03721398 0.06739394 0.02735915 0.05931092 0.033504643 -0.042370737 0.17590588 -0.054197773 0.021709366 0.0315198 -0.10006258 0.09054742 -0.05845516 -0.0688564 0.016084185 0.031506002 -0.0012998289 -0.02141102 0.051628813 0.18137771 -0.13006416 0.111995116 0.081859566 -0.05757697
15 -0.1310777 -0.30791375 0.10924386 0.24512969 -0.10211593 -0.021439213 -0.16692497 -0.07264371 -0.10988542 -0.053152 0.17376907 0.20420678 -0.046862844 0.07275389 -0.14605585 0.1626651 -0.1899162 0.10648286 0.26877385 0.19568478 0.19073626 -0.01466226 0.021162817 -0.0050240066 0.2626292 -0.09204864 0.15872645 0.15313053 0.08962447 -0.15335695 0.06418071 0.14871544 0.03478176 0.012323042 0.0013260572 -0.01946087 -0.0534088 -0.037116736 0.027332697 0.0203599 -0.022457361 0.14154865 0.021390371 0.019671177 -0.073708355 -0.17168462 0.08140925 -0.034919742 0.03347666 0.060675535 -0.15346415 0.083279155 -0.00011486385 -0.01048133 -0.00434275 -0.00093307847 -0.04746681 -0.06723092 -0.00722446 0.076124474 -0.0412665 0.103905246 0.11489287 -0.11389366
17 -0.05671916 -0.2561312 0.20208196 0.20803769 -0.15382728 0.012753573 -0.16675194 -0.057236023 -0.08324502 0.047612917 0.06490883 0.17927656 0.010780253 0.108222775 -0.12642974 0.16415901 -0.2479257 0.1120046 0.28260165 0.17924972 0.23643543 -0.008720492 0.021086095 -0.029063433 0.29486528 0.03002779 0.19484223 0.17713436 0.075663485 -0.19896518 0.020905273 0.11331865 0.05413431 0.0128541775 0.008892603 -0.042669643 -0.085048676 -0.025273135 0.01061217 0.019002683 0.0057921703 0.13226202 -0.007839129 0.0283023 -0.037952133 -0.20951726 0.07444376 -0.016271533 0.028517345 0.01763711 -0.07684464 0.0577486 -0.04681498 -0.04520343 -0.022021491 0.013642549 -0.02737023 -0.012778283 0.026480567 0.011701513 -0.0029450618 0.13169718 0.14121608 -0.18093097
1 -0.13646881 -0.3897441 0.2483087 0.22984985 -0.021018712 -0.020396223 -0.23166439 0.083556496 -0.06329567 -0.26793718 0.4991136 0.029733913 -0.10360718 0.036967736 -0.16869438 0.08064222 -0.48387113 0.0055792546 -0.040657084 -0.36951864 0.34137776 0.054080177 0.074833065 -0.24127749 0.20724171 -0.10073078 0.12526001 0.09798483 -5.4906726e-05 -0.23686148 0.10570099 0.23243724 0.041601837 0.024871845 0.02449292 -0.038759615 -0.07574209 -0.024295246 0.050543647 0.011239061 -0.010906572 0.061562918 0.0229647 0.043483514 -0.046119515 0.090442136 0.20585999 -0.07779485 0.031410903 0.052850213 -0.14067484 0.08198581 -0.0123599665 -0.020138722 -0.005522087 0.001208909 -0.05547329 -0.07145815 0.025896247 0.1128512 -0.099656045 -0.0015365524 0.04060316 -0.010405398
20 -0.17021716 -0.31610274 0.07110779 0.15527363 -0.20655549 0.060924932 -0.16299486 0.007322306 0.03275823 0.0775348 0.032797046 0.14180958 0.02757764 0.13571697 -0.16117193 0.17074345 -0.22725844 0.10743011 0.243252 0.16205762 0.23192632 -0.0031365007 -0.009191832 -0.04526251 0.34690452 -0.051345352 0.12997012 0.18289717 0.12324325 -0.21495152 0.018724907 0.07420506 0.07586215 0.0020021866 0.055718042 0.058641206 -0.07733399 0.027268417 0.07355734 -0.019603232 0.03047158 0.09397911 -0.0026465866 -0.0023108558 -0.09358861 -0.1419855 0.050790977 0.043605957 0.009762032 -0.008284323 -0.0052763047 0.028599653 -0.052406434 -0.055378906 -0.0014010296 0.03225937 -0.080960274 0.015886372 -0.060963713 -0.05494047 -0.064615026 0.06887674 0.24135374 -0.13918148
9 -0.16363177 -0.30310106 0.1262654 0.25987232 -0.13615718 0.035730485 -0.20871915 -0.22114794 -0.18354046 -0.13780156 0.20992437 0.2579507 -0.0069992137 0.07149128 -0.16320893 0.22575171 -0.36480966 0.028416913 0.0864859 -0.138183 0.26435277 0.028713731 0.05576484 -0.1342531 0.20280935 -0.09994705 0.105138265 0.18673715 -0.0843728 -0.060751364 0.10581792 0.17150818 0.01979827 0.016044555 -0.038735595 -0.091737166 -0.0574365 -0.07388668 -0.026888922 0.044752378 0.030438906 0.07803477 -0.010042087 0.032181773 -0.08859116 0.11893145 0.095545486 -0.06440667 0.013258554 0.05141188 -0.13185073 0.08747698 -0.018124597 -0.014807789 0.0141321 -0.0260515 0.017973708 -0.08528184 -0.053929556 0.24959703 -0.17805256 0.12887734 0.077411465 0.03004679
5 -0.16855727 -0.3390395 0.1026064 0.120497264 -0.2031506 0.026687652 -0.16617538 0.10085988 0.070073314 0.10275296 0.036177315 0.06549614 -0.006338983 0.115035646 -0.2117797 0.14835516 -0.19594228 0.09976516 0.22859143 0.15157948 0.19798343 -0.0076137045 0.009541551 -0.028094836 0.4051078 -0.08960472 0.16772299 0.16243501 0.25084308 -0.27023935 0.014930678 0.083397694 0.0275614 0.002466483 0.038677365 0.06796123 -0.015105209 0.016494617 0.076610215 -0.019367572 -0.07882657 0.066867545 0.075220406 0.007500495 0.09995363 -0.20002542 -0.008303756 0.107343614 -0.011412256 -0.006088067 0.03188507 -0.010164314 0.0063594617 -0.008730108 0.028974468 0.02752074 -0.084768355 0.031756856 -0.059678067 -0.04979934 -0.035587605 0.06111202 0.15837902 -0.06788173
18 -0.17235847 -0.40617305 0.24814352 0.12272653 -0.10592864 0.010546657 -0.23586288 0.195387 -0.14057963 -0.23732248 0.60891986 0.13051823 -0.034091484 0.056393087 -0.038532358 0.0532513 -0.5748744 -0.002291383 -0.054169256 -0.43903604 0.40202805 0.067923374 0.0789371 -0.28744254 0.27685115 0.1423652 0.15056801 0.12594835 -0.10295047 -0.23387326 0.13043006 0.3150079 0.059497375 0.036084086 0.039452974 -0.0042160354 -0.09274252 -0.04750419 0.12501718 0.009079397 0.020325739 0.06787771 0.06659743 0.045707896 -0.0060582953 0.18618292 0.19684573 -0.011976453 0.012005273 0.008654342 -0.03618098 0.023848295 -0.017067472 -0.013742125 -0.012734405 -0.0016503036 -0.075727865 -0.054221943 -0.079863206 0.22027175 0.08058922 0.079647474 0.06385301 -0.08921804
4 -0.16148266 -0.4237303 0.24895333 0.18499063 -0.052605085 -0.004325034 -0.23844934 0.17817707 -0.13633154 -0.272553 0.61298895 0.15346293 -0.056590773 0.059592076 -0.03404054 0.052882396 -0.55942106 0.013194671 -0.035953585 -0.39234075 0.41050324 0.066139616 0.050576992 -0.28636906 0.27700904 0.045449972 0.134644 0.0952993 -0.16504994 -0.27653593 0.06229165 0.22890049 -0.0019660725 0.022483261 0.017362598 0.06744633 0.01170982 -0.051138055 0.13493629 0.0024482918 0.034232553 0.07524766 0.03814172 0.052226532 0.0019040648 0.14706478 0.21531795 0.04257484 0.017584968 0.017801952 -0.0559482 0.029676953 -0.008932237 -0.008229733 -0.015137601 -0.0016144695 -0.03844079 -0.044235107 -0.031349894 0.25009006 0.0722376 0.017263185 0.013815053 -0.09089815
21 -0.13982108 -0.38958958 0.26614994 0.2952838 -0.21266592 0.064737685 -0.2704375 -0.1492911 -0.2064139 -0.27552396 0.31253636 0.18550792 -0.06492401 0.076938435 -0.1711942 0.13465807 -0.40339208 0.016172266 0.01597629 -0.23285668 0.29639786 0.043305453 0.036688235 -0.18830518 0.22423643 -0.14024474 0.154875 0.101275064 -0.17339475 -0.07165555 0.07708283 0.17406681 0.050044887 -0.017193966 -0.06096473 -0.036210634 -0.056530733 -0.06882951 -0.06753129 0.04673407 -0.028554462 0.06884194 -0.0009920679 0.020130914 -0.043461207 0.2090027 0.10256804 0.0050735264 -0.014389253 0.058299337 -0.107143484 0.0815626 0.011021338 -0.0032980437 0.07487138 -0.014796757 -0.006545328 -0.06235276 -0.113465376 0.2285439 -0.16932517 -0.016638799 -0.013904261 0.09351389
16 -0.06822089 -0.25978267 0.18302588 0.15979286 -0.22661914 0.114920005 -0.16433957 0.010777697 -0.026979519 -0.0020337307 0.082805924 0.20753807 0.03544417 0.10984801 -0.13759443 0.14219865 -0.19471815 0.11973516 0.27790913 0.21906443 0.21303858 -0.012752963 -0.005845727 -0.017047534 0.3020528 -0.08397202 0.12128338 0.12919222 0.09737148 -0.3159067 0.023448281 0.11647013 0.065847255 -0.022582408 -0.014211876 0.049832843 -0.049375877 -0.021043712 -0.0051142806 0.012515688 -0.006751998 0.097541004 0.09900261 -0.06644572 -0.029042965 -0.26659745 0.10752726 0.083431914 -0.007092043 0.015723554 -0.010147121 0.010813629 0.01983839 -0.003375386 0.04149187 0.029095443 -0.09294661 -0.01649315 -0.037428495 0.00083446555 -0.0007625885 -0.0030655735 0.20632985 -0.21301411
10 0.027564488 -0.15079989 0.1864054 0.24292971 -0.09766625 0.023352208 -0.118265845 -0.14627661 -0.16814391 -0.07678739 0.07586418 0.23070616 0.026861344 0.08691461 -0.029012306 0.13187525 -0.2870709 0.095858276 0.25032198 0.12112873 0.2562774 0.0016365999 0.018343776 -0.05721824 0.33349475 -0.14714141 0.13065335 0.25036597 0.0061190664 -0.11830429 0.15661184 0.21174921 0.08333386 0.022112355 0.018207211 -0.075253524 -0.1353586 -0.031411134 0.020592326 0.020270258 0.11292713 0.10416532 -0.05307975 0.04779017 -0.048376873 0.06407049 0.1454989 0.0143031925 0.033219077 0.060305607 -0.19535859 0.15249127 -0.088242576 -0.07644204 -0.00030328397 -0.017833715 -0.004805442 -0.06855153 0.043129005 0.18144168 -0.09641041 0.2350192 0.12869011 -0.05806455
23 -0.15707745 -0.33204406 0.2265308 0.24834563 -0.19621563 0.07787813 -0.25784314 -0.21849726 -0.21633567 -0.16883065 0.1891604 0.30213058 -0.010880497 0.08944358 -0.14287972 0.15407275 -0.38695186 0.013626466 0.041067753 -0.19360022 0.27901924 0.03970132 0.037815828 -0.16568886 0.2630683 -0.113409154 0.11667806 0.12920737 -0.17908062 0.021330584 0.11809442 0.1739155 0.06061139 0.00592442 -0.053033836 -0.095186755 -0.10021763 -0.09204332 -0.0489971 0.05959896 -0.028183527 0.14458151 -0.0018489145 0.07104348 -0.02958858 0.10301269 0.10185876 -0.04628754 0.009601032 0.06774454 -0.15952516 0.109841526 -0.01406798 -0.018951539 0.038813565 -0.021714088 0.00683966 -0.066100314 -0.107881494 0.25451282 -0.12023212 0.0924232 0.0014809285 0.09166994
11 -0.2265136 -0.4879834 0.25470832 0.29067743 0.09634872 -0.1379315 -0.28773355 0.03826164 0.014661929 0.00036600704 0.12571713 -0.06679763 -0.09874537 0.0037635867 -0.14992979 0.13947837 -0.29034743 0.062979676 0.13368732 -0.03694768 0.23522456 0.012055354 0.04856924 -0.09326801 0.10336693 -0.14318861 0.085027546 0.14567764 0.32065853 -0.1696089 0.029161982 0.08953674 -0.035566088 0.0123945875 0.020057073 0.03388698 0.045168005 0.0044231173 0.054308258 -0.007698052 -0.043666154 -0.017769044 0.034829397 0.0144460285 -0.012335472 -0.13797775 0.08538312 -0.03480126 0.03215169 0.017674075 -0.07171771 0.048627272 -0.03560524 -0.04145034 -0.023619575 0.026761796 -0.001010654 -0.002260087 0.07414681 0.014559744 -0.19996451 0.048759356 0.13681626 -0.051232327
22 0.059262738 -0.111682445 0.16313037 0.22567837 -0.17600918 0.05428243 -0.08979688 -0.16171275 -0.19281735 -0.14192039 0.121648096 0.2533566 0.053079415 0.10451618 -0.01883024 0.123730704 -0.3353251 0.09541392 0.28639084 0.12673438 0.28133664 0.0023610748 0.03621152 -0.0570625 0.36800173 -0.15119427 0.15097533 0.199237 0.009242456 -0.060827535 0.17281175 0.20200351 -0.008300403 0.0074096858 -0.05467826 -0.12693635 -0.029657142 -0.051773164 -0.09156531 0.041244917 0.049821243 0.11818266 -0.072980106 0.07600373 -0.03152591 -0.0046792165 0.15371363 -0.014122181 0.038312163 0.031798977 -0.13628851 0.1114392 -0.09087935 -0.0787716 -0.025709596 0.0024018835 0.014834424 -0.012829969 0.05708377 0.14180996 -0.050611813 0.23404561 0.097170316 -0.085123435
14 -0.30686378 -0.4357062 0.15118566 0.13701569 0.061576724 -0.10597651 -0.2654948 0.036608502 0.17966121 0.15458971 0.03223069 0.04113561 -0.02155404 0.046104744 -0.18264507 0.12048622 -0.277175 0.045927223 0.12290269 -0.025336884 0.2205792 0.017444769 0.022946423 -0.090361334 0.2979287 -0.25401673 0.06961456 0.16345412 0.54742247 -0.19511746 0.017502163 -0.003015464 0.010161742 -0.0039302073 -0.0008738167 0.055239253 0.008167549 -0.020308258 0.042828757 0.003304478 -0.085777126 0.046091225 0.07029419 0.042747397 0.108966455 -0.11417577 0.0492362 0.10476502 -0.02809741 -0.03173047 0.08876424 -0.0072474563 -0.038650755 -0.058179993 0.06134014 0.06108496 -0.056257606 0.08079155 -0.04683084 -0.04571576 -0.028366819 -0.082347415 0.039549958 -0.020389449
8 -0.18072513 -0.31861922 0.11596475 0.08249858 -0.276866 0.08463707 -0.18264525 0.044530224 0.11557278 0.17842773 -0.08528874 0.0625424 -0.009363312 0.1397475 -0.30631483 0.1823442 -0.20535094 0.09862373 0.19114806 0.108089454 0.21220353 -0.001626072 -0.0022977889 -0.054736324 0.3822076 -0.15249896 0.14350818 0.12375021 0.2969211 -0.34556547 0.01655794 0.092298634 0.10630693 -0.017520377 0.016493896 0.08560122 -0.090753056 -0.016644826 0.053798106 0.0032290188 -0.030892637 0.13186799 0.074003324 -0.042068787 -0.012347932 -0.115591474 0.045327373 0.09999065 -0.03011595 -0.012089982 0.069654405 -0.031748027 0.027491871 0.0070120743 0.056032874 0.028017128 -0.08016003 0.004450448 -0.042985886 -0.06497748 0.088968426 -0.122904494 0.030225346 -0.13382967
0 -0.17454855 -0.4210142 0.21062122 0.19517967 -0.058082923 -0.041376006 -0.22623864 0.14246732 -0.19128242 -0.310534 0.6135645 0.089311026 -0.07734146 0.02335842 -0.026417898 0.041415915 -0.5695953 -0.0075185695 -0.064057 -0.4485931 0.39409363 0.06843267 0.081071205 -0.28658834 0.27532235 0.118501715 0.20386432 0.14643444 -0.04227974 -0.19280764 0.11995379 0.30728248 0.030319821 0.03504444 0.052929055 0.06262201 -0.036987644 -0.036283016 0.17855603 -0.009570295 0.06724741 -0.0052222824 0.11444827 0.008549874 0.025894487 0.14763594 0.20609835 0.07377567 0.012941475 0.003380185 -0.020053722 -0.00336921 0.0059179105 0.014078788 -0.030891135 -0.01580732 -0.12384875 -0.07285075 -0.13627361 0.27341437 0.20277552 0.18053718 0.11930518 -0.19931144
6 -0.27560884 -0.3915183 0.04652165 0.057873398 -0.15189412 -0.0003950176 -0.18782656 0.15392993 0.16124246 0.29867452 -0.10209927 0.057017148 -0.004332464 0.10186904 -0.312321 0.2309934 -0.26914918 0.07581378 0.14479128 0.0013654376 0.23676866 0.0100991 0.025443 -0.09022405 0.36292782 -0.23356104 0.05025128 0.16018166 0.5180363 -0.36029127 -0.035799462 -0.020039435 0.010595409 0.020249238 0.024520522 0.06254125 -0.004424686 -0.037609726 0.12616165 -0.00264131 -0.030701164 0.0763015 0.022745982 0.087713845 0.17128207 0.03460116 -0.005344607 0.09430422 -0.021235509 -0.03570001 0.09140268 -0.03735819 -0.012852548 -0.014319888 0.01850331 0.020396877 0.02820436 0.053290814 0.028220147 0.05406949 0.12902631 -0.025713356 -0.06899748 -0.029773079
7 -0.2881434 -0.3875158 -0.002669389 0.0536942 -0.15052493 -0.014843047 -0.16826425 0.15938641 0.30826253 0.29437062 -0.06812465 0.02304219 0.064105295 0.15482391 -0.28726143 0.2259472 -0.28790277 0.06276635 0.18125156 0.03322275 0.23373616 0.010079205 0.029250016 -0.07313541 0.4274554 -0.254178 0.09359431 0.1858954 0.50698954 -0.23278798 0.0730335 0.02567865 -0.021117333 0.008716171 -0.022329014 -0.020602683 0.01687509 -0.03740347 0.015827196 0.00801911 -0.05718141 0.015269761 0.055709835 0.0410522 0.17287757 0.12086385 0.05714183 0.15383583 -0.06581854 -0.04476199 0.15099823 -0.03405672 -0.019271044 -0.0374186 0.10777707 0.04405688 -0.043535586 0.016114902 0.027575267 0.019139623 0.10075475 -0.10666061 -0.052754983 -0.13706134
13 -0.23142257 -0.46651274 0.3897819 0.25508812 0.33051226 -0.16830052 -0.35062975 0.027772918 0.24023946 0.046430122 0.21681945 -0.07662913 -0.11026474 -0.08058691 -0.12094094 0.06332706 -0.4501008 0.020817557 0.0140698515 -0.29468188 0.31763867 0.042677786 0.09256098 -0.19887178 0.05431091 -0.24996066 -0.044736553 0.15002014 0.31804892 -0.23404565 0.16548803 0.24898748 -0.055304896 0.027766138 0.053906858 0.02449522 0.054622687 0.035324067 0.079586305 -0.022220055 -0.0048172497 -0.098284476 0.044212405 0.004106729 -0.06650335 -0.29381606 0.1732455 -0.15252985 0.073087364 -0.0032087003 -0.07020463 0.0362853 -0.06993704 -0.07000463 -0.10082203 0.05557854 0.004456816 0.065253 0.14341001 -0.10481531 -0.26235422 -0.05397806 0.047660977 0.19350323
