26 64
3 -0.072743006 0.32322937 0.16539092 -0.18506975 -0.100872345 0.07335629 0.34191623 0.46552163 0.047382914 -0.053410437 0.12947015 -0.12743686 0.0116013745 0.10769201 0.12843736 -0.25198552 0.0065215733 0.111721374 0.04888582 0.20246902 -0.3367298 -0.13886379 0.011169134 0.43781406 0.17247681 -0.61435455 -0.16194803 0.34478065 0.014501472 0.55348957 -0.21872775 -0.0013874155 -0.1282462 -0.29004294 0.22436997 -0.033976916 0.1897554 0.041374434 0.40784577 -0.038962062 0.096921906 -0.005019837 0.037481286 -0.20205303 0.044345018 0.11408368 -0.10952216 -0.037800923 0.07615601 0.110067725 0.06632271 -0.1662664 0.027233515 -0.0075917137 -0.022886712 -0.026828816 -0.06728194 0.08149847 -0.16267543 -0.104938656 0.011903872 0.08957855 0.009703274 -0.2539585
25 -0.126589 0.322692 0.16706575 -0.17018184 -0.0757283 0.069503434 0.23600139 0.45935425 0.041992616 -0.06317158 0.1381834 -0.09407881 -0.00062122144 0.12591079 0.07877198 -0.18581623 0.0051213056 0.07015073 -0.013911815 0.12556064 -0.32470337 -0.13883124 0.048917312 0.41884094 0.1346652 -0.5308704 -0.22948629 0.3927954 0.023692774 0.57043165 -0.1822066 0.0022791952 -0.12002979 -0.31573966 0.25662288 -0.045807164 0.22544897 0.0685361 0.4455949 -0.023792945 0.11736375 -0.03927202 -0.00623702 -0.16611998 0.08675783 0.122377194 -0.1352738 -0.042735554 0.12511928 0.18415734 0.05868684 -0.17165492 0.029837044 -0.0001972056 0.014131783 0.012107233 -0.009431514 0.03737802 -0.1483176 -0.08075402 0.028338928 0.12085597 -0.033620276 -0.24126488
19 -0.039644152 0.33817866 0.21006112 -0.2306986 -0.13650702 0.09245463 0.33819 0.47433388 0.012707845 -0.051217046 0.06474147 -0.08509066 -0.048822686 0.1263271 0.122270696 -0.32511184 0.033691637 0.0971872 0.09210963 0.21329387 -0.309793 -0.10945172 -0.043503437 0.41719395 0.12981963 -0.6129933 -0.19629957 0.37140897 0.015853489 0.6009808 -0.17328513 -0.01788889 -0.1417007 -0.19731769 0.19010347 -0.005466099 0.21105362 0.0428136 0.26256776 -0.063275866 0.17621998 -0.034833994 0.025929028 -0.20556405 0.033996068 0.1204826 -0.14830035 -0.07673194 0.08735039 0.13809153 0.094479255 -0.12145591 0.045969106 0.010929519 -0.0013949669 -0.01715223 -0.05896179 0.05848061 -0.13072419 -0.11049981 0.004329201 0.120011196 -0.03892485 -0.36833367
6 -0.18614273 0.3635612 0.19051255 -0.11729442 -0.04250739 0.039130915 -0.11664158 0.4815487 -0.16031498 0.042663615 0.07189661 -0.05108112 -0.050916273 0.043882266 0.09491785 -0.39946723 -0.043707825 0.11977281 -0.040911764 0.06452537 -0.4331228 -0.32720464 0.044069726 0.52117014 0.16023023 -0.62011325 -0.24017158 0.52599525 -0.051715724 0.8076795 -0.2558516 0.050841484 -0.82467 -0.3786914 -0.7963855 0.17024739 -0.118774265 0.23047906 -0.2998904 0.06767577 -0.33202806 0.20502904 0.025256934 0.4643957 -0.0697972 -0.36130914 0.1315145 0.11262681 0.37813365 0.33049315 -0.11504979 -0.3083688 -0.2813847 -0.075292245 -0.039157484 0.24089217 0.21791884 -0.096520215 -0.05029902 0.22574405 0.11260541 -0.060968235 -0.13135156 0.5395794
17 -0.009328718 0.23756057 0.14281611 -0.07369904 0.05210149 0.11878309 0.025786635 0.1044334 0.19905972 -0.14822155 0.17585087 -0.13019036 0.05126467 0.056639213 0.14254256 -0.16211896 0.04643186 0.07273939 0.080766745 0.3759505 -0.09874653 0.17619422 0.069980666 0.20895658 -0.042349808 -0.23515096 0.019999715 -0.031515684 -0.11520663 0.26417857 0.011636441 -0.02962146 -0.83259183 -0.65816003 -0.101808175 0.1207407 0.28887835 0.22383308 0.57096386 -0.053363953 0.19098175 0.10447856 0.15052427 -0.078712925 -0.10783907 -0.053427745 -0.23294169 -0.14187847 0.5102295 0.28009298 0.49723998 -0.2651377 -0.1627652 0.060043123 -0.21336809 0.3735045 0.19061117 -0.10963063 -0.13344507 0.32459065 0.24210227 -0.13750952 -0.1586453 -0.25113714
2 -0.1521278 0.39524028 0.15565777 -0.17413124 -0.05202016 0.12786151 0.20588094 0.4096112 0.03283704 -0.06442698 0.15572262 -0.07717878 0.0030639218 0.087066405 0.015880516 -0.210437 -0.01763567 0.033817157 -0.08278219 0.068756536 -0.35051644 -0.17204893 0.066622816 0.42141798 0.10748967 -0.42952096 -0.119401224 0.35802075 -0.059913717 0.569647 -0.17623475 0.037986003 -0.17307831 -0.4121111 0.21916246 0.027748782 0.12368038 0.062050097 0.5330633 0.009041979 0.1381213 -0.051482517 -0.023003576 -0.20141543 0.06653375 0.15440515 -0.108304076 -0.05937445 0.10066926 0.1391274 0.16366218 -0.14883052 0.0874824 0.038487904 -0.008436309 -0.018689292 0.033052802 -0.03931366 -0.041742828 -0.1266157 0.104505464 0.17777221 0.042821493 -0.15235701
4 -0.08647166 0.41172472 0.23149337 -0.19496006 -0.18299058 0.16032764 0.37380716 0.50865084 0.0027718307 -0.041504625 0.148626 -0.1409235 0.020069888 0.062064223 0.152752 -0.24872477 0.039195098 0.09834661 0.0763914 0.15250155 -0.2612205 -0.12121494 -0.029971508 0.38075355 0.16761455 -0.63971215 -0.12571144 0.37929487 0.012039444 0.58400553 -0.20553683 -0.023415482 -0.15836345 -0.22179562 0.16763024 -0.0007246608 0.16491362 -0.012821953 0.24511509 -0.099737205 0.08908981 0.011065737 0.0607005 -0.22836114 0.040957548 0.12710576 -0.12100423 -0.038251903 0.074487396 0.1018283 0.038634505 -0.18943824 -0.0035125732 -0.010205783 -0.031185474 -0.036629725 -0.09688592 0.07681696 -0.16551386 -0.14222468 0.056116413 0.13189447 0.023322131 -0.39419118
15 -0.019385677 0.3031284 0.19066156 -0.117824055 0.035139263 0.033335853 0.02281606 0.1110753 0.22432254 -0.15747012 0.22458188 -0.16463041 0.075946584 0.07140982 0.10918452 -0.17803368 0.050820153 0.077183366 0.12525403 0.35536855 -0.10503856 0.14024282 -0.0003429523 0.20015773 -0.04103046 -0.2241197 0.04332164 -0.03771987 -0.11519489 0.23945482 0.020530308 -0.037829213 -0.7567581 -0.6137331 -0.10761759 0.09786452 0.24834955 0.22863795 0.58447057 -0.017414557 0.18998063 0.04790883 0.1001185 -0.07677541 -0.05372367 0.012386966 -0.22931021 -0.13457374 0.5278979 0.33904225 0.56078726 -0.33093482 -0.10273675 0.014469474 -0.23631264 0.34842774 0.22700582 -0.07721462 -0.14508477 0.3106528 0.17050196 -0.14228702 -0.16547666 -0.1816859
14 -0.14067012 0.32322317 0.30680117 -0.04731649 -0.0100551015 0.0669446 -0.15806259 0.34669366 -0.059173424 -0.005542261 0.04206233 -0.11423078 -0.04833206 0.062436946 0.24220726 -0.5018061 -0.03635022 0.15502886 0.014027959 0.07847916 -0.46814173 -0.39863828 -0.023545323 0.5760292 0.16554222 -0.5669125 -0.22559334 0.57652044 -0.034419518 0.79305923 -0.27184162 0.07888187 -0.6379325 -0.35333258 -0.7308581 0.15697256 -0.23181015 0.17378253 -0.20746146 0.08530365 -0.3523547 0.1905608 0.106695786 0.48540628 -0.05334842 -0.4014338 0.09117036 0.16010676 0.44624913 0.36035538 -0.080629736 -0.16568232 -0.3056945 -0.002326929 0.018728776 0.40894353 0.2363452 -0.07779656 -0.006359022 0.15093824 0.22774611 -0.14278002 -0.07856392 0.45055947
20 -0.0906541 0.27221414 0.18656704 -0.10364813 0.059079003 0.12793383 0.069485866 0.15154436 0.26969853 -0.19791542 0.27211493 -0.16498524 0.08035615 0.10848489 0.09156834 -0.15211964 0.039431356 0.072045326 0.041417867 0.43434587 -0.1875299 0.18144083 0.11929481 0.31467193 -0.066958986 -0.13477434 -0.040476236 -0.15141119 -0.1021524 0.14566912 0.027161907 -0.0121881785 -0.8547067 -0.6864917 -0.1533082 0.21864615 0.19546032 0.23321763 0.5472313 -0.045426063 0.21820854 0.08631369 0.18242688 -0.09250599 -0.09321366 -0.06282658 -0.26924863 -0.13107406 0.5387398 0.3139285 0.43198356 -0.23641326 -0.22546667 0.027510168 -0.21411958 0.4095035 0.07864065 -0.03381921 -0.18574859 0.26573387 0.1576416 -0.12202004 -0.1847057 -0.21069184
18 -0.052675005 0.36130837 0.21396929 -0.20787169 -0.1664363 0.11991337 0.34575993 0.46400672 0.04132661 -0.05177417 0.09641462 -0.11552667 0.0040756552 0.057680625 0.13253006 -0.25825816 0.027741646 0.07466587 0.06510451 0.18457162 -0.2956958 -0.10757147 -0.03910003 0.39140105 0.13724343 -0.6301202 -0.17233402 0.37365347 -0.020578578 0.6561616 -0.2093719 0.018913295 -0.15801163 -0.25798836 0.18651468 -0.045929845 0.23038363 0.026900468 0.283627 -0.09501178 0.10272188 0.043751977 0.06072321 -0.17849389 -0.02879866 0.0412095 -0.08376499 -0.056495123 0.057276763 0.07123641 0.10024997 -0.1658081 0.04782556 0.028537577 -0.023090323 -0.052182175 -0.09237612 0.13983165 -0.15770204 -0.22109367 0.04103567 0.07655182 0.07304538 -0.42067352
11 -0.18463533 0.44119766 0.23435317 0.0053487658 0.048146695 0.19162989 -0.20790853 0.35838646 0.123331934 -0.08537651 -0.071072474 -0.12389029 -0.0703919 0.13418056 0.36947724 -0.4367348 -0.009811674 0.11831285 0.11166468 0.10367642 -0.49797595 -0.3889248 -0.1727207 0.5657202 0.09582222 -0.5074862 -0.3413107 0.5152472 -0.10260036 0.881097 -0.24243611 0.108771026 -0.4776254 -0.24394841 -0.6490903 0.2586719 -0.35761252 0.14190668 -0.14905576 0.07915543 -0.38435537 0.3036169 0.09255049 0.3855164 -0.09849325 -0.3946317 0.12507649 0.12491414 0.49329492 0.3277421 -0.097604185 -0.19467895 -0.3784739 -0.05184643 -0.039096165 0.45648688 0.26588604 -0.13910194 0.06545944 0.17852472 0.31052706 -0.19374497 -0.07403055 0.4271731
24 -0.12236978 0.35685235 0.11724037 -0.20266132 -0.0015679426 0.060422577 0.1971227 0.42412683 0.004194025 -0.00689932 0.06370828 -0.111824304 0.0019510895 0.09301369 0.082991056 -0.2167341 0.021935344 0.05329596 0.03086835 0.08120776 -0.33538276 -0.16966651 -0.04376399 0.4131099 0.13582304 -0.55301577 -0.07506037 0.29625866 0.0062460406 0.47410354 -0.15448746 -0.037523057 -0.20751546 -0.38917115 0.28835297 0.092393346 0.14353985 0.043806642 0.54311436 -0.017088916 0.12094028 -0.13165031 0.019911388 -0.18600263 0.14970769 0.23638207 -0.17721 -0.019288458 0.17086984 0.21670772 0.10112144 -0.16252856 -0.021381792 -0.062959306 -0.06312841 0.028972264 0.04119414 -0.08093481 -0.011846187 -0.08650134 0.07775461 0.21808203 0.004854814 -0.09566916
16 -0.061825637 0.33928764 0.22927292 -0.10226071 0.08139702 0.1109459 0.029343503 0.10712948 0.28882015 -0.19539165 0.25180516 -0.16526096 0.089147575 0.08299748 0.065751575 -0.13568074 0.053769708 0.0511134 0.0732235 0.4172247 -0.14387146 0.20716223 0.06786165 0.2546587 -0.07289099 -0.109791644 -0.03299362 -0.10348569 -0.12068018 0.19103703 0.022402521 0.0055919234 -0.9354936 -0.7587537 -0.15970859 0.26950786 0.19764496 0.2361862 0.5812829 -0.083255984 0.19407389 0.086411186 0.19168438 -0.13267826 -0.075153366 -0.05061126 -0.25325844 -0.10420965 0.49702224 0.30153358 0.41925833 -0.22262219 -0.18478407 0.038329687 -0.19087678 0.36010146 0.11790179 -0.0077618007 -0.1288529 0.23830901 0.1643184 -0.19788682 -0.15974392 -0.15692016
10 -0.033185817 0.2410747 -0.011448971 0.0017972663 0.021968927 0.19883075 0.26822233 0.16766149 0.18657516 -0.11178624 0.19635402 -0.14633228 0.097343914 0.059444003 0.04181838 0.034209378 0.07629241 0.03396254 0.086947925 0.24974984 -0.088713355 0.15247175 0.021846859 0.19057591 0.06155431 -0.40898034 0.04320322 0.12898141 -0.03710783 0.31064233 -0.052062545 -0.07181492 -0.5936361 -0.56007874 0.010863302 -0.017303562 0.29361603 0.13153008 0.55697304 -0.046888802 0.3004398 0.021791091 0.019380556 -0.051910475 -0.1147632 -0.036318652 -0.18973266 -0.19733684 0.56234986 0.2455782 0.7032132 -0.23083803 -0.1452887 0.21238074 -0.23767664 0.375558 0.33124635 -0.06759498 0.08560286 0.16986807 0.08214096 -0.14418237 0.01595957 -0.025609765
5 -0.08511264 0.33013836 0.20796417 -0.14499982 0.12722458 0.10643835 0.06294525 0.11810811 0.29484895 -0.17262924 0.20262608 -0.17354971 0.09748811 0.07302126 0.085858695 -0.08912985 0.05636717 0.027626555 0.03708443 0.403802 -0.17311612 0.21847343 0.098345995 0.28649455 -0.08574705 -0.086114645 -0.056118295 -0.13024172 -0.11361684 0.1756627 0.019505756 0.031866763 -0.9374721 -0.76492774 -0.12699123 0.28249264 0.21908766 0.23612255 0.56956136 -0.093823776 0.19803861 0.06576797 0.22212693 -0.08937682 -0.06132194 -0.072445445 -0.2883875 -0.089595616 0.54028714 0.34518805 0.37564006 -0.20896558 -0.2373155 0.036627337 -0.17835748 0.3991374 0.15981044 -0.027823322 -0.1544349 0.23948412 0.21045142 -0.15936328 -0.181637 -0.17958924
21 -0.115779705 0.28893146 0.13210414 -0.17060433 -0.09397579 0.10007296 0.2888182 0.25701228 0.03464024 -0.040879905 0.054575216 -0.098667294 -0.012533314 0.0818753 0.12424109 -0.23053849 -0.020925354 -0.008682749 -0.1105356 -0.017114777 -0.3276732 -0.1903775 0.042796876 0.3707661 0.07047491 -0.36394215 -0.17650378 0.21203719 -0.085804395 0.54307497 -0.22007297 0.1615858 -0.32382604 -0.49634513 0.16904587 0.077183194 0.11554111 0.09366179 0.65483886 0.02991755 0.23944011 -0.147936 -0.026508892 -0.1327726 0.032570764 0.19604689 -0.14949027 -0.11603367 0.11512609 0.086686015 0.28677076 -0.1590968 0.07443077 0.03848024 -0.09093226 -0.014946756 0.07551321 -0.17658956 0.1284722 -0.01684853 0.15995741 0.14193593 0.07791008 -0.041871853
1 -0.09251352 0.3246909 0.0972699 -0.1876157 0.002587632 0.05041696 0.3246449 0.43549612 0.088947795 -0.059706558 0.130295 -0.13295923 0.02395153 0.13485606 0.0900039 -0.23324858 -0.022347404 0.08583171 0.017866703 0.12178647 -0.33089772 -0.1765831 3.3014599e-06 0.3776619 0.20268083 -0.6056274 -0.06417314 0.34269643 -0.029766697 0.5486653 -0.25023818 0.014047149 -0.11777159 -0.33519518 0.20315349 -0.014848905 0.075751424 0.016272182 0.55269915 0.019626245 0.061442725 -0.013941525 -0.03643802 -0.16627271 0.07962758 0.13275397 -0.07337644 -0.031729937 0.11695189 0.16383857 0.056635037 -0.17930311 0.015080801 0.008060547 -0.006214758 -0.01070237 -0.0014674122 0.030553663 -0.21412237 -0.1492822 0.028257549 0.28534907 -0.021287074 -0.18363671
9 -0.1469408 0.29745433 0.14444745 -0.23124991 -0.059722286 0.079722494 0.12183637 0.37140828 0.10204689 -0.021527193 -0.010886719 -0.0911123 0.03648408 -0.0042199465 0.111398436 -0.11118424 -0.037791178 -0.02300735 -0.1164744 0.02900343 -0.21624787 -0.07419505 0.087483965 0.22004162 0.02142415 -0.29571804 -0.05915403 0.11904861 -0.117723405 0.4536334 -0.15203997 0.14153223 -0.37958497 -0.47603095 0.043552004 -0.044356152 0.16829695 0.14829709 0.62714124 0.074727386 0.22635473 -0.07854359 0.04759187 -0.13971445 0.020750685 0.11082508 -0.20358853 -0.10200629 0.26811528 0.17648077 0.54244506 -0.20233978 0.10731698 0.05616596 -0.15834337 0.1295061 0.2629925 -0.20111686 0.030994778 0.13805412 0.23093271 0.06453107 0.015108682 -0.1631217
7 -0.20251168 0.32865354 0.18999968 -0.12091882 -0.07402187 -0.0055085556 -0.10936586 0.48857674 -0.21696414 0.07951873 0.07340242 -0.01879783 -0.05274789 0.03236453 -0.0034535348 -0.3703051 -0.05502657 0.12058057 -0.07048159 0.060465086 -0.3667512 -0.2791794 0.097597234 0.44768247 0.20498386 -0.70594174 -0.18141316 0.5438406 -0.04211687 0.8028809 -0.27682313 0.021203343 -0.86578596 -0.43932283 -0.85561603 0.2362056 -0.15347426 0.28200954 -0.281106 0.036432862 -0.35706922 0.16700234 -0.020516606 0.56615746 -0.03893522 -0.40150285 0.14463516 0.13490087 0.3809485 0.4181528 -0.12292713 -0.2809315 -0.17870045 -0.017214064 0.07927631 0.2610349 0.16466658 -0.11648031 -0.029682457 0.16503243 0.13692458 -0.04710754 -0.12345734 0.39749622
12 -0.015893564 0.32044068 0.1754365 -0.035365596 -0.123058654 0.12187425 0.19027615 0.2394999 0.11107774 -0.07788681 0.15192057 -0.1545291 0.070939496 0.024740638 0.1925134 -0.11490378 0.040482238 0.08364832 0.118756406 0.1991927 -0.052917894 0.039272122 -0.024820039 0.1319214 -0.0064491522 -0.22745846 -0.05974633 0.024672005 -0.04684401 0.23233671 -0.02171741 -0.015518626 -0.6410662 -0.5622367 -0.04243569 -0.011985705 0.2689343 0.17851259 0.6691349 -0.0070299497 0.21916124 0.023415826 0.07116499 0.078330144 -0.107842095 -0.044454552 -0.22124845 -0.17479296 0.4964591 0.26960945 0.57391685 -0.37013912 -0.119562656 0.030148583 -0.26896462 0.29689264 0.22551852 -0.15680465 0.002585374 0.20283112 0.15171379 0.007969487 -0.021958193 -0.19997852
0 -0.04803486 0.33795908 0.21729311 -0.22012398 -0.19411772 0.14491332 0.4734641 0.50081366 0.097540796 -0.0865894 0.09086471 -0.11358331 -0.007850858 0.12763134 0.15806015 -0.2137583 0.011670037 0.0658091 0.049051434 0.13014737 -0.25015086 -0.10811704 -0.02555473 0.3139681 0.19662037 -0.65108764 -0.20494202 0.40009582 0.033225644 0.6070429 -0.26446477 0.036750384 -0.17364155 -0.17349884 0.081058554 -0.067518756 0.16731663 -0.0024886183 0.2426022 -0.07164293 0.100498416 0.05797567 0.06550873 -0.20969109 -0.0028260218 0.04957704 -0.11363909 -0.053428717 0.07944479 0.07865084 0.13886133 -0.18049991 0.03240956 0.009139636 -0.055393197 -0.02445175 -0.11183668 0.112270616 -0.18164128 -0.12466457 -0.009808458 0.096886426 -0.00095800584 -0.5111024
23 -0.19701703 0.26027507 0.15607215 -0.15389645 -0.16457377 0.19342569 0.13855076 0.29350212 0.04574929 -0.050518647 -0.0028578537 -0.052513786 -0.03387178 0.07375109 0.11881811 -0.10925139 -0.01052664 -0.08714369 -0.17938343 -0.12757187 -0.29091567 -0.16860396 0.055762958 0.31613746 0.048473615 -0.38467678 -0.204843 0.21827133 -0.037047356 0.5230516 -0.1825172 0.13920909 -0.4144662 -0.48266602 0.14171216 0.053896546 0.1952952 0.11814706 0.6010736 0.04398523 0.21285418 -0.16336872 0.044963643 -0.14787503 0.08986344 0.20905447 -0.2212119 -0.07222414 0.17208622 0.113983735 0.406175 -0.15609527 0.0691413 -0.056966595 -0.18192917 0.065686755 0.02316674 -0.25819355 0.2834429 0.042072024 0.15283473 0.084623225 0.104139045 -0.1371358
13 -0.16252385 0.4945848 0.25873676 0.07123518 0.15480514 0.184114 -0.36311498 0.44672534 0.16123836 -0.12641522 0.00858749 -0.13284639 -0.045090996 0.1294692 0.35454667 -0.3802836 0.013199511 0.0726239 0.13728857 0.06824155 -0.5780302 -0.42958194 -0.25981992 0.63379735 0.040228404 -0.52521837 -0.3851777 0.42763892 -0.11943095 0.895417 -0.19517605 0.10239851 -0.4066523 -0.08068269 -0.5684774 0.3482033 -0.39058942 0.10501902 -0.07607394 0.0028301287 -0.41449162 0.32230562 0.041325502 0.45179287 -0.09783594 -0.45886758 0.14062668 0.122105174 0.51773685 0.3131479 -0.04100369 -0.15873826 -0.3527567 0.10223237 0.033722967 0.4948786 0.22614203 -0.21717304 0.13309497 0.23402317 0.3824843 -0.23398 -0.07948268 0.2647172
8 -0.13310722 0.24747102 0.19332172 -0.19030628 0.16067262 0.04437298 0.002477706 0.09184873 0.3309059 -0.16829348 0.18905228 -0.21041213 0.12451284 0.055110637 0.11091364 -0.075429544 0.06266645 -0.001994941 0.0134973135 0.43573827 -0.20003702 0.26115036 0.11135195 0.31487033 -0.10999064 -0.16180235 -0.06725716 -0.24251834 -0.1452127 0.21244705 0.0052623334 0.0651107 -0.95037675 -0.78301984 -0.107736155 0.31941804 0.2259375 0.23832369 0.5229151 -0.118249275 0.20270841 0.043007467 0.2541669 -0.10324342 -0.05421294 -0.053400237 -0.3036742 -0.07764441 0.57536227 0.3541328 0.33960748 -0.21344562 -0.30672914 0.012699855 -0.20431776 0.43118888 0.08923663 0.054455858 -0.21661949 0.19056508 0.19951108 -0.20722942 -0.16592458 -0.14057697
22 -0.012681499 0.10144011 -0.08370964 -0.10603729 0.08261343 0.072517805 0.16887303 0.20590678 0.11878275 -0.06640306 0.06387092 -0.051433697 0.026427504 0.061881468 -0.025037669 0.023162212 0.08677526 0.023233706 0.19959275 0.28043345 -0.044847228 0.17087923 -0.12743743 0.094692774 0.08825566 -0.5207343 -0.18467072 0.22255407 0.08502359 0.34433013 -0.04834257 -0.13156638 -0.5871691 -0.5646751 -0.08996179 0.059857372 0.20326884 0.20459646 0.6085742 -0.07342054 0.45011485 0.028964689 0.0271147 -0.13016553 -0.23360218 -0.029476644 -0.19630161 -0.3006103 0.5769759 0.15561305 0.86604804 -0.119294174 -0.12891021 0.39745724 -0.23248982 0.38934168 0.52091396 0.04324673 -0.012935742 0.11876328 0.05653036 -0.19674988 0.028700557 0.03198314
