26 64
25 0.020072222 0.015163256 -0.06702894 0.09961538 0.0015265066 -0.002432764 -0.040604826 -0.054772895 -0.1654178 -0.13486975 0.31246412 -0.27810708 -0.10684452 -0.20911665 0.087117806 -0.18885583 -0.08107404 -0.11439469 0.16201204 0.19847547 -0.057757054 0.10767131 0.19887082 -0.27054787 -0.11096044 -0.07428096 -0.05125501 0.06047261 0.08814637 0.022736235 -0.0103696985 0.103591345 0.09631662 -0.046563905 0.046328586 -0.0126171475 0.021773374 0.049054153 0.013821445 -0.036243964 -0.0025851133 0.018280601 -0.014237128 -0.015658433 0.023096556 -0.033116043 0.01304868 -0.0016167136 -0.002872623 -0.00035718057 -0.00022699685 0.021446468 -0.011899717 -0.0044738157 0.010535824 0.0129029965 0.03108707 0.013771104 0.012989102 0.0388804 -0.0048950193 -0.04002135 -0.019028887 0.017943017
3 0.0052795312 0.012260293 -0.04449622 0.13584985 0.03264955 -0.048917837 -0.065560706 -0.12717797 -0.19624183 -0.16135006 0.34623876 -0.32843062 -0.14242803 -0.25192896 0.09783942 -0.19742987 -0.043300837 -0.11519539 0.14693928 0.09316763 -0.0018763829 0.115519926 0.12066418 -0.20302622 -0.07253541 -0.05951162 -0.02101208 0.05797454 0.099261306 0.024077754 -0.008523159 0.10373431 -0.03132136 0.030851029 0.023983195 0.028389772 -0.0016600068 -0.0014068565 0.04869434 -0.027561843 0.019480228 -0.003780194 -0.019115357 -0.027874079 -0.0009885626 0.016022794 0.0072454163 0.0030780528 0.010887184 0.0017284872 -0.01166152 0.0071985326 -0.0021543954 0.006813178 0.006791402 0.0041381987 0.036786877 0.03182484 0.0681831 0.06472515 0.09247859 -0.050275583 -0.048832286 0.08957579
24 -0.025494128 0.08379442 0.030255336 0.13640389 -0.0042016483 -0.017206797 0.050422736 0.018215833 -0.10720978 -0.08694648 0.2584965 -0.33873808 -0.09720346 -0.15791498 0.07348055 -0.15264201 -0.060964663 -0.1646265 0.18754697 0.19083142 -0.008614375 0.11279752 0.16925728 -0.3358122 -0.09035585 -0.016237115 -0.10137458 -0.007789195 -0.0013056076 -0.0097055305 -0.023511156 0.049325097 0.032294463 0.039353102 -0.011909421 0.02028087 -0.03383832 -0.0034606904 0.0027280655 -0.005355426 -0.02088425 0.039351184 0.0048208 0.004753789 0.027685374 -0.014989105 0.016910821 0.018385101 -0.0068915775 0.00830694 -0.023826672 -0.0366486 -0.017671904 0.012198641 0.006195647 0.023804031 0.005206168 -0.053912584 0.026444783 -0.04916607 -0.048087355 0.11250803 0.02421838 -0.017976819
19 0.006059761 0.013005156 -0.14470868 0.09382403 0.06215858 -0.03130302 -0.0036534641 -0.19147262 -0.2161029 -0.13204502 0.32578728 -0.3135096 -0.18069746 -0.26868975 0.13718417 -0.21097843 -0.0022292407 -0.11315339 0.12253371 0.09205383 0.026503593 0.08105952 0.14343941 -0.23237018 -0.10552006 -0.07867894 0.035421997 0.042393416 0.10725722 0.014721611 -0.003223116 0.064183325 0.0002377521 -0.044721324 0.029685574 -0.025542023 0.050315965 0.043979112 0.01119686 -0.026762828 0.035956312 -0.08007685 -0.001162033 -0.0053667994 -0.053169493 0.06977488 -0.05775473 -0.02510891 -0.0045711864 0.0075213527 -0.013579584 0.049951665 -0.03325237 -0.052537642 -0.02283969 -0.012996801 -0.013516806 -0.008364845 -0.01203444 0.031703867 0.04471603 0.013217536 -0.0370277 0.037000842
15 -0.09861144 0.106308654 0.24035855 0.12917466 0.490356 -0.16044034 0.124017544 0.068836756 0.08982944 0.02249893 0.3094779 -0.20764847 -0.02626016 -0.073967844 0.18794675 -0.15878618 -0.17790635 -0.121739686 0.17901011 0.3910565 -0.11949444 0.07755188 0.28314656 -0.37635103 0.0034323458 0.06760923 0.1555932 -0.08632244 -0.09392071 -0.053430185 0.037938014 -0.19770087 -0.10354438 -0.095477365 0.10115539 0.0059751654 -0.13595128 0.05839993 -0.034283284 0.06993248 -0.058949504 0.08107422 0.028192401 0.06340524 0.028845765 -0.011171365 0.062311497 0.08191864 -0.066256516 0.01972599 0.047236666 -0.11184129 0.021467397 0.044299293 -0.0076649277 0.0007676427 -0.16392593 0.023925856 0.018911567 -0.047009747 -0.09404441 -0.1298639 0.05665023 -0.070844464
2 -0.032672808 -0.011404268 0.012359053 0.15258457 0.010700556 0.004516561 -0.018342678 0.0996758 -0.16461109 -0.12282144 0.31421757 -0.2492368 -0.10402306 -0.20474131 0.0988106 -0.20379098 -0.020143064 -0.161062 0.18886848 0.14420937 0.0012391247 0.12688608 0.18678479 -0.3237034 -0.06384951 -0.04306859 -0.07698656 0.030794239 0.052891366 0.0046970816 -0.037335712 0.07405662 0.04975656 0.008416947 -0.001710588 0.013240508 0.020481363 0.0017016227 0.019557131 -0.033994284 -0.010730345 0.021013316 -0.015760878 -0.011982428 0.03062738 -0.017169144 0.0020632506 0.01463413 -0.023670433 0.010828028 0.0006959126 0.01909387 -0.028944017 -0.02498363 -0.006197903 0.0063629015 -0.028114183 -0.010403301 0.026511561 -0.045753587 0.013432549 0.006529648 0.025998926 -0.006764093
17 -0.050443243 0.02185263 0.30269957 0.048030376 0.4981581 -0.14421901 0.011680391 0.16916813 0.13747078 0.043458417 0.32688174 -0.28529644 -0.060445655 -0.07922835 0.21582077 -0.1371224 -0.19453546 -0.13322395 0.15903421 0.41564804 -0.10235639 0.04363133 0.24326886 -0.4026795 0.023318872 0.10767308 0.19505012 -0.15574266 -0.05716899 -0.0570062 0.054080196 -0.12486341 -0.14925897 -0.13695395 0.08380723 0.00065456395 -0.025785444 0.039725 -0.011582205 0.02817891 -0.039985746 0.022189101 0.056784563 0.102479085 -0.033008795 0.008716122 0.046321247 0.050659623 -0.037235823 0.00042222315 0.06991623 -0.0482817 0.050058573 0.018513516 -0.020891987 -0.039983522 -0.16022697 0.033899467 0.033276755 -0.113617614 0.0382518 -0.1721395 0.08802214 -0.04916085
12 -0.05651792 0.0048457882 0.19537759 0.048112873 0.3991754 -0.09907739 0.018346924 0.13637885 0.05837259 -0.01206635 0.34859687 -0.20160158 0.00746171 -0.06984622 0.14448377 -0.19977333 -0.114332244 -0.15913507 0.21344785 0.29518718 -0.05629555 0.12407005 0.26616716 -0.38069746 0.07196181 0.036147553 0.06785065 0.01627476 -0.028348787 -0.049319904 -0.061172478 -0.16936041 -0.13540249 -0.015534484 0.040333748 0.035089716 -0.102767006 0.013308029 -0.0076023936 0.041078545 -0.05794509 0.08327698 0.042279642 0.06945638 0.033536248 -0.038684763 0.061013885 0.051999524 -0.04176853 0.00843391 0.056406625 -0.08769554 0.047485486 0.03613435 -0.019519096 -0.030530984 -0.18126956 -0.01026719 -0.08643335 -0.06770419 -0.046819646 -0.041574325 0.04230129 -0.08560148
9 0.004246528 -0.019012658 0.108810425 -0.093007505 0.16656339 -0.012566753 -0.011835673 0.119966276 0.018270213 -0.017368438 0.33096808 -0.23803678 0.009776554 -0.061160658 0.10271844 -0.22205412 -0.076705426 -0.20110129 0.23599364 0.2578604 -0.0024791756 0.13892363 0.24855292 -0.42629305 -0.052881014 -0.0016755552 0.04531857 0.0039279927 -0.031164566 -0.030198118 -0.005043249 -0.11187742 -0.02610801 -0.006885928 0.046904873 0.06110744 -0.075066105 0.040746838 0.026885726 -0.031884238 -0.062455356 0.14652155 0.043918896 0.030924067 0.09447277 -0.06635771 0.075121365 0.033598576 -0.039691802 0.00059247477 0.020109309 -0.11072406 0.0144680375 0.0474506 0.012351133 0.031557128 -0.18166421 -0.018145924 -0.09137703 -0.051563714 -0.09489089 -0.026603099 0.03668337 -0.09594823
1 -0.01615086 0.115429595 -0.0115411375 0.16748707 -0.011572478 -0.03227259 0.0011798199 -0.08528926 -0.0716899 -0.07503248 0.29419938 -0.3382869 -0.1575856 -0.2020787 0.15021431 -0.12973014 -0.113687955 -0.14769575 0.16242391 0.1450436 0.004230509 0.12656273 0.11162779 -0.2557929 -0.09732176 -0.03275033 -0.07272887 0.00086387806 -0.0021905256 0.017523395 0.026302457 0.07296995 -0.097875945 0.022931138 -0.061367314 0.007819459 0.044630036 -0.05274744 -0.004831815 0.005338377 0.03594798 -0.025050052 -0.0022885175 -0.036696337 -0.011091991 0.018504065 -0.020743145 -0.047374967 0.046459574 -0.023378592 0.004641997 0.052397363 0.031040503 -0.0030424485 0.0053107534 -0.022008954 0.06818774 -0.027187772 -0.05032738 0.011647485 0.06724544 0.094404675 -0.032202452 0.028997673
5 -0.04230294 0.12687531 0.32280117 0.09706335 0.528823 -0.1413338 0.010651605 0.17981467 -0.0113664 -0.004276818 0.22591305 -0.22826576 -0.19051166 -0.19591871 0.2408447 -0.07533956 -0.27173924 -0.086245134 0.12787758 0.48339185 -0.1876418 0.033334907 0.29413 -0.37976927 -0.03907118 0.12629569 0.23589809 -0.24590066 -0.19936334 -0.03969188 0.18831785 -0.17914127 0.038258683 -0.06957096 0.06700804 -0.018717516 -0.005115869 0.05332049 0.0026363777 -0.0062027345 -0.0148950415 -0.0043892483 0.0034448837 0.015464219 0.0016984536 0.018340124 -0.01972728 0.01897503 -0.008397743 0.010787172 -0.034259696 0.0069066244 -0.04539236 -0.011392227 0.01114135 0.035710115 -0.06247761 -0.025177283 0.061849527 -0.049647074 0.025045816 -0.022635283 0.024505083 0.014870749
20 -0.026064081 0.11156587 0.3366072 0.10602619 0.5456679 -0.14372067 -0.039774496 0.19684719 0.046211906 0.005035407 0.30545244 -0.24889301 -0.14200234 -0.16738753 0.25178266 -0.1182422 -0.23857816 -0.08792249 0.13999726 0.41357058 -0.15932849 0.06060604 0.2711658 -0.33469474 0.06797824 0.13257982 0.17373161 -0.14908463 -0.12944736 -0.06739698 0.047992352 -0.20501427 -0.030658819 -0.0674451 0.14163601 -0.005172543 -0.09525043 0.077478506 0.022579093 0.028748503 -0.06749886 0.014412093 0.023429083 0.099943854 -0.013962888 -5.3400495e-06 0.01830566 0.09093642 -0.017654626 0.025742294 -0.019960068 -0.025700675 -0.023497133 0.019284355 0.006762559 0.017199477 -0.14861734 -0.002923868 0.111057185 -0.10109012 0.109464504 -0.12713706 0.05529775 0.0318818
18 -0.045234863 0.02534429 -0.05998545 0.13000785 0.05344956 -0.057387937 -0.013536345 -0.15895231 -0.21531753 -0.12807019 0.34883907 -0.32968625 -0.11378209 -0.22039567 0.091931224 -0.26727593 -0.06886534 -0.08798692 0.11454224 0.12013984 -0.0019383522 0.08712111 0.13580278 -0.18012187 -0.11419433 -0.093241826 -0.019347062 0.07959782 0.11732582 0.01903377 -0.026728468 0.08414406 0.037908986 0.003935795 -0.005787653 0.0072582294 0.057096258 -0.0035063548 0.030292017 -0.046380907 0.05321913 -0.006280765 -0.037902463 -0.09443789 0.016657691 0.110363685 -0.03324516 0.0026689975 0.042395785 -0.008226111 0.003027061 0.096232556 0.016176634 -0.032731697 -0.014523363 -0.0478268 -0.02920601 0.010769763 0.038867258 0.09590431 0.093973845 -0.00031324796 -0.08880037 0.10657933
4 0.017573347 0.05446511 -0.16188428 0.11460875 0.074052416 -0.045550067 0.053093154 -0.243116 -0.17222787 -0.14160822 0.31375676 -0.32339773 -0.14298145 -0.23800927 0.1055336 -0.16985026 -0.08436993 -0.09800551 0.1521842 0.12921362 -0.038187243 0.12887079 0.15871856 -0.18897542 -0.108611286 -0.06522249 -0.0049782726 0.044139836 0.10802632 0.014461212 -0.009528204 0.09616785 0.054826647 -0.017770244 0.0012500108 -0.03290789 0.019972883 0.02511725 -0.017882725 0.0008697355 0.050406512 -0.06255524 -0.049226742 -0.054062393 -0.03371155 0.01478017 -0.014154671 -0.02192738 0.008343022 0.0010774948 0.019501626 0.073746234 0.00570323 -0.02993537 -0.013729617 -0.03628815 0.048736118 0.02399713 0.05859054 0.106538855 0.043512456 -0.058323562 -0.07316591 0.08940171
21 -0.009812387 0.053040646 0.0819301 0.073953904 0.01756328 0.020851137 -0.003802447 0.16121252 -0.008886317 -0.014013611 0.31108537 -0.14211202 -0.08612895 -0.14152764 0.19838542 -0.18302558 -0.017492294 -0.22980848 0.25042304 0.1476314 0.039011423 0.1780489 0.21383242 -0.42398456 -0.10804308 -0.06710857 -0.102362715 0.06834109 0.021257749 -0.0054848436 -0.051482473 0.005931184 0.063428156 0.09553039 -0.03874493 0.031475138 0.016103024 -0.010712819 0.04003595 -0.054598287 -0.019626321 0.07351685 -0.016354516 -0.04302852 0.08716497 -0.037139293 0.004564798 0.004546268 -0.04316673 0.01149267 -0.044017848 -0.072542876 -0.069142036 0.019136727 0.038915373 0.10010793 -0.21171808 -0.03229334 0.011168385 -0.05747125 -0.032305066 -0.019889826 0.025517317 -0.028601822
16 -0.0013536238 0.18570718 0.35258868 0.042563073 0.58518547 -0.14944501 0.027894968 0.16488273 0.012430321 0.00040863175 0.24193881 -0.26117736 -0.12453463 -0.13814211 0.18349661 -0.107356034 -0.21716617 -0.13064681 0.17300448 0.41503176 -0.12628803 0.07650331 0.27853096 -0.40023237 0.031018965 0.13443048 0.16383494 -0.19739021 -0.119463995 -0.051280294 0.08917298 -0.11827705 -0.019861486 -0.07768507 0.073886275 -0.014586754 -0.020580476 0.050525732 -0.0003265495 0.0091304295 -0.045812376 -0.032364726 0.040730808 0.12743121 -0.072635904 0.016271887 0.023216173 0.07187398 -0.056206323 0.020119248 0.055354938 -0.02569116 0.012470398 -0.0043719006 -0.0273625 -0.03349596 -0.2358701 -0.0014436094 0.10974997 -0.15018794 0.113983475 -0.20730227 0.08985504 0.003933051
10 -0.10780473 -0.15781824 0.12179419 -0.02715053 0.36002877 -0.11575158 0.12586029 0.06432044 0.14234455 -0.0023515858 0.36069718 -0.27482396 0.028828194 -0.0368716 0.13404974 -0.15577206 -0.17334448 -0.20229761 0.25317618 0.32878852 -0.040992398 0.15253574 0.23031467 -0.41724756 0.00016700003 0.10796514 0.1516336 -0.11202911 -0.13894285 -0.0843659 0.025318695 -0.2616797 -0.21595 -0.082670145 0.039010912 0.07367028 -0.08621564 0.0024138887 -0.007888426 0.019634806 -0.033657603 0.1292017 0.031992815 0.018543944 0.057969663 0.004924946 0.09540333 0.06524587 -0.11697077 0.0057839006 0.119205244 -0.15344733 0.04942316 0.055184655 -0.0045722974 0.0050433837 -0.24398457 0.060542826 0.0138329 -0.10308429 -0.03492065 -0.2960956 0.10401595 -0.09345367
23 -0.03231671 -0.117303535 0.10837921 -0.038055714 0.045285143 -0.004649302 -0.016003974 0.16851959 0.009885631 -0.05552018 0.3374377 -0.21888517 -0.037190676 -0.11779437 0.1308096 -0.16815613 -0.05307486 -0.22569601 0.27002707 0.19785467 0.007981562 0.18888472 0.23798542 -0.42581615 -0.013304793 -0.01874209 0.0026535077 0.039656617 -0.015823536 -0.016158063 -0.029502584 -0.08461247 1.3125259e-05 0.05961355 -0.02787938 0.028023588 -0.0063444944 0.0105394 0.018079208 -0.036061164 -0.04539037 0.04914706 0.023918223 0.057502814 0.03170343 -0.15334448 0.05760761 -0.020618955 -0.06636053 0.009482915 -0.016605686 -0.12466085 -0.048945908 0.03759556 0.0350146 0.09803818 -0.2201928 -0.045380604 -0.07984175 -0.1110694 -0.08400818 -0.073830724 0.07377147 -0.110966735
11 -0.06806927 0.3615919 0.3429574 0.1327185 0.27810046 -0.16599703 0.11400154 -0.03443825 0.13432139 0.038450345 0.29333574 -0.39359415 -0.15783499 -0.13683175 0.24834003 -0.06106323 -0.20220524 -0.13774988 0.1675228 0.21626101 -0.02962045 0.13544326 0.13213597 -0.2499987 -0.012618463 0.062086742 0.13161545 -0.11662642 -0.16895416 -0.0032516385 0.14607348 -0.14126213 -0.19733667 0.0039048705 0.02575612 0.004062277 -0.11734403 0.014260264 -0.033598833 0.0852363 -0.010215298 0.01450071 0.014155054 0.023063436 0.0045932853 -0.13116117 0.043893214 -0.055244014 0.07715253 -0.020541698 -0.06077847 -0.023940688 0.02208408 0.05906608 0.04172646 0.03280054 0.04690071 -0.03524775 -0.12519008 0.022157906 -0.07933264 0.0956966 -0.017795458 -0.05383502
8 0.017466342 0.18575868 0.36585182 0.0045248703 0.56537783 -0.13240021 -0.031154105 0.18751071 -0.0016969464 -0.008954429 0.22398242 -0.18640545 -0.2289549 -0.23115543 0.2849431 -0.038241263 -0.33315906 -0.07651599 0.15071294 0.49198443 -0.22220038 0.086759105 0.33451316 -0.34922555 -0.0038703028 0.122296944 0.2086142 -0.19985096 -0.20511055 -0.039354824 0.1610566 -0.20700896 0.13425905 0.03184551 0.0082910275 -0.014897905 0.06545255 0.020259475 0.043142844 -0.0603493 -0.018457983 -0.041413963 -0.018291187 0.02546429 -0.017258637 0.020807356 -0.037681296 0.039463263 -0.06816848 0.025130643 -0.0026844875 0.01176442 -0.077215806 -0.023963654 0.018836671 0.0609628 -0.06416459 -0.046982445 0.122087665 -0.064698525 0.16027492 -0.012204458 0.004635444 0.096068375
22 -0.07406203 -0.16736077 0.17134668 -0.0907787 0.4062222 -0.11878028 0.10646833 0.10360042 0.2634195 0.04625601 0.40772864 -0.28139272 0.00395794 -0.039662912 0.23510462 -0.11812304 -0.15007801 -0.20569497 0.26512513 0.28882512 -0.027891876 0.1736726 0.22953026 -0.39992654 0.022440102 0.08670283 0.16241111 -0.05630466 -0.037833493 -0.08710907 -0.034888163 -0.22163978 -0.16390148 -0.084821194 0.047246985 0.068445675 -0.072634205 -0.018486928 0.0018670689 0.02097012 -0.05783323 0.12969947 0.070289925 0.0708199 0.032886043 0.06733714 0.0847715 0.10260964 -0.100198254 0.006993768 0.12649906 -0.17299423 0.085513845 0.05893678 -0.033998996 -0.044074073 -0.13375318 0.10834029 0.08454475 -0.14271486 -0.044143513 -0.25864807 0.15640205 -0.11208865
0 -0.023689846 -0.1089791 -0.23693274 0.12438806 0.09433397 -0.06181173 0.031389024 -0.28429896 -0.22153108 -0.11077235 0.30341393 -0.36749837 -0.18812506 -0.26166108 0.14142993 -0.2166026 -0.15728813 -0.0548187 0.11248437 0.13486853 -0.04403316 0.12336484 0.15587512 -0.10786624 -0.1187699 -0.07846381 0.06676491 0.042094532 0.17499295 -0.0035326302 -0.041299444 0.08199406 0.10064738 0.050301466 -0.05693265 -0.02078261 0.023956392 -0.028269941 -0.020146156 0.0034292424 0.054479368 -0.09398082 -0.012380011 -0.023348745 -0.084094666 0.084152326 -0.03735142 -0.024325855 0.1322254 -0.017282553 -0.06875673 0.088498294 0.0417867 0.00020388646 -0.009486849 -0.06146498 -0.05173277 -0.023450188 0.05994251 0.09602839 0.062910624 0.033709142 -0.09549068 0.11403027
14 -0.13514178 0.22279544 0.44129646 0.1771591 0.42211908 -0.19795284 0.028792674 0.1180985 0.03519595 -0.02113929 0.26882556 -0.17617278 -0.23606457 -0.25211918 0.32124385 -0.0210665 -0.3516798 -0.08403667 0.19128013 0.3226993 -0.16846263 0.2063381 0.2769322 -0.21088581 -0.040295564 0.028131284 0.30728158 -0.13123363 -0.2697852 0.056526452 0.3358083 -0.23158875 -0.020965135 0.043870416 -0.054506652 -0.00037313977 -0.014482688 -0.050639827 -0.026162108 0.036694027 0.015771493 0.030582428 -0.037080742 -0.07896355 0.059277922 -0.056431167 -0.0025648314 -0.042772204 0.051046506 -0.023039045 -0.024897426 0.027311739 0.011728345 0.026361154 0.03848813 0.02750389 0.17598414 -0.031085765 -0.10489837 0.051258493 -0.054867152 0.18898062 -0.039716166 -0.020604521
6 -0.13411243 0.19577882 0.44995612 0.07990382 0.4845646 -0.20319301 0.056502942 0.11425804 -0.052287173 -0.044472635 0.27304003 -0.19534098 -0.27713296 -0.30128264 0.32431856 -0.05774603 -0.30300617 -0.049892183 0.135003 0.36159748 -0.17126323 0.12517251 0.31306282 -0.23181242 0.02541472 0.08788072 0.41590962 -0.20349433 -0.25207874 0.0069053443 0.29646432 -0.30669853 0.1358212 0.069520645 -0.07469558 0.032788694 0.110297635 -0.022578465 0.048534583 -0.11224058 0.028465677 0.05790969 -0.044983514 -0.11189705 0.08807978 -0.005928567 -0.00405975 -0.025764426 -0.0795821 0.012937885 -0.0100453105 -0.046581082 -0.0821182 -0.024440335 0.01674492 0.08478138 0.115219876 -0.00011822157 -0.06937163 0.104950696 -0.09821935 0.12788315 -0.06229073 -0.007693608
7 -0.05394845 0.101205684 0.37086558 0.0403541 0.55204046 -0.17728296 0.0055965357 0.13611333 -0.021977318 -0.06194009 0.2651123 -0.1498394 -0.2674805 -0.29968515 0.3192933 -0.009449042 -0.3741054 -0.064647965 0.1828037 0.40222102 -0.21922958 0.18231331 0.33628413 -0.24190499 -0.02294568 0.09068269 0.426117 -0.21882802 -0.26028588 0.01286571 0.33554384 -0.28715712 0.14642943 0.1628331 -0.12610628 0.05185894 0.12742308 -0.06633832 0.07409949 -0.1296563 0.02010546 0.036342174 -0.07915214 -0.11417324 0.09540352 -0.093172014 -0.0038248643 -0.0382934 -0.07860443 0.0022525433 0.005856907 0.008607049 -0.0901392 -0.009258143 0.06360167 0.12389328 0.15478273 -0.04957997 -0.015106734 0.063453496 0.09602026 0.16990821 -0.08025073 0.09244507
13 -0.08420769 0.54847705 0.2984196 0.10686849 -0.14177 -0.116326116 0.1439101 -0.21118025 0.14309268 0.018066693 0.2588144 -0.4337265 -0.15408477 -0.12902738 0.20808402 -0.0079163425 -0.3064825 -0.15715705 0.21790728 0.2273646 -0.05424133 0.21612981 0.12470853 -0.22538093 -0.030388718 0.044173155 -0.014843807 -0.056177247 -0.3402143 0.03534226 0.20932393 -0.20118079 -0.15987141 0.049264032 -0.071764156 -0.017872874 -0.11726689 -0.09758019 -0.09459459 0.161862 -0.0095339 -0.061572064 0.03571992 0.0666768 -0.087538876 0.060771402 -0.019690733 0.018862741 0.08257463 -0.020901322 0.046476144 0.034898456 0.12689829 0.0347251 -0.03142514 -0.12295295 0.2869565 -0.04624944 0.00081247423 -0.009434063 -0.039344426 0.27835262 0.003371123 -0.004437147
