26 64
3 0.0081192525 0.30443957 -0.2164548 0.5624824 -0.31195822 0.03337377 0.16600129 -0.025236411 -0.014501795 0.16191216 0.06950465 -0.053457893 -0.079902954 0.017333202 0.0008823988 0.07446598 -0.027193598 -0.1485945 -0.06466256 -0.0105584515 0.036636535 -0.24053353 -0.01828861 -0.03921967 -0.17368412 0.69319534 -0.5076427 -0.16681503 -0.20195273 0.14283022 0.27568227 -0.17771786 0.0431976 0.010117931 -0.021428501 -0.037478965 -0.049395103 0.056939192 -0.005203431 0.05817102 -0.066234864 0.053650767 -0.06839835 -0.047172885 -0.012349909 -0.07242167 0.03537622 -0.05519366 -0.04874966 -0.0022660845 0.16991809 0.110161066 0.065217905 0.08071893 0.034794044 0.011220622 0.05800051 0.073648416 0.08575796 0.0023141569 0.004425272 0.052855626 0.04098544 -0.008904606
25 0.021878792 0.3307208 -0.11198145 0.50693715 -0.2604389 0.025935482 0.17613181 -0.0051435544 -0.018642996 0.13719822 0.05644968 -0.07109546 -0.06781302 0.0032510792 -0.016305247 0.05863125 -0.053050365 -0.15371661 -0.057640947 0.021738665 0.04033486 -0.2998064 0.020233402 -0.010265151 -0.21001117 0.6937811 -0.4909975 -0.116456695 -0.17950997 0.16932727 0.3093867 -0.22466137 0.05879757 -0.0019810528 -0.0083248615 -0.029766588 -0.030894963 0.0025461493 0.0011095769 -0.01931011 -0.0639411 0.057979114 -0.05838144 0.009259432 -0.04211199 -0.058534168 0.0016799945 -0.025077313 -0.06286633 0.013280275 0.12014567 0.19758944 0.01759605 0.0010338976 0.06873725 -0.00848842 0.03695619 0.018756282 0.07112513 -0.043895975 -0.005874071 0.027834587 0.05692149 0.0106939385
24 0.1444064 0.3108504 -0.10645267 0.4557524 -0.22592695 -0.0016078453 0.1083902 -0.009645213 -0.01915765 0.0560333 -0.0067203674 -0.022171875 -0.03270328 0.017288428 -0.012190358 0.021299921 -0.067777365 -0.18851447 -0.068721436 0.053230822 0.023327457 -0.2903548 -0.010020624 -0.016358383 -0.10688729 0.6331136 -0.34521428 -0.10269608 -0.16332953 0.18637958 0.31391928 -0.22630987 0.026569631 0.036799937 -0.030413369 -0.024444757 -0.021875335 0.047729585 0.0057158894 0.03522051 -0.04637453 0.032865223 -0.040023405 0.037429303 -0.046955857 -0.043454826 -0.006059014 -0.007900071 -0.060661152 0.0010320238 0.11310638 0.17664541 0.0076023876 0.011542138 0.036536664 0.042701606 -0.0052013984 -0.0031282543 0.044455815 0.06329084 0.03530747 -0.005096049 0.046111643 0.012234143
19 0.016603315 0.2573516 -0.18050668 0.57044816 -0.273356 0.03365216 0.17608126 -0.011328999 -0.011755923 0.19394569 0.112883694 -0.08264964 -0.08717298 0.0012549559 0.0015905511 0.09295844 -0.035582356 -0.17959626 -0.06105568 -0.018518075 0.0378729 -0.26270974 -0.019451052 -0.032493055 -0.15624575 0.69595855 -0.51457214 -0.16601934 -0.19308802 0.11604084 0.3334095 -0.1687482 0.054177206 -0.009552592 -0.00033058648 -0.010449532 -0.011564784 -0.015002638 0.034215227 -0.014743057 -0.057039432 0.04335533 -0.08909129 -0.024419794 -0.02169376 -0.09090305 0.046347965 -0.05450317 -0.0684287 -0.0081175845 0.14894958 0.11279746 0.045343924 0.061715983 0.020892357 0.031390086 0.08768681 0.14364749 0.123668805 -0.06838231 -0.028715802 0.07732786 0.028536694 -0.015869858
2 0.092344716 0.28222948 -0.14320762 0.5170758 -0.265288 0.05602704 0.12847818 -0.01251114 -0.004953422 0.104488656 0.025409695 -0.051410045 -0.071421616 0.0015093919 -0.0291615 0.028323017 -0.07101566 -0.20332104 -0.066222765 0.049069956 0.06098922 -0.2742921 -0.031054752 -0.032102913 -0.20417547 0.6479548 -0.4788538 -0.13157977 -0.16526265 0.13850868 0.30358574 -0.17966406 0.07632838 -0.040470127 -0.03977454 -0.028285451 -0.03955321 0.033755533 0.00979034 0.034872938 -0.0129586905 0.04254177 0.0075462223 0.0023784712 -0.010520045 0.018580072 -0.03552768 0.014259846 -0.02542213 -0.0062877648 0.16128078 0.097728305 0.019353159 0.04812427 0.008680561 0.07143822 -0.044097055 -0.023604576 0.039393045 0.042392787 -0.06900231 -0.05304248 0.045883227 -0.05001011
15 0.0253429 0.20823143 -0.15960053 0.21256731 0.062150124 0.23088159 -0.083613485 -0.029453961 0.03369284 -0.25756267 -0.13211173 0.26775467 0.13856333 0.08038386 0.14540301 -0.07415977 -0.16125517 -0.3615079 -0.16058375 0.19189838 -0.30284637 -0.3869495 -0.09370363 -0.10084134 0.11415126 0.34956616 -0.06319912 -0.099986516 -0.111471415 0.12003608 0.18354823 -0.12752312 -0.021992728 0.09420982 -0.115261905 -0.04632374 -0.00088595785 0.07798465 -0.035860486 0.055671662 0.0036574805 -0.010871853 -0.04620586 0.00085553963 -0.0012933465 -0.045296904 0.03839696 -0.021464575 0.032604508 -8.475398e-05 0.07917398 -0.07371451 -0.031165646 0.0039515076 -0.022008365 0.08439975 0.033249754 0.053876583 0.043260247 0.0034059933 0.023855485 0.030844726 -0.0027812326 -0.0008035389
12 0.17601027 0.24525705 -0.16178831 0.19494362 0.044050667 0.15082829 -0.11206597 0.0060309866 0.06684281 -0.1326804 -0.050453 0.19674462 0.04348109 0.04487916 0.095168576 -0.053133134 -0.11940686 -0.30742392 -0.14886683 0.11376551 -0.31682122 -0.3267375 -0.013219731 -0.0403618 -0.006920466 0.4266919 -0.1844819 -0.07513076 -0.09463327 0.11805547 0.2866338 -0.16366637 -0.015993988 -0.0041073514 -0.04663465 -0.02347592 0.011585183 0.08087761 -0.029909978 0.024797583 -0.033228472 0.052016936 -0.0492971 0.07094122 -0.062320143 -0.036401756 -0.029452644 0.014697924 -0.0097829355 -0.042860605 0.09616387 0.004674148 -0.024327483 0.010584206 -0.069363415 0.10711302 0.039976746 -0.03642673 -0.038513582 0.067971796 0.008855718 0.04556497 0.009112752 -0.036674544
1 0.055362605 0.2625315 -0.06429205 0.49401668 -0.21737517 0.09124755 0.0771145 -0.01481502 -0.028152872 0.09227425 0.009980797 -0.07589814 -0.052259482 -0.0012030387 -0.03982808 0.029261444 -0.03538843 -0.13044056 -0.051226392 0.011201695 0.06529766 -0.273686 -0.022610392 -0.03544692 -0.06367971 0.7122857 -0.3003913 -0.13332963 -0.20088199 0.23857433 0.34650934 -0.22218648 0.042733572 0.00019813303 -0.12113262 -0.051952183 -0.025258534 0.01961143 -0.0132148955 0.023549045 -0.0964561 0.080796145 -0.089811146 0.032554466 -0.07427184 -0.09252262 0.0014138981 -0.033426087 -0.027750004 0.0073511573 0.120285556 0.111178786 0.050653487 0.054859523 0.09715411 0.009403428 0.028169444 0.03161127 0.115147844 0.011681825 -0.0690351 0.010618624 0.08139086 -0.06273996
17 0.011983788 0.2683524 -0.20389225 0.16771863 0.18509892 0.2728523 -0.1936905 0.0018997679 0.020878308 -0.2510492 -0.09125839 0.23860411 0.16628243 0.06565042 0.15616119 -0.050184656 -0.17558834 -0.38568798 -0.20296046 0.1811268 -0.3533207 -0.3003446 0.0012818313 -0.052465357 0.1702286 0.3226497 -0.07027313 -0.10202832 -0.097646594 0.06386733 0.2328886 -0.119978696 -0.016910858 0.049714528 -0.06758395 -0.014968468 -0.0051748264 0.019024575 -0.025614766 -0.015518328 0.009949983 0.027610179 -0.041541968 -0.058438364 0.03216366 -0.02306262 0.030048236 -0.027237818 0.025134135 -0.04119464 0.1823157 0.059794195 0.0010359223 0.03126441 0.01645881 0.081556685 0.12101057 0.04053651 0.0847095 -0.06808527 0.0071517983 0.110715374 0.07182659 0.0013128764
4 0.024379961 0.26522392 -0.17138387 0.58769816 -0.28713155 0.083311826 0.23361577 -0.015730837 -0.0048070736 0.21478793 0.13154909 -0.09383347 -0.10139796 -0.0060209935 -0.00056729553 0.09828039 -0.02056171 -0.16112491 -0.041632365 -0.049563415 0.053404115 -0.30956015 -0.024676675 -0.045573052 -0.07643204 0.7034889 -0.47686917 -0.19925013 -0.21266556 0.108653806 0.33825046 -0.14669204 0.046548683 0.10114658 -0.050237324 -0.029961973 -0.021859298 -0.041445337 -0.002080745 -0.07809354 -0.087738745 0.10502655 -0.13962299 -0.018182855 -0.04807909 -0.12558684 0.03703373 -0.0629665 -0.07711281 -0.016264288 0.08190018 0.09275799 0.08468538 0.11725224 0.017624237 0.05410102 0.07383544 0.07175268 0.108408146 -0.009867139 -0.032964613 0.0644899 0.07495288 -0.029237464
9 0.18418084 0.17085181 -0.083894834 0.2877362 -0.074198216 0.0988803 -0.052454334 -0.012176625 0.03177516 -0.111283615 -0.07435518 0.14158008 0.036919452 0.04297318 0.060462337 -0.047361724 -0.10422923 -0.26554075 -0.110101 0.09814693 -0.16196717 -0.30792663 -0.035403974 -0.045397017 -0.17314109 0.536873 -0.32776052 -0.071150295 -0.11166962 0.14437173 0.3259841 -0.16628733 -0.038160656 -0.020841548 0.07784878 0.023603367 0.0056995614 0.027706943 -0.0043680496 0.04211453 -0.019799381 0.0062215086 -0.018179772 0.063201554 -0.046423536 -0.021836862 -0.01521857 0.012669151 -0.01664122 0.022296226 0.071728766 0.07206596 -0.054021258 -0.031228766 -0.022712858 0.101889044 -0.072582684 -0.056205418 -0.008139354 0.041123338 -0.008729967 -0.075490564 0.0073943613 -0.0038907211
20 -0.02224464 0.27120665 -0.15732685 0.18891354 0.10969536 0.216627 -0.1603417 0.015286977 0.02168066 -0.24591699 -0.1130384 0.2709119 0.15404591 0.089782074 0.17648292 -0.04879254 -0.19960709 -0.500925 -0.23161611 0.16354038 -0.23823996 -0.38027677 -0.02923845 -0.08352935 0.26207322 0.2790303 0.032309394 -0.09667541 -0.11131259 0.0767608 0.1801117 -0.11100213 0.031529617 0.011197361 -0.07466783 -0.019559832 0.014558677 -0.0031536296 -0.004734688 -0.07425207 0.034128256 -0.015606087 0.0033445046 -0.043719057 0.0414926 0.011242107 0.022066634 -0.0086842375 -0.0017403133 -0.043623805 0.18597816 0.09558471 0.020945828 0.04407735 0.09957213 0.066821955 0.038589302 0.18135 0.10784322 -0.08455122 0.0812176 0.03995901 -0.033639744 0.08816022
18 0.08466107 0.19918868 -0.15250751 0.62606883 -0.31102514 0.022903783 0.28302634 -3.727443e-05 0.007814067 0.18429615 0.09472839 -0.04978183 -0.10401544 0.009429949 0.0042615114 0.075157516 -0.023592273 -0.1703034 -0.07008934 -0.052559707 0.018658053 -0.2375056 0.0032454154 -0.036316667 -0.11485248 0.7083758 -0.5052709 -0.17607588 -0.2028647 0.1157828 0.3389958 -0.17994799 0.047041565 0.04386155 -0.012830965 -0.013721195 -0.059990622 -0.037608095 -0.017222734 -0.05847334 -0.077923514 0.10512417 -0.1095974 -0.060241643 -0.017825183 -0.09439746 0.032351315 -0.06379299 -0.038682137 -0.012047668 0.19795266 0.16173653 0.060105626 0.08836178 0.0542846 0.05982302 0.064244516 0.0287092 0.10998515 -0.036034804 -0.038659837 0.05007964 0.09844941 -0.019050252
5 0.027385842 0.34924448 -0.1685366 0.20768923 0.1565372 0.14904244 -0.11419484 0.06250646 0.04823474 -0.25164545 -0.08513008 0.265689 0.14725924 0.06450324 0.16937105 -0.06168725 -0.20855448 -0.54843926 -0.20908582 0.1512829 -0.21651033 -0.4658986 -0.036176972 -0.070139505 0.3490287 0.23014228 0.08558633 -0.12230379 -0.1135839 0.05014561 0.15206315 -0.081926025 0.051403068 -0.0032938751 -0.076143436 -0.0065148384 0.056251336 -0.0107395835 0.055626925 -0.07312425 0.05454536 0.011392773 0.04887362 -0.0049170875 0.030005038 0.0752983 -0.047519147 0.04471296 0.02564976 -0.13968167 0.08812478 0.065818384 0.086497 0.10336277 0.13483913 0.024267713 0.058818147 0.17109771 0.07737286 0.0053297407 0.059342783 0.06812668 -0.02350112 0.035825793
21 0.14257383 0.24482942 -0.1387922 0.35875154 -0.24020535 0.043059334 -0.007532998 -0.061810147 0.00073468126 0.06523047 0.013425649 0.015760036 -0.040660266 0.028257392 0.017294826 0.02961831 -0.103289425 -0.21560131 -0.07962427 0.11982831 -0.056378383 -0.30946952 -0.016794486 -0.0113224825 -0.21912931 0.6133308 -0.42760897 -0.10677386 -0.13464822 0.14826559 0.33306044 -0.17842269 0.055514652 -0.031121744 0.025337486 -0.0019866663 -0.03751244 0.017537855 -0.01467054 -0.008743483 0.022407316 0.0026047952 0.05541784 0.04444013 -0.011954759 0.06303706 -0.060462564 0.051123638 -0.037575897 -0.01111238 0.06772524 0.08953191 -0.014800098 0.028212074 -0.04118068 0.13038932 -0.08761562 -0.073424675 0.010204446 0.00084348 -0.09894937 -0.102982566 0.026851615 -0.05419146
16 -0.07875898 0.29392993 -0.19832247 0.17944379 0.19916415 0.26977476 -0.14442883 0.035279866 0.046907574 -0.27008256 -0.11454856 0.28288856 0.14849445 0.07453762 0.16770937 -0.07452348 -0.17765151 -0.44252524 -0.19196424 0.15115654 -0.27345452 -0.3949595 -0.06369865 -0.117692165 0.20560901 0.2809996 -0.034713626 -0.105217695 -0.09832772 0.0460556 0.20384094 -0.09007812 0.04735574 0.056394584 -0.15780681 -0.054668896 0.043132216 0.021635601 0.012965765 -0.055341978 0.061134025 0.011119993 0.035102468 -0.046421994 0.0553295 0.06448175 -0.02203654 0.024290446 0.06476395 -0.09896906 0.15598637 0.0496775 0.051040757 0.07257825 0.15062232 0.04375733 0.014571322 0.08745529 0.036375564 -0.06399983 0.070276566 0.020837115 -0.023860522 0.0847538
23 0.22554722 0.23186398 -0.10236293 0.26749504 -0.2422531 0.14034486 -0.030803302 -0.028120672 0.04816383 -0.049941055 -0.07796256 0.12045095 -0.03374641 0.041085184 0.019545112 -0.05449203 -0.08373719 -0.22803932 -0.104361154 0.054991633 -0.08298365 -0.34438008 0.015341534 -0.036005836 -0.2036606 0.56392145 -0.43214154 -0.0999483 -0.12251813 0.1137257 0.30777636 -0.17160453 0.08339983 -0.06362721 0.057238393 -0.032744132 -0.086285576 0.03210989 -0.051316686 -0.018397614 0.018244041 0.05011196 0.04326692 -0.020030355 0.017468087 0.06840393 -0.060427066 0.03510787 -0.0062487153 0.06493682 0.066334195 0.058480162 -0.049626455 -0.034070082 -0.064113066 0.06583358 -0.07678812 -0.20898929 -0.024834543 0.012020552 -0.077060856 -0.091660984 0.1067099 -0.02973289
10 0.044490453 0.12576868 -0.16957696 0.21396393 0.12616774 0.19568321 -0.15664253 0.023002978 0.07303565 -0.2502125 -0.087971285 0.2698177 0.12005095 0.05321428 0.14700775 -0.08373584 -0.18275787 -0.41481423 -0.19856358 0.16656025 -0.29578057 -0.15063652 -0.034794 -0.06549521 -0.011277116 0.42163986 -0.26783425 -0.059240002 -0.08657487 0.055378567 0.3180102 -0.17691086 -0.032983307 0.09677849 0.02348132 0.02831748 -0.056560274 0.02373965 -0.003037893 0.06692235 -0.03038342 0.0074525923 -0.059801485 -0.029934004 -0.0021568614 -0.06697402 0.05188888 -0.04697455 0.019442126 0.03341975 -0.010610941 0.0044595823 -0.039345246 -0.01738325 -0.09136021 0.054714676 0.010774548 -0.106861494 -0.027984964 -0.11922598 -0.10867968 -0.0069314335 0.04189853 -0.04189412
11 0.24927773 0.37985602 -0.100387156 0.15943862 0.09549457 -0.0059271627 -0.04031581 0.056280185 -0.058543634 -0.1984114 -0.15878795 0.05352512 0.12869984 0.028770396 0.0047700857 -0.06468175 -0.1298223 -0.28776887 -0.097313225 0.15342177 0.018591013 -0.3940005 -0.063673615 -0.05219329 0.29383948 0.49858236 0.035866287 -0.16534081 -0.174795 0.19922793 0.2781904 -0.17921539 -0.00026926043 0.12115757 -0.18831615 -0.035433393 0.010508524 -0.019336225 -0.020848228 -0.049197398 -0.04939746 0.023892673 -0.074784465 0.026350232 -0.04405784 -0.08086709 0.029207975 -0.031454384 0.035790335 -0.058448914 -0.06762564 -0.059599586 0.05262844 0.07986503 0.03274078 0.033385262 0.09493286 0.10287828 0.09810025 0.044695985 0.04148285 0.09325435 0.038625784 -0.01388258
0 0.08571116 0.18810956 -0.2083751 0.55803657 -0.24753779 0.047432005 0.21888953 0.0010735637 0.019769805 0.257374 0.15017624 -0.038135473 -0.13746797 0.023824714 0.039119326 0.11712536 0.032600056 -0.13250002 -0.045527678 -0.13419431 0.01564147 -0.29030377 -0.05664308 -0.08710754 -0.08045733 0.75838006 -0.50639415 -0.23385665 -0.24513555 0.12752484 0.31935334 -0.13725382 0.029667346 0.061930086 0.003090144 -0.02574451 -0.047590435 -0.054707617 -0.03719933 -0.09055326 -0.10882652 0.107505396 -0.17014992 -0.07146747 -0.030114392 -0.16400287 0.08069303 -0.10544472 -0.06243764 0.007821435 0.18598835 0.083583236 0.07989893 0.12027075 0.033266235 0.060774926 0.07876113 0.17671067 0.13468988 -0.11052253 -0.013963315 0.068616055 0.0072966754 0.014684469
22 0.0174356 0.12229382 -0.17955968 0.18704131 0.052787885 0.29160762 -0.12016732 -0.02679798 0.09396357 -0.23323876 -0.107166216 0.29687732 0.07862737 0.06623045 0.13898958 -0.0980107 -0.16079475 -0.35938486 -0.16502306 0.15993561 -0.30908257 -0.23129162 -0.08831193 -0.12612484 0.08313787 0.3833825 -0.31268266 -0.10394281 -0.08035818 -0.050677303 0.3561711 -0.13710953 -0.037448328 0.03632831 0.117709 0.014888673 -0.03825033 0.004260483 0.037607152 0.15044385 -0.063214846 0.031340245 -0.070923634 0.008136567 -0.040347435 -0.08100847 0.03055067 -0.040149823 0.009862215 0.04022116 0.017668556 -0.0015510783 -0.034113586 -0.039984155 -0.043335155 -0.004816709 0.03425431 -0.15423252 -0.046828307 -0.09728393 -0.13323934 0.014870126 0.0671167 -0.07848167
8 -0.06402536 0.33761027 -0.18286617 0.23802687 0.13095029 0.1632585 -0.20097086 0.05348855 0.06594117 -0.23386551 -0.07628873 0.33134314 0.13319565 0.09780398 0.22524211 -0.044568904 -0.18308738 -0.5439885 -0.20896298 0.09209173 -0.17649506 -0.4753812 -0.039947044 -0.07675326 0.35207722 0.26023707 0.13623998 -0.13938451 -0.15273066 0.11101667 0.08373529 -0.061098292 0.08446796 -0.11781364 -0.01633804 0.005223394 0.043294314 -0.017319726 0.06508008 -0.062118754 0.09668876 -0.014461224 0.10925255 -0.07801256 0.095555276 0.13682471 -0.045059625 0.046783287 0.06199236 -0.1056628 0.07848739 0.021118743 0.107943535 0.12842639 0.17906877 0.0015641334 0.026810367 0.20476744 0.15913305 -0.083113596 0.0056841574 0.018643184 -0.0048043365 0.03717539
14 0.15959907 0.33238006 -0.1078605 0.16726552 0.12429314 -0.11678647 -0.053637516 0.0777948 0.0052906373 -0.24253629 -0.18183775 0.23003267 0.11764896 0.087440245 0.10573369 -0.082946345 -0.17073022 -0.42638734 -0.14636312 0.16998437 -0.062683254 -0.50397074 -0.11137848 -0.09909786 0.43839425 0.37921044 0.20357145 -0.17312269 -0.17100133 0.18914323 0.19639398 -0.13432716 0.042697072 -0.15326367 -0.07744273 0.006862739 0.033868317 -0.08511307 0.030672215 -0.027838182 -0.033766586 0.0046937848 0.018136624 0.047665443 -0.040425945 0.004298861 -0.030668084 0.015496581 0.11696543 -0.13827182 0.024915738 -0.059896562 0.09199111 0.106108 0.21471885 -0.011120547 0.07464795 0.21431251 0.14174989 -0.1284238 -0.09934763 0.052743815 -0.045775138 -0.07415001
6 0.06965404 0.41963437 -0.22723803 0.28088665 0.16722618 -0.120057076 0.00638071 0.12164563 0.082026444 -0.21773288 -0.09392806 0.3540615 0.09744595 0.11063277 0.21753253 -0.055495583 -0.19118087 -0.54930407 -0.18745998 0.12078359 -0.12377866 -0.48923817 -0.07898147 -0.073530436 0.50308233 0.2836061 0.19274028 -0.1943248 -0.20360781 0.15621905 -0.03181792 -0.12811579 0.09691597 -0.16323273 -0.022658745 0.007649985 -0.042394318 -0.00857235 0.029161992 0.021651387 0.04195034 0.017451527 0.1327947 -0.077571385 0.07024245 0.14669594 -0.07694632 0.046642765 0.15981969 -0.14509931 -0.004094021 -0.09270526 0.140821 0.15048121 0.16954273 -0.08008489 0.08615782 0.15977594 0.13095552 -0.07992359 -0.09842219 0.066931546 0.0067204502 -0.0812391
7 0.018107288 0.40163916 -0.25089008 0.28022984 0.29257348 -0.105941415 -0.01647995 0.13839619 0.07380317 -0.2037639 -0.09159632 0.33423397 0.091957174 0.10753995 0.21280916 -0.04960508 -0.17955923 -0.5209957 -0.15071206 0.10688657 -0.07652366 -0.50793904 -0.14102857 -0.12444737 0.57371926 0.30253392 0.15353903 -0.23207848 -0.20217201 0.071820945 0.08968976 -0.07869443 0.034484148 -0.21960174 0.10262893 0.06801861 0.072903305 -0.117712215 0.1476965 0.047181617 0.10209454 -0.030369552 0.1583588 -0.08922888 0.10932462 0.1776028 -0.06275144 0.059161976 0.19517027 -0.15604545 -0.0008635563 -0.12209859 0.1260348 0.1427135 0.22044064 -0.04892356 0.0755664 0.15873191 0.1734914 -0.09782164 -0.041882504 0.05508592 0.038576327 -0.01855499
13 0.38040167 0.3878565 -0.03198694 0.23049435 -0.13097088 -0.0017123187 -0.08089322 0.022773463 -0.1183324 -0.14707726 -0.18960392 -0.088496156 0.10317547 -0.00016366284 -0.100686334 -0.063152626 -0.06344741 -0.1968193 -0.033445813 0.07147295 0.31534693 -0.33212036 -0.10781581 -0.07926546 0.3732725 0.6573271 0.05886318 -0.22806026 -0.23690824 0.2644946 0.36469102 -0.19502011 0.07689903 0.23111157 -0.24002685 -0.06419235 -0.12101779 -0.050109167 -0.046666622 -0.033424456 -0.188784 0.07163217 -0.132249 0.06653171 -0.13706648 -0.17818458 0.036552954 -0.07787438 -0.014757492 -0.07580159 -0.19671299 0.061885472 0.21113467 0.19726352 0.21543661 -0.1344445 0.0192184 0.20489727 0.13215987 -0.03168187 -0.16093728 0.0011364187 -0.030018456 -0.1273889
