26 64
3 0.51308525 0.15112142 0.16800484 -0.46002933 -0.12674351 0.3025001 -0.41429254 -0.053092256 -0.17240833 0.27024525 -0.06885903 0.13276555 -0.076839745 -0.24970667 0.14389338 -0.14382017 -0.25857803 -0.11117376 -0.39365453 -0.12120664 0.056931213 0.20413333 0.008703725 0.03235012 0.06925445 -0.13048616 0.09205319 -0.13111576 0.11464915 0.06399497 0.040222455 0.07926754 0.030042797 -0.02706916 -0.07450656 -0.020318229 -0.0077476487 -0.028087972 -0.02200741 0.02002683 -0.00680911 0.0066483025 0.0017367746 -0.0050505972 0.020016236 -0.009566897 -0.0027879123 -0.014055508 -0.06599222 -0.021086067 -0.011459828 -0.05617381 0.0014934001 0.00079682184 -0.012688587 -0.050896287 0.02375967 -0.0148783885 0.0038723834 -0.038988546 0.05470245 -0.0028830813 -0.020432726 0.058502037
25 0.5748543 0.15719774 0.18811065 -0.43388137 -0.027585475 0.29732424 -0.43093538 -0.09031808 -0.1342889 0.20952398 -0.03139901 0.11624678 -0.07329336 -0.17152792 0.10257829 -0.07916022 -0.25089434 -0.06384759 -0.3568483 -0.09451318 0.04559632 0.22700214 0.05342598 0.027211554 0.049404033 -0.12163026 0.026384028 -0.17033215 0.089962445 0.047371443 0.07428491 0.07568207 0.022931404 0.0048050284 -0.007398016 -0.078602 0.059448607 -0.018165462 -0.02348751 -0.044802226 -0.016223872 0.002589049 -0.0039414084 -0.0017905517 0.021928174 0.020419158 -0.013893654 -0.005337201 -0.07371034 -0.03458418 -0.0038141673 -0.04043087 0.009263021 0.025255514 0.032706264 0.0016960573 0.016029095 -0.042233918 -0.004301347 -0.025417779 0.08291889 0.043434553 0.003944388 0.072593465
24 0.4504881 0.11422843 0.21804725 -0.38125157 -0.0124655925 0.2934382 -0.41532648 -0.103527464 -0.10598742 0.1542837 -0.009958529 0.07629969 -0.03806288 -0.08924241 0.05936718 -0.021067964 -0.24300966 -0.15892881 -0.40962836 -0.10355239 0.047763247 0.15616117 0.051283784 0.017405668 0.040842853 -0.080524065 0.044605464 -0.0918385 0.07198014 0.03192002 0.036375105 0.054079138 0.09522402 -0.029363422 -0.0008050122 0.032202568 0.03375432 -0.04292398 0.00615372 -0.05993533 -0.014825124 0.012347799 -0.006793026 -0.004510617 0.014843901 0.016388124 0.0002717657 0.001920075 -0.031983864 -0.02761783 -0.016320128 -0.01696345 0.05391298 0.032344896 0.004496681 -0.015319645 0.008375768 -0.05509265 -0.009826104 -0.0652715 0.15449627 0.02912801 -0.011102052 0.1522515
15 0.35247156 -0.0045659216 0.012436477 -0.11236356 -0.062056113 0.03934778 -0.19552584 -0.032258764 0.011542363 -0.037162196 -0.022558529 -0.008662498 0.039250057 -0.013150173 -0.0073691695 0.049314227 -0.2553304 -0.074677065 -0.45979553 -0.21546824 0.11188972 0.113526605 0.09778801 0.015607471 0.008660825 0.0211278 0.054097783 0.11180014 -0.0075923405 0.016213477 -0.07792768 -0.03129526 -0.007499438 0.049492303 -0.08565584 0.06122838 -0.022809952 -0.04557454 0.037592337 -0.05107629 -0.024446733 0.041123427 0.011336277 -0.019917639 0.06073276 -0.046674207 0.02615826 -0.032729845 -0.036567885 -0.006496945 -0.019721873 -0.027714092 -0.010929075 0.03787288 0.01672238 -0.011230683 0.004875359 0.006359351 0.00551582 -0.024195725 0.014432066 0.00062639854 -0.0051251636 0.018063482
17 0.39338058 -0.002495853 -0.032744385 -0.080400124 -0.11924653 0.042024937 -0.21126595 -0.0906723 0.020801906 -0.048898183 -0.025273353 -0.026227415 0.04458609 -0.017158557 -0.007637141 0.010896106 -0.19911104 -0.01322987 -0.43017548 -0.19924945 0.13192652 0.038625874 0.181284 0.021013072 0.04849885 -0.048663657 -0.05846962 0.18898374 -0.0032755423 0.038700223 -0.12101992 -0.0364783 -0.008112857 0.029036278 -0.048795477 -0.0026712762 -0.066795416 -0.021637054 0.07462911 -0.0356523 -0.026363041 0.021664677 0.036318418 -0.015182984 0.0656001 -0.10082538 0.044794016 -0.0517929 -0.01861897 -0.017358832 -0.030204946 -0.046514906 0.07243874 0.006482265 -0.015115329 0.071688324 -0.05511805 -0.02900739 -0.027240334 0.016362224 0.05995104 -0.03807456 -0.007507375 0.07289389
19 0.5308696 0.23096609 0.21478294 -0.498485 -0.016935932 0.26765445 -0.48170006 -0.03937548 -0.11709798 0.18944211 -0.04717311 0.1295086 -0.083993144 -0.21249436 0.11470787 -0.09089571 -0.29045662 -0.058280922 -0.3666532 -0.1268586 0.07659498 0.26705223 0.042450704 0.063319914 0.043183696 -0.111253954 0.053400118 -0.15860595 0.07440259 0.06680932 0.051673144 0.05511247 0.06516459 -0.0011633314 -0.05161502 -0.11154081 0.02643365 0.041540653 -0.041997172 0.028640741 0.01719943 -0.009786596 -0.010263411 0.008456413 -0.028829576 0.04207347 -0.020811412 0.023340126 -0.11032928 0.021371396 0.0445114 -0.03270394 -0.015316529 -0.016148895 -0.07310976 -0.12133516 -0.0089366585 -0.015976975 -0.015439861 -0.03504551 0.078707285 -0.061145548 -0.03484264 0.09141665
12 0.46323156 -0.055995412 0.056124426 -0.19081838 -0.05173575 0.08414821 -0.2211217 -0.046704456 0.0061248653 -0.021893334 0.011055232 0.04353506 -0.01334318 -0.017544122 -0.0029888898 0.08614012 -0.2524846 -0.18136671 -0.43353158 -0.17573553 0.011892416 0.012652053 0.07260025 0.0024635268 0.03796127 -0.06415484 -0.014906557 0.048188474 0.018487336 0.05039162 -0.05419269 -0.008697945 -0.023338605 0.04462682 0.09345473 0.065475404 0.037080113 -0.107776366 -0.012496687 -0.11288869 -0.03868199 0.06270053 0.0010536726 -0.027128361 0.0791368 -0.022902291 0.025015747 -0.028547224 -0.019269247 -0.0063114846 -0.009161261 -0.0045367056 0.022405192 0.047386307 0.048431735 0.05631322 -0.017573137 0.012923596 0.00022578984 -0.044165142 0.042294998 -0.024540475 -0.01282074 0.055628244
2 0.43007857 0.12812577 0.18866344 -0.46120074 -0.045695182 0.24661168 -0.3878088 -0.08692301 -0.12199159 0.19264284 -0.01441333 0.11494303 -0.07904114 -0.14133298 0.088584505 -0.055217173 -0.2974427 -0.18913636 -0.4021405 -0.07619495 0.06271826 0.25326332 0.09260012 0.002268485 0.050079223 -0.101118505 0.062225632 -0.13347767 0.0970301 0.035374474 0.058212563 0.07576717 0.078266665 -0.04050305 -0.030078694 -0.05271699 0.07352497 -0.08932067 -0.071632676 -0.07731809 -0.03325483 0.04381498 -0.012727235 -0.016648067 0.05103272 0.027437031 0.0021186145 -0.004758575 -0.08216841 -0.054826554 -0.04400507 -0.070688225 0.05166303 0.0596493 0.04019589 0.0075404337 -0.011184068 -0.07892385 -0.017858058 -0.043077197 0.1719731 0.075510986 0.016426627 0.15968029
9 0.4238333 -0.039241258 0.12671386 -0.31548974 0.008813004 0.119264975 -0.28483355 -0.09079193 -0.034170333 0.042209715 0.006262931 0.066655405 -0.029274723 -0.042714056 0.019424008 0.067314945 -0.2942566 -0.2389717 -0.41485298 -0.121408924 0.009293352 0.1068375 0.06324656 0.00081476907 0.036518343 -0.061843827 0.012781704 -0.007667471 0.041170742 0.032639638 -0.011489529 0.02074168 0.032369502 0.029087385 0.07368081 -0.0021160245 0.08441841 -0.14049302 -0.09699838 -0.104735196 -0.041750934 0.079292566 -0.0026368063 -0.033000775 0.092110135 -0.017017538 0.024752982 -0.029873807 -0.08301781 -0.025847718 -0.015387439 -0.05962398 0.07327925 0.074370645 0.06089385 0.08553522 -0.064350225 -0.07060055 -0.033134617 -0.024952112 0.17107937 0.025106795 0.010091728 0.17604224
20 0.29364687 -0.07603769 -0.062484775 0.037760552 -0.053710304 0.122923486 -0.21074355 -0.09964159 -0.038890988 0.038509227 -0.016115613 0.025283335 0.01163233 -0.056516852 0.02158159 0.011327196 -0.18539879 0.09790071 -0.43890536 -0.22790937 0.109048314 0.16302167 0.17262603 -0.022538818 -0.010534633 0.034411985 -0.05200578 0.13239254 -0.054870315 0.0009857351 -0.075512104 -0.056597654 -0.037843216 0.115980014 -0.09734113 -0.055410344 -0.03453188 -0.01216001 0.0135593265 0.0063181203 -0.017386151 0.020567944 0.01247263 -0.012202861 0.046016015 -0.04038438 0.013725461 -0.030446893 -0.104545504 -0.012521606 -0.009878244 -0.05436753 0.055417087 -0.036899976 0.005244839 0.06730251 -0.018539635 -0.0034133012 -0.0011427113 0.0076594837 0.0030890843 0.002885072 0.0022140467 0.01076897
1 0.5313299 0.15335695 0.23824213 -0.39240465 -0.0069456715 0.3332556 -0.34302628 -0.0894435 -0.14934431 0.22715613 -0.0076662283 0.09539676 -0.06190246 -0.1124484 0.08368645 -0.068277664 -0.24955222 -0.15593748 -0.3600409 -0.0820815 0.0884091 0.11696646 0.04720731 0.0095406445 0.024937304 -0.038822006 0.09676823 -0.09516284 0.07369779 0.007970726 0.04678766 0.057869237 0.11626146 -0.006947498 -0.010595702 0.0039189407 0.003677806 -0.009035042 0.017723104 -0.03477682 0.0039361157 -0.025641724 -0.011683891 0.0140018575 -0.036261722 0.050322235 -0.01737328 0.0293992 -0.074275054 -0.028969876 -0.010855271 -0.06325431 0.05132084 -0.038295873 -0.06393748 -0.100478955 0.02560674 -0.056697067 -0.0029888786 -0.04894141 0.125491 0.044238325 -0.008951784 0.12003968
4 0.58070093 0.12723468 0.19627073 -0.5133101 -0.077851616 0.3193544 -0.45018312 -0.011669776 -0.11547221 0.19285205 -0.040528886 0.1424928 -0.10468992 -0.22953348 0.122351244 -0.111524984 -0.2504826 -0.059749097 -0.28881723 -0.11648717 0.119703636 0.20672037 0.0800225 0.025021719 0.06484123 -0.12024467 0.09045757 -0.11298218 0.10582372 0.06272101 0.029386893 0.069575444 0.052450478 0.056068704 -0.021216558 -0.116606206 0.00062722474 -0.009792882 -0.04140816 -0.0017632005 0.006725129 0.0074231005 -0.00014823224 -0.000948361 0.0019380999 0.007332209 -0.005500555 0.0023842005 -0.13646625 -0.00018178186 0.016142817 -0.11825453 -0.0059020654 -0.05017576 -0.10046636 -0.14470667 -0.00989503 -0.012845912 -0.014016231 -0.025652079 0.06306914 -0.081192575 -0.046425935 0.08442067
18 0.58116496 0.16671179 0.14420758 -0.5337876 -0.056231804 0.27706867 -0.44306707 -0.036470853 -0.1338022 0.22498636 -0.04883243 0.13584158 -0.10242417 -0.23256378 0.1315651 -0.141993 -0.3116635 -0.07610087 -0.28134897 -0.12134723 0.12798274 0.21974558 0.057390157 0.08350353 0.05624257 -0.130007 0.045295894 -0.12216275 0.07590283 0.085923314 0.02008237 0.04454776 0.056340806 0.020933943 -0.073135644 -0.11364892 -0.00800396 0.01463547 -0.0380533 0.017027201 2.9804169e-05 0.02566987 -0.00072607177 -0.0059135146 0.012232705 0.010019669 0.0061370535 0.0068246503 -0.16647656 0.01591654 0.028272828 -0.093029924 0.019916167 -0.04276348 -0.097353786 -0.092447184 -0.03375709 -0.03580462 -0.024709264 0.017756416 0.057469666 -0.036253512 -0.013807635 0.06661909
5 0.29711106 -0.03443259 -0.03156869 0.116480745 -0.15927148 0.10150776 -0.28085545 -0.014630332 -0.022912474 0.032246277 0.0047105714 0.037517216 -0.025031885 -0.04321096 0.019618196 -0.0024431993 -0.16129074 0.031601958 -0.35348964 -0.12499687 0.14688307 0.20252553 0.21860075 -0.0414643 -0.021927642 0.08577303 0.06332831 0.1371266 -0.03666156 -0.021652093 -0.07350698 -0.04590294 0.031125857 0.007851419 -0.05494412 -0.07986127 -0.011921277 0.0071619963 0.0030332902 -0.016529504 0.0026244326 -0.0019932673 0.0037595052 0.0031919938 -0.008724478 0.0002392143 0.0072609787 0.00830272 -0.060233887 0.0027022266 -0.007972184 -0.05220628 0.048592795 -0.043164924 -0.047073163 -0.0023226119 -0.025272492 -0.009180404 -0.010481399 0.0069032433 0.021211008 -0.015845595 -0.0023280988 0.0276894
21 0.3573877 0.11220133 0.15767317 -0.3693271 -0.036752842 0.20105979 -0.29024217 -0.10979053 -0.12333502 0.17457135 0.025320465 0.0971994 -0.05308249 -0.046656594 0.045354355 0.039761398 -0.3173885 -0.23981507 -0.48382214 -0.13791938 0.03786923 0.15720317 0.08022302 0.04164043 0.023767889 -0.0816539 0.0080465395 -0.10533232 0.032742865 0.061755802 0.021344092 0.017734924 0.092136644 -0.09450489 0.0252417 -0.042006314 0.09789742 -0.122732595 -0.16374987 -0.047054894 -0.044095565 0.08735037 -0.02467693 -0.031141413 0.07681981 0.04574354 0.010449018 -4.2744952e-05 -0.08035647 -0.018070612 -0.009568007 -0.016354516 0.063566916 0.101294555 0.08664337 0.11815475 -0.031867422 -0.03017176 -0.012064108 -0.052084636 0.12199744 0.037571955 0.01447447 0.12020574
16 0.38550207 -0.006766775 0.0039059678 0.03743067 -0.1309982 0.06066648 -0.2064974 -0.02834351 0.025209775 -0.0393234 -0.010866899 0.026972814 -0.01208869 -0.04669597 0.007764667 0.024674485 -0.15461452 0.09069705 -0.40584007 -0.15827194 0.20810539 0.14625779 0.309109 -0.06215417 0.032548178 0.010152963 0.08848536 0.12557752 0.0440041 -0.012411448 -0.06405654 0.0110427905 -0.0070509273 0.07300755 -0.10374704 -0.05782113 -0.03281673 -0.044516925 0.065172955 -0.09981242 -0.019465016 0.026419504 0.013207877 -0.012383552 0.04171263 -0.040410053 0.026431397 -0.021998629 0.0047235205 -0.016198559 -0.041367564 -0.050813965 0.00089190673 0.0098164035 0.031948403 0.061504807 -0.036556497 0.016142486 -0.003600312 0.047478963 -0.06209793 0.011110485 0.027285565 -0.063231535
23 0.43941364 -0.00351426 0.09601725 -0.28849518 -0.020862313 0.122373536 -0.28207466 -0.08878225 -0.061697196 0.090456575 0.017203191 0.08797957 -0.054660793 -0.049896162 0.03264933 0.050915875 -0.2911452 -0.27217394 -0.42288303 -0.14201258 0.04339056 0.16137184 0.04758194 0.05975832 0.032321326 -0.09437699 0.041631952 -0.11952181 0.049353033 0.074471876 0.02016604 0.025702849 0.05966828 -0.04502637 0.05532641 -0.00630173 0.109669685 -0.16915382 -0.1472113 -0.10804225 -0.06888688 0.15227218 -0.02506511 -0.059074342 0.14839153 0.019389175 0.03073664 -0.029046733 -0.0415618 -0.023651592 -0.027456846 -0.041025624 0.120683156 0.17887868 0.082478605 0.15822451 -0.06150087 -0.040924557 -0.036511496 -0.046974022 0.15980189 -0.009496481 0.0076714004 0.15752478
10 0.350921 -0.034992855 0.009005144 -0.2864905 -0.035736784 -0.06064202 -0.1922693 0.054150146 0.035088908 -0.058407646 -0.048103604 -0.0015175868 0.026253628 -0.058868326 0.009203975 0.015716616 -0.2250171 -0.08641036 -0.50770944 -0.25675896 0.036739495 0.07228739 0.038899466 0.03705006 0.0042975713 0.044984754 0.052451093 0.1738865 -0.025318235 0.008793813 -0.108444594 -0.0498687 -0.14966084 0.097408265 0.14024428 0.022524761 0.037390005 -0.08131786 -0.006047964 -0.1195489 -0.031347483 0.009518914 0.054647412 -0.014650126 0.08870244 -0.13805357 0.042763066 -0.07942427 0.03885838 -0.032837342 -0.011560026 -0.092844985 -0.012729908 0.1117122 0.07727216 0.0990004 -0.06436102 -0.012631784 -0.033945676 0.014153282 0.05026635 -0.08445791 -0.019170107 0.06699728
11 0.49960375 0.05399563 0.08999039 -0.00398811 0.0032744496 0.22033402 -0.21600571 -0.07823019 -0.1006512 0.13208348 0.022675265 0.033490982 -0.0023039686 0.016969437 0.0138917 0.03711653 -0.21790342 -0.14386696 -0.30073708 -0.08405827 0.04363145 0.09100873 0.006776288 0.025000798 -0.027297474 0.077704355 0.109336816 0.051086593 -0.019214446 -0.010445674 -0.036974777 -0.02893177 0.076736294 -0.052434552 0.051189486 0.016886486 0.026608396 0.030769028 0.050939985 -0.05412835 -0.013971124 -0.0018908133 0.018107822 -0.00037874197 0.027520506 -0.026356561 0.008134324 -0.017675295 -0.122823924 -0.021577124 0.004655819 -0.050654996 -0.09266438 -0.011772615 -0.050585464 -0.23487116 0.050192576 -0.07774209 0.00019001949 -0.042279642 0.13351713 0.076922186 -0.004375748 0.11837653
14 0.4324141 -0.057250436 -0.02043335 0.149879 -0.031517092 0.23647721 -0.29970637 0.049033064 -0.1207868 0.17755555 0.029872514 0.06827089 -0.048077088 -0.023768496 0.04023814 -0.009974739 -0.11942473 -0.13553923 -0.15398404 -0.05565819 0.0417697 0.32998586 0.06560171 0.00388258 -0.07225275 0.15682878 0.0529492 0.1350451 -0.10426799 -0.033957373 -0.07293573 -0.09094347 0.033134498 -0.121355414 0.084258825 -0.038361665 0.052902732 0.07055964 -0.04444037 0.02751114 0.012652871 -0.020972421 -0.009731516 0.014968843 -0.040061027 0.055663418 -0.018888444 0.035376497 -0.056736127 0.0066030277 0.03829868 -0.006582263 -0.093378656 -0.00343359 -0.048782688 -0.165225 -0.012253373 -0.05563313 -0.023517776 0.012023042 0.0813072 0.0018327954 -0.003801825 0.07661981
0 0.5737675 0.19856809 0.16226229 -0.51681924 -0.08248648 0.29142985 -0.5823872 -0.033945043 -0.12844482 0.21207641 -0.06017972 0.1370114 -0.09219314 -0.24447748 0.13218273 -0.12563515 -0.31465566 -0.06031341 -0.27007416 -0.08000887 0.08405325 0.18077168 0.041909877 0.04430174 0.04192971 -0.08397221 0.093684666 -0.11037257 0.07535499 0.05583044 0.028387548 0.04936524 0.025409475 0.06535735 -0.10439115 -0.14781733 -0.0035097848 -0.013694202 -0.10966049 0.043228984 0.026185913 0.0010042302 0.01176284 0.0022132075 -0.018624987 -0.027457835 0.011351173 0.0026487766 -0.236415 0.052496813 0.0403207 -0.07504161 -0.06588138 -0.07603357 -0.06333338 -0.12173231 -0.012311863 0.04366878 0.015180229 -0.029802492 -0.028071309 -0.05652063 -0.030933008 0.003482154
22 0.45322606 0.030802263 0.0040733996 -0.25222164 -0.06940732 -0.08730869 -0.2314882 -0.0031067242 0.023044309 -0.044422295 -0.07574575 -0.013646987 0.05059872 -0.07636302 0.018340511 0.004349062 -0.25442228 -0.09303855 -0.45572075 -0.22804144 0.00070706155 -0.024555186 -0.015750369 0.078092575 0.021779327 0.010373504 0.007894932 0.18894231 -0.020904375 0.021786746 -0.118436284 -0.04791902 -0.12502474 0.08070492 0.19089936 0.0094893845 0.044615317 -0.098302335 -0.049229342 -0.07914759 -0.032295834 0.031998128 0.037561342 -0.021709278 0.09465039 -0.10464396 0.032468583 -0.07007962 0.030810215 -0.015354573 0.015592487 -0.05580433 0.07237471 0.126069 0.08450287 0.1973236 -0.07957646 -0.038625292 -0.04390604 0.031100651 0.076717645 -0.048535213 0.0018934042 0.08373735
8 0.26494837 -0.03534397 -0.012900879 0.13606884 -0.10269837 0.18365802 -0.29318485 -0.051949445 -0.07811205 0.10354195 -0.028238177 0.05140035 -0.0023745415 -0.07610427 0.043495137 0.012882556 -0.086684816 0.09408046 -0.3334715 -0.14387041 0.16329919 0.23132174 0.24913353 -0.06301646 -0.009828462 0.10582752 0.1342607 0.18817888 -0.010664019 -0.03900492 -0.09205488 -0.031570293 0.010868688 0.027893882 -0.006176984 -0.08759726 -0.008161348 -0.046688978 -0.07693668 0.03510535 0.018663721 0.013569853 -0.04461084 0.0017286515 -0.04296766 0.10315046 -0.035523653 0.04922198 -0.023988005 0.009258326 0.022896841 -0.02951325 0.12487888 -0.10019368 -0.041619692 0.10321747 -0.042235013 -0.031592343 -0.015291804 0.09319999 -0.04325621 0.053581566 0.044369135 -0.05413479
6 0.40803328 -0.16195089 -0.03991081 0.17664607 -0.16787471 0.17780674 -0.26691568 0.06643392 -0.12542364 0.19632642 -0.0015157374 0.09748481 -0.07692897 -0.13093013 0.08470149 -0.09528141 -0.12221481 -0.06610721 -0.1656438 -0.04975537 0.021964192 0.35373315 0.08293789 -0.089538835 -0.08632346 0.19832867 -0.004815313 0.18232764 -0.12148122 -0.092843495 -0.057990562 -0.08670024 0.018361188 -0.071671925 0.06366804 -0.05002271 0.09229897 0.04243683 -0.11786453 0.08003362 0.031987168 -0.07934726 -0.039382026 0.04161286 -0.11852729 0.15055826 -0.06887009 0.08375586 -0.05603372 -0.015987156 0.037992787 -0.023400735 0.017893804 -0.07463516 -0.02549571 -0.032649092 0.027873127 -0.03779034 0.0014113425 0.0072896755 0.029543035 0.04068066 0.0017046486 0.020484544
7 0.26259762 -0.16159002 -0.105816096 0.2151207 -0.05687865 0.18938516 -0.42564908 0.10035733 -0.116292484 0.199333 -0.008169439 0.11289711 -0.10078305 -0.14220966 0.09416585 -0.10182506 -0.1330601 -0.10199983 -0.20893036 -0.06903566 0.034836322 0.39555907 0.091133974 -0.07082146 -0.074888974 0.17964791 0.0705412 0.13423358 -0.090932794 -0.069813535 -0.048199587 -0.068720736 -0.008807236 -0.0644742 0.12141686 -0.05579669 0.0711284 0.053029507 -0.10006492 0.043019455 0.059012484 -0.09497735 -0.04806012 0.054590154 -0.18185389 0.17779723 -0.06255775 0.125234 0.015603455 0.021072216 0.04343613 0.017607326 0.081715025 -0.11803059 -0.08670339 -0.0037846728 -0.033869885 -0.02194523 -0.016993957 0.05352426 -0.009702103 0.004037599 0.015848558 -0.01184794
13 0.6234229 0.27204522 0.254932 -0.08998925 0.13185431 0.35642648 -0.13289769 -0.21359967 -0.1857166 0.23996828 0.034857556 0.041870423 0.017661361 0.052318763 0.017265819 0.07662438 -0.14897853 -0.22865169 -0.24635573 0.027492074 0.03300557 0.1091616 -0.050361387 0.0086388495 -0.061147776 0.18558697 0.31212243 0.05281792 -0.004432744 -0.05091185 -0.03218951 -0.022312114 0.009057557 -0.030659832 0.17778397 0.005679011 0.012002648 0.07398521 0.05425318 0.025261195 -0.004261083 -0.013012185 -0.0036932526 -0.00031866934 0.025335792 0.014178893 -0.042028997 -0.024430802 -0.10809185 -0.046864174 -0.0035929948 -0.077300295 -0.033786494 -0.095381305 -0.17639752 -0.38062257 0.11538282 -0.10276609 0.0055910656 -0.069206044 0.17085269 0.080515034 -0.027816486 0.14350528
