26 64
3 -0.0009241677 -0.24482472 -0.24088556 0.18059252 0.009455623 -0.046731234 -0.034124322 0.017228246 0.011069338 0.045302257 -0.078018926 0.04712904 0.021218348 -0.056245536 -0.07617023 -0.011962121 0.31476125 0.10534542 0.2939426 -0.05323874 -0.13551472 -0.1305649 0.10807347 -0.12232373 0.33562335 0.3242269 0.039023433 -0.057778258 0.08085079 0.25826138 0.094319545 -0.15773632 -0.052747454 -0.011076314 -0.0222544 -0.0004042632 -0.10616885 -0.064058155 0.0026875483 -0.0035063387 0.0014763116 -0.023592677 0.03703422 0.025033148 -0.00019800916 -0.014909598 0.031117104 0.0147187 -0.0837504 -0.0271354 0.023398217 0.12698591 -0.0041146073 -0.0017038715 0.019059295 0.0105090635 -0.014773559 0.021713827 -0.02136649 0.031749975 -0.01981482 0.0801968 0.04613416 -0.016437186
25 0.059945676 -0.13335745 -0.21478914 0.2131397 -0.010505297 0.04452252 -0.028582687 0.019787354 0.022534523 0.05533718 -0.13323513 0.11290097 -0.026222253 -0.0286995 -0.09981544 0.06368585 0.2897096 0.09908575 0.32618907 0.04478378 -0.117654674 -0.14439504 0.105711035 -0.105823815 0.30352932 0.2763352 0.035060585 -0.06715936 0.05594938 0.29717574 0.0699427 -0.15572198 0.016950063 0.016430417 -0.042646095 0.009686999 -0.07307994 -0.10465046 0.022210728 -0.0070475596 -0.0004354279 0.010084219 0.0017704634 0.00800461 -0.004566379 0.011908532 0.015125128 0.001532432 -0.064629965 -0.028187485 -0.07772263 0.13316877 -0.03223939 0.03214066 0.06330061 0.022027355 -0.009608955 0.008081552 -0.012477712 0.008193846 0.010350261 0.019601913 0.030428411 -0.01387107
19 -0.02381021 -0.17374013 -0.2059491 0.1887373 -0.018119412 -0.02087702 -0.037994005 0.011655075 0.010734185 0.053492595 -0.08751837 0.052101143 0.026064228 -0.0705826 -0.09073864 -0.023520013 0.31205642 0.1350363 0.41390386 0.052639075 -0.13221416 -0.08127944 0.08670538 -0.12895484 0.32864863 0.25581768 0.02363629 -0.06182403 0.10335088 0.33982506 0.11417005 -0.14888896 -0.026876898 0.045777634 0.027946087 -0.07240758 -0.09069808 -0.037812002 0.008200092 0.011744739 0.016540319 -0.042529315 0.052957907 0.033515476 0.017511232 -0.037127107 0.029688045 0.011541191 -0.01580438 -0.026186746 0.0046046553 0.15767267 0.0017485238 -0.061436478 0.02688161 0.047784276 0.020052528 0.012147886 0.022963537 0.018278005 -0.02970495 0.03536032 0.018691273 0.0011620042
24 0.020539442 -0.13995293 -0.12780549 0.04244411 0.023350125 0.0766446 -0.12818635 0.023176728 0.04734859 0.07477761 -0.1817888 0.13711877 -0.072325096 -0.01572005 -0.11327618 0.10264034 0.24815756 0.0749772 0.20877042 -0.024402983 -0.105404146 -0.1427611 0.062146645 -0.16934934 0.30276677 0.34564704 0.054284308 -0.062189028 0.044988707 0.24157636 0.060478423 -0.17511015 0.031123694 0.0072098337 -0.047780443 -0.03992436 -0.05738361 -0.026158508 0.016343113 0.0018504112 -0.056572836 -0.036924884 0.09116201 -0.00761104 -0.045328688 0.018136036 0.043710507 0.053869613 -0.007409309 -0.08321544 -0.13882512 0.18495597 -0.032861393 0.06746862 0.042513244 -0.009997216 -0.013384492 0.0040054987 -0.012890499 -0.012117195 -0.01462391 0.006572796 0.0020827414 -0.008648603
12 0.056549605 0.0058341585 0.011112231 0.19015537 0.09732013 0.2455873 0.014012971 0.04408196 0.069063425 0.052795988 -0.18009956 0.13278012 -0.06701479 0.0368338 -0.045316 0.15945257 0.32248563 0.106143296 0.07844201 -0.17335434 -0.029051894 -0.038255826 -0.15815179 -0.56253767 0.12648994 0.4067242 0.12694985 -0.008035249 0.032808527 0.008603427 0.033486288 -0.19460277 0.10687815 0.034251444 -0.013914508 -0.13217887 -0.0037642983 0.10465535 0.057926636 0.013497608 -0.08857503 -0.008825295 0.060481273 -0.033530436 -0.07925938 0.053901277 0.03888268 0.06666298 -0.060824286 -0.040390804 -0.054754294 -0.016728753 0.04476486 0.2419966 -0.031968124 -0.099160254 -0.18291813 0.03418395 -0.10130193 -0.044864316 -0.0070169684 0.05298821 -0.049496926 -0.026724152
2 0.06238612 -0.12178601 -0.14597946 0.12280136 -0.0014841871 0.016056456 -0.075193755 0.0307849 0.025217764 0.05366382 -0.12650555 0.11171368 -0.10134726 3.4221466e-06 -0.09884419 0.08522875 0.25193194 0.11110175 0.3263983 0.024234105 -0.09142356 -0.06336099 0.0377976 -0.095264666 0.27993155 0.32295275 0.061012585 -0.052330833 0.07699107 0.26299188 0.08627732 -0.17893575 0.00293815 -0.0026026126 -0.077222295 -0.030652316 -0.12400872 -0.06676795 0.009705046 0.017625034 -0.015857683 0.0030371153 0.017902857 -0.012586772 -0.010531112 0.017573355 -0.0023087237 0.0017398564 -0.04836142 -0.08049704 -0.16197175 0.15305062 -0.024174804 0.12829274 0.0607706 -0.05231199 -0.11853648 0.015459228 -0.11186129 -0.009422091 0.0417611 0.046732757 0.021466203 -0.038885828
15 0.07259599 -0.05168053 -0.0053602033 0.090731636 0.17803122 0.34564433 -0.051249724 0.059695613 0.051929247 0.037051182 -0.13076955 0.09920107 -0.08197522 0.042548005 -0.034239348 0.13449477 0.31129777 0.05675936 0.09306426 -0.15907794 -0.058982115 -0.074630626 -0.20167384 -0.8451545 0.16461137 0.38756332 0.07075203 -0.017459268 -0.027829036 -0.08810693 -0.010393853 -0.1260942 0.112652466 0.041756023 0.056648694 -0.16569841 0.063205905 0.11369227 0.04362158 0.017505243 -0.101687595 0.029745188 0.00320196 -0.089950815 -0.08395898 0.08473688 -0.02690436 0.04009975 -0.05638684 -0.07465672 -0.068135604 0.07484592 0.15693884 0.18161267 0.008495075 -0.08552507 -0.15924731 0.024995245 -0.08523744 -0.03388671 0.018877132 0.02994404 -0.047853403 -0.017713998
1 0.06193361 -0.1612616 -0.18014985 0.096208505 -0.030456562 -0.027904995 -0.14699769 -0.0039347145 -0.012322418 0.016862934 -0.04855727 0.08988357 -0.12992169 0.027870864 -0.08020346 0.078758456 0.2208418 0.038331896 0.32118538 0.0657853 -0.11654884 -0.14007553 0.050749104 -0.20827988 0.31776735 0.34587297 0.051002663 -0.05995076 0.07009431 0.26614884 0.08440387 -0.17722243 0.015693408 0.014393698 0.0027236494 8.9450186e-05 -0.051984087 0.0036287457 0.018242713 -0.0070955246 -0.047032893 -0.040324256 0.0892398 -0.016594814 -0.030344376 0.009598203 0.019864038 0.03787769 0.05095912 -0.049146894 -0.07772706 0.12590578 -0.078272976 0.09313426 0.023399254 0.035349384 0.035102833 0.007357393 0.059882537 -0.024444114 -0.077066675 -0.0092689255 -0.028835827 0.013443714
20 0.023207348 -0.14412524 0.041273758 0.0074218693 0.1999688 0.43549243 -0.045937065 0.11475316 0.0030118676 -0.031772487 -0.007959874 0.06827135 -0.13387817 0.11695958 0.030964067 0.15336205 0.40911776 0.15178478 0.12500198 -0.15362276 -0.11205284 -0.13529108 -0.11394504 -0.8900462 0.101564415 0.37609887 0.112962954 0.00995714 0.038163003 -0.078434974 0.037158374 -0.15439272 0.058903694 0.04553212 0.018770361 -0.17408933 -0.030544557 -0.016014626 0.029527955 -0.018748352 -0.051175315 0.0073380363 0.018163763 -0.015346919 -0.05094525 0.03861317 0.02819496 0.038385537 -0.12218558 -0.0148937935 -0.04129576 0.059162043 0.052291106 0.1028967 0.056227993 -0.015005086 -0.22230293 0.027834527 -0.1846282 -0.03253652 0.037308022 0.07484689 -0.015902642 -0.04970704
17 0.053389832 -0.017502958 -0.036826767 0.11745147 0.1443383 0.3271636 0.0032069942 0.059242133 0.0222466 -0.009293367 -0.06936152 0.10439176 -0.09051962 0.09400547 0.009803562 0.16992384 0.37456006 0.13564077 0.020573666 -0.17695318 -0.09729025 -0.13626836 -0.1966708 -0.87214714 0.1258193 0.3470112 0.09253701 -0.009126959 0.0019864053 -0.047103096 0.0074961632 -0.14012286 0.13855067 0.1139851 0.085858524 -0.2809792 -0.037578177 0.014942476 0.020925375 -0.0018571371 -0.046865776 0.0062891087 0.018163413 -0.032239042 -0.03907004 0.036372416 0.0004436828 0.023364278 -0.03530563 -0.07034131 -0.03930383 0.06883073 0.091879025 0.17241895 0.020515872 -0.03310403 -0.22007959 0.02728968 -0.12695828 -0.040475864 0.06115673 0.024617732 -0.0588492 -0.025097696
18 -0.022783313 -0.21107271 -0.22612278 0.21806136 -0.034956206 -0.05293715 -0.03913827 -0.0045200186 0.005331372 0.044170745 -0.072092526 0.046925213 0.027148137 -0.062461153 -0.07952203 -0.022339368 0.25387987 0.117907986 0.38899738 0.052431967 -0.116216116 -0.09301454 0.08141077 -0.16186357 0.30556455 0.28078943 0.05618815 -0.052004214 0.13546056 0.36051038 0.13739349 -0.18340547 -0.0111777885 0.042827483 0.011112383 -0.08492576 -0.071462914 -0.026206566 0.00018734418 0.008658621 0.0546712 -0.01426427 -0.016058654 0.029887104 0.050299685 -0.04795523 -0.01293234 -0.030960886 -0.025387738 -0.0332053 0.05698513 0.15879439 0.0406382 -0.042299878 0.0140269045 0.026751064 0.047757335 0.008356969 0.038526975 0.03164023 -0.021131063 0.03257433 0.033087973 0.004267834
9 0.12350479 0.024375813 -0.10338666 0.044534154 0.06325622 0.12840806 -0.15318671 0.07939302 0.06757486 0.09213666 -0.23114555 0.1754645 -0.13605584 0.0042270594 -0.13028774 0.14954565 0.2641993 0.12165995 0.17250404 -0.057367537 -0.030464461 0.048573144 -0.17358898 -0.40486214 0.1350741 0.3607534 0.11924005 -0.0022096552 0.08731838 0.07716808 0.081422344 -0.19056801 0.09127989 0.020312166 0.04841113 -0.05394933 0.017163737 0.09241713 0.055984374 0.008038707 -0.08754291 0.021803198 0.024265626 -0.03985756 -0.08404765 0.07475957 0.03255741 0.056678027 -0.09272699 0.008931294 -0.040934432 -0.05400142 0.06436334 0.14084248 0.000405759 -0.07587901 -0.23239243 0.02111047 -0.19509876 -0.043645836 0.05645645 0.053714182 -0.024313062 -0.05143575
5 -0.008437791 -0.20639691 -0.0011353598 -0.041247796 0.2553069 0.6159325 0.0012286776 0.104949206 0.012203203 -0.028159423 -0.041005846 0.10535282 -0.1409528 0.13138178 0.027382111 0.19620106 0.3457458 0.12019065 0.10883929 -0.07493887 -0.085190214 -0.0366582 -0.19692813 -0.8645911 0.13342696 0.31705004 0.09575213 3.296631e-05 0.08586061 0.06104618 0.08177757 -0.15780826 0.09263258 0.0785319 0.05305109 -0.15549786 -0.10606417 0.033309896 0.057369545 0.022930438 -0.052379444 -0.03229738 0.08304425 -0.012100241 -0.04002932 0.01841642 0.031910926 0.04417909 -0.08674764 -0.050623942 -0.00063360785 0.21734095 0.052354008 0.12508123 0.07232907 0.014032266 -0.14256704 0.041199993 -0.092911474 -0.0072984933 -0.01089392 0.09371127 0.010412396 -0.035872355
4 -0.094485514 -0.22207543 -0.18587303 0.18035945 -0.075603515 -0.08079646 -0.04533682 -0.024899738 0.00993014 0.05653233 -0.108096614 0.08006638 0.04602619 -0.075894 -0.10069086 -0.0099142315 0.26322317 0.15912291 0.35123456 0.04362115 -0.110094614 -0.12202556 0.062197454 -0.19628257 0.29158115 0.26654354 0.0620522 -0.053353537 0.13234133 0.3751608 0.13200574 -0.1879295 0.033008862 0.022803705 0.0066838646 0.00018837374 -0.081090644 -0.032976378 -0.010507537 0.005126573 0.07771915 -0.025264183 -0.01059273 0.04264712 0.07407007 -0.06947965 -0.01967055 -0.046522703 0.0064337486 -0.06710845 0.059014704 0.20903845 0.036757883 -0.040986735 0.009625307 0.050342634 0.019537162 0.0103134755 0.03520783 0.02404785 -0.0102846725 0.021181216 0.008373216 0.010165245
21 0.16185921 -0.038459606 -0.1264237 0.08469453 0.018323353 0.16597824 -0.18836127 0.08023939 0.050825566 0.09066787 -0.20596562 0.1443934 -0.025235962 -0.052631434 -0.13165517 0.073100306 0.2560601 0.08664745 0.15613239 -0.046466596 -0.06179568 -0.008988027 -0.06903145 -0.11082056 0.25113752 0.37456945 0.09418882 -0.023004504 0.12372828 0.19036074 0.122718155 -0.1963159 0.08372585 -0.020157618 0.053093586 0.07622944 -0.055189237 -0.016288526 0.01184198 -0.02082072 -0.06676214 0.020478077 0.025187586 -0.046024222 -0.056155432 0.06399103 -0.0008314206 0.02383271 -0.07184707 -0.08394298 -0.11629294 0.14400047 0.040730882 0.19902897 0.09175854 -0.061057366 -0.1339664 0.014027223 -0.13649428 -0.0062323506 0.06689425 0.04842579 0.03606322 -0.048280224
16 0.026799597 -0.16602835 -0.04306669 0.10593767 0.14786993 0.54470533 0.0150569165 0.048202425 -0.020703238 -0.04241597 0.010500436 0.078671664 -0.08522155 0.09848121 0.021240985 0.13543549 0.403309 0.11775754 0.0610582 -0.12307456 -0.13105483 -0.13305186 -0.20157667 -0.8791462 0.13093463 0.32298812 0.078654744 -0.0011805331 0.036299955 -0.0317012 0.04020674 -0.12630732 0.12841122 0.0370358 0.019914426 -0.09650291 -0.017877162 0.014533441 0.047386456 -0.007669467 -0.074848354 -0.0034251434 0.04841907 -0.042736515 -0.061355073 0.049426656 0.010027066 0.042235006 -0.08112822 -0.018674694 -0.017431486 0.12237181 0.033464145 0.13232414 0.09380665 0.016387645 -0.27475858 0.014069401 -0.20621456 -0.09674518 0.046776053 -0.0038833302 -0.087763116 -0.045037594
10 0.07344155 0.06437359 -0.108133756 -0.001997788 0.18653093 0.26596323 0.07184729 0.0041691274 0.065678224 0.051578563 -0.17550254 0.12303373 -0.014043624 0.016136095 -0.04257903 0.13762534 0.41484588 0.035363596 0.08070853 -0.1918496 -0.048980784 -0.010921916 -0.20410015 -0.60281384 0.16533701 0.34596235 0.0806493 -0.021460323 0.021510659 0.042049397 0.03014416 -0.15263042 0.12945962 0.105821736 0.065226816 -0.29288873 0.16384175 0.26073688 0.073080815 0.060648553 -0.060859192 0.0905423 -0.11059939 -0.07744602 -0.065664075 0.09252064 -0.04023658 0.008139708 -0.10938217 -0.051286668 -0.043608602 -0.0036796823 0.14791709 0.23613514 0.00089401257 -0.1050727 -0.1998151 -0.0047146566 -0.1718174 -0.09104155 0.053907845 -0.03554002 -0.06566668 -0.041000158
23 0.13509463 -0.03475887 -0.15790789 0.09279034 0.05618252 0.2009573 -0.16248316 0.09796392 0.07528247 0.10737556 -0.25878587 0.17124899 -0.009625082 -0.05408331 -0.13456982 0.10253537 0.30371502 0.13255881 0.07647228 -0.07011961 -0.06246751 0.0120940665 -0.05663784 -0.22317262 0.12759669 0.35625988 0.13536884 0.007982819 0.13005415 0.105423115 0.11527255 -0.20545655 0.16172038 0.066641696 0.04372471 -0.17090449 0.03137615 0.108437195 0.022648755 0.038572714 -0.08099282 0.0091481535 0.04473073 -0.014567434 -0.08330707 0.06450168 0.067293115 0.0727518 -0.05506964 -0.03597705 -0.2182429 -0.009493611 -0.03377849 0.20629564 0.054105893 -0.07709821 -0.18283422 0.0094591 -0.19669393 -0.055698406 0.03537559 0.041633092 0.009949447 -0.06644316
11 -0.027178353 -0.16124736 -0.01168349 -0.06743971 0.18146443 0.1829218 -0.019847153 0.068722606 0.011998301 -0.016410384 -0.06116052 0.13907027 -0.26633352 0.16250312 -0.014962723 0.2447892 0.30067065 0.063292265 0.22909708 -0.017780108 -0.05065301 -0.20525086 -0.04731791 -0.68409014 0.09724065 0.3837896 0.14402634 -0.005555567 0.046592142 0.044311915 0.04011848 -0.20996477 0.058866575 -0.021124646 0.040818103 0.077392526 -0.017684894 0.103517026 0.017632648 0.017882498 -0.14707586 -0.013882184 0.11043815 -0.07416578 -0.12303276 0.09525907 0.041415658 0.097609065 0.05907413 -0.18272315 -0.12392702 0.11703612 0.01889248 0.17587692 -0.07650237 0.019744627 0.03445821 0.045977622 0.13836698 0.013404118 -0.1381704 0.065497145 -0.04804874 0.040253434
8 0.050162192 -0.19827144 -0.088748045 -0.11089874 0.22945559 0.7388758 -0.005057809 0.07583123 -0.023237718 -0.061789013 0.04397641 0.06378887 -0.1512002 0.14393406 0.051895604 0.15982275 0.2805182 0.09724538 0.083938226 -0.041192554 -0.15398423 -0.111702435 -0.23294787 -0.83385986 0.13244908 0.37443864 0.14578478 0.0105495555 0.15347733 0.13372579 0.13617902 -0.22411062 0.03859152 0.05671733 -0.029889522 -0.15634741 -0.13700862 -0.066052526 0.043832116 -0.0071967174 -0.024311496 -0.03090139 0.064780876 0.00689814 -0.017671317 -0.00050444977 0.029494664 0.027084427 -0.11411953 -0.03138007 -0.028272077 0.27465588 -0.0044114417 0.06628062 0.10947497 0.0021615662 -0.12868915 0.0053244894 -0.15158962 -0.030972756 0.03653359 0.033166427 0.021247571 -0.05086855
22 0.15693282 0.08674506 -0.078779854 0.030034885 0.11252009 0.27463317 0.10473658 0.010915783 0.037421014 0.034110352 -0.14182232 0.13713042 -0.058044825 0.035654165 -0.05452954 0.1492352 0.34395555 0.027019657 0.09341545 -0.19165233 -0.054005772 -0.133647 -0.17855862 -0.59972495 0.17376761 0.41930214 0.09818717 -0.01353386 0.004808663 -0.05474884 0.014734588 -0.1593588 0.122671135 0.08620504 0.19910003 -0.26876143 0.12441547 0.14289808 0.054365613 -0.03638166 -0.13310282 0.076041564 -0.05020103 -0.13425393 -0.114050314 0.13264267 -0.061231017 0.032177225 -0.107325695 -0.029959533 0.05620665 0.005786992 0.22205828 0.2502803 0.079541124 -0.1165756 -0.27017277 0.006345946 -0.20038083 -0.08529875 0.10085016 -0.027386995 -0.07963361 -0.042600174
0 0.020816678 -0.12717573 -0.11956167 0.35612217 -0.08238001 -0.016195416 0.017362695 0.026645659 0.0022476811 0.0365475 -0.031232923 -0.020753553 0.14402527 -0.10854251 -0.04315262 -0.10817258 0.2631545 0.098790355 0.44690466 0.06918137 -0.12047451 -0.15983684 0.10901831 -0.22484116 0.27421167 0.29455748 0.08643664 -0.034885604 0.17807616 0.3619338 0.16903396 -0.20801966 -0.05897472 0.019565292 0.050060473 -0.045612957 -0.0015076329 -0.065235995 -0.014701759 -0.043565884 0.040084533 0.004965847 -0.04227833 0.014249142 0.0339528 -0.028748536 -0.020839984 -0.028060218 -0.026276786 -0.0012469934 0.06021488 0.07147897 0.07204813 -0.055430006 0.054574125 -0.004064176 0.13288929 -0.011238472 0.0795497 0.044506803 -0.014764654 -0.0011964167 0.05678517 0.012909167
14 -0.015226649 -0.18565872 -0.08979651 -0.24554914 0.19789028 0.5326176 0.15415592 0.012652053 -0.012953085 -0.034781285 -0.029983366 0.14900069 -0.26828483 0.16941576 -0.014392147 0.24234727 0.17401494 0.07344976 0.25516653 0.021494962 -0.08494644 -0.25655985 -0.15313677 -0.73342043 0.062165376 0.546394 0.24330579 0.01576207 0.09594408 0.03628749 0.07390598 -0.3220813 0.02955046 0.06766995 0.12640831 -0.07635451 -0.12664731 0.03356862 0.037394553 -0.035129502 -0.063409716 -0.035765097 0.093720265 -0.018777829 -0.047502592 0.023379063 0.029537966 0.047339402 0.003684071 -0.08455532 0.03367862 0.16567841 -0.02779076 0.19696717 -0.05530947 0.04575572 0.050648168 0.066403404 0.13513759 0.045643006 -0.1629282 0.13991475 0.020609321 0.018736854
6 0.075664826 -0.17617299 -0.23933275 -0.2371002 0.29292795 0.64943975 0.21151185 0.07298465 -0.0071337596 -0.05562327 -0.0060352255 0.12970844 -0.25955114 0.2012851 0.037410572 0.25941667 0.22529759 0.114982516 0.16575754 -0.020945556 -0.08866944 -0.1403127 -0.23205222 -0.74725056 0.021100216 0.47165504 0.26573575 0.0490455 0.22700422 0.124572605 0.18059096 -0.33423275 -0.016610613 0.020029822 -0.01926596 -0.09129252 -0.18691915 -0.017156899 0.040509593 0.020783897 -0.067143716 -0.011482141 0.06592313 -0.015974183 -0.05990441 0.04216417 0.041561272 0.05134178 -0.14487593 -0.11988897 0.06803064 0.312021 0.09161454 0.032604877 -0.041927066 -0.036121793 0.033482518 0.04545244 0.04422847 0.077901356 -0.058750447 0.14329146 0.08293733 -0.007525057
7 0.08130514 -0.11951317 -0.20385472 -0.3423272 0.23618716 0.66552836 0.1983438 0.031997204 0.0009269162 -0.043996 -0.04219285 0.16064474 -0.26149598 0.19844437 0.018744532 0.28328553 0.17724949 0.041577965 0.24036634 0.061058998 -0.09311033 -0.21393926 -0.15708455 -0.76141506 -0.03696453 0.47071275 0.30443108 0.052674107 0.24509108 0.18827702 0.18879703 -0.3812217 -0.00071739324 0.075647496 -0.08292689 -0.25436532 -0.1868375 -0.0088162925 0.108603045 -0.022957493 -0.07511407 -0.042642016 0.10290789 0.013332356 -0.07237214 0.022989513 0.087402 0.08484528 -0.21420647 -0.007578898 0.1761916 0.30447662 0.022915676 0.024685133 0.034948293 0.0064633065 0.01663561 0.02651884 -0.05210255 0.034524754 -0.07487489 0.13332489 0.10885427 -0.046316456
13 -0.029756123 -0.13565272 -0.10772895 -0.3007004 0.17056043 0.038821895 -0.0030063107 0.02553353 -0.05476157 -0.07671409 0.06925734 0.11994218 -0.40073767 0.23536891 -0.00077787385 0.26084137 0.41197017 0.047229648 0.27402028 -0.026546216 -0.13105614 -0.3533326 -0.025099115 -0.49950323 0.2764848 0.3739266 0.083382346 -0.05527725 0.035235956 0.19646832 0.045450553 -0.19226137 -0.110048175 -0.030720852 0.20568348 0.24033971 0.020314042 0.10474656 -0.04744071 -0.007405857 -0.14071822 -0.046822336 0.16564412 -0.047249723 -0.115635425 0.07478656 0.07553127 0.113382064 0.25747368 -0.20377478 -0.21720584 0.017600356 -0.17265642 0.18589811 -0.13225506 0.07760234 0.16135402 0.013613619 0.28794068 -0.03315931 -0.19668664 -0.06916495 -0.14246038 0.099338226
