26 64
3 -0.033357967 0.1854966 -0.28040648 -0.10953963 0.066583626 -0.065308325 -0.22452834 0.0010184773 -0.2003685 0.027274126 0.023724072 -0.17182127 0.11101846 -0.025793135 -0.25976494 -0.09136248 -0.022354573 0.23659149 0.013367672 0.033931717 0.044055514 0.01542973 -0.07987291 0.14487348 0.04391366 0.20212045 -0.16846725 0.40328142 -0.38054976 -0.3166313 0.078916125 0.18115912 -0.0063035265 0.0007561329 -0.027449105 -0.010247151 0.06616209 0.0019667475 0.019644922 0.08232123 0.022050101 -0.006528475 -0.047219004 -0.056631457 -0.031783335 -0.0068669803 -0.053754535 -0.003409923 -0.039028913 -0.013458158 0.011232596 0.04683671 -0.015252398 0.025363646 0.01395778 0.021115549 -0.010397032 -0.0065522008 -0.09289736 0.017972793 -0.040466383 0.013040589 0.020863576 -0.055105142
25 0.018236633 0.2019699 -0.27443597 -0.09814498 0.06767339 -0.04733614 -0.26387987 0.032740455 -0.21221149 0.02738551 0.02602458 -0.19211689 0.12161853 -0.02661223 -0.28761238 -0.09712777 0.0038529392 0.22743174 0.01782856 0.024160616 0.043443814 -0.011987374 -0.06796592 0.16557954 0.022055268 0.15309653 -0.14827362 0.39333168 -0.3843547 -0.27740723 0.080746144 0.14843847 0.0034673535 -0.037127063 -0.025592497 -0.00051981944 0.06013078 0.0334593 0.027431197 0.0016283978 -0.0034060762 -0.0006248297 -0.01794257 0.017800022 0.0074798902 -0.0015169127 -0.0054324833 -0.0035659168 -0.02387521 -0.016863639 0.06785958 -0.069993265 0.00974821 -0.028241286 0.07620456 -0.0007742685 -0.031103022 -0.009154451 -0.023114076 -0.027183346 -0.07217321 -0.062266912 -0.026821494 -0.10680408
24 0.029194305 0.1698789 -0.26528433 -0.045143127 0.1067375 -0.062441155 -0.28003475 0.009913394 -0.26273644 0.029521195 0.025613483 -0.20046951 0.11222185 -0.018609218 -0.2768924 -0.10069825 0.031082036 0.27387828 0.015487278 0.04372898 0.022463115 -0.049292035 -0.06513889 0.18276773 0.050334163 0.21587874 -0.15429322 0.2961896 -0.2750958 -0.29736257 0.048566397 0.14643358 -0.04594193 -0.033569675 -0.0950107 0.002047765 0.043444995 -0.01902353 -0.016913194 0.026685959 -0.039664175 0.026896115 0.02060775 0.043809082 0.052670147 0.001175675 0.027348813 -0.027562758 0.02495121 0.0042129653 0.04261463 0.008296723 -0.013818086 0.07353746 -0.008637492 0.002537429 -0.0979752 -0.018077994 0.0810231 -0.015664717 -0.03724158 -0.09330804 0.023743339 -0.029888518
19 -0.026908211 0.14480366 -0.31560543 -0.09277809 0.022187574 -0.04663373 -0.258877 0.05477575 -0.20082276 0.0113100875 0.032117944 -0.17925966 0.10479681 -0.050397966 -0.30693856 -0.13888264 0.050744567 0.1276686 0.0069080726 -0.03059215 0.051267385 -0.07210624 -0.073603 0.14593647 0.009734772 0.18604143 -0.15259556 0.44390842 -0.41636717 -0.25408378 0.09972744 0.1803767 -0.014497573 -0.08044768 0.022768887 -0.032678314 0.03847917 -0.031347413 -0.013154269 0.09177039 0.026887279 -0.014913698 -0.019723425 -0.052203454 -0.047601495 -0.0021882728 -0.031548493 0.014651445 -0.04178339 -0.011059747 -0.0077986917 0.063343294 -0.009887378 0.021742124 0.004396816 0.032993015 0.004364912 -0.026686823 -0.17528367 0.0039485926 -0.08863504 0.01873766 -0.019534495 -0.0649037
15 -0.0012599622 0.2766954 -0.3220799 -0.1577906 -0.0016316464 -0.16686568 -0.29647875 0.10808513 -0.6640596 -0.09919106 0.043809045 -0.46548352 -0.056522973 0.16367404 -0.22388238 -0.018013876 0.059576936 0.24793644 0.07482711 0.13855806 0.0055338796 -0.098151036 0.008194547 0.2585175 0.06851051 0.28487659 -0.125754 -0.041907113 0.034891706 -0.23079945 -0.03620809 0.0504822 -0.10572396 0.08186652 -0.03154638 0.017597895 -0.06590731 -0.0066535478 0.0063369093 -0.0046069385 -0.06797117 0.051853806 0.14418079 0.030405067 0.070476264 0.01597647 0.10390781 -0.0255106 0.024889821 0.014905316 0.07555102 0.08930669 -0.04446315 0.18477698 -0.02872702 0.030715 -0.110476404 -0.030134957 0.042045917 0.05404906 -0.07028776 -0.034825426 0.062459745 0.019846424
2 -0.05633147 0.12026293 -0.27347612 -0.038777266 0.06504711 0.02184833 -0.2594063 0.015255682 -0.20825104 0.0014086405 0.02905832 -0.17961013 0.10091632 -0.010080346 -0.25557843 -0.085978255 0.07292568 0.2781496 0.009945174 0.02172855 0.009649556 -0.089327015 -0.050848577 0.1975782 0.086522505 0.25726047 -0.14189605 0.32544795 -0.32234165 -0.33651212 0.08277786 0.12581365 -0.028010964 -0.004204918 -0.016590027 0.0059292866 0.024175806 0.036330543 0.033113603 -0.0118762525 -0.05609719 0.046892945 0.05290457 -0.01540876 0.053982493 0.00909099 0.023135083 -0.031126648 -0.0098531805 -0.0019500897 0.01916105 -0.003699479 -0.00056102296 0.0047395304 0.01861705 0.008053868 -0.06348059 -0.09215237 -0.008321243 -0.031345826 -0.071560174 -0.14173572 0.027678462 -0.05037901
17 -0.01900706 0.2271931 -0.36669096 -0.19460098 -0.014871278 -0.25806743 -0.21824141 0.049529146 -0.7308739 -0.12522846 0.049089022 -0.48297217 -0.09829815 0.1752829 -0.21004823 -0.03630767 0.07782713 0.18362252 0.075848 0.11123594 0.011310353 -0.115416855 0.02102255 0.25038072 0.064533256 0.31206378 -0.13717179 -0.03542337 -0.004308685 -0.23633175 -0.019432196 0.03805392 -0.12039489 0.08728469 -0.048471134 0.028013417 -0.014019925 0.06388764 0.07092535 -0.024401508 -0.04704197 0.0518833 0.11700456 -0.07702898 0.02693087 0.015024498 0.042880196 -0.023103919 0.013494268 0.0068536988 0.06313859 0.106781155 -0.044535767 0.1858472 -0.03288806 0.04304789 -0.09480125 0.021527681 0.09248609 0.013030672 -0.06357667 -0.011649101 -0.02824297 0.03173054
12 0.045226946 0.25034037 -0.2867056 -0.07200415 0.06388864 -0.08983082 -0.35771272 0.10145039 -0.5272867 -0.0882064 0.035577793 -0.36279112 -0.051281508 0.14094985 -0.15751424 -0.0022085984 0.06649306 0.20725286 0.09138931 0.19801006 -0.03865576 -0.10818226 0.0738994 0.22865716 0.07636467 0.3089702 -0.15207262 0.067114025 -0.07561147 -0.27941594 -0.0027961978 0.09181146 -0.07354847 0.07252868 -0.037400834 0.021918194 -0.07964863 -0.01911095 -0.017236091 -0.039699994 -0.0928099 0.06420748 0.10515358 0.045860887 0.09326006 0.014616278 0.08132694 -0.03875229 -0.0063115894 0.0116163045 0.033154603 0.12659474 -0.052940276 0.15261686 -0.037774984 0.03040447 -0.091857135 -0.011383389 0.12941748 0.038674172 -0.04641093 -0.037491072 -0.00080688554 0.0019228117
1 0.035399713 0.1874532 -0.23828408 -0.08755628 0.0448192 -0.13144197 -0.21712856 0.021438705 -0.25478154 0.05900738 0.023914663 -0.20096736 0.13731982 -0.051296815 -0.32097778 -0.13018943 0.0028780277 0.30466372 0.0016464172 0.072633944 0.011457431 -0.028477702 -0.08423675 0.13740514 0.024473572 0.1589999 -0.1562205 0.34871623 -0.30747223 -0.29955086 0.040621124 0.15327376 -0.0190012 -0.050674558 -0.0039944053 -0.010914848 -0.021917906 -0.040232476 -0.039076548 0.007204388 -0.009621155 0.020404566 0.027320681 -0.025458973 0.027501846 0.0009935136 0.004895803 -0.022154253 0.015974091 0.0033496083 -0.031244697 -0.0016648294 0.012069192 -0.016183756 -0.02373302 -0.0043292856 -0.013288864 -0.053862896 -0.05134994 -0.052805312 0.015421665 -0.09682439 0.08335765 0.028637005
9 0.06698784 0.22494352 -0.27068025 -0.09194361 0.08746726 -0.027144976 -0.3188111 0.08279481 -0.32417065 -0.0966832 0.037757363 -0.2979645 0.008518729 0.119976155 -0.17652643 0.024922729 0.0919085 0.24175712 0.06101203 0.11669602 -0.027132973 -0.11629841 0.043816812 0.23470822 0.09938548 0.28404975 -0.12849888 0.17733133 -0.18651676 -0.3180686 0.044055413 0.08022896 -0.054783024 0.06635521 -0.014192969 0.031543795 -0.10222496 0.007717212 -0.008360434 -0.11024228 -0.094930135 0.057979498 0.17275706 0.08494303 0.10113519 0.023970915 0.14408389 -0.018150339 0.010823196 0.014734701 0.082073994 0.04675184 -0.039108615 0.12971431 0.0041946177 0.014380917 -0.102730006 -0.050929233 0.111135885 0.045096267 -0.09027125 -0.08583235 0.018795464 -0.04154496
20 -0.027695697 0.22228627 -0.4429953 -0.15141149 -0.033152737 -0.23550521 -0.2992983 0.033456795 -0.8114368 -0.12293611 0.053680006 -0.50474745 -0.10849667 0.16603626 -0.23389687 -0.07318058 0.081402995 0.13876383 0.018980239 0.09059199 -0.042799503 -0.12385999 0.01308758 0.097628325 0.11299554 0.33803436 -0.100203976 -0.081138045 0.03399309 -0.22580726 0.00021098317 0.018554682 -0.057569124 0.0013470023 -0.052143387 0.009327062 0.081888646 0.075936615 0.07813998 0.014892883 -0.04660379 0.04019073 0.047011025 -0.037336443 0.026608976 0.007988795 0.012187328 -0.022882912 -0.0058156177 0.004990855 0.03381351 0.0751934 -0.03204661 0.10393666 -0.014410806 0.027166473 -0.06815676 -0.0479792 0.023979759 0.0054045655 -0.064737745 -0.07875172 0.009740282 -0.057265654
4 0.0074763456 0.18144986 -0.26893732 -0.06652776 0.004566826 -0.09547023 -0.25559705 0.037826195 -0.2569344 0.04764708 0.02351461 -0.1792852 0.09679776 -0.061370235 -0.29237372 -0.15201214 0.012751908 0.2305693 -0.027521826 -0.032062415 0.04985109 -0.033123832 -0.13491008 0.10925087 0.02751214 0.14048265 -0.124071464 0.43090886 -0.4100402 -0.24493036 0.10617751 0.15936838 0.072676346 -0.02822356 0.09752864 -0.028147412 0.051809322 0.01906645 0.030784868 0.07077871 0.04363666 -0.038866006 -0.024805993 -0.044074006 -0.089605 -0.00030202526 -0.0273037 0.046490338 -0.035362616 0.000136555 0.08353513 0.045242157 -0.03551212 0.087201335 0.04335425 0.02552978 -0.001943399 -0.06724027 -0.13050394 0.02337305 -0.067296475 -0.014242467 0.012469025 -0.060139548
5 0.040688917 0.19264513 -0.31837124 -0.14227988 -0.05668511 -0.26980597 -0.2145879 0.07223961 -0.8319551 -0.08500537 0.05208221 -0.502244 -0.06742651 0.13320664 -0.2848926 -0.112719595 0.07564996 0.1405157 0.04232791 0.090564474 -0.020073943 -0.10772125 0.027869798 0.15058091 0.1225007 0.40379554 -0.14506985 -0.10083302 0.08856628 -0.30260313 -0.042284302 0.04983855 -0.06977436 0.064953625 -0.117098086 0.025359044 0.0440663 0.026761942 0.032259177 0.01176844 -0.025393093 0.0267125 -0.021844596 -0.009557967 0.03474298 -0.0042253355 -0.023091532 -0.036231156 -0.00879618 -0.012292616 -0.01636273 0.026449531 0.0046871803 0.012641142 -0.011478828 0.022539565 -0.1051272 -0.07398906 -0.08349025 0.014716599 -0.13922536 -0.11418863 0.058376472 -0.14143899
18 0.01613527 0.2417238 -0.26170817 -0.13756739 0.047522068 -0.10786047 -0.25377056 0.07676044 -0.1892715 0.020933744 0.027770502 -0.17801228 0.10850656 -0.04215543 -0.28893325 -0.114487305 -0.044932004 0.20696506 0.013360236 -0.005835629 0.07545084 0.05431274 -0.090204895 0.14551714 0.0033771484 0.12861474 -0.15678778 0.4403656 -0.43117234 -0.26856795 0.089347795 0.1656059 0.02584621 0.038223945 -0.0017941112 -0.0053602234 0.03260101 -0.0098076705 0.005122821 0.064390235 0.05124328 -0.039234415 -0.07198061 -0.016633702 -0.061619014 -0.010205316 -0.049912702 0.022918465 -0.03815227 -0.017938187 0.041220713 0.00023600998 -0.0039352686 0.0074451626 0.046365898 0.018970093 -0.03005902 -0.028206212 -0.14154795 0.039833907 -0.10334298 0.0011588688 0.029462535 -0.10574443
21 -0.028586563 0.15359607 -0.29167736 -0.090974644 0.0712899 -0.040403172 -0.25695673 0.04602481 -0.22044958 -0.08041647 0.032836843 -0.20549458 0.01822731 0.07984944 -0.14527445 0.004867242 0.10269135 0.27325016 0.01918959 0.051373612 -0.025631638 -0.12315242 -0.008796922 0.20282193 0.1574923 0.28923768 -0.09566286 0.29689747 -0.311427 -0.34157798 0.121902436 0.10207422 -0.07936549 0.05453078 -0.07572346 0.02228468 -0.027230142 -0.0030510668 -0.0015277248 -0.020932067 -0.08868713 0.038591444 0.1000412 0.17091797 0.11525825 0.013625279 0.13059792 -0.019895868 0.021184623 0.012570249 0.06981678 -0.010594213 -0.020765878 0.06881847 0.014839896 -0.008272211 -0.07458443 -0.09338051 0.12757692 0.017525561 -0.035734184 -0.15117902 0.05997468 -0.05011364
16 -0.014417009 0.19496189 -0.38931024 -0.23621935 -0.059012424 -0.25065124 -0.18348272 0.077375606 -0.77366835 -0.15892899 0.062453568 -0.5451846 -0.08962785 0.19729282 -0.26321134 -0.031600576 0.07528616 0.19533245 0.04395158 0.1217856 -0.039279953 -0.10715414 0.037661616 0.15932263 0.11504264 0.34823003 -0.11903066 -0.097996205 0.031863034 -0.27324852 -0.013436768 -0.003404764 -0.082433105 0.056258265 -0.08820484 0.033911947 0.08718787 0.12747163 0.12121887 -0.03454946 -0.048662677 0.05613538 0.022337401 -0.06302242 0.04846752 0.0010742408 -0.01805909 -0.054846715 0.0033852523 -0.004666053 0.02190824 0.07853627 -0.022969276 0.11365209 -0.029641228 0.03784087 -0.11638498 -0.06782139 -0.013734069 -0.0026103815 -0.104763046 -0.12579446 0.061332818 -0.06226895
10 -0.056622766 0.3682707 -0.26850957 -0.27514255 0.09395498 -0.04711477 -0.23375933 0.09146775 -0.5753688 -0.10285866 0.03461649 -0.45911348 -0.014190508 0.22542726 -0.17056835 0.094134316 0.15695775 0.23582503 0.07768446 0.103398584 -0.02439828 -0.19552805 0.05305874 0.31173134 0.1057083 0.2641499 -0.10613526 0.04692984 0.011316719 -0.3151135 -0.036647175 0.059019588 -0.060034383 0.111052275 0.008688021 0.04589147 -0.14768893 0.027694704 0.003828442 -0.16409877 -0.011239936 0.019943716 0.14097315 0.0052014096 0.028333493 0.010169594 0.09600274 -0.007187304 0.11127915 0.027332352 0.0119616315 0.04636112 -0.009012021 0.17111737 -0.10453301 0.01752706 -0.0100355735 0.019170724 0.10823443 0.09182892 -0.07868968 0.066132024 -0.056391228 0.020695569
23 0.0355244 0.15649179 -0.2687893 -0.05595964 0.14323802 0.04816242 -0.30200428 0.033956002 -0.26742333 -0.059316803 0.02963032 -0.2194773 0.03760508 0.08546819 -0.15292527 0.006590776 0.115730874 0.27181926 0.023187151 0.032023147 -0.02058117 -0.12612325 0.0037258666 0.22502702 0.15481976 0.34270918 -0.13238654 0.22139567 -0.2096526 -0.39743116 0.0610147 0.103549436 -0.044985596 0.11053081 -0.08519219 0.044238254 -0.05127084 0.014745785 0.0013722741 -0.086616434 -0.10333452 0.05499584 0.11979407 0.13086928 0.116815545 0.017815584 0.12625566 -0.026496172 0.031727403 0.017557586 0.074072585 0.018805502 -0.033719283 0.11410553 -0.005516664 -0.0019845297 -0.15173776 -0.03660741 0.20205042 0.091598585 -0.10187315 -0.067178614 0.0010910851 -0.061850253
11 0.20501676 0.20601317 -0.2208805 -0.025489543 0.00328696 -0.35117462 -0.25081456 0.029877175 -0.6633745 -0.016051883 0.034965105 -0.37151358 -0.04758094 0.04273998 -0.2568327 -0.15315898 0.013224433 0.2029906 0.029047797 0.15274088 -0.02245084 -0.06575952 -0.023470376 0.098422796 0.07456315 0.3181142 -0.15687704 0.055057243 -0.05132377 -0.28174508 -0.014550156 0.0982276 -0.10200794 -0.08026781 -0.048712067 -0.022398777 -0.10331984 -0.1538534 -0.13735047 0.045700446 -0.052628003 0.039883856 0.13435343 0.026678732 0.067500696 0.018050829 0.09651473 -0.011574204 0.01634339 0.017760973 -0.003999924 0.029490456 -0.009531682 0.032391347 -0.025068318 -0.0053288075 -0.0304341 -0.022531388 0.011973473 -0.045346875 0.0274733 -0.081619814 0.07069276 0.03603488
0 0.0452965 0.20880993 -0.26870206 -0.13232735 0.013255239 -0.051478025 -0.27449164 0.13343787 -0.17625998 0.013158853 0.03125354 -0.18735869 0.11819829 -0.041191835 -0.3076058 -0.1120097 -0.044320624 0.16626595 0.012695813 0.006221624 0.06320379 0.048229765 -0.07570285 0.112710916 -0.021822695 0.16067305 -0.19552065 0.45192084 -0.42697647 -0.28255972 0.06854626 0.19996174 0.07344142 0.01134825 0.04520881 -0.022845278 0.08328701 0.0092235925 0.03084933 0.11078385 0.06829427 -0.041512445 -0.09297735 -0.10013507 -0.10756842 -0.012558549 -0.09622626 0.027281709 -0.069710255 -0.015890796 0.007784302 0.12413137 -0.037414618 0.07345366 0.004256082 0.04844425 -0.015941912 -0.011705216 -0.21493588 0.06712642 -0.090421125 0.08286896 0.02858892 -0.0680462
22 -0.066963315 0.25819024 -0.20548534 -0.19137335 0.00976864 -0.03030332 -0.17398858 0.08635498 -0.65808636 -0.0850758 0.025993604 -0.4626281 -0.061718833 0.22785075 -0.1240793 0.08127435 0.1385708 0.19245808 0.12192631 0.18112075 -0.015365492 -0.19910997 0.078750364 0.34434947 0.014450083 0.24073622 -0.1776924 0.13856287 -0.0518657 -0.2859646 -0.061080422 0.14715128 -0.019362558 0.07525522 0.06900122 0.027696067 -0.07325005 0.08124348 0.06275565 -0.11897242 -0.031620093 0.015525086 0.14975336 0.06331651 0.026944308 0.013962407 0.12684645 0.008105765 0.06463166 0.024291178 0.108789764 0.09907447 -0.057205163 0.26650646 -0.0530624 0.034995243 -0.01524544 0.045073763 0.17613406 0.053131614 -0.053767603 0.062312346 -0.12473135 0.032698788
8 0.027829256 0.14727643 -0.4372556 -0.21667878 -0.074642584 -0.31946373 -0.14831138 -0.015952937 -0.8321667 -0.08008748 0.04459495 -0.50018 -0.104250185 0.13717449 -0.2455425 -0.10199887 0.09394571 0.12030262 0.024741845 0.11383739 -0.052005343 -0.14902481 0.025437947 0.09129246 0.12320896 0.4356914 -0.181657 -0.09652014 0.13320033 -0.38153777 -0.08885286 0.075972125 0.054798998 -0.016708683 -0.027146865 0.0055378946 0.10782318 0.07091219 0.0593491 -0.0031954322 0.0060620843 -0.020866891 -0.13161685 0.05783588 -0.008003135 -0.014876745 -0.06432922 -0.0039061734 -0.045877654 -0.0145728905 0.04376498 0.032320626 -0.024179148 0.03382117 0.03755427 0.017120104 -0.16511415 -0.14486521 -0.062189646 0.022712259 -0.15695854 -0.1810668 0.09921457 -0.105293594
14 0.21504691 0.22648849 -0.1976853 -0.113975585 -0.015869668 -0.32230413 -0.19983637 0.09273015 -0.7714176 0.029189741 0.027056329 -0.41579455 -0.020568965 0.05164449 -0.28026137 -0.15663998 -0.00016838693 0.12131931 0.033453945 0.12023876 0.0016804994 -0.046771426 -0.025547164 0.08433596 0.13247393 0.4827023 -0.22471415 -0.063399136 0.17335215 -0.43460256 -0.12397547 0.16596773 -0.059225656 -0.121345736 -0.047522373 -0.041863203 0.038532156 -0.100880645 -0.0725366 0.14042524 -0.037525453 0.030525822 0.09978118 0.00011857045 0.040803593 0.014551964 0.06378917 -0.0069583473 -0.04386922 -0.010224516 0.08492187 -0.05354834 0.0006842264 -0.024281835 0.094818085 -0.0011589665 5.989764e-05 -0.051231418 -0.10132876 -0.08256164 -0.021575531 -0.13424578 0.051532947 -0.1057901
6 0.09470286 0.10688726 -0.28432903 -0.15181407 -0.07098327 -0.31641486 -0.075810626 -0.017380605 -0.9059652 -0.029188953 0.024682593 -0.4587398 -0.14752485 0.13035238 -0.15497603 -0.11231342 0.059680406 0.07524744 0.040306073 0.097275004 -0.0027177345 -0.117508925 -0.0074807815 0.11617625 0.16826917 0.56481683 -0.24200617 -0.046248037 0.18025833 -0.49725345 -0.12202467 0.19346844 -0.013034991 -0.10217104 -0.061704326 -0.041810382 0.0810381 -0.098665096 -0.06791306 0.16869585 -0.0037502472 -0.023982044 -0.033434786 0.13810296 0.0291877 -0.002649403 0.034650844 0.014713758 -0.07028965 -0.023404637 0.07998587 -0.097545646 0.011305821 -0.098131604 0.13100949 -0.016629705 -0.08048775 -0.09702666 -0.19123386 0.013534386 -0.14265892 -0.11662118 0.08889518 -0.1958898
7 0.11381315 0.16541825 -0.22027573 -0.19840626 -0.09352281 -0.34847385 -0.07255643 0.09431058 -0.9161492 0.013799985 0.018982986 -0.4410557 -0.112064086 0.10089039 -0.1816275 -0.14212829 0.1041761 0.041719105 0.042201594 0.095540226 -0.022615567 -0.17191209 0.016073968 0.11937721 0.1975871 0.59268713 -0.23764534 -0.059671156 0.22133087 -0.52487475 -0.13100551 0.20650786 0.034455813 -0.041299183 -0.064805284 -0.02509562 0.09897138 -0.063045636 -0.040395733 0.14043821 0.031007515 -0.055767007 -0.12184895 0.17257658 -0.0013898363 -0.017621966 -0.007591765 0.019130524 -0.035927776 -0.027265823 0.05833207 -0.11174583 0.02654318 -0.08958324 0.09943177 -0.01068241 -0.031804472 -0.15319297 -0.13187759 -0.04660874 -0.15373701 -0.22179785 0.027706508 -0.23731607
13 0.37604958 0.071362786 -0.084283754 -0.040924676 -0.04968449 -0.27911866 -0.14030747 0.1733011 -0.5837528 0.08629477 0.022376725 -0.28352585 0.03917656 -0.059406757 -0.31637028 -0.22701229 0.009862894 0.4032832 -0.072920926 0.08002035 -0.04333677 -0.059746806 -0.14940035 0.011466332 0.090928815 0.26521736 -0.16094795 0.19346434 -0.13878806 -0.38570562 -0.012933756 0.11844044 0.053273257 -0.11865184 0.035161212 -0.044855062 -0.035754133 -0.14256033 -0.13115677 0.07881054 -0.039173663 0.034340337 0.06800254 -0.006816482 0.058850754 0.012279754 0.037828144 -0.01526125 0.047034014 0.03209861 -0.09972178 -0.07529117 0.03828761 -0.14581485 -0.039883133 -0.06417649 0.016003605 0.0047310544 0.022718081 -0.08441869 0.1911939 -0.03515964 0.11604377 0.18406685
