26 64
3 -0.14438917 -0.11088378 -0.12734005 0.008252092 0.18264957 -0.040665686 -0.20032503 -0.080488816 0.019649198 -0.21074274 -0.08467321 0.05021894 0.103602454 0.062693685 0.039800275 0.06887181 -0.07843819 -0.002348053 0.050391495 0.019521397 0.042830463 -0.036550738 -0.027721247 0.04152703 0.15127377 -0.15571381 0.39270842 0.35805473 -0.25339276 0.026699195 0.13719516 -0.24139427 0.014808376 0.058407947 0.05877453 -0.049001254 0.036707446 -0.08528946 -0.08637995 0.06439659 0.039136328 -0.029714448 0.015367249 0.0091217775 0.04483403 0.010617168 0.0409779 -0.036073845 0.010132356 -0.0227494 0.010770532 -0.0058466634 -0.021856282 0.010901773 0.005283007 -0.01179156 -0.10623602 0.047632586 -0.023388488 0.009858212 0.021735583 -0.014018336 0.07465439 -0.008215513
25 -0.10873471 -0.12145119 -0.105917074 -0.026340075 0.117932126 -0.042322364 -0.18846835 -0.091795795 0.052791324 -0.1652293 -0.12228221 0.062407028 0.07553988 0.08672487 0.055101153 0.013168136 -0.11540217 0.01104846 -0.03314274 -0.056401934 0.013294874 0.0063150683 -0.020361997 0.073919185 0.15584108 -0.14946716 0.4137766 0.37609836 -0.28211156 0.012059367 0.15070139 -0.21947047 0.052209824 0.071229964 0.028994488 -0.056852832 0.03616202 -0.04916923 -0.09147219 0.009701356 0.04583643 -0.009721709 -0.0018076005 0.0036374023 0.07620806 0.011580457 0.007075912 -0.042925317 0.03076833 -0.043179214 0.018090513 0.021252997 -0.0048498795 0.009435906 -0.010016736 -0.020638524 -0.06048769 -0.0006056055 0.04706813 0.016377816 -0.028479656 -0.0215811 0.0032101164 0.009255898
24 -0.07295235 -0.07631824 -0.19698481 0.10717993 0.13787428 0.051065885 -0.086423434 -0.16467074 0.011993325 -0.09932676 -0.070011795 0.047057793 0.025524106 0.076615125 0.041555107 0.029496733 -0.05996994 0.034976434 -0.015576879 -0.045140337 0.015231817 -0.0056160693 -0.07160296 0.08075163 0.12633581 -0.02578041 0.36887226 0.33266848 -0.32321692 -0.03287656 0.17777883 -0.20707048 0.03674412 -0.1029178 0.02683069 -0.060702305 0.00091387454 0.110854216 0.04907017 -0.009457704 -0.01846887 -0.008981202 -0.0074028363 0.003922797 0.006191352 0.005516447 -0.018194893 -0.0044476935 0.0008632489 0.07233743 -0.029868549 0.032121368 0.037882395 -0.02045554 0.015206308 0.037971046 -0.0043865563 -0.015469639 0.025638862 0.042051785 -0.028400633 0.025643706 0.032294594 -0.04290821
19 -0.1503627 -0.17522855 -0.1205994 0.013689212 0.16109274 -0.07866219 -0.21216653 -0.13052407 0.011176921 -0.28296766 -0.10072908 0.020431815 0.15233745 0.061655607 0.07004364 0.101736374 -0.15252978 -0.027376581 0.06696257 0.033854343 0.044844966 -0.056424104 -0.0024816007 0.047762096 0.14097598 -0.1498652 0.3990613 0.34624442 -0.2578699 -0.03236408 0.10625098 -0.13988261 0.026099155 0.05156916 0.04085638 -0.030316249 0.060998973 -0.09446108 -0.07972398 0.03494918 -0.0049246503 -0.006959159 -0.016808564 0.008536892 0.05603505 0.0057893847 -0.00010251472 -0.0440915 -0.0140562495 -0.0026677859 0.007819786 0.0013606413 0.01626765 -0.0026487347 -0.010935791 -0.009063926 -0.13644521 0.1084597 0.019986823 0.022672784 0.050750207 -0.029262468 0.07761993 -0.009607787
2 -0.048782643 -0.19317566 -0.12588517 0.084793195 0.21636319 0.03150766 -0.13493694 -0.09881559 -0.017048078 -0.100434646 -0.061812453 0.082256846 -0.010266715 0.118891075 0.04599379 0.064209595 -0.05206591 0.030932786 0.013332698 -0.00521067 0.022144662 0.00030777516 -0.036065277 0.06262357 0.118515536 -0.18152122 0.37650773 0.34069815 -0.29513043 0.05481338 0.19485976 -0.17614627 0.024601374 0.021372436 0.021317268 -0.048484292 -0.017296126 0.03572334 0.02226604 0.076931395 0.053742647 -0.009284494 0.016705416 -0.04322397 0.099030666 0.011899869 -0.039285753 -0.05787566 0.062154856 0.01787788 -0.009444974 0.06972749 0.012715743 0.00064201915 0.027302843 0.012002865 -0.06524211 0.0043568956 0.06484777 0.02073233 0.0030595006 0.018830173 -0.022228101 0.062193543
4 -0.14825343 -0.15009461 -0.08244965 -0.008292228 0.13273042 -0.10270683 -0.20043752 -0.1102011 0.015402471 -0.25402066 -0.11083189 0.029504174 0.12417488 0.08360723 0.052902814 0.09117103 -0.112272955 -0.00961363 0.035445236 -0.022293562 0.07327488 -0.029869042 -0.019335596 0.04996311 0.13882254 -0.14942923 0.40858227 0.353417 -0.28859782 -0.021808427 0.14871489 -0.12740989 -0.018195478 0.037100904 0.0025745311 0.017152263 0.0048592035 -0.059718367 -0.059627023 -0.01151618 -0.024413034 -0.022619462 0.050856993 -0.043652833 -0.038884133 -0.0020379191 0.020724343 -0.004340722 -0.013049734 0.033270005 0.0019668022 -0.005102755 -0.0032987564 -0.00031438758 0.015953084 0.009484501 -0.18932198 0.10172227 -0.032285236 0.05459204 0.015193416 -0.0023748502 0.14049919 -0.033510316
15 0.2121668 -0.06528349 -0.17954473 0.16752158 0.15930763 0.27955055 0.06344239 -0.0013006304 0.004752002 -0.03855601 0.06565595 -0.0713027 0.10475649 -0.1553867 -0.11771687 0.0072881333 0.22808403 0.07666777 -0.028879885 -0.12516104 -0.09973465 -0.17946497 -0.39417025 0.05617953 0.073029146 0.05584911 0.53106916 0.1896535 -0.36474442 -0.3849577 0.13910234 -0.044997986 -0.124376535 0.03491604 0.07586465 -0.024300585 -0.119598486 0.047046177 0.12252377 0.016036443 0.17137504 0.04758333 -0.12477989 0.19993335 -0.0377336 -0.0041863434 0.022604981 0.1537795 -0.13073578 0.19358037 0.008390973 0.0073095933 0.11228953 -0.043216288 0.008843046 0.039634496 0.12789895 0.008836871 0.20548877 -0.010877528 0.029598424 0.06731024 -0.12447371 0.07083668
18 -0.10599792 -0.11737416 -0.07055126 -0.033463072 0.10529255 -0.070595145 -0.18134087 -0.07035213 0.041571423 -0.22687888 -0.10790104 -0.006321709 0.1292892 0.068182535 -0.03498718 0.08316599 -0.09994573 -0.024285598 0.00084283884 -0.05556552 0.04162528 -0.034167837 -0.009822623 0.028791357 0.1583298 -0.19677806 0.41775203 0.40764153 -0.28378588 0.014337462 0.11488706 -0.14614998 0.0103251105 0.04744538 -0.008331359 0.008573876 0.023746297 -0.07241597 -0.080672644 -0.010356539 -0.026743405 -0.03291835 -0.0024678623 0.043768484 -0.0044621984 0.0051107793 0.079827234 -0.025872855 -0.004138976 0.007543353 0.021893868 -0.009968341 -0.02260911 0.010907312 0.014052603 -0.00524232 -0.18490306 0.14380574 -0.044774294 0.014609137 0.0144369975 -0.012626907 0.11836368 0.0071768877
5 0.43803895 -0.0227497 -0.24431163 0.20805256 0.24775957 0.40113807 0.064736806 0.2675043 0.048225638 -0.21364161 -0.051067524 -0.08162474 0.1766398 -0.023852374 -0.15528998 0.09713036 0.16671547 0.08991431 -0.10289155 -0.17421661 -0.16432238 -0.16520831 -0.42038155 0.108856216 0.07330498 0.18284689 0.58183604 0.08807496 -0.32885173 -0.5798916 0.10814921 -0.01932685 -0.038856693 0.15007104 0.019007454 -0.03006847 -0.08815654 0.022753006 0.0634318 -0.018709298 0.12966886 -0.033681992 0.04376304 0.032335293 -0.009948474 0.0110500315 0.08751464 0.032758083 0.012684101 0.079431765 -0.006014577 0.048687015 0.027750634 -0.010041862 0.032509994 0.028772075 0.014240157 0.042312726 0.14285009 -0.022342913 0.039046433 -0.061379276 -0.072629094 0.025106566
12 0.06885615 -0.14214651 -0.13892628 0.0381935 0.23479289 0.2604793 -0.086175345 -0.17752242 -0.011245733 -0.02707235 0.058502823 -0.10870802 0.07804791 -0.10752979 -0.1333928 0.04414975 0.18037096 0.08447661 -0.09672545 -0.14264755 -0.16090748 -0.12785804 -0.35117775 0.079194844 0.04138576 -0.0033174392 0.43068716 0.16828167 -0.33872977 -0.2660979 0.16045785 -0.0022318617 -0.018244185 0.020791562 0.02210281 -0.07079449 -0.11587164 0.17234568 0.20925346 0.025093835 0.108747475 0.074636176 -0.115073144 0.105317436 0.021863246 -0.0053600017 -0.07773184 0.0954268 0.0029948386 0.16240261 -0.020255454 0.11147225 0.11111498 -0.038592465 0.03150091 0.055733345 0.103186496 -0.018763557 0.2169754 0.020517623 -0.0017441544 0.056459785 -0.13162118 0.06239057
1 -0.078309044 0.054058526 -0.048005108 0.08244953 0.18998182 0.11422133 -0.004948192 -0.2553152 -0.013109591 -0.17413022 -0.07757112 0.02167815 0.04783895 0.12160002 0.022752082 0.11322523 -0.09039422 1.0540765e-05 -0.03055369 0.0294921 -0.10743577 -0.008448552 0.013814903 0.042075366 0.10749833 -0.14848618 0.41917172 0.31370032 -0.2931254 -0.062288594 0.12592526 -0.15852225 0.067770086 0.038666148 0.018486269 -0.05663434 0.052803095 -0.039869253 -0.09014734 -0.01573616 -0.0196641 -0.038004287 0.06201069 -0.03567195 -0.052133285 0.0020162014 0.04149662 0.001579437 0.023562167 -0.059224866 0.0016671976 -0.021234095 -0.04269259 0.015683535 -0.0022558018 -0.015481292 -0.07696105 0.04544886 0.08788325 0.02990283 -0.033854246 -0.021754356 0.03067008 -0.016608585
17 0.26490697 -0.10745039 -0.17998026 0.18790308 0.18385027 0.21677284 0.025784982 0.117561325 0.036252853 -0.08979968 0.032394268 -0.09058138 0.15419047 -0.16022794 -0.15115485 0.0073821256 0.24831484 0.076750405 -0.05940822 -0.18594204 -0.12058285 -0.21555495 -0.45970526 0.063359976 0.06804473 0.037129343 0.56478405 0.16765538 -0.34187892 -0.45821178 0.083065264 -0.003544433 -0.11096684 0.089636154 0.05139768 -0.0048955735 -0.10334516 -0.0142646 0.047745418 0.0030440744 0.093002334 0.040362358 -0.1531557 0.20489606 0.028374884 0.0011534716 0.029108968 0.07206043 -0.08700743 0.1631063 0.017345939 0.032321587 0.095393814 -0.031411085 0.016237749 0.02984197 0.07787818 -0.049976893 0.22683777 0.041949198 -0.05307821 0.15126537 -0.2111794 0.20359561
9 0.013992548 -0.15232237 -0.15576653 0.023047836 0.19480978 0.18595752 -0.12584613 -0.21569993 -0.034775864 -0.03574669 0.006903254 -0.00846365 -0.0016652386 0.027902938 -0.025187872 0.062174868 0.08622684 0.09046071 -0.07283398 -0.09707858 -0.09218274 -0.048218407 -0.23857787 0.10304925 0.08652882 -0.04189236 0.36753717 0.20201473 -0.24394959 -0.09126189 0.16005762 -0.24366106 -0.057533346 0.09407278 -0.03606146 -0.007437933 -0.16801332 0.16100562 0.1951613 -0.07143117 0.060250606 0.037346397 -0.14605382 0.17464048 0.05525859 0.00074165175 0.016225727 0.032228705 -0.006052274 0.17254758 -0.02425211 0.084958754 0.08129492 -0.031618074 0.05120776 0.061953712 0.1879428 -0.08358313 0.19532157 0.037292406 -0.028850382 0.18160978 -0.18080692 0.12318574
21 -0.06730608 -0.2328958 -0.2428924 0.089230455 0.16100593 0.137597 -0.1189975 -0.20983745 -0.033398468 0.06291761 -0.000714905 0.047957532 -0.12048198 0.13335487 -0.05991926 0.060620043 -0.0383453 0.031867173 0.009031894 -0.0040116245 -0.02660143 -0.03921458 -0.08381007 0.068554565 0.13940516 -0.1298947 0.3952389 0.32175612 -0.25808746 -0.018761382 0.15426867 -0.17626104 -0.032932274 0.0011588543 -0.030931197 0.0044399905 -0.10376419 0.116238296 0.07862034 -0.04226966 -0.02291898 0.010167396 -0.11934249 0.109784745 0.1319426 0.011000407 0.006127061 -0.07743793 -0.0012965244 0.07850729 -0.018703032 0.048567493 0.053645656 -0.0207445 0.014971784 0.030486086 0.112248525 -0.04368805 0.085751615 0.045170173 -0.0060478123 0.07768589 -0.05228374 -0.014845258
20 0.41255194 -0.06397871 -0.17535686 0.29177237 0.26929015 0.27074108 0.094751455 0.28400764 0.020500405 -0.058821175 0.024071924 -0.055648398 0.08039116 -0.06321872 -0.15685219 0.04458139 0.16950291 0.08085703 -0.065457195 -0.17612545 -0.13733655 -0.19936743 -0.42083597 0.096167475 0.061310306 0.0007880955 0.60004497 0.1348023 -0.35838392 -0.44171992 0.18483806 0.017400552 -0.015634356 0.16172628 0.05310649 -0.102372974 -0.10142719 0.04352224 0.013064019 -0.076690175 0.13017887 0.008953311 -0.060772825 0.15427744 -0.07182402 -0.0016882597 0.071841374 0.12792201 -0.025417993 0.16934898 -0.0069474997 0.056629498 0.059354056 -0.023657897 0.053082477 0.054139044 0.053556114 0.15654697 0.32823056 0.010891923 0.011894254 0.04972556 -0.084456585 0.052830223
23 -0.038256958 -0.2052542 -0.16187885 0.05178285 0.23641555 0.16137707 -0.13700587 -0.20212904 -0.06879731 -0.041432478 0.012852009 0.037458725 -0.045092072 0.08584246 -0.008076082 0.10486543 0.05358121 0.073072664 -0.004648894 -0.016425494 -0.026893882 -0.017311277 -0.13875277 0.075685576 0.091200694 -0.07600024 0.38206944 0.20313343 -0.23215254 -0.07582286 0.16677727 -0.26137277 -0.06585568 0.051348343 -0.04307977 0.037442744 -0.12770806 0.11474461 0.19042295 0.0148887 0.105349615 0.017328467 -0.12909384 0.14439783 0.16128398 0.010998526 0.019057969 -0.048581656 -0.016449645 0.15246753 -0.028186431 0.06495131 0.07100162 -0.028539484 0.048124667 0.0531362 0.21738762 -0.0977059 0.17600589 0.02247699 0.04582131 0.16572897 -0.12608 0.05432515
16 0.32564765 -0.10373953 -0.22788352 0.3278284 0.2784461 0.27639502 0.10224905 0.22051765 0.011671777 -0.10484461 0.007250888 -0.014905428 0.08299688 -0.02985888 -0.16230726 0.0730974 0.21850355 0.10038976 -0.009940021 -0.14888385 -0.11005335 -0.24763088 -0.50755376 0.109710254 0.05069406 0.06015677 0.5696346 0.09590931 -0.3504205 -0.48802164 0.18005645 0.0919139 -0.12999983 0.10040721 0.12026803 -0.055466272 -0.11486843 -0.025214383 0.0035728356 0.03443664 0.20124835 -0.0059976443 -0.055284895 0.1440513 0.028709466 0.01334204 0.060532752 0.07615069 -0.09055637 0.17153634 0.0076760375 0.03202086 0.10013892 -0.035466664 0.018396579 0.035347894 -0.009887314 0.14885326 0.3367616 0.012980535 0.06623108 -0.033690576 -0.062018637 0.018515354
10 0.037147284 -0.09057603 -0.22132795 0.1307432 0.17986393 0.17592719 -0.050500464 -0.094801694 -0.03012104 -0.05925771 0.11252258 -0.08831238 0.12526934 -0.19529848 -0.097734906 0.041592468 0.3179875 0.10615505 0.0054285466 -0.064262465 -0.16296779 -0.22908035 -0.4909636 0.061532434 0.078524455 -0.13674705 0.46637008 0.15562044 -0.21109067 -0.19702469 0.12665118 -0.15592039 -0.099093415 0.052689016 -0.031357612 0.068813175 -0.09586784 0.06955046 0.2558065 -0.0173747 0.117211424 0.07322666 -0.19872148 0.23600271 0.041938704 -0.0071526766 0.004971921 0.09072062 0.00636529 0.21386503 -0.040077504 0.10457939 0.08511214 -0.03601708 0.07636942 0.08355708 0.17665474 0.08252952 0.067050554 -0.028984457 0.06253951 0.25306788 -0.1981328 0.25945523
0 -0.11711015 -0.1590939 -0.010382622 -0.09147972 0.1504904 -0.11307795 -0.25477955 -0.089354694 0.057583623 -0.31261796 -0.13914439 0.01666438 0.2095645 0.013806542 0.061161894 0.044117194 -0.09304626 -0.02870041 0.010115384 -0.051708512 0.050970662 -0.041946456 -0.016146459 0.022619367 0.15584904 -0.23074652 0.39029932 0.4348816 -0.2801376 0.05538287 0.08683825 -0.12948667 -0.0395807 0.12882955 -0.016264653 0.028998788 -0.038415752 -0.07884763 -0.030572841 0.0032282257 -0.05653342 -0.03601966 0.05060687 -0.027846688 -0.057646453 -0.0019133867 0.052878734 -0.010294607 -0.015640248 0.0019554838 0.035073854 -0.01303574 -0.017863985 0.013157515 0.008393387 -0.016597876 -0.22544695 0.18359242 0.0017237682 0.016131174 0.08171408 -0.036626328 0.15874931 -0.018527202
11 0.03962809 0.32328162 -0.11468269 0.16064282 0.2237395 0.32313943 0.1534861 -0.09070477 0.037633896 -0.1944013 -0.09318803 -0.06976415 0.071477324 0.17115957 -0.26020524 0.19902645 0.050749753 -0.0050198967 -0.083851986 -0.03976541 -0.31654987 -0.2036406 -0.24814138 0.0338543 0.04068267 0.15945657 0.4625554 0.14197728 -0.36212945 -0.44109136 0.087180294 -0.010958809 -0.008294143 0.10868423 0.12520544 -0.19977857 -0.12558521 0.09739122 -0.006243087 -0.06570603 -0.046412285 -0.01929735 0.078716636 -0.054045036 -0.1817459 -0.012418895 0.0002250085 0.10282569 -0.073490955 0.06646671 -0.02476853 -0.06377607 -0.0017081628 -0.014506845 0.008617554 0.030794114 0.12204476 0.0065209824 -0.030738954 0.008807397 -0.033223115 0.08013643 0.02304111 -0.058906652
8 0.5164815 -0.114144966 -0.22290017 0.32047036 0.13628368 0.3037384 0.16850217 0.29074013 0.038494464 -0.29766002 -0.121952616 0.04736744 0.15936224 0.07535557 -0.02502924 0.103431046 0.22698681 0.13915662 -0.08934616 -0.13314539 -0.23445846 -0.19893128 -0.5216695 0.14945918 0.06368948 0.08415094 0.6146284 0.05254787 -0.27521786 -0.58275247 0.08185171 -0.033209823 -0.11405011 0.089499556 -0.0126201445 0.08150782 -0.08002492 -0.040665127 0.043193612 -0.014441781 0.060512837 -0.03803887 0.022513902 0.01633403 0.04121969 0.009840497 0.06263205 -0.03383567 -0.014819175 0.06950113 -0.008001 0.018760603 0.023035504 -0.009645971 0.02546099 0.021496745 -0.003745236 0.036275122 0.27798745 0.07566676 0.030400055 0.021613425 0.028511433 -0.07699977
22 0.10158015 -0.18494491 -0.23049876 0.123266846 0.009639706 0.17834762 0.010806125 -0.15730298 -0.03317284 -0.084289216 0.088324085 -0.1402376 0.1351666 -0.16125007 -0.11576822 0.07666266 0.29578066 0.06500608 -0.004421762 -0.083684966 -0.10788411 -0.19461034 -0.4023124 0.013394268 0.080440685 -0.089548245 0.47585 0.17648265 -0.25272536 -0.20798276 0.14061084 -0.195479 -0.11063805 0.10643092 -0.06784587 0.08696205 -0.14616872 0.09930556 0.25621954 -0.09022048 0.15913755 0.11326918 -0.20411654 0.22717604 0.015592269 -0.015034972 -0.03368537 0.1455155 0.030190717 0.19667451 -0.023663955 0.13404995 0.09663807 -0.034435302 0.06456103 0.07371794 0.17191254 0.04111412 0.069204226 -0.049958117 -0.019591829 0.18188597 -0.29055592 0.310143
6 0.5933481 -0.017832806 -0.24315111 0.26669595 0.14134169 0.5005253 0.20823607 0.24996334 0.018174136 -0.45005852 -0.18576555 0.0035348923 0.1950136 0.21640296 -0.039695654 0.25307465 0.17089784 0.09032945 -0.109800816 -0.088772215 -0.32106146 -0.20710063 -0.44723994 0.11413867 0.04345038 0.10189479 0.5634159 0.016072176 -0.25674304 -0.56005186 0.08529641 -0.03650388 0.03362814 0.22788204 -0.05638471 -0.0049740733 -0.04360059 -0.041273963 -0.026750373 -0.04938362 0.07293592 0.037124168 0.023443088 -0.083846696 0.058083225 -0.011911425 -0.07521265 -0.018356627 -0.01826692 0.055511545 0.0003659492 0.008590252 0.0110297175 -0.0033933395 0.026407402 0.011418193 0.025890214 -0.04433621 -0.20756593 -0.023610847 0.07947898 0.059230566 0.11697504 -0.054835044
14 0.4009531 0.10888763 -0.24177982 0.26123515 0.15637949 0.48455524 0.22862342 0.12934615 0.08795304 -0.32707167 -0.16775712 -0.043819215 0.17359956 0.16183917 -0.22409973 0.18103234 0.24615033 0.021206455 -0.10328229 -0.045932718 -0.3989666 -0.26362845 -0.40208212 0.0014876331 0.06381101 0.10925778 0.5151211 0.15574728 -0.31242272 -0.50004536 -0.004383857 -0.0076068314 -0.029919952 0.11201155 -0.00804389 -0.03164771 -0.120576516 0.0375785 -0.02091197 0.010453393 -0.043625448 0.00048427525 0.16145204 -0.215675 -0.124514505 -0.017189348 -0.07354393 0.038369123 0.00594065 -0.051688794 0.001117581 -0.03868796 -0.045205273 0.013356331 -0.005393283 -0.012477014 0.13278833 -0.11492892 -0.16199875 -0.041025743 0.022904838 -0.07857208 0.066479884 -0.17492123
7 0.63002294 -0.054042444 -0.32514143 0.343534 0.16854915 0.49727446 0.19721098 0.23560731 0.036236726 -0.4683514 -0.19668901 0.014097904 0.22595313 0.18303189 -0.024138613 0.22173166 0.24101368 0.11718858 -0.10989073 -0.09623866 -0.33263656 -0.22674195 -0.52779406 0.124815404 0.061028566 0.12956582 0.49965975 0.03012276 -0.20135269 -0.5089048 0.028990349 -0.11976246 0.016383843 0.15051383 -0.076702856 0.027004778 -0.056975994 -0.00023615308 -0.015009766 -0.05522551 -0.03903694 -0.023085956 0.052924104 -0.07085172 0.013161019 -0.0019120532 0.011106395 -0.057423044 0.03860931 0.028049186 -0.012019426 0.021786189 -0.026470333 0.0077072904 0.042597607 0.01987023 -0.07511294 -0.041360963 -0.13964276 0.023166437 0.022166692 -0.011112168 0.121745616 -0.07698685
13 -0.098857515 0.4709026 -0.17121549 0.2942559 0.2361701 0.27837348 0.24380882 -0.20142454 0.06473831 -0.2737213 -0.17315239 -0.050619613 0.09973641 0.23811279 -0.22239411 0.20581393 0.07243783 -0.019189438 -0.10500038 -0.019063668 -0.29934394 -0.1312925 -0.14916989 -0.012319061 0.0543413 0.0942191 0.4295791 0.17520839 -0.34175614 -0.3406775 0.10562355 -0.0129328845 -0.022253597 0.0067307856 -0.054811474 0.0568153 -0.032664515 9.509483e-05 -0.088784866 -0.12407066 -0.0068420395 -0.056328505 0.3208795 -0.29557633 -0.3042125 -0.020903341 0.025016217 0.12564333 0.021511262 -0.030523138 -0.04538135 -0.055644475 -0.07144076 0.0073306574 0.016268738 0.024078079 0.33065316 -0.05929791 -0.08280887 -0.08921904 0.009312627 -0.06478097 -0.07469625 -0.14412239
