26 64
25 0.058748376 -0.22441943 0.020322459 0.32905528 0.05274484 0.048805464 -0.09239058 0.25401506 -0.053701553 -0.005799001 0.103844896 0.12758 -0.17165308 0.103106394 0.1096831 -0.12796214 -0.19794104 0.15296301 0.27033105 -0.067680165 0.037489116 -0.04399243 0.09681642 -0.036478087 -0.21250448 0.12829311 -0.211253 -0.1962114 0.13189904 -0.09649507 -0.092996314 -0.16193993 0.02072862 0.0038076476 0.025343426 0.017548127 0.075505234 -0.011273722 -0.033419944 -0.015184468 0.017149251 0.006759312 -0.019017063 -0.024171792 -0.029252065 -0.013880564 0.028989967 -0.013302089 0.012534237 -0.005144036 0.035841793 0.04169344 -0.02462334 0.0399449 0.07499588 0.04505321 0.008391406 -0.029423706 0.081085876 0.075919695 -0.08210232 -0.03351389 0.008401517 0.001329226
3 0.042487442 -0.23220319 0.079777 0.36887783 0.069315925 0.05576641 -0.16048194 0.30355304 -0.052368045 0.0014936222 0.09568868 0.12921669 -0.16144519 0.097211584 0.12536807 -0.12506415 -0.21784602 0.16269463 0.2503519 -0.086691424 0.016919054 -0.015653126 0.09871102 -0.014467982 -0.1737039 0.09348423 -0.17802447 -0.14964196 0.111788675 -0.07059966 -0.07941522 -0.12827252 -0.045491558 -0.050677307 0.008074227 -0.059828654 0.016674751 -0.04737258 -0.06410824 0.011069878 0.033076465 -0.02237261 -0.090227894 -0.019128883 -0.06194121 -0.0067893653 -0.003755516 -0.06859206 0.027276093 0.0052032163 -0.0031851388 0.09373387 0.06962679 0.015682954 0.027206903 -0.03747047 -0.0021330067 -0.002495723 0.063827 0.049882434 -0.030657012 -0.02815447 -0.0065499283 0.006696656
19 0.0712808 -0.28496122 0.038038064 0.33768767 0.055301692 0.0014230215 -0.11815706 0.21800238 -0.11040069 -0.017206583 0.10420842 0.14372915 -0.11064175 0.061964504 0.08918509 -0.13564172 -0.24200733 0.17381327 0.28223246 -0.08192892 0.01798431 0.02814806 0.13865037 0.034946073 -0.18073767 0.11183186 -0.17649622 -0.19926251 0.11852871 -0.08312953 -0.085135326 -0.13979903 0.05663081 -0.115820035 -0.008934861 -0.059327148 -0.028001985 -0.017963937 -0.030798297 0.04031104 0.013283216 -0.024022352 -0.0712437 -0.0039639035 -0.032906987 0.009629213 -0.023955278 -0.049060084 0.06881158 0.045958146 -0.012786212 0.08403508 0.11776426 0.03599775 0.06126547 -0.07392084 -0.059186876 0.016253566 0.06913289 0.08159088 -0.011316284 -0.09245054 -0.015887639 -0.0066009816
24 -0.06535143 -0.1638498 -0.07541392 0.35402772 0.11159342 0.035232894 -0.057765834 0.28327593 -0.05635159 0.004436494 0.1688258 0.08911832 -0.24471639 0.13370878 0.10111671 -0.14283834 -0.16504773 0.12665424 0.21215193 -0.05500257 0.11830435 0.03197721 0.15067925 0.099495 -0.1666719 0.0847818 -0.15245333 -0.11462927 0.12086229 -0.0666087 -0.073172174 -0.1303685 -0.056599185 -0.05021626 -0.031421643 -0.06518462 0.10936473 -0.011409713 -0.07789079 0.058054548 0.0063575506 0.010685153 0.005892361 -0.018233608 -0.0030580964 -0.0073992526 0.01745536 0.011911586 -0.008892719 -0.025624087 0.013823264 0.01686033 -0.015560091 -0.002997163 0.0038355622 0.026325872 0.02998689 0.0017846804 -0.007316344 0.012436696 -0.039824564 0.04684333 0.02430201 0.010260672
2 0.012975489 -0.26409957 -0.022867696 0.33976042 0.0015751421 0.01457527 -0.05563865 0.2264762 -0.12083358 -0.020293191 0.17826661 0.11162507 -0.1927987 0.09874033 0.05860078 -0.15780307 -0.20090595 0.1384772 0.29277763 -0.0706263 0.11844071 0.007656502 0.15260698 0.057445437 -0.18886499 0.035148732 -0.12530233 -0.1415244 0.1892215 -0.021443836 -0.106062375 -0.14563996 0.018123997 0.039922107 -0.006057115 0.045593604 0.101847686 0.04386615 -0.028550776 -0.01903084 0.021771206 -0.009019423 -0.0042017414 0.009256707 -0.024659656 -0.021110456 0.014979436 -0.028610138 -0.009536312 -0.011049484 -0.0022154318 0.054056127 -0.017104033 0.01081734 0.0023422278 -0.0002552884 -0.012098633 -0.031888314 0.054316115 0.0040512946 0.011869142 -0.03044353 -0.011073054 0.004040492
1 0.03484078 -0.126279 0.0017032984 0.26857945 0.10064413 0.021228334 -0.13947594 0.2637622 -0.022829661 -0.015653733 0.13858587 0.10049931 -0.24961674 0.14905983 0.074939854 -0.13162376 -0.13050541 0.13692726 0.2351174 -0.015195898 0.18062524 0.004506621 0.12650156 0.13671955 -0.21724892 0.13800474 -0.26963684 -0.12792654 0.102551684 -0.11138344 -0.072350584 -0.15149355 0.017048119 -0.076490305 0.03225559 -0.041417815 0.005728688 -0.0072009405 -0.1256747 0.06723651 -0.0072295163 -0.003167398 -0.05222344 -0.023395212 -0.009002157 0.023223246 -0.01875968 -0.00851483 0.024240853 0.016804012 0.018746722 -0.0031788433 0.03586001 0.010186505 0.026808625 0.001388518 0.026632138 0.04865125 0.006807686 0.060404453 -0.062471204 0.012326285 0.0055097826 0.0059305266
12 -0.022083648 -0.13925219 -0.2433076 0.27287272 0.16172841 0.12680577 -0.018421344 0.2428499 -0.16823848 0.027448928 0.28769004 0.18306166 -0.34125808 0.1727101 0.22695099 -0.26160043 -0.15139614 0.1004578 0.09684176 -0.04547367 0.054103047 0.13805255 0.1491311 0.2024197 -0.046343144 -0.10983516 -0.37649712 -0.12326309 0.11398507 0.054713782 -0.18955578 0.0671634 -0.016810786 0.040548097 -0.040124137 0.018165132 0.057164118 0.023874415 0.042825162 0.00985128 -0.0470557 0.043334696 0.10867097 -0.0022612764 0.07946487 0.013703058 0.014256828 0.104960494 -0.041368682 -0.040294196 0.025482913 -0.08375316 -0.14003578 -0.012010903 -0.020351134 0.090451375 0.03033932 -0.06329793 -0.051092315 -0.11062246 0.057125572 0.08219038 0.03223143 0.015595641
15 0.03388587 -0.22131301 -0.31770238 0.38405558 0.22419375 0.23768234 -0.010626643 0.18448338 -0.173015 -0.0054605645 0.3239707 0.23005688 -0.42369395 0.22957501 0.20745698 -0.30545107 -0.054979235 0.08516448 -0.013275987 0.09381085 -0.044544075 0.19421148 0.1714783 0.27754375 -0.01866435 -0.13900039 -0.36037633 -0.09873613 0.09189772 0.07998935 -0.19016093 0.09718097 0.034677558 -0.04175693 0.014107098 -0.007015859 -0.01875013 -0.02616809 0.0001541327 0.034778677 -0.086292125 0.047629394 0.108397685 0.00038302602 0.11640619 0.05177747 -0.020758824 0.13472639 -0.010723586 -0.019392906 0.03710326 -0.14364016 -0.12982957 -0.0067977645 -0.009965625 0.082076944 0.008507166 -0.063981034 -0.037307914 -0.11814384 0.08993543 0.047000784 0.013318511 0.011663781
4 0.18844198 -0.24359164 0.02888362 0.3079394 0.017102862 0.03351877 -0.18925293 0.28138247 -0.08286487 -0.014832053 0.053269558 0.19077851 -0.09554824 0.067433335 0.13990662 -0.13501883 -0.19656098 0.16925623 0.30940318 -0.060093645 0.020341795 -0.017696181 0.09809636 0.0037186476 -0.16946803 0.13030264 -0.26625383 -0.199694 0.047057226 -0.099097826 -0.06897932 -0.10106882 0.029623292 -0.09570779 0.017109802 -0.058879845 -0.07267164 -0.019487912 -0.068606295 0.04608869 0.012558461 -0.015962897 -0.10200821 -0.03450535 -0.044058092 0.018429806 -0.019611629 -0.046833508 0.06550683 0.04421504 0.013017431 0.043685704 0.09893531 0.050650716 0.09623282 -0.03525737 -0.023844156 0.02979395 0.030704763 0.08639567 -0.05378422 -0.044370133 0.011354058 -0.0024729418
17 -0.037976965 -0.19249766 -0.29582208 0.34501156 0.23847228 0.24130695 -0.12846224 0.23372996 -0.23987383 -0.027903622 0.32988423 0.20653273 -0.33541563 0.16704604 0.123760544 -0.29248655 -0.11791391 0.0813488 -0.13046144 0.038178097 -0.091629796 0.2206168 0.15775883 0.26039097 -0.09378442 -0.17120455 -0.49003634 -0.1796305 0.16510348 0.1069658 -0.2393844 0.07956202 -0.050907675 -0.031514473 -0.06981876 -0.066997446 -0.060720015 0.013057717 0.038714636 0.08135866 -0.059125815 0.047752265 0.12695403 5.4335134e-05 0.09770285 0.02157973 0.012899549 0.124513894 -0.046452492 -0.01657365 0.013272599 -0.18359116 -0.14603333 0.021751275 -0.010733508 0.025607603 -0.012223717 -0.0507957 -0.030000897 -0.086190686 0.0917953 0.04322496 0.04987582 0.030487712
18 0.084425904 -0.25142464 0.092910714 0.34882948 0.0347871 0.0048047756 -0.1740864 0.3354987 -0.05776846 0.0130991 0.075268194 0.11122687 -0.11062493 0.063222334 0.12892091 -0.10456495 -0.18656734 0.15373658 0.28256065 -0.061626907 -0.045737147 0.03814596 0.048334036 0.033929028 -0.16655387 0.1266333 -0.22453628 -0.18839884 0.15500687 -0.11954165 -0.11988097 -0.14261788 0.016771432 -0.0751097 0.023761742 -0.037906844 -0.065832905 -0.06565842 0.00769302 -0.0155126285 0.010368452 -0.033733703 -0.12761052 -0.0231459 -0.036056235 0.034514464 -0.060064882 -0.05851725 0.06342071 0.045541875 0.01260616 0.050428066 0.098437265 0.01810429 0.043885052 -0.035470225 -0.026557654 0.024735598 -0.011477024 0.031103432 -0.003046735 -0.026154224 0.014651985 -0.0011738325
9 -0.122670606 -0.18448286 -0.28318906 0.32368603 0.058062714 0.09413587 -0.0010622289 0.26569507 -0.1608879 0.031510297 0.23864816 0.12121967 -0.23594418 0.10651925 0.17207824 -0.20005573 -0.18006386 0.109994166 0.2255675 -0.080487706 0.04267571 0.13079661 0.14387815 0.17092079 -0.1053362 0.00057531125 -0.20250405 -0.119492605 0.09809393 -0.0061467746 -0.10146098 -0.0422293 -0.0653223 0.07453401 -0.08239581 0.011307414 0.10434429 0.05485968 0.055267237 0.01484173 -0.037851557 0.049771413 0.17189522 0.025908241 0.07917331 -0.01963533 0.052571274 0.10747366 -0.08877186 -0.05322398 -0.020549776 -0.1323365 -0.14281517 -0.008425488 -0.039853226 0.03038084 0.030552655 -0.05275195 -0.022881947 -0.10227607 0.068333015 0.06514619 0.015773118 0.021530285
20 0.038209274 -0.19349943 -0.31719953 0.39216533 0.19213524 0.39493087 -0.021492593 0.16159147 -0.1009083 -0.007054382 0.2690699 0.15803933 -0.38634625 0.21419156 0.14483184 -0.23533078 -0.13432214 0.11630349 -0.13968925 0.03484917 -0.13872114 0.26595616 0.18680078 0.29604933 -0.15653314 -0.17098929 -0.5009938 -0.243907 0.2102815 0.122513734 -0.2821023 0.03586574 -0.013054148 -0.07880784 -0.042322166 -0.078622386 -0.009565794 -0.06729461 0.049566567 0.016583133 -0.067347616 0.05288636 0.100312494 -0.025316708 0.103789456 0.039866928 -0.0032418175 0.13810283 0.008065559 -0.014190947 0.058990918 -0.15960492 -0.1168686 0.02410735 0.051527705 0.07828873 -0.046412542 0.010584877 -0.09155247 -0.011468808 0.01459587 0.0021383406 0.039536413 -0.017742634
5 0.17010418 -0.2346781 -0.30113867 0.39340132 0.13547873 0.38520494 0.0017297558 0.20053884 0.0026953951 0.024837676 0.29909384 0.036875725 -0.48716164 0.2660328 0.12119067 -0.1870291 -0.15754572 0.10648966 -0.2067193 -0.000866091 -0.07352493 0.23220517 0.16441593 0.26237214 -0.15568739 -0.1423356 -0.54607964 -0.19424915 0.2204886 0.08088308 -0.28280586 0.025781058 -0.012112622 -0.026332807 -0.027064791 -0.03756779 0.0046628364 -0.0022198383 -0.0174868 0.0599841 -0.020162731 0.03355439 0.034377802 -0.04021573 0.03459948 0.013439095 0.020336034 0.06782456 -0.018509362 -0.017585738 0.05409756 -0.011000945 -0.14335075 0.027932728 0.01638703 0.09151771 -0.04100965 0.012464196 -0.036811214 0.04209926 -0.038264066 -0.023298612 0.015633168 -0.026267111
21 0.020796636 -0.24640772 -0.14038052 0.3407918 -0.041261803 0.064396076 -0.08578355 0.2815416 -0.14161344 -0.010308509 0.18606865 0.12733431 -0.18668495 0.09158272 0.09112066 -0.17167924 -0.14622054 0.113224305 0.2896649 -0.028090904 0.092198305 0.0672097 0.18106976 0.13341334 -0.13982563 0.06853422 -0.07342754 -0.14356479 0.12766063 -0.047835648 -0.079780884 -0.12528019 -0.031235928 0.10431588 0.00714469 0.076226614 0.14769843 0.03642541 0.0013404497 -0.006393154 -0.0014577736 0.038336996 0.14712125 0.010861152 0.051788658 -0.03811885 0.06535458 0.08343522 -0.09558672 -0.03608268 0.0091606015 -0.047667257 -0.20595327 0.036329344 -0.024807708 0.06720437 0.083855376 -0.09026108 0.06865054 -0.036648005 -0.025959145 0.083779335 0.049766753 0.050277565
16 0.14163248 -0.25297347 -0.28452772 0.35604435 0.22760735 0.40997997 -0.096315406 0.16506796 -0.16710722 -0.022297192 0.29406735 0.18091333 -0.35584998 0.18924981 0.12306879 -0.25968373 -0.16024369 0.10581383 -0.1667923 -8.216588e-05 -0.059440922 0.20634626 0.15588938 0.25590813 -0.17090887 -0.22382194 -0.5233469 -0.1930273 0.23332654 0.16466431 -0.27127507 0.04778141 -0.080749445 0.051257163 -0.049548924 -0.027411994 -0.09542025 0.04821675 -0.013986754 0.060254477 -0.057587147 0.0498151 0.078669816 -0.027868446 0.07200959 0.030802397 0.019153178 0.10764005 -0.05151986 -0.009460214 0.035288364 -0.18263197 -0.21083413 0.06467506 0.026481174 0.038367506 -0.060158696 -0.0016686509 -0.029655324 -0.026342379 0.06863053 -0.038206134 0.0021311701 -0.008647333
10 -0.034086503 -0.16198564 -0.37421066 0.27875534 0.19355367 0.20496133 -0.034705088 0.25063103 -0.2353863 0.0033943185 0.31878933 0.2095693 -0.32252702 0.15605867 0.19098437 -0.2907176 -0.12568225 0.07565729 0.049204577 -0.025226494 -0.0020473306 0.1273319 0.09800828 0.16589871 -0.07372036 -0.10623673 -0.47943616 -0.10464572 0.09734038 0.04774934 -0.1669912 0.077921286 0.059422296 0.051648926 -0.11561529 0.041480143 0.069193736 0.10642347 0.16003887 -0.018630031 -0.040922113 0.054569926 0.16365688 0.030429743 0.056607064 -0.027971014 0.06738152 0.08681041 -0.05726286 -0.06794444 -0.012972385 -0.22069511 -0.039568685 0.0013705493 0.07107412 0.034952167 -0.009220881 -0.16453211 -0.037663106 -0.21783598 0.18697102 0.057442803 0.06252643 0.038105033
23 -0.11299416 -0.2554252 -0.23312335 0.39637476 0.0068906555 0.10524757 -0.047846064 0.26715952 -0.1747452 -0.0010678096 0.2128328 0.14164463 -0.19410461 0.08980496 0.11854411 -0.19468135 -0.10688452 0.08323352 0.22147334 -0.016396722 0.042801358 0.05511693 0.10667612 0.10993457 -0.14318153 0.036389884 -0.19310269 -0.18784647 0.07543698 -0.015038315 -0.08315225 -0.068330295 -0.09964729 0.1886077 -0.02930178 0.09471486 0.17778115 0.07548291 0.020368077 -0.042901415 -0.002951669 0.042373534 0.18205974 0.0386241 0.045842774 -0.059041217 0.08339948 0.07416814 -0.10569921 -0.070227 -0.006797598 -0.1588797 -0.08492753 -0.03870433 -0.041254576 0.057027884 0.07306356 -0.08622559 -0.034900147 -0.1304407 0.05197774 0.105006725 0.050040722 0.03655592
0 0.17217094 -0.28342006 0.065959625 0.24093239 0.013182982 0.053585544 -0.13813679 0.19329675 -0.13330777 0.04874798 0.13073634 0.17308623 -0.13379754 0.06408054 0.25050333 -0.17171766 -0.24775529 0.15768735 0.26707232 -0.13760562 -0.02175529 0.044272717 0.079126894 0.037568737 -0.16193192 0.19806123 -0.2383158 -0.25258952 0.023846133 -0.15416464 -0.048491195 -0.1221782 0.030735644 -0.08859727 0.032248966 -0.052470487 -0.15123096 -0.083089 0.051063895 0.008101948 0.058614746 -0.046602808 -0.13504715 -0.018477691 -0.08476952 -0.009636282 -0.02267545 -0.106018335 0.055574965 0.049857408 -0.015325254 0.13174303 0.16407518 0.0028633932 0.02253613 -0.060238946 -0.045543004 0.019334693 0.011596764 0.080643505 -0.04759727 -0.059260476 0.016053097 -0.014389338
11 -0.023319898 -0.10050135 -0.09375725 0.27307957 0.25648612 0.22431216 -0.16113767 0.24651688 -0.0175257 -0.0020087825 0.34104946 0.0011384834 -0.5073282 0.27077824 0.03243592 -0.1877936 -0.13658461 0.08611817 -0.0617654 -0.03550087 0.16448776 0.21945055 0.17404866 0.3778179 -0.12503682 -0.039765194 -0.47097546 0.008331926 -0.011948996 0.019551225 -0.06683733 0.04801829 0.011934254 -0.18038242 -0.011069283 -0.13380675 0.072380945 -0.13217969 -0.034575343 0.11453413 0.0067828353 0.0430783 0.10166756 -0.041275032 0.052555893 -0.021119945 0.050931722 0.10222518 -0.023205748 -0.024948156 0.057802934 0.055443063 -0.095592335 0.0051758513 -0.009888795 0.11900604 0.05287808 0.086732306 -0.109826386 0.048427988 -0.11478454 0.08166295 0.022007225 -0.020847093
22 -0.008671317 -0.093593344 -0.4351625 0.20219202 0.28054246 0.19447528 -0.0387228 0.28698102 -0.25468236 0.026305778 0.32541773 0.24726449 -0.32950583 0.1581947 0.2699012 -0.31705907 -0.1750578 0.09664801 -0.04941009 -0.04975307 -0.036064543 0.1659995 0.13751845 0.17824008 -0.06972986 -0.035386257 -0.39780617 -0.13420942 0.14298601 -0.020756854 -0.17376232 0.018003093 0.054196898 0.009965511 -0.1331759 0.0042223474 0.096108735 0.11337244 0.12459888 0.019936495 -0.07596193 0.06892141 0.1757782 0.02422264 0.08772955 -1.2998046e-05 0.055280548 0.122551866 -0.06707549 -0.06733309 -0.026164588 -0.24306758 -0.09313448 0.030918835 0.07414093 0.0018488326 0.0039174818 -0.20401423 0.035812072 -0.21281998 0.19251333 0.0687324 0.07819336 0.069058634
8 0.2056882 -0.22628284 -0.45302704 0.41649532 0.0604431 0.45716643 -0.045176487 0.19601882 -0.017459491 -0.020346928 0.2549724 0.06556612 -0.4149647 0.2347914 0.04662917 -0.17531113 -0.112564296 0.10214936 -0.24516025 0.054402832 -0.02484533 0.23842636 0.21599455 0.32470253 -0.22908029 -0.14810991 -0.59402907 -0.2730726 0.2723714 0.09909734 -0.31923646 -0.013352955 -0.045945972 0.027889047 -0.0035032008 -0.00944948 -0.04539296 0.07527506 -0.094866805 0.069967106 0.01070424 0.0082878955 -0.008155384 -0.024458587 -0.015012357 -0.0073948777 0.025827534 0.0015829391 -0.033055507 0.0051885187 0.007719036 -0.06586698 -0.059205376 0.047027748 0.026090512 -0.0121924365 -0.014319531 0.03314869 0.012469574 0.09059582 -0.06511419 -0.010969528 0.04614332 0.011392888
14 0.07363603 -0.10438183 -0.37897873 0.30419013 0.12126301 0.44587892 -0.15994641 0.29946747 0.09349758 0.038279425 0.30744404 -0.105595835 -0.52694947 0.28150988 0.034377422 -0.11361495 -0.12598163 0.07880609 -0.2195037 -0.011843328 0.13661006 0.26067233 0.18701638 0.4034629 -0.20081277 -0.020590464 -0.59683436 -0.10042584 0.118086606 -0.011745654 -0.19712697 -0.015712714 0.05452152 -0.15618148 0.076063454 -0.049722426 0.112480834 -0.12933883 -0.08705794 0.06892493 0.024968868 -0.023538867 -0.0029802946 0.008121306 0.01517806 -0.0016605454 -0.031421483 -0.0008592911 0.01345983 0.021741726 -0.0007166864 0.23536673 -0.014489461 -0.042486973 -0.11826272 0.035455663 0.077697486 0.026972612 0.013076786 0.0047636745 -0.049258806 0.076134205 -0.01527569 0.015567923
6 0.10652439 -0.15577643 -0.6037388 0.45096323 -0.04777288 0.4961151 -0.06713025 0.3544424 0.07781963 0.033450477 0.27908134 -0.046382766 -0.4998344 0.27389577 0.0748409 -0.13088459 -0.095957026 0.07220627 -0.22120683 0.033880934 -0.033603102 0.2457038 0.20135371 0.286446 -0.1480057 -0.11641638 -0.6654387 -0.13816477 0.15362757 0.049637515 -0.28231713 0.058307458 -0.024953568 -0.110380635 0.041254338 -0.059992466 0.16249195 -0.060370382 -0.13962533 0.09069073 0.0698861 -0.02561097 -0.048412688 -0.013808103 -0.06279276 -0.042290855 0.023665735 -0.06365392 -0.011800376 0.002185448 -0.019825637 0.21176139 -0.02027833 0.024759676 -0.02252371 -0.0038665198 0.08838234 -0.04936193 0.16534764 0.099800214 -0.12712911 0.06253842 0.053104427 0.06523154
7 0.081127934 -0.11085697 -0.5508122 0.38003826 -0.10469852 0.48589274 -0.09139129 0.38213143 0.13043246 0.029736245 0.28671286 -0.09882868 -0.5473889 0.30378857 0.02846292 -0.105607875 -0.17084998 0.12023255 -0.2793824 -0.0018028304 -0.08886996 0.3213389 0.20297015 0.3545331 -0.21252082 -0.08642869 -0.6747935 -0.18552805 0.22299649 0.027134497 -0.30842143 -0.007499161 0.015690504 -0.0063585746 0.047000177 0.016142368 0.22621849 -0.02471557 -0.08477539 -0.044599757 0.0890235 -0.011760482 0.02653616 0.018835591 -0.0890425 -0.10119859 0.09529714 -0.078412324 -0.04519398 -0.023620656 -0.07482702 0.15330948 0.1228709 0.034917343 0.03859943 -0.101219624 0.10344318 0.0070410254 0.15315796 0.13656342 -0.16165912 0.02782974 0.025220351 0.050273634
13 0.057670113 -0.009702154 -0.09965714 0.25777906 0.36844173 0.35016662 -0.1986497 0.20357177 0.10114567 -0.02435427 0.18994048 -0.04355253 -0.39880133 0.23427746 -0.045020945 -0.0800484 -0.0615668 0.061954502 -0.02481592 -0.038194146 0.47403243 0.12388788 0.24356246 0.42717838 -0.31113246 0.18325745 -0.47647575 0.030910963 -0.1399434 -0.10511504 0.10661507 -0.10741661 0.039375737 -0.3906509 -0.093341045 -0.274812 0.16535234 -0.09723906 -0.15497409 0.2849008 -0.015614441 0.031234592 0.026747705 -0.058006927 0.05486795 0.024242688 -0.004087136 0.0909046 0.049912408 -0.009475687 0.06990434 0.06269483 -0.0077053397 -0.0019995328 0.03651407 0.11148777 0.010360165 0.09373453 -0.13550887 0.07005549 -0.10940003 0.08943943 0.06292098 -0.01642151
