26 64
25 0.5009923 0.009701904 0.028053835 0.09210399 0.30028638 -0.19302619 -0.042989325 0.11071027 0.0566841 -0.18491249 -0.1517018 0.31615198 -0.3995816 0.62748885 -0.32035616 -0.2545894 -0.036489405 0.045291744 0.14527944 0.21960005 -0.18727697 0.17947064 -0.24191949 -0.023828043 0.1455268 0.05550082 -0.34668556 -0.024816433 -0.031403147 -0.008526772 0.085146606 0.19200885 0.016529636 0.025380826 0.021336675 0.013371108 -0.020987514 -0.015125491 0.017085638 -0.044510588 0.10048981 -0.035289083 0.019950954 -0.031093325 0.007758785 -0.02024433 -0.032194838 8.5918575e-05 -0.062819645 -0.06355715 0.06348885 0.008430059 -0.028195951 0.025038674 0.03306695 0.021756778 -0.036014512 -0.03204641 0.017693998 0.0024254967 -0.054547645 -0.13309678 -0.1734684 0.011637987
3 0.48524427 0.028161228 0.0010501489 0.101948656 0.29162657 -0.20914681 -0.08438784 0.14796726 0.06608016 -0.21810909 -0.14202152 0.37444657 -0.40987945 0.6204223 -0.3409909 -0.24737771 -0.026942765 0.03487591 0.12442135 0.18644184 -0.16680601 0.16032001 -0.21928096 -0.0167878 0.11905919 0.04638983 -0.40510166 -0.048708484 -0.029752964 0.021084677 0.07264293 0.2378277 -0.009722647 0.039084774 0.019628322 0.01870524 0.0077238614 -0.008373002 0.03215046 -0.058432464 0.08359363 -0.057134748 0.0003852976 -0.047114495 -0.058560994 -0.03323495 0.025267387 -0.0009056914 -0.06503415 -0.07036444 0.05405032 0.026904086 -0.041961484 -0.0023454302 -0.005691234 0.022259166 -0.061563905 -0.025552323 -0.0038937423 -0.01580514 -0.055240758 -0.11325778 -0.19461045 0.012808588
24 0.4958931 -0.024868462 0.098478414 0.008470978 0.3142759 -0.12459836 -0.064258456 0.020844081 0.13442922 -0.13112305 -0.20414412 0.22559775 -0.35279065 0.52838594 -0.26646847 -0.24496797 -0.003525574 0.06700047 0.12361841 0.2368316 -0.19666684 0.13822839 -0.15088427 -0.018328313 0.10026366 -0.021146532 -0.36067727 -0.083228946 0.058702376 0.012279646 0.026418477 0.21037827 -0.0121077215 0.017340042 0.0022473007 0.06796925 0.014785655 -0.02190599 0.028783211 -0.03417641 0.08573637 -0.020089341 0.008125104 -0.021497076 -0.02387003 -0.02829351 -0.010131598 -0.00035496269 -0.03001636 -0.04235051 0.059495263 -0.020269109 -0.002067855 0.038271572 0.051199548 0.014465363 -0.014440203 0.026055122 0.055678844 0.0032179875 -0.066363536 -0.07030342 -0.045071796 -0.017816382
19 0.5001302 0.042967495 -0.064342245 0.06298481 0.38064715 -0.2765488 -0.06188217 0.1847089 0.060821533 -0.251057 -0.12986438 0.413055 -0.41883487 0.61044055 -0.32991576 -0.20743765 -0.08191672 0.042128894 0.13379504 0.14245936 -0.19067232 0.16221783 -0.23776355 -0.025637321 0.052865878 0.04423212 -0.39235637 -0.043674286 -0.026406985 -0.027511349 0.12221757 0.15992285 0.031069592 0.041395757 0.04162777 0.041308016 -0.045872252 -0.023877056 0.03200727 -0.07536686 0.064032204 0.017270798 -0.006054928 -0.008217215 -0.0665586 -0.027249355 0.037978 -0.00076553755 -0.047645617 -0.06996987 0.09907547 -0.0057246755 -0.015290494 -0.014353717 0.020462295 0.047937155 -0.028985184 -0.038981132 0.069973625 0.053270217 -0.07996225 -0.11961041 -0.21033035 0.11307502
2 0.50097215 0.020169778 0.058855444 0.043478 0.3121361 -0.13055973 -0.07540481 0.036016446 0.049927622 -0.16385642 -0.19135262 0.28590932 -0.39017895 0.5649263 -0.30336633 -0.24159272 -0.010492922 0.07536444 0.14649618 0.2694566 -0.21867178 0.16225462 -0.18553017 -0.022567337 0.12918305 0.011581947 -0.32172135 -0.037512258 -0.0038161299 0.014772779 0.0667696 0.17271723 -0.0550149 0.01994548 -0.0031264531 0.055806607 0.060885217 -0.008825925 0.044687465 -0.03406269 0.12526104 -0.023089282 0.05035698 -0.038897783 0.040301643 -0.06813629 -0.12901439 -0.00065672316 -0.04903992 -0.019423341 0.040183578 0.005201954 -0.007894112 0.015223512 0.050655358 0.029239349 -0.063938975 0.0127023375 -0.020022629 0.04227975 -0.018376272 -0.117844075 -0.11907046 0.12469146
15 0.419648 -0.09709646 0.22352175 0.05198635 0.14044161 -0.05332774 -0.17598122 -0.0072076875 0.128398 0.017553993 0.07527495 -0.05223163 -0.21030219 0.21041608 0.035950217 -0.02254175 -0.106591865 0.07647437 0.05664512 0.0074419244 -0.23103912 0.041133177 -0.035189636 -0.015593316 -0.17250896 -0.022120558 -0.4079286 -0.11995435 0.10833616 -0.01727134 0.12605865 0.08333195 -0.037353706 -0.0457526 -0.03073764 -0.10676776 0.03386797 0.06328469 -0.048766393 0.10294714 0.025927031 -0.064630054 0.0371394 0.0017228732 0.08046657 -0.026975792 -0.1168685 -0.00014464752 -0.0139567405 -0.025404457 0.08958549 -0.012502014 0.012280657 -0.06981721 0.0054075834 0.07158227 -0.00067237497 -0.0027751664 -0.041005895 0.021976681 -0.044749275 -0.028433701 -0.06728051 0.036345553
12 0.43211943 -0.123875774 0.24263886 0.0419482 0.15030122 -0.07146341 -0.20988542 -0.0025093202 0.11935992 -0.01832893 -0.064544715 0.031367432 -0.18705995 0.3676892 0.0070116427 -0.14301182 -0.137446 0.046088997 0.054865617 -0.03625484 -0.19702573 0.05841284 -0.082457304 -0.023035323 -0.061361745 0.06054981 -0.31091702 -0.08590115 0.029983409 -0.0025862567 0.016662823 0.1359553 -0.02623487 -0.0850114 -0.019765751 -0.026829818 0.024697844 0.009628108 -0.016824005 0.091067 0.061453443 0.026226817 0.04139746 0.029020231 0.11582363 -0.008395631 -0.13654743 0.001044847 -0.032984495 0.010525901 0.09395633 -0.020240644 0.032429114 -0.04679678 0.08102712 0.0920379 -0.050414864 0.019669995 -0.022039408 0.05919347 0.008016342 -0.014287148 -0.015467984 0.087456815
17 0.4373363 -0.079061784 0.22602934 0.033354077 0.12624167 -0.066775575 -0.06632275 0.14266324 0.09259696 -0.0012048191 0.17442241 -0.060597852 -0.14268301 0.23042326 0.106911376 -0.015653268 -0.14579082 0.053528655 0.052543342 -0.055547155 -0.22123969 0.052207652 -0.07718262 -0.018597713 -0.22786932 0.11037808 -0.3507609 -0.13862334 0.10439804 -0.022359975 0.015979577 0.12747766 -0.016323842 -0.04581515 -0.036323525 -0.038979184 0.026239919 0.018180288 -0.036963135 0.07925154 0.077979185 -0.0066809873 0.042641606 0.0067357896 0.08950072 -0.011292363 -0.114278875 0.0006888743 -0.07358956 -0.012321533 0.095212646 0.009381395 0.0040847696 -0.047551166 0.07282185 0.09693202 -0.03812416 0.012114042 -0.036929578 0.025234362 -0.004290496 -0.044222537 -0.023668878 0.04861998
1 0.49979332 0.07735006 0.047161113 -0.023207597 0.3293328 -0.11046375 -0.09605089 0.10832432 0.10909809 -0.16686544 -0.24569525 0.2823515 -0.3240811 0.5204553 -0.23228973 -0.23648056 -0.041769326 0.04885469 0.12751894 0.18429708 -0.19919 0.15704879 -0.2061961 -0.0196761 0.06427977 -0.011013198 -0.40320745 -0.09000142 0.035762966 0.04430586 0.047652088 0.2065857 0.042020977 0.05205785 -0.0041537443 0.090011545 -0.02756246 -0.04450367 0.0072645503 -0.06271524 0.04384211 0.045401603 -0.0038089876 0.0022446704 -0.018160004 0.008469772 0.026654562 0.0006265747 -0.030839697 -0.039322495 0.013843467 0.011759134 -0.025051346 0.023040729 -0.0014663818 -0.007353716 -0.043143887 0.0011897846 0.036843404 -0.015329959 -0.026782244 -0.08592007 -0.0722292 -0.028271869
20 0.39690307 -0.005674929 0.20452431 0.07778189 0.057805743 0.0041010403 -0.008905664 0.12083449 0.025014998 0.03792185 0.2554477 -0.09349938 -0.2231833 0.25316036 0.06981868 0.041050956 -0.18967524 0.046159863 0.09330316 -0.049288858 -0.22453982 0.102231644 -0.18246536 -0.029210314 -0.20449038 0.044200245 -0.33077368 -0.094693564 0.041927703 -0.0025905606 0.13926743 0.041523002 -0.06330028 -0.08185195 0.025249237 -0.0037081016 0.03963815 0.0031895444 0.045743924 0.042322308 0.044353724 0.061759915 0.04082249 0.029128706 -0.00027445963 -0.05759279 -0.08208881 -0.0018935691 -0.074363194 -0.006425916 0.03527224 0.048333425 -0.023847384 -0.061066445 0.011332508 0.06762697 -0.08900422 0.038125932 -0.071856305 0.013282685 0.008117314 -0.020128926 -0.035004243 0.051326707
4 0.5184766 0.038598116 0.022640433 0.09029452 0.2791081 -0.24004032 -0.09780567 0.2786209 2.6706637e-05 -0.26922145 -0.20135044 0.46947607 -0.33109206 0.6016894 -0.33351746 -0.24069656 -0.07414634 0.016144421 0.14344165 0.15975286 -0.15265793 0.19262026 -0.29357255 -0.028751098 0.09713103 0.06901397 -0.40521517 -0.049871285 -0.04647796 -0.0042340346 0.08106807 0.21021196 0.03329422 0.068086945 0.033220388 0.06288823 -0.039878365 -0.030243382 0.032430977 -0.0954097 0.057723228 -0.07395111 -0.0019826263 -0.049380746 -0.074667454 -0.03535709 0.04410903 -0.0014612151 -0.061618496 -0.061962333 0.1234675 0.006836163 -0.012935557 -0.06598771 0.017561268 0.08785111 -0.07704123 -0.030700304 -0.04082583 0.0023541807 -0.03942924 -0.11380932 -0.25519636 0.06816362
9 0.4879258 -0.13147224 0.22877651 0.0729571 0.20437239 -0.07720429 -0.16491047 -0.07865251 0.1053636 -0.01515272 -0.17619991 0.054276954 -0.26023373 0.46818867 -0.13553074 -0.19898985 -0.05851202 0.033401743 0.0644713 0.07729428 -0.10459176 0.06831561 -0.07877778 -0.025565699 -0.05367019 0.0037537315 -0.26852295 -0.08373155 0.007194542 0.0060061924 0.062786765 0.10970858 -0.03295221 -0.062244527 -0.001030588 0.02498993 0.02680278 -0.007281312 0.018935176 0.04138808 0.06364834 -0.010846576 0.07239686 -0.032642715 0.14172591 -0.03323943 -0.19433366 0.00067172904 6.924627e-05 0.055230636 0.015646605 -0.046331972 0.05158991 0.06317479 0.13469264 0.01822111 0.007317836 -0.016030693 0.010751695 0.10232453 -0.0021852315 -0.06773384 -0.08485829 0.17763494
18 0.4680898 0.10659406 -0.04467782 0.063442394 0.30666003 -0.1967782 -0.09294428 0.19763304 0.048408043 -0.27108136 -0.1838191 0.47517788 -0.420394 0.5688533 -0.3783453 -0.20229983 -0.049002938 0.055893358 0.1529001 0.21137282 -0.23419207 0.18868099 -0.25784907 -0.019507434 0.060304794 0.055044346 -0.45941597 -0.04315868 -0.06488652 0.0073645064 0.13425803 0.19754039 0.028806167 0.058387578 -0.004371496 0.042397078 -0.021774035 -0.009783066 -0.005605594 -0.046399374 0.06594087 -0.071911134 0.0057315463 -0.030411398 0.02133724 -0.005936406 -0.023104556 0.00047112387 -0.030013192 -0.050418958 0.08424019 -0.0033284277 -0.007800495 -0.03998005 0.00091661 0.05034891 -0.0066676945 -0.07199425 -0.012204098 0.038557164 -0.042902753 -0.09877548 -0.20378716 0.11270893
5 0.38091394 0.03262746 0.25031886 0.01068443 0.027170999 0.1075443 -0.00096021383 0.1137654 0.03226446 0.03921743 0.25192836 -0.11345329 -0.28956348 0.19082658 0.0024954486 0.04900299 -0.15698388 0.094909936 0.090874486 -0.008814909 -0.3258515 0.08083553 -0.11317365 -0.013944557 -0.24672383 0.06279383 -0.29292583 -0.085451394 0.039704416 0.030475248 0.15553707 0.012209158 -0.08282635 0.022177668 0.018423224 0.077248126 0.078268476 -0.011104988 0.08275565 -0.06169651 0.10922871 0.0074819187 -0.0022974187 0.009327274 -0.030929238 -0.064358346 -0.047089323 -0.0011230272 -0.05238365 -0.030789666 0.042139456 0.032421596 -0.02522537 -0.048701648 -0.012187897 0.046621412 -0.08321422 0.028917404 -0.04385973 -0.011501315 0.012818287 -0.055742394 -0.03493818 0.027031284
21 0.41551647 -0.16474101 0.17092788 0.07938854 0.20831995 -0.14072342 -0.24081191 -0.070673674 0.076852314 -0.07119497 -0.23458312 0.13623515 -0.32483765 0.57163775 -0.22353913 -0.30195826 -0.04945124 0.07940036 0.1290253 0.20371255 -0.23299958 0.13605492 -0.15085351 -0.026333287 0.1596763 0.041218814 -0.29549742 -0.022645889 -0.035500802 0.012955594 0.06659334 0.14551654 -0.030983498 0.017377988 -0.0049351063 0.02673006 0.040572617 -0.0076102163 0.025709523 -0.027386345 0.10599279 0.0121948365 0.051693346 -0.01307007 0.046646338 -0.08370954 -0.1538067 -0.0012187905 -0.012405658 0.03808348 -0.03700394 0.013045184 0.003753735 0.017580025 0.031049393 -0.004068076 -0.079602845 -0.0012475323 -0.013559115 0.055578846 0.013217929 -0.0843163 -0.12550627 0.12521426
16 0.41427404 -0.020503271 0.2446103 0.059245527 0.058236443 0.03634084 0.011188372 0.08667848 0.052473437 -0.014175623 0.24403998 -0.07823174 -0.25901753 0.19792685 -0.0014541165 0.054294433 -0.17932913 0.08849284 0.052556876 -0.08922156 -0.28710064 0.02723917 -0.03842556 -0.016879898 -0.21158832 0.12483275 -0.35469177 -0.081574254 0.006999958 -0.040913552 0.12392407 0.07142779 0.018235909 -0.07630753 0.016441682 -0.06706827 -0.048052724 0.027649388 -0.031636946 0.084806964 0.1285688 0.10138282 0.052877277 0.05260381 0.020423949 -0.06363359 -0.112711295 -0.0013082727 -0.10869766 -0.05048688 0.0556988 0.082258776 -0.05935588 -0.10170996 -0.039625432 0.08499392 -0.040253274 -0.0051815417 -0.14169328 0.013243738 -0.022468135 -0.053401414 -0.049869567 0.014302733
10 0.43490154 -0.14663373 0.24649176 0.031326413 0.15377459 -0.06055011 -0.1594266 0.0211496 0.14462407 -0.021238849 -0.003856823 0.064310595 -0.1615573 0.37398732 0.12950477 -0.12384649 -0.13770483 -0.017943198 0.04189037 -0.10476416 -0.0935956 0.07793931 -0.16909863 -0.0153366765 -0.25264478 -0.006590216 -0.22710244 -0.13393465 0.13565871 0.05368659 0.01539963 0.04631405 0.008254999 -0.020129673 -0.015656935 -0.16465946 -0.0031765974 0.04788644 -0.06103659 0.06630411 0.09458712 -0.06382702 0.10061199 -0.023253113 0.20571212 -0.04182743 -0.27144703 0.0010777999 -0.05058034 -0.04368644 0.078785956 -0.009342608 -0.005200874 0.013295943 0.05720516 0.04160427 -0.0008781092 -0.06082523 0.101931065 0.07243006 -0.056312434 -0.11843022 -0.12709135 0.09266812
23 0.4086715 -0.23591709 0.19383162 0.05665255 0.22994055 -0.16032569 -0.24736819 -0.10665731 0.14570844 -0.04801453 -0.16454352 0.102210484 -0.30078226 0.5174486 -0.10326417 -0.23612179 -0.06430608 0.08986702 0.12462156 0.18236546 -0.2526755 0.12264999 -0.13062145 -0.026187802 0.0998143 0.04296169 -0.23492004 -0.036555912 0.01008661 0.0075509795 -0.00603531 0.13285272 -0.02776754 0.04220053 -0.050684575 0.0122561185 0.06071756 0.0074507305 -0.017285075 -0.0017056038 0.15191047 -0.019764926 0.09332436 -0.051805418 0.09441565 -0.11157416 -0.24121419 -0.0011643738 -0.0050310236 0.036251392 -0.0443166 -0.0029406808 0.009164782 0.059519984 0.05301865 -0.025293527 0.051838636 -0.059643753 0.06011028 0.113203004 -0.0007062051 -0.101231486 -0.040987607 0.19209836
11 0.4781766 -0.04957883 0.22344998 -0.008789048 0.20351161 -0.04352968 -0.21236359 0.025184032 0.09513731 0.030005602 -0.06991164 -0.043273944 -0.18895626 0.23996602 -0.010193514 -0.08206942 -0.06734411 0.06069043 0.10056664 0.12089032 -0.19276246 0.105779245 -0.13082612 -0.021818012 -0.19477643 -0.097342074 -0.37940028 -0.13971594 0.10398867 0.038862832 0.13716935 0.039111108 -0.00089134247 0.101000205 0.015057524 0.17797628 0.0128827235 -0.061142385 0.07342235 -0.14446254 -0.07292125 -0.01737244 -0.081741594 0.028550839 -0.05986489 0.07878152 0.16525255 0.0014505367 0.04091178 -0.027424261 0.027273817 -0.037240352 0.012805173 0.010295465 -0.018186351 -0.016984366 -0.06295789 0.088347614 0.038158823 -0.08104167 -0.0009471377 0.06188138 0.079645336 -0.14581637
0 0.5115825 0.09025589 -0.05430178 0.1567455 0.2763576 -0.26382104 -0.06009278 0.30014765 -0.011485193 -0.28607586 -0.16352685 0.5099589 -0.43104136 0.61526895 -0.2616376 -0.19672683 -0.07071932 0.046423774 0.15638626 0.18747959 -0.23569152 0.20038699 -0.28775504 -0.022039503 0.12698919 0.083803535 -0.46931812 -0.011619348 -0.12088956 0.033691578 0.14026344 0.21713786 0.038281493 0.07140374 0.0037671821 0.013705337 -0.032809082 -0.0027849295 -0.009396554 -0.05887567 0.063440025 -0.19317128 -0.020047575 -0.09674339 0.02007401 0.01830378 0.017491631 0.001346589 -0.036505636 -0.07519984 0.08695302 -0.016206736 -0.015364595 0.021394832 0.025744863 0.020184457 0.023106944 -0.10911066 0.05544926 0.015783263 -0.058650624 -0.10394527 -0.1947032 0.02109215
22 0.42572823 -0.15902136 0.25279954 0.011279686 0.14268054 -0.09994051 -0.25606853 0.11236737 0.19985697 0.033027537 -0.022893209 -0.012636776 -0.18263385 0.44148016 0.07565935 -0.16650324 -0.09971725 0.009090174 0.03356728 -0.045957856 -0.094923936 0.046612397 -0.08226953 -0.017773261 -0.17955492 0.033104263 -0.15566723 -0.11339374 0.12146785 0.008074029 -0.047755737 0.053210344 -0.026823912 -0.012992006 -0.036657736 -0.2619216 0.043196682 0.092312306 -0.08353862 0.09390208 0.031667132 -0.063370444 0.09556127 -0.003268086 0.23364449 0.028866787 -0.21469393 0.0024500685 -0.077488825 -0.04951585 0.08744441 0.031576835 -0.026363831 -0.06507622 0.0073748464 0.080652565 -0.0782115 -0.024260022 -0.037292056 0.04051115 -0.012548996 -0.03362764 -0.1705342 0.16527666
14 0.32214049 0.0010860647 0.35571 -0.08687804 -0.040157877 0.18013349 -0.16021211 0.106733635 0.1908992 0.10593313 0.1863797 -0.13368958 -0.21841437 0.23023392 -0.11066073 -0.0053543583 -0.14321634 0.06689909 0.15364969 0.098396935 -0.29822686 0.18130161 -0.27821594 -0.02434764 -0.24154876 0.00970544 -0.20943731 -0.09926682 0.06288355 0.002526362 0.0917538 0.009749313 0.03195529 0.14100996 0.00021533328 0.24685238 0.0011778335 -0.099604145 0.07320634 -0.1898668 -0.013697776 -0.021361329 -0.11599299 0.05718246 -0.07033444 0.114603214 0.22277892 0.0023839965 0.020864578 -0.03970731 0.094763696 -0.039937645 0.020791166 -0.044448785 -0.0038900783 0.04264637 -0.046437312 0.035578 -0.0061183 -0.06710647 0.01794297 0.069516525 0.0045601227 -0.07067961
8 0.39296037 0.077319846 0.33311528 -0.04282942 -0.048012003 0.20348872 0.04552935 0.22280626 0.090246804 0.105869606 0.24820288 -0.21665105 -0.2544951 0.18184495 0.033939485 0.051426318 -0.17712542 0.10707876 0.11394853 0.01653662 -0.35309017 0.10114362 -0.14012274 -0.022525705 -0.10864328 0.061132442 -0.22788593 -0.06413006 0.05654749 0.0075605107 0.09672555 0.03594714 -0.043501705 0.072852604 0.023582734 0.07270734 0.03883413 -0.009824725 0.06528835 -0.09593682 0.13827516 0.014269732 0.021479588 -0.014237847 -0.14370498 -0.14428681 -0.025034934 -0.004557387 -0.085076265 -0.04706902 0.04571303 0.08103054 -0.057132218 -0.12133795 -0.072796196 0.07653217 -0.08196446 0.0027447564 -0.10777828 -0.023293382 0.006898277 -0.08649608 -0.12925747 0.04887911
6 0.37773034 0.14818564 0.37524423 -0.05444588 -0.102172874 0.32593578 0.04045573 0.12942408 0.23418732 0.21056381 0.25066474 -0.2662578 -0.3085223 0.259718 -0.036012467 0.040877286 -0.15238659 0.07517609 0.15140939 0.08863926 -0.298736 0.1680338 -0.2587603 -0.02636257 -0.09187466 -0.020733511 -0.1058372 -0.015628243 0.01817962 -0.02249006 0.16071929 -0.040224057 0.042925823 0.17257297 0.06243842 0.2717006 -0.04941725 -0.0922151 0.11463218 -0.25245827 0.10038942 -0.1099648 -0.041150786 -0.00025483975 -0.10716248 -0.045203906 0.07330644 -0.0021892567 -0.009742384 -0.061946135 0.1568224 -0.025007937 0.014220372 -0.1178476 -0.016796414 0.105723806 -0.006942805 -0.014643098 -0.048739452 -0.010384212 -0.025459614 0.047864005 -0.12075522 0.042128615
7 0.3114868 0.14502828 0.41849592 -0.15554905 -0.14138374 0.37179756 -0.06447528 0.18630995 0.23415631 0.17234647 0.3088891 -0.2352143 -0.35388067 0.26819617 -0.06911622 0.0725005 -0.18471842 0.07141385 0.12233284 -0.0018255649 -0.2995448 0.13185067 -0.21909617 -0.023124518 -0.074657924 -0.049390756 -0.12704019 -0.020278804 0.018099722 0.008211205 0.15063164 -0.015060388 -0.04845487 0.15275414 0.05774513 0.2159188 0.049291328 -0.06949528 0.15119454 -0.24206063 0.07745302 0.010811127 -0.08773921 0.012848792 -0.18471223 -0.015575809 0.18738665 -0.0010499555 -0.0038924695 -0.062118888 0.10458186 -0.02127093 0.0011530647 -0.055912483 -0.01955205 0.0510648 -0.08267853 -0.0065513994 0.011322147 0.011848759 -0.03502912 -0.06156246 -0.23192108 0.14797832
13 0.4625331 -0.007354612 0.22506478 -0.12374257 0.21105337 0.006282335 -0.080420226 0.17685996 0.14889807 0.020120515 -0.34809905 0.032808833 -0.28904864 0.3967907 -0.14264931 -0.16666085 -0.058472853 0.07219156 0.16027811 0.24017623 -0.20248154 0.16959772 -0.21840695 -0.03544021 -0.28770128 -0.14935765 -0.30169633 -0.21025546 0.11085718 0.10538848 0.054460745 -0.00983827 0.04411092 0.08499378 0.0572944 0.12101783 -0.053770777 -0.059565354 0.06907905 -0.15263158 -0.17819442 0.04229082 -0.10227198 0.027121792 -0.17212546 0.11315248 0.31960285 0.00048205754 0.02622606 -0.04587632 -0.10257689 0.03493127 -0.059052464 0.052558172 -0.12418797 -0.11356433 0.015564929 0.09508395 0.06986342 -0.17455028 0.011771498 0.22655424 0.30045852 -0.35597882
