26 64
25 0.3875242 0.09787659 -0.19120635 -0.13815004 0.5737476 0.016800318 -0.25295833 0.19098856 -0.3361788 -0.00915835 0.24197263 -0.23371138 -0.069521725 -0.04081275 0.09744325 0.1014473 0.1950084 -0.12614885 0.2993387 -0.077029645 -0.41323048 -0.27918845 -0.09779934 -0.17714234 -0.1625997 -0.0744156 -0.120850965 -0.1536175 0.4799242 -0.20433515 -0.108652614 0.2830017 -0.027129037 -0.01728511 -0.04643514 0.011319928 0.004871796 -0.21180429 0.013311796 0.08965578 -0.02705489 -0.0034803562 0.005708813 0.0036124764 -0.028099144 0.111444026 -0.0366763 0.05279542 -0.052825626 -0.041654512 0.10304204 0.18864326 -0.012612941 -0.038170673 -0.02068906 -0.025780005 0.025194718 0.013182828 -0.02130716 -0.002442715 -0.041416407 0.027121829 -0.014745496 -0.037893645
3 0.4234678 0.12226186 -0.14219871 -0.07417591 0.5885313 -0.06452079 -0.29923305 0.0688781 -0.35830146 0.002845741 0.23038748 -0.24563529 -0.06813825 -0.0593144 0.12937629 0.08482154 0.23239613 -0.15321527 0.3710567 -0.15316969 -0.40557918 -0.17001945 -0.12251673 -0.28598458 -0.15285021 -0.088415526 -0.123313524 -0.13893455 0.45346734 -0.20079947 -0.119061075 0.30786526 -0.06204139 -0.044008758 -0.020401508 -0.011300746 0.017638996 -0.057673987 0.022080103 0.1546449 -0.078739524 -0.018228503 0.082473055 -0.0062237615 -0.014246113 0.14737366 -0.024436435 0.08865384 -0.0635902 -0.043364797 0.059626862 0.17755596 -0.0034435114 -0.02415908 0.019677036 -0.037659265 -0.011468258 0.06546722 0.017006682 0.005322081 -0.023050832 0.05759056 -0.039944995 -0.050944936
24 0.26848865 0.16209847 -0.22023758 -0.14638472 0.51134634 -0.038833465 -0.26538184 0.0875912 -0.30837068 -0.09854209 0.22317185 -0.14952238 -0.1402001 -0.038099006 0.10276735 0.17182791 0.15289125 -0.17830016 0.18452726 0.06126802 -0.4529126 -0.2701059 -0.024852918 -0.19589922 -0.10331699 -0.035292193 -0.11042632 -0.10133264 0.40475482 -0.15720077 -0.15816268 0.31725058 0.013793516 0.07484523 -0.049211096 0.003497472 -0.014968028 -0.15084702 -0.0060619037 0.118958734 -0.015830405 -0.0066805803 -0.023842914 0.05112816 -0.07466909 0.18160582 -0.06874095 0.04617649 -0.057740886 -0.023306897 0.065225065 0.12526193 -0.018207708 -0.049886443 0.0123106325 -0.060259465 0.017609395 0.004033163 -0.060121037 0.014836746 -0.022104934 0.07149603 0.009960737 -0.07022979
19 0.41726667 0.09412904 -0.17365144 -0.06369472 0.6249257 -0.025207384 -0.30925125 0.15619718 -0.30923256 0.05725571 0.2548426 -0.2645607 -0.005982373 -0.036846522 0.052966163 0.0162487 0.26625928 -0.11521505 0.25992376 -0.06889229 -0.38114974 -0.21709432 -0.07372226 -0.2824553 -0.19164027 -0.17395781 -0.06772542 -0.169249 0.51678467 -0.22627023 -0.0541306 0.2639145 -0.07977729 -0.05853846 -0.0809574 0.02207349 0.013777379 -0.085565455 0.04095067 0.13018021 -0.026916916 0.0054617897 0.021513151 -0.019165708 -0.020024445 0.2092357 0.01249642 0.06573238 -0.053590477 -0.03841128 0.08517354 0.19900425 0.0015002132 -0.02765329 -0.0030955684 -0.016034959 0.034851693 0.025804698 -0.035584744 0.008338525 -0.08636712 0.051944554 -0.054410663 -0.055598386
2 0.29047838 0.09050057 -0.22832924 -0.11427293 0.56888497 -0.038002122 -0.29556862 0.11835007 -0.3084241 0.023055546 0.21698518 -0.26984134 0.002202742 -0.015084695 0.0839892 0.08480764 0.2024652 -0.14949575 0.22849439 -0.019377537 -0.42629084 -0.22154906 -0.059693422 -0.22778752 -0.119090945 -0.04321625 -0.11570997 -0.11895156 0.43960288 -0.17736651 -0.15310349 0.32294232 0.019194646 0.09170363 0.002837124 -0.00028393677 -0.023374703 -0.12958488 -0.013539356 0.08821011 -0.06172518 -0.034052525 -0.008019784 0.0018850485 -0.021615945 0.14990957 -0.14503415 0.12278643 -0.024230085 0.010579395 0.06707172 0.07602392 -0.013844027 -0.020361973 0.03080002 -0.04215225 0.013793489 -0.022029333 -0.075994395 0.02458834 -0.018918896 0.06453267 0.010322228 -0.047213696
15 0.20944858 -0.05086098 -0.3826273 -0.4013243 0.6105748 -0.32125127 -0.18304455 -0.19243903 -0.18054794 -0.09214547 0.13396366 -0.16486669 -0.028397417 0.054830924 0.06367292 0.20514211 -0.027089223 0.091950335 -0.23403971 0.24871574 -0.43711093 -0.2580079 -0.102968335 0.010741678 0.031721093 -0.06364015 -0.10118199 0.05125472 0.113383226 -0.05513011 -0.24161611 0.45099118 -0.05853324 -0.10900892 -0.019745173 -0.027271286 0.035030592 -0.04436046 -8.555777e-05 0.18185426 -0.035261925 -0.010708197 0.0556466 0.02747173 -0.01774852 -0.008705256 -0.0010274532 0.0025591678 0.010237866 0.025066169 0.016782708 0.0077812485 -0.025243057 -0.066516384 0.0007227241 -0.09882427 0.006068198 0.0010131191 -0.02176273 -0.030112859 0.06186648 0.036534093 0.089868784 -0.033635862
12 0.13436772 0.016132114 -0.3584511 -0.3611671 0.62681013 -0.21249925 -0.18168555 -0.10604309 -0.16283126 -0.11549181 0.113946185 -0.13614249 0.017796224 0.052832574 0.03895188 0.20587635 0.086240076 0.005176265 -0.09381662 0.17434426 -0.40899742 -0.2777806 -0.0851781 -0.082654275 0.017291896 -0.042870786 -0.107044235 0.025261363 0.18028998 -0.0799266 -0.24970698 0.4565641 -0.010459399 -0.11185599 0.020348141 0.011924167 0.025804203 -0.023667183 0.010838374 0.017820746 -0.004960247 -0.0028914541 -0.024530245 0.041845422 -0.050452743 0.010016068 -0.061855227 0.008438434 -0.028287606 -0.031339448 -0.0027187984 0.02448428 -0.022329334 -0.062672324 -0.029829236 -0.05115471 0.026574759 -0.031509556 -0.049431168 -0.0132014295 0.011217431 0.018359795 0.055004686 -0.018726349
17 0.14538375 -0.03387882 -0.4375023 -0.43491647 0.6287142 -0.2592448 -0.15475616 -0.23238185 -0.22374353 -0.08593142 0.17120871 -0.23228197 0.08162899 0.06499277 0.034058675 0.19567055 -0.14331834 0.09831596 -0.23086636 0.15620406 -0.5069308 -0.2179619 -0.10264203 -0.035991635 0.047490485 -0.1244859 -0.10273385 0.100873865 0.011801554 -0.02609237 -0.24896072 0.48315182 -0.09306839 -0.121592395 -0.07667673 -0.018972352 0.057687655 -0.09181931 0.035952527 0.122193776 -0.032498233 0.0032828497 0.048637185 -0.025624055 0.0156583 -0.08489522 0.0106454315 0.014518589 -0.021480795 -0.026006754 0.032848716 0.044473007 -0.021387126 -0.036968116 -0.0012879907 -0.08021505 -0.0049698087 -0.011157201 -0.011839757 0.004651404 0.014213251 0.0064649214 0.013745716 0.0013821786
1 0.30556193 0.14498499 -0.18009003 -0.20391507 0.5423871 -0.059140656 -0.24067141 0.043791123 -0.28624383 -0.086722 0.20316131 -0.107586235 -0.15230618 -0.064511344 0.100246705 0.12347879 0.21557997 -0.14952946 0.22052939 -0.064490736 -0.485376 -0.26746982 0.013378983 -0.24398085 -0.16106988 -0.085162394 -0.11709963 -0.14257671 0.43475372 -0.19403476 -0.093095414 0.253834 -0.062744 0.0013305541 -0.08950332 -0.019148095 -0.0065483446 -0.09619996 0.0030262098 0.108511254 -0.019056233 0.007381275 0.028187295 -0.007052813 -0.021118598 0.16505288 0.031503912 0.037125073 -0.13418825 -0.13748446 0.18204954 0.050296508 -0.037881296 -0.014646919 -0.045422047 -0.00020268685 0.03427101 -0.0046639265 -0.083821945 0.03507549 -0.07625855 0.07798016 -0.029828228 -0.08559815
20 0.3163503 0.06727345 -0.43891048 -0.34287912 0.65550715 -0.32265612 -0.21868217 -0.29300955 -0.2095804 -0.061875217 0.13637595 -0.21804681 0.028140945 0.05386285 0.07379127 0.18625833 -0.18696554 0.18189307 -0.38239187 0.20338635 -0.41761947 -0.123287156 -0.11623073 0.01622879 0.029382637 -0.12511288 -0.09095205 0.07199177 0.06931559 -0.047436967 -0.22922853 0.4629505 -0.129967 -0.09396246 -0.12695225 -0.039990015 0.034276225 -0.14649987 0.029612282 0.16728723 -0.031636834 0.005755657 0.031344756 -0.008185735 -0.023446547 0.098739535 0.0025831896 0.04500402 -0.029232442 -0.026822204 0.05759248 0.062063407 0.0035464393 -0.005861702 0.011067914 -0.01393837 0.02379335 -0.008091198 -0.031794578 -0.016314419 0.00086422334 0.023233304 0.036393795 -0.025062168
5 0.3401714 0.18141186 -0.43571782 -0.43103164 0.7198707 -0.27949455 -0.25543028 -0.2922742 -0.2183883 -0.0657904 0.09220691 -0.1337038 0.00053126947 -0.024676768 0.10524414 0.11822668 -0.11851236 0.08136874 -0.36541358 0.2214684 -0.44409493 -0.13717064 0.013524029 0.02929662 0.052325882 -0.18026374 -0.055837683 0.1159804 -0.06475931 -0.009930663 -0.1870736 0.41306338 -0.1028441 0.0009283524 -0.16721173 -0.027831208 0.031544957 -0.10402499 0.04255383 0.21271428 -0.017340863 0.0017570119 0.0089222295 -0.002837856 -0.02199019 0.14600796 -0.002607265 0.04329872 -0.06973696 -0.03793573 0.08838781 0.13320082 -0.008189896 -0.025560172 0.041921936 -0.07831577 -0.043711964 0.059341405 0.020738998 0.022843733 0.027228454 0.06390048 -0.014985011 -0.051271483
9 0.12775958 0.10667974 -0.26743495 -0.2907433 0.53586566 -0.09438529 -0.2702975 0.09486189 -0.24301642 -0.13122676 0.15513343 -0.15793586 -0.0041486328 0.015436071 0.07784732 0.20087296 0.114840224 -0.093359165 -0.028713718 0.19089893 -0.399416 -0.26586303 0.02987789 -0.077665105 -0.026870301 0.047431733 -0.16328503 -0.03997481 0.34059787 -0.12894544 -0.28690022 0.46656036 0.016071858 0.0047053867 0.017401243 0.014474479 -0.00057971175 -0.085344255 -0.005436203 0.018240305 -0.032970518 -0.011867768 0.022670075 0.006417925 -0.007284886 -0.024046412 -0.044162482 0.028960666 0.027464107 0.050173655 -0.007524834 0.016628403 -0.0025892532 -0.011855131 0.023944855 -0.060240984 -0.0054259547 -0.04480157 -0.042040236 0.019135308 0.030523483 0.0067898068 0.0398468 -0.0017177073
18 0.38080588 0.070271835 -0.122154735 -0.11522374 0.64424163 -0.03279828 -0.29493472 0.1482032 -0.29311156 0.04331971 0.22989883 -0.21861097 0.004922363 -0.059739552 0.04898627 -0.011411817 0.28146753 -0.113867395 0.33805865 -0.136814 -0.43148613 -0.23715468 -0.104331456 -0.32590517 -0.18143633 -0.12440172 -0.09416301 -0.17378013 0.5001447 -0.23370409 -0.066667505 0.2616967 -0.097612664 -0.08572704 -0.094185665 -0.010621127 0.05125453 -0.15712267 0.039891407 0.20786963 -0.030910492 0.0008653226 0.014893921 -0.001641643 -0.028686548 0.102235384 -0.026658578 0.05310988 -0.078230575 -0.06036577 0.067388356 0.18492992 -0.014816834 -0.044935353 0.0284397 -0.106724985 -0.009293301 0.072108924 -0.008427634 0.029788092 -0.057705157 0.093214706 -0.07128503 -0.08316702
4 0.48861572 0.07074227 -0.12005744 -0.06639096 0.61737233 0.0016305967 -0.2835757 0.23306093 -0.2839877 0.061523292 0.23127061 -0.22734982 -0.04878146 -0.047538072 0.06402215 0.0043933033 0.20575812 -0.14308347 0.28950217 -0.061564382 -0.45305485 -0.24697363 -0.10579031 -0.37093368 -0.16705452 -0.13864742 -0.077657156 -0.14532527 0.4751047 -0.1976853 -0.08049144 0.2705664 -0.10870222 -0.09543612 -0.07734911 -0.010790584 0.02994519 -0.10491406 0.042634785 0.15496504 -0.032710634 0.00069085567 0.036198735 -0.051116608 0.02701603 0.0711974 0.014133528 0.05768706 -0.071375936 -0.07298205 0.0675621 0.19216102 -0.022174675 -0.066808246 -0.031486467 -0.0584804 0.03240507 0.06541089 0.0019376759 -0.0062969346 -0.09994768 0.05021474 -0.08157275 -0.055341005
21 0.21258888 0.07057486 -0.21504402 -0.2530872 0.6021346 -0.10213408 -0.3179654 0.18238238 -0.2645778 -0.072622925 0.15398104 -0.14903523 -0.09588875 -0.030404642 0.12492634 0.14557281 0.1010069 -0.16619359 0.20442918 0.04601338 -0.40384433 -0.25988284 -0.06094541 -0.24183673 -0.07820554 0.08315193 -0.1573522 -0.1060354 0.40480492 -0.15566014 -0.20536347 0.32361576 0.04036195 0.10272124 0.011096107 -0.022967232 -0.022656456 -0.15984388 -0.013841979 -0.011109802 -0.03355562 -0.03164927 -0.061760854 0.026289051 -0.039464515 0.06846561 -0.18697424 0.094293945 0.007918171 0.039009716 -0.070605494 0.024991922 -0.008685971 -0.023776561 0.03287954 -0.010942934 -0.019160308 0.008969759 -0.013714191 0.0026823531 0.047127612 0.041370805 0.039140712 -0.025701758
16 0.20162068 0.08274831 -0.51703745 -0.43195143 0.67579585 -0.29025322 -0.2463444 -0.28632706 -0.24522765 -0.0503521 0.11564543 -0.19217862 -0.021145908 1.2423718e-05 0.12955758 0.15441954 -0.28351784 0.12771353 -0.27902904 0.14444023 -0.41561607 -0.12325842 -0.119758196 0.025186371 0.029747218 -0.16275825 -0.09907977 0.093838826 0.025359305 -0.036990043 -0.23258077 0.48578575 -0.1281259 -0.15152693 -0.11115892 0.0005853528 0.03901747 -0.07638972 0.062280986 0.10566516 -0.035133086 0.016752651 0.07757241 -0.022064894 -0.0069642547 0.051908176 0.07460086 0.016993055 -0.055844165 -0.04967059 0.018320283 0.14548165 -0.015968647 -0.0534333 -0.009011857 -0.040830676 0.016170707 0.018637136 -0.020509753 -0.031838275 0.034566727 0.047155987 0.06878805 -0.050972182
23 0.10826435 0.13688436 -0.30109215 -0.29067877 0.5893874 -0.10078811 -0.29032922 0.07624825 -0.25865793 -0.124131806 0.17213528 -0.16445391 -0.021554746 0.010236657 0.07747448 0.20244998 0.12888744 -0.1268029 0.07582779 0.0958133 -0.33754268 -0.22271392 0.019306488 -0.12411656 -0.08006354 0.04719006 -0.17037332 -0.093773074 0.42486686 -0.16415785 -0.24383847 0.40558633 0.047387704 0.08952736 0.046521127 -0.014684889 -0.02070839 -0.08807936 -0.015028614 -0.079702504 -0.018939063 -0.023050196 -0.057478067 -0.0061306013 0.00044853272 -0.039168127 -0.14721993 0.06663302 0.017259283 0.02901218 -0.085566305 -0.03677643 0.007154524 0.005057486 0.02061024 0.020720046 -0.010789129 -0.03940537 -0.022023462 -0.0048620626 0.069439344 -0.0050097625 0.07563207 0.013038431
10 0.08028726 -0.08111919 -0.3212941 -0.38735276 0.6314058 -0.13200714 -0.1063602 -0.06091952 -0.24204513 -0.17085618 0.27299285 -0.23432423 0.10989368 0.10633455 -0.063995965 0.2744651 -0.02267587 0.004727277 -0.17112255 0.2117013 -0.43380508 -0.25832942 -0.046789598 0.046484694 0.018551853 0.006200111 -0.14133467 0.029286643 0.21722308 -0.06753989 -0.30484533 0.49659678 -0.07249674 -0.0389377 -0.0238275 -0.05777282 0.028615814 0.051974952 0.015817313 0.07755607 -0.007981368 -0.0096988715 0.021634787 -0.06348198 0.083812125 -0.12778284 0.01506089 0.005560465 -0.033062756 -0.030589556 -0.081611544 0.040929236 0.0006964681 -0.043215282 -0.012409911 0.009263098 -0.005716245 0.0017691086 0.023586126 -0.066149995 0.12548448 -0.0081912065 0.14189145 0.0064158905
11 0.2903543 0.1325777 -0.2415812 -0.2530426 0.6541593 -0.27571133 -0.18634495 -0.29987904 -0.24005699 -0.13669316 0.2094948 -0.048922118 -0.20151974 -0.04285631 0.06409079 0.16777502 0.10460181 0.06273128 -0.14826725 0.15799813 -0.43338776 -0.40230924 -0.01153673 0.0020717613 0.037459087 -0.01426622 -0.098548114 0.042522263 0.04046212 -0.0495956 -0.18794386 0.3343337 -0.068642564 0.002543624 -0.116255865 -0.05799336 0.0280741 -0.037580613 0.009448158 0.13386686 0.045928244 0.004618525 -0.09756336 0.04855361 -0.059997473 0.12379413 -0.05715566 -0.005408258 -0.09124423 -0.13772687 0.22204234 -0.083445415 -0.034435026 -0.0037761447 -0.056744657 -0.020829955 0.0159064 0.048794355 0.0077666244 0.036746133 -0.1375098 0.02379857 -0.14789571 -0.030615885
22 0.04591565 -0.1636 -0.2925828 -0.43147683 0.67453027 -0.22576883 -0.14591064 -0.044859715 -0.18264425 -0.16515177 0.21767978 -0.19455111 0.110133365 0.1060077 -0.0541776 0.24128145 0.03448366 -0.0006338062 -0.17420328 0.2452844 -0.40631628 -0.25577575 -0.04207858 -0.06904354 0.05473294 0.0875923 -0.13171625 0.029912302 0.21727347 -0.059669036 -0.32414597 0.48050457 -0.15241782 -0.13093646 -0.11005932 -0.015224287 0.034416307 0.029113073 0.05132671 0.08072755 0.020427417 0.025575439 0.038703308 -0.10197662 0.09434562 -0.03498688 0.14610349 -0.020385446 -0.0074064406 -0.0049381596 -0.09583289 0.030977132 0.011836692 -0.027550178 -0.0067920173 0.024249393 0.025931448 -0.0691959 -0.04749543 -0.07893677 0.15529583 -0.007824421 0.22826724 0.0071926317
14 0.47992122 0.20866497 -0.2790396 -0.32287234 0.7947723 -0.30116853 -0.27276903 -0.26300538 -0.16290861 -0.17151342 0.1746195 0.044433653 -0.19689968 -0.047717225 0.02046863 0.13740349 0.109562464 0.04266398 -0.21563628 0.17470275 -0.42274767 -0.2682303 0.11174037 0.17048188 0.054627486 -0.2798904 -0.041766886 0.15989135 -0.19118394 0.021721423 -0.14749397 0.4019044 -0.12037871 0.06542988 -0.26576892 -0.06594176 0.030322323 -0.21825464 0.013541884 0.23991828 0.04534953 0.026438748 -0.05648509 0.020651124 -0.051115338 0.15179417 0.03281638 -0.017466748 -0.07199443 -0.09593025 0.15687662 -0.048919056 0.014792479 0.05172811 -0.00788534 0.036053844 0.010560327 0.01906065 -0.006136586 0.014515296 -0.04324518 0.01906375 -0.03470978 -0.03904319
8 0.46648866 0.23608468 -0.4534098 -0.37185127 0.74202466 -0.31658724 -0.26261175 -0.34169132 -0.17204902 -0.0553508 0.09601656 -0.09680109 -0.07583256 -0.013971863 0.08812826 0.11642086 -0.19740596 0.05058393 -0.3642339 0.19442344 -0.41475713 -0.02723589 0.03158385 -0.014396924 0.040116712 -0.26611635 -0.049162697 0.14722468 -0.08124437 0.015369165 -0.19891542 0.4610395 -0.12984037 0.051018655 -0.14872657 -0.08601384 0.013429916 -0.20875104 0.027055658 0.18885623 -0.051641818 -0.020518247 -0.0071983435 -0.082636744 0.053702507 0.039686535 -0.101506226 0.12638545 -0.10806037 -0.08664171 0.028019138 0.10257804 -0.010602218 -0.03912994 0.009435964 -0.0074743573 0.0038509432 0.025290247 -0.023427833 -0.027881974 0.05554573 0.06649533 0.08174439 -0.061866026
0 0.47649777 0.13158205 -0.09521501 -0.10826914 0.6615896 0.013322747 -0.27878225 0.19134875 -0.28491843 -0.00023657229 0.27093208 -0.1992585 0.022181472 -0.044048842 -0.008453077 0.011115206 0.30601382 -0.09130274 0.2606107 -0.10201011 -0.3999364 -0.21905334 -0.054826275 -0.33228216 -0.22112226 -0.19523814 -0.068646885 -0.19658573 0.53979486 -0.25217244 -0.017579613 0.22855027 -0.14058833 -0.18026009 -0.10983179 -0.029337397 0.085867845 -0.06453266 0.051813707 0.2416842 -0.0049964366 0.022199443 0.044280414 -0.0031584073 -0.014847082 -0.011615737 0.07429878 -0.023912238 -0.102255285 -0.10198033 0.05932675 0.20863529 -0.015360578 -0.06443843 -0.006224522 -0.12814032 -0.01709932 0.102521405 0.043396637 0.028909417 -0.083129264 0.06146072 -0.12125832 -0.06728277
6 0.60421973 0.21940938 -0.33444503 -0.28776824 0.88553673 -0.29553974 -0.29056585 -0.28571704 -0.18091051 -0.021000667 0.1958815 -0.007477862 -0.23430678 -0.09056372 0.035998076 0.0009673613 0.06016817 0.07178342 -0.3830573 0.26900983 -0.34810698 -0.17780776 0.13705675 0.12983885 0.06457246 -0.3673133 0.029941093 0.18926401 -0.20507976 0.05336571 -0.12741172 0.4023831 -0.15074132 0.11044923 -0.18440612 -0.10974055 0.011426046 -0.19886787 0.01879101 0.2599053 -0.012149144 -0.02908273 -0.070992514 -0.112222925 0.10538638 0.0031718896 -0.12298165 0.11726133 -0.08913894 -0.08582265 0.05993675 0.014409719 -0.011926122 -0.03901026 -0.0015511075 -0.028003965 0.023762772 0.050517794 -0.018004917 -0.042819224 0.020270273 0.07885189 0.062891476 -0.081099235
7 0.62324446 0.30756736 -0.29562122 -0.35168153 0.9275911 -0.3032337 -0.3411172 -0.2041745 -0.1328322 -0.067079425 0.087800615 0.029824194 -0.15127878 -0.079767734 0.06463814 0.030060325 0.1055015 0.030140705 -0.37991622 0.2511605 -0.25723496 -0.09419255 0.19570862 0.088313945 0.10257038 -0.2786938 -0.013432657 0.20817024 -0.22965397 0.061517842 -0.19532685 0.4543517 -0.20359506 0.04571228 -0.24183014 -0.09309273 0.031781003 -0.30907267 0.05982742 0.21784039 -0.0041436893 -0.008652412 -0.10375489 -0.12621585 0.07486676 0.098795876 -0.12867789 0.14788102 -0.15039974 -0.14033048 0.049402766 0.127003 0.012898904 -0.017219843 -0.0067210533 0.03541181 0.007077645 0.005367199 -0.027148195 -0.03253843 0.076227784 0.04940322 0.11373241 -0.057445176
13 0.32893422 0.2903745 -0.21416532 -0.09813542 0.55432814 -0.12166851 -0.1458028 -0.30630255 -0.34642556 -0.2873555 0.342312 0.056027055 -0.44791272 -0.10151312 0.08091041 0.27845645 0.12958996 -0.050069526 -0.039443277 0.09371423 -0.5940621 -0.40131178 0.034367695 -0.13545208 -0.030452251 -0.049066946 -0.043220103 -0.019398984 0.12983124 -0.06353928 -0.081380785 0.17174922 -0.12535653 0.11288748 -0.3198972 -0.08021942 0.0003183005 -0.19650704 -0.0049130525 0.19861081 0.12963015 0.06292379 -0.13411796 0.04622913 -0.08896079 0.21130642 0.10635377 -0.09605215 -0.11062903 -0.20320113 0.26236457 -0.2455149 -0.023033503 0.06728583 -0.06672811 0.050760783 0.094387166 -0.008723118 -0.07295463 0.022030568 -0.21496014 0.018827803 -0.13787225 -0.044952683
