26 64
3 -0.11674059 -0.008804555 -0.33111933 -0.12558793 -0.49811813 0.5874044 -0.0458503 0.3990209 0.16790025 0.0155809885 -0.04689106 -0.073146485 0.5719689 0.12766069 -0.51646155 -0.06206155 0.031537764 0.3125899 -0.14834873 0.052957855 0.10491644 0.03688502 0.12682357 0.015070422 -0.1028181 0.17268424 -0.002325462 -0.4291297 0.31646082 0.31583288 -0.4569773 -0.017035455 0.009046773 0.030517738 -0.030611824 0.007758574 0.022174675 -0.0008958419 -0.01773479 -0.048066452 -0.045581862 0.13390759 0.13349316 -0.076209635 0.017976537 0.07721528 0.050599158 0.0023799064 -0.005190733 0.00045787008 -0.025964415 -0.030002778 0.011299233 -0.007256624 -0.051027376 -0.106240004 0.031312473 0.04349431 -0.012035898 -0.036936473 -0.032213274 0.0978328 -0.020424332 0.06527602
25 -0.049416315 -0.076330066 -0.39690423 -0.093600385 -0.4876392 0.56105095 -0.026871163 0.42135954 0.17913514 0.019998698 -0.1116696 -0.11658203 0.5051161 0.23218864 -0.5099103 -0.04073156 0.054590095 0.36000907 -0.20087612 0.026401771 0.10963009 0.02083332 0.09074086 0.061083447 -0.12669095 0.17115563 0.02270622 -0.42116037 0.2860204 0.2721242 -0.42026442 0.020887751 -0.054141264 0.01775539 -0.0155489985 -0.022623679 0.028287401 0.0010376882 0.03376872 -0.04168145 0.002475898 0.0651673 0.07117713 -0.059084814 0.03481827 0.07894544 0.025781497 0.028503822 0.036652274 -0.010312807 0.026722744 -0.04526055 -0.060463656 -0.042026933 -0.06357058 -0.091267675 0.07465564 -0.016572239 -0.06696739 0.01901532 -0.022442058 0.07237931 0.045482017 -0.025183752
24 -0.03247487 -0.0003885747 -0.28962183 -0.041660566 -0.39139456 0.4650132 -0.0718829 0.40529722 0.03712608 0.110430576 -0.13279578 -0.13899462 0.53304887 0.24036546 -0.55884933 -0.113287866 0.028748287 0.41877323 -0.14944667 -0.04574128 -0.006381132 0.082209356 0.069254704 0.01845505 -0.12935388 0.1812183 0.13494389 -0.40595612 0.28810096 0.27492216 -0.426362 0.016608557 -0.033668887 -0.007013178 0.0042632944 -0.020376174 -0.008244057 -0.011171289 0.024985906 -0.0029404778 0.043930136 0.078415535 0.119422816 -0.05232924 0.052665625 0.07171862 0.025801092 0.021454895 -0.0017428779 -0.007956892 -0.028354866 -0.046223544 0.011670509 -0.03461867 -0.02750827 -0.11407953 0.029902067 -0.0044339634 -0.02838636 0.015554621 -0.02446603 0.08694665 0.043717925 -0.0144113945
15 -0.030226257 -0.049181826 -0.21761729 0.092278704 -0.20625463 0.27972114 -0.077412605 0.36232802 -0.05437757 0.21729758 -0.03797252 -0.15918572 0.5690602 0.2202381 -0.53203773 -0.09095489 0.03810343 0.5473795 -0.14443602 -0.18980765 -0.17708516 0.13288239 -0.0463017 0.03439835 0.14246844 0.20072412 -0.034484874 -0.08376373 0.24697876 0.2725897 -0.71238416 -0.20706144 0.030017957 -0.03461939 0.065006256 0.03492843 -0.026997816 0.033596914 -0.025559077 0.073011644 0.006127967 -0.029471995 -0.09867821 0.059965104 0.1426317 0.1393094 0.021364557 -0.016852284 0.031054048 0.003169389 0.071716115 0.05866675 -0.057754938 0.015188197 0.041004516 0.17986722 -0.16795637 0.041746497 0.06322903 0.08264 0.0147839375 -0.12260066 0.060030367 -0.08112622
19 -0.12300358 0.029794738 -0.33188608 -0.1754672 -0.51616174 0.53382564 0.025114484 0.3282164 0.23041853 0.06859029 -0.02264299 -0.11276007 0.5416439 0.10785205 -0.46728393 -0.05836588 0.050668377 0.36419967 -0.20175913 0.06625161 0.14758235 0.021977901 0.13548215 0.042491 -0.13481778 0.20648922 -0.02892107 -0.47947332 0.335544 0.33609614 -0.4937586 0.015243812 -0.024817199 0.029162135 -0.0091294935 0.00855291 0.03536943 0.022735167 -0.00432579 -0.04985679 -0.027501201 0.13052791 0.08347297 -0.04779903 -0.035781585 0.026662322 0.019557623 0.0570285 0.0006015875 -0.0055592014 -0.0024306008 -0.008342091 0.014907668 -0.02470976 -0.029492453 -0.086950414 0.025431694 0.010472193 0.024684437 -0.059948597 -0.024403734 0.0861667 -0.03245942 0.07725733
12 0.04817441 -0.11188869 -0.2502199 0.0971481 -0.21476585 0.3179929 -0.11095145 0.39281294 -0.011353833 0.11739382 -0.13463485 -0.1307787 0.55433 0.18149543 -0.56201434 -0.13917816 0.029550731 0.52148885 -0.13144122 -0.20073088 -0.18938698 0.13529728 -0.0522689 0.03370425 0.061062645 0.18790145 0.05799326 -0.26529244 0.28600255 0.28751332 -0.5291408 -0.13091302 0.02178374 -0.020964138 0.0423221 0.022690928 -0.051677633 -0.0060808477 -0.034794334 0.023446636 0.029658098 -0.10665326 -0.11146404 0.02239653 0.06753979 0.033004228 -0.038567252 0.012308411 -0.00021395262 0.005950062 0.04399501 0.044528797 -0.026435802 0.05376584 0.045414865 0.14364892 -0.06427611 -0.03176239 0.031362295 0.03662451 0.025975121 -0.1416147 0.05726478 -0.0943716
2 -0.080841675 -0.06748835 -0.39444464 -0.039798312 -0.39005932 0.47471744 -0.00351521 0.40148947 0.12619257 0.09518393 -0.029129786 -0.116105914 0.5087548 0.195128 -0.5106602 -0.07058136 0.030363172 0.36288008 -0.13077076 -0.046496343 -0.012628278 0.067458704 0.04501885 0.020057216 -0.14542383 0.21933429 0.14564237 -0.3925035 0.37923697 0.40183786 -0.4102524 0.030503167 -0.054508645 -0.011563831 -0.0034564273 -0.026920635 0.035744946 0.029696234 0.049864285 0.011732714 -0.0029856553 0.06566104 0.09725187 -0.06431282 0.059923355 0.10085333 0.06088321 -0.026611682 -0.006189654 -0.0013422444 -0.0028496527 -0.040958792 -0.016617738 0.025313415 -0.055710092 -0.10354672 0.031255692 -0.044560324 -0.017505161 0.010831706 0.021496667 0.028253252 -0.022492407 -0.0030750346
17 -0.015274299 -0.2059636 -0.22799581 0.130697 -0.1165206 0.25912425 -0.092352554 0.31220725 -0.037399724 0.14647608 -0.09982179 -0.14641441 0.6565134 0.24218297 -0.53785425 -0.048930407 0.040552612 0.53009015 -0.15836838 -0.16898496 -0.14470103 0.1162219 -0.03695457 0.043347232 0.14860922 0.18761514 -0.13592997 -0.096744694 0.22261147 0.22059011 -0.7687953 -0.18469541 0.038906135 0.008598894 0.043650873 0.05561244 0.022671767 0.051698357 -0.03979812 0.024533411 0.02816168 -0.12255187 -0.09592492 0.045211773 0.14635192 0.154231 0.039037917 -0.045072976 0.00092756154 0.011236778 0.062467735 0.043151293 -0.05794081 0.09697391 0.029009111 0.16884552 -0.1446149 0.03011543 0.052830376 0.071277715 0.04151896 -0.1434688 0.028451918 -0.08518711
9 -0.06848669 -0.14565875 -0.36921003 0.12730765 -0.26384902 0.46852744 -0.12993957 0.5221269 0.06858328 0.08391481 -0.050656732 -0.14752337 0.47197434 0.15817487 -0.49210942 -0.059791725 0.017248167 0.38655922 -0.07755881 -0.15576549 -0.15815128 0.11500067 -0.0341042 0.011116233 0.041997656 0.19941494 0.19266573 -0.2897072 0.33173162 0.28152886 -0.5185846 -0.07368701 -0.0046415385 -0.033895247 -0.00072341994 -0.024386117 -0.0127356285 -0.0045608114 0.028850557 0.04989824 0.07616171 -0.040449828 0.011322946 -0.0027434838 0.111512 0.05282831 -0.013242136 -0.027484339 -0.0118452 0.0037126625 0.0147452215 0.009991829 -0.008018468 0.04833396 0.011145828 0.038120933 -0.04877552 -0.0856085 0.0737478 -0.001908236 0.04126297 -0.0736259 0.004698835 -0.051559974
1 -0.06919903 -0.015380245 -0.31683603 -0.04119444 -0.31490067 0.49584302 -0.091824666 0.39558768 0.14278883 0.0965853 -0.074011646 -0.13337599 0.566606 0.20043941 -0.54016155 -0.046715435 0.04802243 0.40694076 -0.18899848 -0.010857615 0.053799216 0.04678349 0.07258939 0.047923774 -0.18481798 0.14434737 0.06472431 -0.40841112 0.2817854 0.33228096 -0.4300909 0.0033260232 0.010859889 0.06451332 -0.02564866 0.034191865 0.039310124 0.00928662 -0.044804413 -0.09597459 -0.051377445 0.08267961 0.113691166 -0.06506745 -0.052048214 0.042764287 0.060522646 0.029102936 -0.0415958 -0.017398924 0.025763005 0.025670012 0.07178987 0.0152010955 0.027334291 -0.1099624 0.023010844 0.04851171 -0.015339482 -0.020982018 -0.04777213 0.08168399 0.05137539 0.009007161
4 -0.10167309 -0.019215664 -0.300401 -0.14283803 -0.538886 0.5438095 -0.011538926 0.35548705 0.1523682 0.04222512 -0.08328221 -0.11773527 0.5534319 0.14595921 -0.48721415 -0.06586025 0.040312003 0.32953328 -0.20031151 0.122981556 0.2130632 0.016195178 0.2005007 0.029622145 -0.10114118 0.18785521 0.011265749 -0.46763694 0.31373844 0.27905616 -0.52033347 0.028319815 -0.043437038 0.058772538 -0.0025322707 0.017847834 0.039640658 0.010965192 -0.011280721 -0.102302015 -0.027447015 0.09789808 -0.009440379 -0.077986896 -0.027684683 0.024428876 -0.013592723 0.05331939 -0.029400893 0.014808236 -0.049641035 -6.027676e-09 0.04815656 0.03668342 -0.05555486 -0.081315316 0.05340361 0.0072623026 -0.012096487 -0.047950067 -0.027125604 0.11358054 -0.040329535 0.08792478
20 -0.0011055251 -0.09577532 -0.17359887 0.115022816 -0.03628957 0.1992749 -0.103217125 0.26936376 0.020285169 0.12097563 -0.10735667 -0.12695993 0.6287895 0.27241078 -0.6015291 -0.062387925 0.054631654 0.56070817 -0.19286618 -0.19158852 -0.14773561 0.105737925 -0.06644273 0.074295655 0.18944924 0.21465321 -0.21949533 -0.08483489 0.25413197 0.3283705 -0.76223165 -0.26347554 0.007420084 0.00545078 0.051310662 0.050745152 0.020661721 0.06137729 -0.03487829 0.00816099 -0.074227884 -0.014271056 -0.15052281 -0.009614562 0.13702835 0.1911783 0.021684205 0.013447344 0.04683764 0.023500156 0.046567984 0.0021073346 -0.13124973 0.06941074 -0.060756978 0.15577647 -0.15956362 0.05602024 0.08082004 0.039461713 -0.004111467 -0.07970826 0.07422992 -0.06290346
5 -0.016950322 -0.13036674 -0.15755637 0.11788762 -0.03729271 0.18679827 -0.097247384 0.24361233 -0.0036437206 0.06608191 -0.1399327 -0.118348055 0.5679604 0.37713102 -0.61766744 -0.076644115 0.07315221 0.542959 -0.22925924 -0.16945362 -0.09289388 0.07622427 -0.064186536 0.11091462 0.28904703 0.25644606 -0.2767135 -0.05954708 0.26861313 0.29506433 -0.82541806 -0.24907064 0.0021749767 0.02024631 0.05341854 0.052620076 0.0026680292 0.036550056 -0.046006083 -0.025668196 0.03504647 0.032613005 -0.05235078 -0.04030503 0.16194847 0.18900259 -0.0036308258 0.051013082 0.02128621 0.010031278 0.023365313 0.014241607 -0.054149877 0.02579354 0.003829266 0.11871519 -0.112539664 0.009851109 0.09273246 0.0037202968 -0.0031214722 -0.025988618 0.046472244 -0.02815958
18 -0.09803606 0.04799173 -0.30509517 -0.1949856 -0.53874725 0.5307911 0.021476919 0.31601644 0.1509424 0.02818486 -0.081899665 -0.07895351 0.5672882 0.18253998 -0.5580311 -0.08689938 0.035045687 0.27963927 -0.16855162 0.09045625 0.16724695 0.014546691 0.15575138 0.028069101 -0.020271022 0.25765002 -0.033695277 -0.49342537 0.34487906 0.30143517 -0.45738178 0.0020270562 -0.04702648 0.016006427 -0.0374192 -0.027297314 0.06931872 0.029485174 0.049876045 -0.020483954 -0.08211431 0.122928254 0.056764994 -0.04953637 -0.03787672 0.026167173 0.03349954 0.009926416 -0.0072011757 0.012448112 -0.045442294 -0.03553357 0.0017391708 0.020495083 -0.07590185 -0.087642096 0.046171885 0.048346512 -0.031474 -0.03701244 -0.023785168 0.067608856 -0.04731742 0.0815694
21 -0.03171651 -0.1127324 -0.3306166 0.014019242 -0.33411407 0.4397451 -0.065127686 0.40371713 0.11849042 -0.01889917 -0.088278115 -0.08743355 0.5317182 0.20741983 -0.5541806 -0.06253703 0.020630507 0.35973132 -0.082999706 -0.1491119 -0.1424296 0.10111495 -0.03931157 0.023553008 -0.021005692 0.22852899 0.23649 -0.45826268 0.40947008 0.32132956 -0.38563347 -0.0040974026 -0.030538313 -0.034049563 -0.014226049 -0.04583134 -0.018301707 -0.020636562 0.04624347 0.032325335 0.032888997 0.03762634 0.07010661 -0.036511812 0.118778795 0.087125845 0.0014384259 -0.015010555 0.006605397 0.0014271502 -0.002483561 -0.01253563 -0.018425882 0.0011276144 -0.0015138705 0.017496336 0.012394222 -0.050536755 0.016186783 -0.011102426 0.022554044 -0.039704595 -0.011255332 -0.020456823
16 -0.008291683 -0.12949045 -0.192595 0.13600256 -0.081018634 0.18679473 -0.07609383 0.28841004 -0.026290108 0.11616992 -0.10246835 -0.13628154 0.5764102 0.3045723 -0.56142765 -0.05980228 0.034465633 0.47676992 -0.14428563 -0.15614417 -0.12980133 0.105182335 -0.0328288 0.03910899 0.20743482 0.28440022 -0.2664269 -0.14121881 0.29156864 0.26897198 -0.85457295 -0.19058363 0.04968159 0.014620716 0.058343165 0.080286704 0.02572742 0.07416617 -0.06753085 0.017145706 -0.053473953 0.012077175 -0.05859541 0.0219064 0.12572329 0.18516806 0.060411725 -0.0105749965 0.017113991 0.015564988 0.050239407 0.0526809 -0.059601158 0.0637455 0.02657443 0.20133232 -0.23172495 0.12612522 0.08354954 0.0891046 -0.017511383 -0.10562255 0.11561317 -0.09390833
23 -0.040971864 -0.15259205 -0.39524132 0.052971054 -0.36869413 0.43997422 -0.036137335 0.45683843 0.120893195 0.052653752 -0.11407141 -0.17177272 0.42565048 0.20097429 -0.47756648 -0.1007962 0.017056033 0.39640063 -0.077357754 -0.20084411 -0.20257857 0.11812633 -0.07810544 0.01962444 -0.033163916 0.26215965 0.17662336 -0.37336773 0.37299028 0.28833878 -0.4523004 0.015024181 -0.0390596 -0.060796168 0.03981985 -0.02774119 -0.0150278555 0.024893902 0.05106782 0.08848733 0.10707897 -0.0074365092 0.029813167 0.0141381705 0.10845922 0.049547408 -0.024799122 0.019491652 0.01598644 0.005778966 -0.02151684 -0.04561764 -0.046436395 0.0021304286 -0.020498656 0.019491713 -0.083586365 -0.10691489 0.09896729 0.019477451 0.054021433 -0.06975594 0.019306436 -0.077979244
10 0.07381184 -0.20518337 -0.34750488 0.10251577 -0.33919242 0.28331786 0.0059760967 0.4059416 -0.0026015693 0.1348533 -0.06834684 -0.10252715 0.54166394 0.08687594 -0.5151426 -0.10552312 0.018718699 0.56883305 -0.10128719 -0.2264464 -0.24575712 0.17419595 -0.04890492 0.0022662878 0.15987359 0.14381598 0.1500763 -0.1401381 0.23034072 0.17133053 -0.66382676 -0.2296307 0.05979459 -0.0030225283 0.01647489 0.039187517 0.03171344 0.04390434 -0.022637278 0.054563727 -0.050273664 -0.052209992 -0.2057087 0.08320088 0.12244799 0.092602275 -0.029318321 -0.022504639 0.0034950615 0.025561405 0.015417828 0.044923156 -0.0335004 0.07966775 -0.034318365 0.11566817 -0.175949 0.016376661 0.067400016 0.09164282 0.008721093 -0.11752994 0.11188035 -0.12691556
11 -0.06018964 0.020508865 -0.11632768 0.079071246 -0.07996323 0.3887545 -0.24989888 0.37180078 -0.0032773335 0.12876563 -0.24125448 -0.21606672 0.52447987 0.33008605 -0.61777747 -0.079612456 0.07298078 0.596799 -0.264193 -0.13437796 -0.04019454 0.08110741 -0.0072151884 0.10798775 0.007417245 0.12972131 0.015062288 -0.023339847 0.23526895 0.37041143 -0.55967194 -0.103292204 0.088370666 0.015733778 0.047557194 0.082283705 -0.04605066 0.006952574 -0.110468164 -0.010680521 -0.004121154 -0.0019210454 -0.047777724 -0.0034060446 0.044968374 0.055304073 0.0028098896 0.012190719 -0.07742673 -0.009217616 0.00804075 0.100912414 0.15197988 0.038728397 0.11511043 0.008941895 -0.037179615 0.0364555 0.039579086 -0.020689577 -0.037934657 0.027872253 0.04653648 0.009174537
14 -0.021355137 -0.020656936 -0.12303465 0.04529372 -0.09240975 0.23094033 -0.10582363 0.23512828 -0.0260464 0.07296456 -0.17944397 -0.12459814 0.51147616 0.388122 -0.65475726 -0.08179551 0.10170705 0.6157669 -0.30545965 -0.1982756 -0.07431115 0.059977096 -0.09414038 0.17340158 0.25322485 0.25678843 -0.13474491 0.12353796 0.30732235 0.45897597 -0.69829506 -0.23148236 0.065046646 0.04065877 0.058150403 0.08739279 -0.03711803 0.0010434475 -0.10783963 -0.048813403 0.051034156 0.04247544 -0.020710466 -0.002320915 0.04741524 0.04519534 -0.021263253 0.048537694 -0.06554926 0.0019152923 -0.08293503 0.041520186 0.1575572 -0.013933378 0.07236567 -0.037712738 -0.07807078 0.03576216 0.07571351 -0.013598619 -0.033465136 0.09992632 0.03423381 0.027443415
8 -0.031579453 -0.12355298 -0.18452965 0.16069292 0.024428586 0.1343865 -0.07650974 0.25100923 0.042487785 0.0700433 -0.11904222 -0.13276777 0.53858066 0.39503354 -0.6581739 -0.08379883 0.06141027 0.45151463 -0.19190934 -0.16264547 -0.093330055 0.06459489 -0.07175554 0.099238336 0.34526142 0.34113854 -0.268624 -0.031941872 0.32628733 0.37620348 -0.86697924 -0.28848994 -0.01581247 0.016388416 0.06827604 0.05809624 0.032071445 0.07482364 -0.032629203 -0.00991364 -0.0033608729 0.09456912 -0.07895623 -0.033319652 0.11083758 0.15166698 -0.00802555 0.075538106 0.033758823 0.03036138 -0.03798616 -0.04052136 -0.08568336 0.03681302 -0.09892255 0.055382185 -0.21259193 0.027431753 0.14937283 0.03522277 -0.015172562 0.015269681 0.10160105 -0.056969475
0 -0.13860062 -0.014470714 -0.26408124 -0.20944753 -0.59101754 0.59835875 -0.017563073 0.30934757 0.27134818 0.0108863795 -0.14157723 -0.15106465 0.6265756 0.083309636 -0.48790956 -0.11681451 0.044631194 0.3246668 -0.20816173 0.115306266 0.21138169 0.0065711797 0.18279907 0.03725828 -0.07989581 0.19132674 -0.096037 -0.4441088 0.28861237 0.2628245 -0.47323236 0.008550993 -0.0066330098 0.011216265 -0.010587243 0.010071402 0.041639674 0.039993368 -0.0026735275 -0.012478228 -0.055056512 0.12165424 0.023333862 -0.03221184 -0.06996555 -0.027254999 -0.012055766 0.05698577 -0.027062215 0.015717693 -0.03906686 0.00087902223 0.03292251 0.050484806 -0.05122921 -0.055530358 0.031155894 -0.0013846554 0.04220615 -0.09745841 0.00029743585 0.0358686 -0.10348098 0.12124469
22 0.08946283 -0.22160296 -0.3596114 0.09862332 -0.33535445 0.25447997 0.03374913 0.38343108 -0.013241406 0.19243443 -0.004615872 -0.1075139 0.64377314 0.04498811 -0.5236412 -0.12393716 0.031064387 0.530898 -0.11397973 -0.23935498 -0.24527153 0.14522484 -0.09465825 0.03223619 0.17231283 0.19247693 0.058400035 -0.19475703 0.20132226 0.15456495 -0.63821346 -0.21897581 0.03713313 0.015225404 -0.006492209 0.015013513 0.045526255 0.017761802 0.007334939 0.029486075 0.08306516 -0.1762308 -0.1076371 0.12439706 0.07309007 0.017055988 -0.03044104 -0.00687099 -0.01877852 0.011521331 0.008885058 0.015349012 -0.017515983 0.08427223 0.038033232 0.12027145 -0.20479482 -0.009703723 0.13113141 0.0579185 0.047509797 -0.16239259 0.081384696 -0.14042796
6 0.053081732 -0.16360867 -0.18467194 0.10926167 -0.041590966 0.17694823 -0.088660024 0.23720105 0.052904796 0.004064521 -0.22565053 -0.09878907 0.45798734 0.30054027 -0.6109941 -0.10640035 0.114274755 0.59354156 -0.32678556 -0.1861003 -0.04176472 0.03535081 -0.102789536 0.19514962 0.34942946 0.32773173 -0.264821 0.13712992 0.3756046 0.52988 -0.7898771 -0.29921165 0.08455481 0.010970563 -0.013682204 0.040286493 0.020945376 0.021261156 -0.04691555 0.025825309 0.058834616 0.033248935 0.09453097 0.008308038 0.092270516 0.07309907 0.012777333 0.0027705417 -0.07629565 0.0072448812 -0.08299847 -0.004204441 0.124500595 0.05086572 -0.006108871 -0.13842076 -0.060491122 0.013241838 0.06952533 -0.017313797 -0.02608978 0.082886584 0.06257999 -0.019093338
7 0.045282103 -0.17992435 -0.22548836 0.09772068 -0.08230761 0.1484153 -0.021888955 0.22006837 0.032738373 -0.004615934 -0.15008682 -0.06175229 0.4993869 0.41952807 -0.67936814 -0.09315589 0.12388203 0.57657653 -0.3108792 -0.24722174 -0.112643555 0.034251135 -0.18169208 0.21921848 0.46385348 0.32496306 -0.27997 0.20054884 0.3371815 0.47206646 -0.7960944 -0.37069848 0.026740229 0.042877298 0.01417381 0.045368616 0.0061472245 0.0035001507 -0.052242666 -0.05359354 0.084846474 0.11553165 0.07577207 -0.027976686 0.089776665 0.094557896 -0.021053853 0.08426466 -0.03419358 -0.0019781047 -0.07999666 -0.016627619 0.09908673 -0.043387525 -0.0036301268 -0.13212399 -0.043456756 -0.02511221 0.07248921 -0.015632926 -0.02295692 0.12602293 0.05168393 -0.004726093
13 -0.10969392 0.051351517 -0.10026885 0.019540183 -0.077977285 0.4698429 -0.2814431 0.34731567 0.10585077 0.045090973 -0.2345881 -0.23172079 0.5516403 0.3741295 -0.63225317 0.08943723 0.10983958 0.56115025 -0.3625828 -0.048455264 0.12948717 0.008797029 0.039075907 0.1853394 -0.063289285 0.15657894 0.29307967 -0.12632096 0.24320704 0.36735183 -0.43960562 -0.040084824 0.09977933 0.13235496 0.024591789 0.13143702 0.0076572234 -0.013915438 -0.16167347 -0.16525006 0.057030484 -0.026451517 -0.017157763 0.03679554 -0.08739357 -0.06466739 -0.004213956 0.054810703 -0.10319719 -0.0042793974 -0.06570909 0.09132011 0.22485177 0.013909976 0.11977827 -0.04805023 -0.17114604 0.1691531 0.08998467 0.020611139 -0.10150291 0.16565777 0.16611138 -0.026602484
