26 64
25 0.18444024 -0.1534673 -0.2515342 -0.19264235 0.3199178 -0.2416102 -0.10326698 -0.019336462 0.040727142 -0.017880859 -0.07177412 -0.18057884 0.005305746 -0.03790021 0.057121307 0.046225343 0.14366151 -0.025451727 -0.008247483 0.15946424 -0.1933412 -0.2043536 -0.02642039 -0.11608211 0.15460737 -0.08655076 -0.35515442 0.2111679 0.25046882 -0.11615051 0.16206832 0.05144656 0.03683085 0.17334458 0.041407373 0.15320271 -0.018484639 -0.04255501 -0.12056044 -0.0034101885 0.026089914 -0.044914998 -0.09381399 -0.013874522 0.056409746 0.060510322 -0.06581831 -0.07187551 0.0008086895 -0.058472127 0.07497662 -0.012475716 0.026963593 0.040104557 0.043201625 0.03812224 0.034491204 0.07758041 -0.0011567607 0.090353936 0.010552305 -0.059005205 -0.06615722 0.067588255
3 0.17834488 -0.13748856 -0.2989943 -0.23508513 0.27658784 -0.15893827 -0.10584158 0.03303564 0.016898552 -0.018561449 -0.114387326 -0.18525343 0.015900627 -0.07882118 0.031084195 0.010503059 0.14928405 -0.034813263 -0.04110966 0.19024126 -0.19428839 -0.22507724 -0.046639767 -0.12046729 0.14720228 -0.10030382 -0.37872228 0.22370371 0.23280583 -0.088327125 0.14761648 0.03832594 0.0314953 0.17520353 0.031288635 0.15416889 -0.004077672 -0.021038072 -0.07100632 -0.013493659 -0.020492688 -0.045688733 -0.13669665 0.029094122 0.09407916 0.09956442 -0.099851646 -0.063875854 -0.034283426 -0.051522315 0.099110916 -0.051635716 -0.000766594 0.105195805 0.08065533 0.030803995 0.03875658 0.11619042 0.021994455 0.20437405 0.028139846 -0.053198762 -0.10607538 0.14017417
19 0.14114864 -0.1579268 -0.36415693 -0.25930917 0.36236656 -0.12625085 -0.1661494 0.002297434 0.04124547 -0.059620526 -0.05375412 -0.27327833 0.01894088 -0.109398365 0.0379416 0.0015275921 0.15014811 -0.036429465 0.0025027841 0.16902308 -0.16980194 -0.20607406 -0.039593615 -0.10848725 0.048361514 -0.15026379 -0.34405032 0.2427961 0.24014781 -0.12328938 0.1682049 0.014977472 0.0068163057 0.19180319 0.045977775 0.18740958 -0.0007459811 -0.022835718 -0.10971268 0.0054176273 -0.0034351419 -0.043971885 -0.0912594 -0.009348516 0.04625903 0.03635683 -0.07276654 -0.06844718 0.00017224555 -0.0026703302 0.04233233 0.0069431844 0.0125785945 0.026682513 -0.01213122 -0.039342258 0.053005803 0.11477593 0.019506563 0.13935108 0.04501403 -0.038371317 -0.03751202 0.08742362
17 0.042280033 0.31700385 0.15311071 -0.2737981 0.060184866 -0.09210448 -0.17902315 0.04151517 -0.06263694 0.12999667 0.01916933 0.019322194 -0.04427488 -0.15019844 0.2800495 0.43411872 0.20223197 -0.110267535 0.13384843 0.20991926 0.044741545 -0.22584815 -0.07281774 -0.0746144 -0.0015043828 -0.14222337 -0.20593911 0.2836113 0.30140334 -0.14585395 0.35963863 -0.20448874 -0.13199691 -0.042396583 0.056575924 -0.0018778814 0.14320889 0.08604226 0.10518288 -0.0047062226 -0.0077610854 -0.088301085 -0.10953838 -0.019666385 0.016375612 -0.0085625 0.052218117 -0.01961294 0.0044221627 -0.017966062 0.079299614 0.12770604 -0.02881627 0.14289093 0.16469657 0.1349191 -0.09051728 -0.15595312 0.07277954 -0.21004169 -0.067559265 0.03468103 0.16525248 -0.14495179
24 0.18602712 0.02599388 -0.312687 -0.18129784 0.25216064 -0.19433342 -0.059544932 -0.022918014 0.024138121 -0.011892558 -0.03841801 -0.16200341 -0.023591487 -0.05262683 0.085791506 0.12140537 0.09361045 -0.023133896 -0.03764289 0.120088525 -0.16584298 -0.1708212 -0.02855102 -0.09820065 0.13805199 -0.04046741 -0.37475365 0.15290484 0.2806197 -0.13461329 0.20126304 0.027369162 0.022317655 0.047470316 0.046180297 0.03305678 0.00836891 -0.035848856 0.0015304202 -0.019649306 0.0793906 -0.01403662 -0.060733195 -0.038941734 0.043120548 0.03167276 -0.057177965 -0.05479152 -0.0053161555 -0.055405486 0.1440027 0.008751925 0.028686441 0.11439128 0.054614294 -0.0063732243 0.0031513139 -0.0061921244 -0.0030236435 0.06313472 0.05782598 -0.0026295027 -0.08374208 0.104392715
15 0.14137727 0.27185756 0.04286121 -0.25539005 0.09479595 -0.18666561 -0.15281297 0.02480448 -0.046656664 0.15162507 -0.06428749 0.03260322 -0.07195196 -0.14161967 0.31369472 0.51410574 0.16142614 -0.09610275 0.07720857 0.17016655 -0.007839435 -0.21074584 -0.07170065 -0.084308766 -0.030893259 -0.07332365 -0.20189208 0.22972925 0.24877572 -0.067252055 0.3112938 -0.22074161 -0.13421501 -0.09030419 0.019562311 -0.049804598 0.14140256 0.12352932 0.17235224 -0.013763182 -0.028458841 -0.045320805 -0.05339687 -0.0132332 -0.006943112 -0.025956608 0.068244524 0.029297423 -0.0023084756 -0.005495413 0.070750825 0.10724088 -0.03336139 0.13798203 0.14237162 0.101846226 -0.073632255 -0.10862175 0.09625507 -0.16129917 -0.07459239 -0.009059884 0.20502143 -0.1643683
12 0.11311906 0.17585637 0.047139037 -0.19619405 0.1485842 -0.22369388 -0.09919261 -0.014003913 -0.02326072 0.14057909 0.003020663 0.05936124 -0.02225918 -0.023238257 0.21100019 0.31047398 0.08324636 -0.043432582 -0.042580426 0.14226682 -0.07688134 -0.17794047 -0.03696321 -0.0830706 -0.010475373 -0.057186503 -0.24214882 0.21561009 0.38159087 -0.08591391 0.32827786 -0.09115975 -0.15636514 -0.050530825 0.07950156 -0.0046009445 0.17300811 0.1008268 0.124274075 -0.010942424 0.016048666 -0.07807574 -0.12327005 -0.014710585 0.023686923 -0.005477702 0.03824706 -0.0041494584 -0.008181513 -0.0047088745 0.09740804 0.096343584 -0.027473297 0.15728633 0.12859528 0.06449986 -0.07347809 -0.15903847 0.03363054 -0.13498534 0.042771406 0.054454554 0.1382688 -0.019137442
2 0.20717868 -0.039076127 -0.2183155 -0.2153142 0.24327685 -0.24676646 -0.03172005 0.0191441 0.004922573 -0.012781176 -0.12712762 -0.18863644 -0.040475044 -0.07098395 0.040563382 0.07912943 0.11698584 0.007097592 -0.0018847216 0.09675255 -0.2464579 -0.15739036 0.0040429295 -0.11239504 0.1162046 -0.05422807 -0.40515274 0.16496174 0.28244466 -0.1292386 0.18273923 0.04835904 0.06445483 0.07884993 -0.00023737845 0.051660545 -0.03368938 -0.065298244 -0.04367065 -0.00625696 0.012265735 -0.05088307 -0.09177278 0.015146753 0.044142403 0.039356165 -0.038419753 -0.04946314 -0.0149331195 -0.041230977 0.054937895 0.0047673476 -0.00614125 0.072430916 0.09740337 0.089248136 0.05278249 0.055964686 -0.03232774 0.055189684 0.04260436 -0.005233364 -0.091330655 0.07160904
20 0.08239329 0.28666654 0.19334503 -0.23911388 0.032471485 -0.14808995 -0.16324888 0.040746327 -0.07515867 0.1587872 0.03218765 0.028098036 -0.050851926 -0.19893807 0.32597947 0.50718886 0.21846236 -0.10790318 0.14512156 0.23251332 0.043843843 -0.24662626 -0.060849473 -0.0810812 0.09426284 -0.17541689 -0.14145927 0.3121917 0.19855002 -0.2539927 0.4244122 -0.34714058 -0.118592955 -0.068587415 0.08311496 -0.026629822 0.13182919 0.04107975 0.11021143 -0.0028398496 -0.0044188714 -0.08203967 -0.08648136 0.0162248 0.0024443571 -0.015830865 0.07953572 0.0024605913 0.004263329 -0.033615604 0.05972292 0.10053961 -0.025159068 0.11403186 0.16593976 0.16118345 -0.07059859 -0.13376217 0.037114203 -0.19775939 -0.07611841 -0.00547196 0.09427921 -0.1289115
1 0.12643127 -0.027048875 -0.35147974 -0.2231438 0.28599185 -0.07323365 -0.19795692 -0.012367435 0.032122105 -0.04677752 -0.04159263 -0.15707418 -0.026150111 -0.07655136 0.06302623 0.09347066 0.14358647 -0.03284812 -0.011579222 0.15395236 -0.21907866 -0.2136388 -0.042491972 -0.12315703 0.26110807 -0.1137169 -0.29684463 0.20793568 0.26403254 -0.12220241 0.1450572 0.08658594 0.026976788 0.054613158 0.047255874 0.05661002 -0.004684526 -0.10112072 -0.007676099 0.011944264 0.061177164 -0.01816209 -0.034368247 -0.017410327 0.01432799 0.0056721447 -0.030316338 -0.04437025 -0.0055623134 -0.05433858 0.0859873 -0.0205396 0.024961235 0.055560563 0.039858185 0.019787889 0.063021325 0.018296257 -0.08444808 -0.010035982 0.064275764 0.009979046 -0.09572617 0.042858534
9 0.16069432 0.092935726 -0.042273313 -0.16378339 0.21566835 -0.28594026 -0.11000779 -0.052394908 -0.009310898 0.089986935 -0.10855949 0.09453417 -0.041955046 0.071919136 0.1170808 0.19783837 0.1276925 -0.0077104573 0.027563985 0.0963917 -0.19279 -0.14070627 -0.0072318693 -0.098775916 0.10068702 -0.02677657 -0.27525827 0.2204572 0.3544485 -0.050877918 0.24897523 -0.0041364264 -0.09994812 -0.033580102 -0.018153008 0.00034643922 0.08568313 0.09324105 0.051877536 0.015000351 0.0321101 -0.06649871 -0.07557326 -0.06976523 0.024198549 0.03080562 0.0074473443 -0.05275592 0.024294704 -0.05977439 0.049621124 0.08601352 0.010432334 0.048388436 0.123534136 0.16007581 -0.022126714 -0.05752467 -0.020715993 -0.14944428 -0.03051849 0.004872369 0.1145153 -0.11266385
4 0.16766545 -0.18017842 -0.30766967 -0.2610422 0.32587278 -0.15600075 -0.14187942 0.029569792 0.027361419 -0.017524423 -0.12203845 -0.21663933 -0.0111946985 -0.16948244 0.05641273 0.07282871 0.17717168 -0.07453705 0.004124606 0.21060097 -0.17888269 -0.29096866 -0.06731707 -0.14426115 0.12889858 -0.13244773 -0.3597091 0.22518742 0.21592116 -0.034830093 0.067607485 0.108566076 0.032625724 0.19781537 0.037750516 0.17498244 0.0023295993 -0.050101478 -0.12844259 -3.774051e-05 -0.03714797 -0.047647733 -0.09926113 0.045258164 0.016343366 0.0031977224 -0.01775675 0.0025812753 -0.025543222 0.009546444 -0.0136342095 -0.043935627 -0.017514013 0.009354795 0.0061359582 -0.0047808746 0.121589236 0.15182002 -0.062333923 0.13702983 0.10517465 -0.048654735 -0.08528992 0.13348444
5 0.106938496 0.3456042 0.118952654 -0.25416532 -0.0058813584 -0.09812803 -0.19623257 0.059035663 -0.09786432 0.12584485 -0.009783171 0.059189104 -0.13219026 -0.2162044 0.30606696 0.5649855 0.17275587 -0.0368787 0.1370688 0.10918714 -0.11855139 -0.15626295 -0.010374793 -0.086349286 0.078353934 -0.19691366 -0.10756162 0.32366487 0.22231726 -0.26152796 0.5230996 -0.46046218 -0.11567349 -0.12267513 0.021661779 -0.039570577 0.070234515 -0.00196342 0.1775137 0.049975563 -0.058868144 -0.12121687 -0.11409798 -0.011485676 0.010914166 -0.018119806 0.002463499 -0.087265864 0.028024094 0.01739025 -0.031854123 0.13276006 -0.020798031 0.009624127 0.07670168 0.11473019 0.0016732379 -0.009856584 0.023724984 -0.10494747 -0.05935527 0.0035915398 0.041269507 -0.10925494
18 0.13234505 -0.09883751 -0.33603084 -0.28815103 0.31368104 -0.090453446 -0.14788681 0.037453197 -0.0034536785 -0.041871637 -0.11646495 -0.21392937 0.0043379106 -0.16152841 0.023490584 0.013386909 0.22425762 -0.07147832 0.08781423 0.21863708 -0.13763618 -0.25725704 -0.05707125 -0.12148251 0.079309866 -0.13968869 -0.41271788 0.23012185 0.22560544 -0.081515744 0.06497956 0.133836 0.059734154 0.17797495 0.030852623 0.15329343 -0.040123563 -0.07201117 -0.13721833 0.0035324702 -0.01578919 -0.046557695 -0.10597838 0.0022208544 0.043613557 0.03322961 -0.05956449 -0.046158418 -0.016483711 -0.026427746 0.05025846 -0.02845958 0.0058346917 0.044462558 0.029466206 0.007167109 0.061305434 0.11928486 -0.0045323176 0.12554069 0.024540659 -0.035676006 -0.09848421 0.091409266
21 0.23551036 -0.0005259724 -0.15862706 -0.12674254 0.20902717 -0.330938 0.012815725 -0.028497348 -0.046255793 0.022938674 -0.056532074 -0.05094883 -0.048724618 -0.047411382 0.046337195 0.09380487 0.1477544 0.032086708 0.07364222 0.07878153 -0.2540998 -0.12027615 0.042680413 -0.10245672 0.03866559 0.029402591 -0.36140192 0.12352903 0.37304825 -0.12557472 0.282808 0.031285495 0.004354156 0.018129235 -0.018171486 0.017787825 -0.0066572423 0.0044767302 -0.0031036702 0.004286132 0.030049328 -0.057045486 -0.06440323 -0.06346312 0.031115158 0.01989966 -0.054889787 -0.10324535 0.031294193 -0.041238975 0.07399329 0.1206079 0.020082036 0.062480148 0.09479913 0.10655556 0.013817779 0.030997353 -0.01056257 -0.019531095 -0.0149866855 -0.013209812 -0.014799145 -0.017791053
16 0.0747357 0.46464717 0.1743359 -0.20510885 -0.018002093 -0.1297308 -0.15318564 0.003987454 -0.091768466 0.15242815 0.04419022 0.02247446 -0.040817805 -0.16677363 0.32849523 0.49195957 0.20727353 -0.11182549 0.1412288 0.22184238 0.07567257 -0.21885976 -0.0723698 -0.063947655 0.06814057 -0.16000767 -0.20508704 0.33909324 0.27725664 -0.16463953 0.43671298 -0.303818 -0.09482747 -0.03510154 0.0140283685 0.013022329 0.07955466 0.041090388 0.10418898 0.021635385 -0.054278642 -0.12556386 -0.1709588 -0.01345856 0.066482104 0.08654886 0.0028601584 -0.063710615 0.012302787 -0.04037909 -0.030952863 0.05948258 -0.020879166 0.0058136736 0.13553703 0.20590693 -0.10802692 -0.10685331 0.09595709 -0.13542737 -0.11595625 0.020448392 0.16663176 -0.13853134
10 0.07547346 0.23742816 0.09848164 -0.1877058 0.13460189 -0.19521123 -0.15145649 -0.034956668 -0.06578743 0.20306988 -0.0608965 0.22785339 -0.0062186 -0.03096061 0.2324724 0.34323183 0.20313112 -0.08885809 0.0529846 0.2507839 -0.037642773 -0.26454738 -0.062943175 -0.106559895 -0.16187026 -0.04498075 -0.32039356 0.2441104 0.37314653 -0.038590446 0.27154875 -0.044082426 -0.1748086 -0.06297451 0.034250963 -0.00812538 0.14863044 0.15292425 0.05324183 0.009907941 -0.023734447 -0.050076228 -0.07739995 -0.056057777 0.0041837944 0.0036142704 0.04042238 0.015276224 0.015625963 -0.011638041 0.0054501523 0.04781911 0.0010769694 0.008772988 0.03766623 0.05442872 -0.15168215 -0.18713197 0.08971486 -0.21693656 -0.10879853 0.04664082 0.20044896 -0.15064394
23 0.1444725 -0.004590706 0.012351615 -0.15402879 0.24123868 -0.32540315 -0.04645673 -0.042854987 -0.08290964 0.11725643 -0.05348429 0.06560446 0.023159146 -0.052877735 0.08679591 0.09915301 0.11056927 0.049748506 0.016030377 0.09751174 -0.17034857 -0.06967157 0.05155762 -0.059564177 -4.592268e-05 -0.02412576 -0.371619 0.18375953 0.47684836 -0.11644343 0.25634402 0.1359474 -0.07448148 -0.05667194 -0.01738241 -0.0341916 0.03724178 0.11327036 0.015213632 0.0010473344 -0.019164557 -0.05910665 -0.06900787 -0.043468747 0.023962153 0.015162219 0.007648207 -0.04384171 0.019433465 -0.027126055 0.058659583 0.12510468 -0.009831009 0.09090409 0.13358968 0.1352559 -0.0026046599 0.032533698 0.025815865 -0.0024219071 -0.029400656 -0.04781255 0.08040343 -0.056530993
11 0.071132906 0.26362318 -0.17953716 -0.16888972 0.10721792 0.0035679017 -0.26215264 -0.03315382 -0.08526038 0.12845126 0.018020233 0.15807661 -0.048976984 -0.22229289 0.2446563 0.40694365 0.13427176 -0.07423334 0.006107164 0.19125935 -0.0497447 -0.2171563 -0.067309365 -0.08434838 0.2837996 -0.13411292 -0.11392821 0.29182717 0.1967171 -0.10925647 0.35713068 -0.24038829 -0.1272797 -0.16455637 0.02168851 -0.11426797 0.1381208 0.07488516 0.24087536 -0.005397699 0.013117505 -0.018863143 -0.031237934 0.0037657795 0.0005732637 -0.033066124 -0.0050754165 -0.002905147 -0.013171518 0.007835893 0.12505007 0.109241895 -0.02667083 0.1878765 0.12042118 0.026859116 0.049225483 -0.013700719 -0.08550756 -0.02125094 0.11326834 0.031939395 -0.056168437 0.054561492
8 0.06633445 0.4233793 0.29012015 -0.2549582 -0.04929357 -0.1263544 -0.17412022 0.05857799 -0.1296058 0.17702593 -0.042192377 0.13169545 -0.10360848 -0.20647673 0.34079596 0.60243833 0.18525986 -0.0384562 0.16605885 0.12839542 -0.022639768 -0.11769756 -0.0066169095 -0.049452856 0.08712388 -0.25460958 -0.19325703 0.42101246 0.25510967 -0.32444656 0.5403517 -0.45546076 -0.060830154 -0.11786102 0.013362977 -0.06925359 0.012780919 0.010016467 0.09340434 0.025817381 -0.023969963 -0.043717347 -0.015403265 -0.01428399 0.014374105 0.022975953 0.01002746 -0.053719 0.025428638 -0.03401905 -0.020325309 0.051184963 0.0048174467 -0.024521662 0.06308032 0.12367677 -0.033776883 0.003443222 0.055529386 -0.0034874666 -0.1236018 -0.03260816 -0.021412816 -0.09334157
22 0.07434252 0.24043982 0.19345844 -0.40524134 0.16677272 -0.19932234 -0.13874574 0.08866384 -0.046025682 0.1500185 -0.17851403 0.20487718 -0.04601854 0.060276713 0.15614235 0.297418 0.232371 -0.09572604 0.13115613 0.21039988 -0.042068075 -0.23255035 -0.06974803 -0.09969604 -0.10978568 -0.06668062 -0.2520667 0.25248247 0.3651309 -0.06658327 0.25915724 -0.07581803 -0.19933696 -0.05151016 -0.004129567 -0.021447485 0.19065791 0.26899835 0.022456279 -0.020879127 0.031568635 -0.005835103 -0.014500589 -0.04282743 0.0049852217 0.0057529924 0.047104955 0.02989539 0.007159643 -0.008302848 0.02611356 0.07327766 -0.018034559 0.062539935 0.08920575 0.0853114 -0.12123268 -0.1783902 0.022987248 -0.23922436 -0.089507364 0.029533288 0.23463437 -0.16842276
0 0.14504507 -0.2818329 -0.33252332 -0.28564233 0.35294223 -0.12411025 -0.109750696 0.060027737 0.057905506 -0.06285372 -0.08418527 -0.27269128 0.019787343 -0.08777304 0.055097975 0.03154587 0.22074267 -0.115918435 0.07869469 0.23657167 -0.058916207 -0.27868506 -0.102069035 -0.115198545 0.12540765 -0.18341394 -0.37430128 0.3164346 0.25310454 0.0181048 0.08743962 0.08180714 0.015105565 0.17875187 0.0314614 0.17835747 -0.03877654 -0.015951067 -0.14243206 0.014605473 -0.05537224 -0.029202903 -0.09579555 0.0028248536 0.044980172 0.015211558 -0.10857972 -0.064986914 -0.0060217422 0.018083077 0.036965244 -0.013884876 0.014295204 0.015179731 -0.059457578 -0.10501643 0.094667755 0.22349545 0.05327563 0.19066553 0.0013934431 -0.09110283 -0.03975225 0.04532206
14 0.07352538 0.3910398 0.05492293 -0.22260562 0.10316751 -0.10885117 -0.31441662 -0.047795605 -0.07388224 0.15010078 -0.08484718 0.24761641 -0.15824114 -0.14580603 0.2713666 0.55667305 0.14297576 -0.01853737 0.14548185 0.04814462 -0.15437534 -0.12525572 0.012934887 -0.08914594 0.09161824 -0.29862595 -0.0905218 0.4471799 0.15960063 -0.19082965 0.44966584 -0.43956268 -0.08539567 -0.2199936 0.09171266 -0.15268901 0.07509177 -0.08091256 0.2025377 0.027432835 -0.029032312 -0.05331212 -0.026952138 0.01990184 -0.042858474 -0.13271596 0.01917838 -0.04178394 -0.00013297069 0.038182747 0.093256705 0.10284387 -0.00811764 0.12332188 0.022403043 -0.06711415 0.027818138 0.032168735 0.05656926 0.04731267 -0.022061229 0.05177339 -0.20569226 0.030792968
6 0.12895025 0.50028795 0.22208905 -0.2874344 0.061093125 -0.23525694 -0.27558756 -0.013439781 -0.122720525 0.19617265 -0.14971916 0.30834678 -0.15985215 -0.15290345 0.2879078 0.6026267 0.14693663 -0.013308094 0.18341205 0.040243227 -0.08013426 -0.07531977 0.023722487 -0.053570017 -0.0035354225 -0.25147602 -0.12765566 0.44001302 0.14214866 -0.2843323 0.5504901 -0.583254 -0.08686856 -0.14895263 -0.008865837 -0.107557625 0.050006825 0.06832184 0.09747502 0.014446967 0.021343743 -0.022356156 0.023186397 -0.041636534 -0.008809192 -0.02636288 -0.008295111 -0.06543832 0.03603977 -0.0019406782 0.014496852 0.10938794 0.0145224705 0.003895736 0.025712986 0.047179986 0.04794168 0.106528305 -0.016450051 0.1487724 -0.0049489127 -0.019328408 -0.20547655 0.092622876
7 0.09573997 0.37481818 0.21337155 -0.33379936 0.028905148 -0.11072981 -0.3391202 0.06711093 -0.17903852 0.22095118 -0.15329501 0.41587478 -0.14361766 -0.23168619 0.25801075 0.57052904 0.16624115 0.044080216 0.10189772 0.09367839 -0.2302677 -0.102599405 0.05900323 -0.08582856 0.014280155 -0.29403654 -0.100529715 0.4090576 0.09792753 -0.44622204 0.58467376 -0.61654526 -0.10376189 -0.17003442 0.018568266 -0.0935789 0.013614067 0.032446273 0.08132504 0.048158903 -0.020565735 -0.067016095 -0.06551477 -0.05207901 0.024293272 0.002416896 -0.06454587 -0.1110969 0.037449133 -0.010464425 0.013863787 0.071490705 0.031529494 -0.028185587 -0.017915348 0.0065424875 -0.0009190607 0.066227764 -0.00017431818 0.08053083 -0.06622123 -0.052088525 -0.15255028 0.043771602
13 0.035107758 0.3808216 -0.39381438 -0.23027661 0.27448806 0.03380292 -0.337618 -0.11811286 0.0046794135 0.039216273 0.121231884 0.0884453 0.017700538 -0.03568573 0.122634284 0.14173873 0.12704007 -0.088916816 -0.0851073 0.23751044 -0.10254235 -0.27186167 -0.10839618 -0.11048276 0.548288 -0.15978786 0.014799397 0.31922275 0.244552 -0.10081355 0.3592536 -0.20168489 -0.0849554 -0.27974468 0.041286618 -0.22527307 0.10303749 -0.035039507 0.3129637 0.0033345902 0.0025820998 0.05554846 0.1138797 0.123288505 -0.039252065 -0.06934038 0.032841552 0.03996521 -0.03720841 0.04137745 0.006414524 -0.034884274 -0.036448065 0.059723966 -0.0007678621 -0.06314745 0.039843347 -0.0093387095 -0.081386715 0.108067304 0.040438004 0.083339475 -0.33828437 0.12114667
