26 64
25 0.27424097 0.277451 -0.39931956 0.13766934 0.10147048 0.048512775 0.27410296 0.43917623 0.20927782 0.07862125 0.30424017 0.2626756 0.15976089 -0.102626786 -0.0016205114 0.43875667 -0.0712697 0.03800474 0.2540984 -0.013476098 -0.11998413 0.14298284 -0.070529625 0.15317649 -0.16009547 0.07565628 0.18195683 -0.57290035 0.019733785 -0.23249917 0.03333982 0.06847806 -0.02540066 0.00304523 0.003939746 0.0031931126 0.034863282 -0.031833272 0.016943406 0.016054422 -0.0123040965 0.021588763 0.001181772 -0.022534719 0.0016825318 0.005925105 -0.015026392 0.017582113 -0.018497057 0.028881788 0.0029359309 0.007396366 0.0374112 -0.008494569 0.0046248734 0.0063044564 -0.03385628 -0.047269024 0.14549366 -0.10519096 -0.057843864 -0.10525842 -0.04714855 -0.11677085
3 0.31346485 0.29209948 -0.47643828 0.24196398 0.14799242 0.07155677 0.3284981 0.39308438 0.1900972 0.06911594 0.32484797 0.27935037 0.07528069 -0.057544608 0.097564876 0.42764026 -0.15862006 0.087588675 0.29503247 0.03246003 -0.15779741 0.22145963 -0.03375784 0.21062833 -0.16438349 0.08522188 0.19450611 -0.49750713 0.02321179 -0.21496011 0.0054732417 0.059203297 0.03687676 0.004836262 -0.015949573 -0.014380841 -0.028927747 0.025775418 -0.04650423 -0.011223938 -0.038800463 0.018842975 0.002800035 0.007590945 0.06472948 -0.021369107 -0.014816279 0.03922639 -0.0046021827 -0.021495499 0.031734295 -0.00684922 -0.015004633 -0.013857248 -0.0046987464 -0.008737487 -0.06611492 -0.0058610444 0.13891584 -0.07104458 -0.054468565 -0.058839522 -0.009003957 -0.05497631
24 0.2876658 0.18652578 -0.41996053 0.1702845 0.12682584 0.0515481 0.25402543 0.30657738 0.18580213 0.0908138 0.29420942 0.24334194 0.19386338 -0.06317874 -0.09970959 0.40992588 -0.092417434 0.06336575 0.19001825 0.018164543 -0.088468045 0.13208254 -0.012122503 0.10659121 -0.113955334 0.07086255 0.13267323 -0.45376602 0.04954245 -0.24664111 -0.02590139 0.0682972 -0.029423032 0.009219363 -0.028532268 0.017367449 0.054545872 -0.07343855 0.051506583 0.062119946 -0.15688689 0.040454436 0.008254825 -0.076746896 0.024465218 0.01493358 -0.013038617 0.052523635 -0.04524025 0.04310943 0.035947945 0.026741875 0.057788193 0.0007876221 -0.014499764 -0.04532514 0.04491616 -0.030203043 0.08436258 -0.06800924 -0.073702484 -0.13039416 -0.07895879 -0.11287457
19 0.32055655 0.31355637 -0.42913824 0.17570129 0.1035982 0.07179199 0.3165487 0.40176955 0.19847189 0.10019703 0.3391901 0.26787093 0.11324451 -0.084831625 0.030193683 0.388974 -0.1264964 0.08577602 0.35833982 0.024354767 -0.101099804 0.20886269 -0.029213244 0.17972493 -0.17574215 0.14512514 0.1616639 -0.55817175 0.037600152 -0.28522447 0.02615156 0.08385296 -0.021383181 -0.0020153415 0.08107236 -0.027007407 0.030066542 0.054522745 -0.074300036 -0.044671703 -0.013525963 0.013796162 -0.004289667 -0.04694673 -0.01961406 -0.021676533 -0.016698139 -0.042857993 -0.043990966 0.06707162 0.024369866 0.012284818 0.067127414 0.0048562437 -0.013122806 -0.022997718 -0.13376513 0.046318397 0.13384522 -0.044696618 -0.045066543 0.0061266203 0.040826593 -0.04466982
2 0.23880441 0.27452445 -0.43666923 0.06930922 0.17837812 0.056998022 0.20457909 0.34749147 0.17912579 0.14997907 0.38822848 0.27750283 0.17032935 -0.084986195 0.010797911 0.5357279 -0.074052356 0.036547214 0.1708093 0.00551245 -0.09158653 0.11766253 -0.038431276 0.1231122 -0.11209863 0.006874468 0.14009039 -0.47362703 0.035287645 -0.22958045 -0.0038821232 0.063574 0.029993463 -0.013048283 0.02799789 -0.020743951 0.01693324 0.03638724 -0.01402704 0.0018638719 -0.14765438 0.0023651642 0.0072361273 -0.04257331 0.066636406 -0.030720463 0.01563386 0.0048671477 -0.015681123 0.028929673 0.000676162 0.012639087 0.02642874 0.01335385 -0.008135432 -0.020616945 -0.0016357035 -0.065245844 0.091509156 -0.12014563 0.0154980775 -0.09271843 -0.08657584 -0.08775528
1 0.23502 0.24376176 -0.43348908 0.17072153 0.14937428 0.10320003 0.21787591 0.3498999 0.16311449 0.06736326 0.27651125 0.23312053 0.19800894 -0.0849073 -0.08224681 0.42553774 -0.08939272 0.028422136 0.25085306 0.004360237 -0.10949055 0.1577227 -0.068558104 0.19231564 -0.1672856 0.10985966 0.15555654 -0.4847324 0.0001869699 -0.23063505 -0.03723804 0.04177453 -0.04531751 0.009098539 0.018964302 0.049398843 0.018831173 0.02522267 -0.012204288 0.02583213 -0.02656375 0.04448436 -0.008034606 -0.09237862 0.07606294 -0.042442933 -0.027666396 0.028637541 -0.05379736 0.07291371 0.029735163 0.035930242 0.07452577 0.026149563 -0.028452797 -0.071171276 0.016908623 0.07866749 -0.031295773 0.035140272 -0.064551726 -0.05865055 0.0025490634 -0.09125758
18 0.2589931 0.34722415 -0.4099885 0.2062902 0.14484182 0.09506443 0.2837893 0.3522182 0.14704268 0.060549945 0.36054415 0.2896984 0.09351265 -0.05715225 0.046225026 0.40844348 -0.13439447 0.09237824 0.31074458 0.027573202 -0.11691799 0.20282845 -0.02037188 0.16600475 -0.17931874 0.15789153 0.17520034 -0.66614145 0.04938077 -0.23860271 -0.00079153664 0.07094626 0.007531483 -0.0065711034 0.022708988 0.011175898 -0.02961146 0.060956273 -0.030119924 -0.029100142 0.0154488655 0.038455006 0.0023732483 -0.013046408 0.016430337 -0.03453427 -0.031141495 -0.016952936 -0.056815177 0.054706078 0.06981164 -0.0031663643 0.06080033 -0.017971933 -0.018456792 -0.023704648 -0.08904389 0.044891756 0.15232699 -0.04983178 -0.06573512 -0.04583638 0.027741984 -0.08219727
4 0.3463209 0.3105312 -0.46006066 0.22837372 0.0798066 0.12129962 0.33375782 0.42534095 0.17878126 0.047455497 0.31850997 0.2824548 0.08744743 -0.063079014 0.059826337 0.39125368 -0.102332175 0.07483449 0.33865982 0.009699436 -0.09836317 0.18376836 -0.037927162 0.15656681 -0.19424422 0.1301762 0.20219453 -0.62591106 0.03222682 -0.19707742 0.01214184 0.05909666 -0.037528146 -0.003336477 0.07624165 -0.014216141 -0.017438857 0.04921906 -0.035975534 -0.06651778 0.042820603 0.026415965 0.0009153176 -0.00022441443 -0.012610427 0.0020749494 -0.024882527 0.0035730638 -0.042866684 0.022942308 0.06991245 -0.012355353 0.037212413 -0.03613962 -0.00688235 -0.0015650406 -0.039421488 0.0832166 0.18523893 -0.020354223 -0.08106728 -0.061262526 0.018391503 -0.025396403
20 0.08664232 -0.0606633 -0.17478196 -0.09521204 0.1218582 -0.29483467 0.16137832 0.1608999 -0.011308502 0.1129774 0.06668127 -0.02021575 0.3047917 -0.11157416 -0.38215378 0.09850856 -0.14258419 0.07072066 0.113456115 0.074047 -0.05569228 0.1431077 0.04425062 0.12754343 -0.109440774 -0.18986224 0.20391689 -0.26286456 0.013893178 0.07260005 -0.27223817 -0.078427136 0.022222674 -0.012504066 0.06826184 -0.03839726 0.010089002 0.07259461 -0.06402741 -0.040313896 0.0090640765 -0.010751625 -0.00841443 0.0048632897 -0.05569561 0.018150643 0.01432626 -0.033279743 0.06346178 -0.090608865 -0.04804406 -0.031649575 -0.07775492 -0.042203378 0.049212556 0.09854145 0.008096624 -0.015579168 0.07891164 -0.04888185 -0.00597243 -0.04322769 -0.017365118 -0.051001187
15 0.1281828 0.025039606 -0.2634183 0.0039147697 0.12533215 -0.12359664 0.16237849 0.14507204 -0.020421784 0.13847043 0.21565849 0.071410224 0.23767526 -0.052687168 -0.3052517 0.14367475 -0.121322386 0.08436271 0.11502371 0.08743935 0.026555676 0.11549854 0.09082658 0.056168362 -0.102250315 -0.12902343 0.15875086 -0.2553459 0.036478437 0.14399393 -0.2858069 -0.09142188 -0.027218487 -0.018865015 0.09414864 0.013081719 0.030047243 0.07688606 0.0064414768 0.0015143947 -0.23696631 0.030284913 0.03806012 0.062498335 0.06816333 0.033621497 0.011622338 0.11957761 0.06237757 -0.12741531 -0.036014076 -0.029403001 -0.08127231 -0.08649113 0.076788366 0.13163814 0.0033504444 0.028329138 -0.027673839 -0.030523108 0.0156486 -0.016839577 -0.00793783 -0.046530202
12 0.18658905 0.011413988 -0.31219476 0.07116847 0.116960555 -0.11121429 0.21084492 0.18935396 0.026380628 0.10666047 0.17123175 0.07289058 0.20013125 -0.053203356 -0.23403998 0.1504469 -0.109799616 0.051116943 0.059785873 0.07881821 0.010079126 0.095916286 0.06468691 0.08154627 -0.12003426 -0.08001186 0.16605014 -0.3674528 0.01491449 -0.017789785 -0.19827345 -0.040337387 -0.016913425 -0.0335408 0.07752241 0.06514481 0.0057056085 0.11089033 0.059791368 0.029751515 -0.2551797 0.05547866 0.04311806 0.07316544 0.13688283 0.014956003 -0.024889162 0.17596762 0.039241362 -0.0643891 -0.034475997 -0.031060452 -0.031799395 -0.07418331 0.06489642 0.12824768 -0.02209698 -0.13647911 -0.0130425375 -0.11191285 0.040064104 -0.0322233 -0.05973804 -0.046158135
17 0.08386111 0.032726664 -0.18427694 -0.002440215 0.11597104 -0.16705084 0.15728025 0.13707681 -0.02493459 0.2046161 0.16713937 -0.00991579 0.25036183 -0.051965754 -0.36440945 0.060850605 -0.13527067 0.09924112 0.12921964 0.09275085 0.017169906 0.12950422 0.09943469 0.05671889 -0.10592221 -0.20205872 0.20713148 -0.3163481 0.05872704 0.07860361 -0.2410262 -0.056197997 -0.006379475 -0.025355214 0.11906077 -0.01767798 0.054352656 0.09613925 -0.028492987 -0.011489885 -0.12695614 0.023718372 0.042481016 0.11615179 0.006216531 0.05523093 0.014641238 0.09086243 0.044181537 -0.06278726 -0.05097538 -0.028103884 -0.02922303 -0.073421605 0.07252335 0.13941301 -0.007930936 -0.007589433 -0.046018887 -0.020162743 0.04456201 0.033793014 0.012786468 0.00039446034
9 0.22754824 0.03987016 -0.34376457 -0.050430696 0.11772741 -0.08245821 0.15802783 0.25264645 0.11183049 0.10064456 0.26712084 0.18383344 0.2093382 -0.066247664 -0.15135872 0.35111475 -0.062648535 0.047307383 0.07847959 0.04655041 0.021460988 0.062534295 0.05056668 0.02650191 -0.059965875 -0.15645225 0.1346379 -0.434327 0.03330689 -0.23230417 -0.05603025 0.05105312 -0.0076328847 -0.04050077 0.065773994 0.06908128 0.013679336 0.09426727 0.10457372 0.056944884 -0.23351179 0.04286528 0.03475758 0.040829506 0.17690553 -0.0011148553 -0.021035846 0.1820125 0.016295647 -0.020322612 -0.027342748 -0.0026378608 -0.003982058 -0.025352959 0.02938033 0.04996366 -0.03234676 -0.118422665 -0.010804963 -0.12047891 0.037413813 -0.047739163 -0.082375325 -0.035241045
5 0.07602882 0.06311534 -0.27671018 -0.06760842 0.2487283 -0.2755651 0.17657061 0.15768944 -0.15604287 0.029861819 0.0678309 -0.028214518 0.27489144 -0.08812331 -0.38367164 0.033683524 -0.13631213 0.068135336 0.09828664 0.07960812 -0.030634075 0.1319075 0.055766057 0.11286954 -0.027374128 -0.275528 0.13910235 -0.15882422 0.03670612 0.07499667 -0.27485603 -0.07135413 0.0680208 0.008423976 0.006144649 -0.07852216 0.02029818 0.022875132 -0.12000267 -0.021753037 -0.015201973 -0.022523947 -0.003048233 0.03689953 -0.0053736796 -0.037699275 0.011697611 -0.06679134 0.017754639 -0.034550678 0.005529557 -0.033043936 -0.033931352 -0.031078523 0.018729443 0.054406557 -0.060980752 0.051577028 0.13651659 -0.031259686 -0.018067107 -0.024882928 -0.0045836926 -0.037217196
21 0.23902287 0.19064255 -0.40843314 -0.03791411 0.17373434 -0.051696282 0.18919595 0.366899 0.15001903 0.102793075 0.29720896 0.2163407 0.14309427 -0.070228145 -0.03571567 0.3710863 -0.020494396 0.04345392 0.18337393 -0.0037596314 -0.0057389755 0.06650121 -0.004393212 0.020821711 -0.050513677 -0.064737774 0.10845853 -0.50892204 0.10729417 -0.25908813 -0.03430544 0.090044625 -0.0459088 -0.017705677 0.05873207 0.005059077 0.101618566 -0.028009241 0.07275373 0.047643397 -0.2662979 0.03950482 0.027706759 -0.049820423 0.024801712 0.031998545 -0.009042584 0.07424277 -0.030664198 0.06376253 -0.02216017 0.017522601 0.08517259 -0.02213998 0.026405083 0.0415349 -0.0059108445 -0.116494775 0.030114502 -0.14885037 -0.013506391 -0.115783684 -0.10312589 -0.14488354
16 0.076480985 0.0017752359 -0.15945636 -0.11165003 0.13028802 -0.29133698 0.16161308 0.18305771 -0.014258199 0.1734485 0.066404 -0.049722638 0.27342764 -0.08387586 -0.3439803 0.100622945 -0.132525 0.06617014 0.104604 0.06483921 -0.06299558 0.13344193 0.036307704 0.119587734 -0.11361799 -0.25912246 0.257194 -0.28004605 0.05437719 0.067760766 -0.2646893 -0.05945414 0.07420898 -0.0129361255 0.088475905 -0.087064765 -0.016817238 0.12777059 -0.14695661 -0.080553055 0.004635322 -0.0040822537 0.0034448218 0.056816548 -0.0028332332 0.018109083 0.027019015 0.011795253 0.069373675 -0.10344946 -0.044561777 -0.045768045 -0.0864566 -0.06158173 0.060006417 0.12748525 0.08233419 0.031387765 0.016690783 -0.0071241744 0.023365358 -0.044327408 -0.027811624 -0.0018260312
23 0.15615186 0.058336765 -0.34688875 -0.019763758 0.19240882 -0.13777165 0.15851676 0.2734715 0.04887819 0.10975857 0.3138346 0.18794176 0.1252682 -0.013325651 -0.06581175 0.34121862 -0.11305198 0.092017755 0.13296714 0.06533385 -0.0120023 0.1171972 0.07093114 0.0461666 -0.014563178 -0.17310952 0.1281747 -0.5048731 0.10368308 -0.24640766 0.010121431 0.09822477 0.03364826 -0.043110605 0.014344753 0.03650107 -0.008364394 0.047918003 0.119036876 0.038790356 -0.30035976 0.053055845 0.04767476 0.060413044 0.117788225 0.038258903 -0.03186448 0.18305197 -0.030063475 0.040362723 0.02095357 -0.015095569 0.05818013 -0.046310052 0.020516504 0.055956747 0.06123182 -0.1670049 -0.09082471 -0.132275 0.025629044 -0.10529965 -0.116575696 -0.069351435
10 0.27990377 -0.02336905 -0.24845067 -0.10829533 -0.002691811 -0.07464297 0.17265095 0.034934305 0.0014376612 0.29092285 0.3404833 0.09820912 0.17270502 0.050649095 -0.2899805 0.08292791 -0.13150246 0.0699645 0.07160346 0.11898404 0.07843639 0.1033186 0.121198565 0.06517096 -0.05607311 -0.2031892 0.1566207 -0.3801337 0.1488942 -0.08242076 -0.19772682 0.024885416 0.0409405 -0.024663439 0.032155283 0.025369996 -0.01792238 0.09784512 0.014006104 0.023077771 -0.2165714 0.053381342 0.06669994 0.17064352 0.10995639 0.021073863 0.023381617 0.14429061 0.0652609 -0.09532912 -0.061915483 -0.04391549 -0.05787632 -0.09199198 0.08975681 0.1775062 -0.012170322 -0.07793672 -0.07541497 -0.07692227 0.095394395 0.0062512145 -0.047004305 -0.051174056
11 0.15629062 0.053212084 -0.35241356 0.08923108 0.19200131 -0.075831175 0.17703307 0.14280652 -0.13118792 -0.078152835 0.2008038 0.16152504 0.34760496 -0.04413825 -0.4595624 0.15986413 -0.051978443 -0.033906013 0.09087041 0.024196079 -0.024597026 0.076612145 -0.047034387 0.17023794 -0.098117344 0.08320221 0.07049912 -0.1809887 -0.019880854 -0.06184938 -0.16216251 -0.03566269 -0.021215348 0.030481849 -0.0653403 0.04003028 0.030127702 -0.0599139 0.0003646168 0.08248361 -0.07067305 0.026547443 -0.0030767967 -0.040924486 0.14231919 -0.03721073 -0.011312624 0.09628695 0.003147685 -0.05688748 0.022937728 0.03198998 -0.04121373 0.015272553 -0.015298298 -0.07333639 -0.052973345 0.13463923 -0.001459314 0.05307118 -0.041326746 0.03419148 0.062131904 -0.028151575
0 0.37677908 0.27541193 -0.5281332 0.18866871 0.12479886 0.094406664 0.3348629 0.37567243 0.1948829 0.0045346185 0.3836131 0.36446068 0.02676503 -0.016446684 0.11865745 0.38006818 -0.12529433 0.104212925 0.37669316 0.02308979 -0.09609933 0.20928787 -0.015518248 0.15034604 -0.19384685 0.16479993 0.19465537 -0.6175226 0.042519636 -0.19200635 -0.0021983595 0.058091898 -0.053135004 0.007182556 0.07149904 0.034538113 -0.07175017 0.105994835 -0.07333928 -0.08008431 0.042730507 0.020824132 -0.013884417 -0.044035383 -0.043920066 -0.018532021 -0.02113308 -0.057922125 -0.034407448 0.0006299351 0.08083547 -0.023732949 0.010385519 -0.038529065 -0.009835843 -0.0016764625 -0.11065418 0.16412732 0.169926 0.0015713394 -0.13338201 -0.048533157 0.10259317 -0.09684164
8 0.045345455 0.032511413 -0.29096118 -0.118149884 0.26621938 -0.27169293 0.11910435 0.19904442 -0.14762194 0.10281808 0.050810933 -0.067255676 0.21154952 -0.019564979 -0.34893683 -0.023922332 -0.1365923 0.076910265 0.22723092 0.048491053 -0.0876524 0.17543712 0.0053516873 0.15721302 -0.009699961 -0.31928173 0.1893841 -0.15540561 0.1282917 0.13707443 -0.29705718 -0.054449618 0.06116345 0.013936726 -4.228498e-05 -0.12423417 -0.0019107574 -0.02469806 -0.1307501 -0.0839334 0.07371865 -0.013923862 -0.0068235905 0.0045225923 -0.084689826 0.010506405 0.017280802 -0.08054226 -0.027268462 0.0178791 0.046918213 0.000933331 0.014972905 0.0040845345 -0.023915322 -0.04126672 0.028286638 -0.013706218 0.11838384 -0.049100757 -0.03170821 -0.07162405 -0.021167036 -0.03642335
22 0.25200352 -0.069634 -0.20130543 -0.10795173 -0.10256326 -0.034369346 0.15635826 0.106891185 -0.0340942 0.30547932 0.3201633 0.047673173 0.17344324 0.001985614 -0.26090539 0.09886827 -0.159308 0.058129594 0.18697919 0.13836059 0.09777245 0.15977764 0.103372194 0.16254085 -0.05307133 -0.19276413 0.12187243 -0.39777648 0.111731455 0.034441624 -0.19758815 -0.016768435 -0.009199835 -0.037071273 0.067239545 0.048907097 0.007721522 0.082117856 0.08626493 0.02959486 -0.196536 0.111232996 0.084220625 0.20937267 0.1986458 0.017543333 -0.033451136 0.26266637 0.04019616 -0.07246748 -0.04856274 -0.039274074 -0.010198753 -0.12725684 0.10825812 0.20703089 0.0018418893 -0.09639713 -0.095723964 -0.071773715 0.064206734 -0.039377313 -0.086241424 -0.07440514
14 0.116716035 -0.018322768 -0.38479808 0.008261796 0.24470635 -0.12325792 0.124042325 0.092670836 -0.2705393 -0.14595242 0.092518866 0.06556615 0.30793157 -0.033847716 -0.4843868 -0.001155231 -0.09203215 -0.0013460332 0.28740904 0.028628098 -0.048884023 0.16399738 -0.06371654 0.24494746 0.021549316 -0.082006134 0.023479946 -0.08336273 0.081382826 0.017739806 -0.28240877 -0.044683613 -0.037129145 0.022575598 -0.07813493 -0.014488927 0.022692412 -0.15826474 0.06256922 0.017599931 0.07965095 0.0049680397 -0.015881725 -0.058663923 0.08786484 -0.04597781 -0.032434344 0.029599823 -0.036634363 -0.01307185 0.066942796 0.06361272 -0.007592501 0.059273254 -0.065227665 -0.18105377 -0.076053604 0.036443643 0.16052659 -0.0029513282 -0.032676224 0.008868614 -0.020591196 0.08753047
6 0.05806628 0.119443275 -0.40678865 -0.11099937 0.38853535 -0.22789338 0.114881076 0.09664379 -0.38409775 -0.07687807 0.14310849 0.029524932 0.19799477 0.03546068 -0.41029522 -0.14706513 -0.034456644 -0.032923963 0.23938987 -0.008143833 -0.04517668 0.10907745 -0.094408125 0.20273249 0.030384265 -0.112284735 0.063458584 -0.16023566 0.1572559 0.10707906 -0.28812054 -0.03683463 0.015130752 0.04699733 -0.07377847 -0.10013217 0.04176152 -0.14576519 -0.09944591 -0.016189482 0.06406793 -0.0023371242 0.00096234534 0.007585192 0.020758819 -0.053441904 0.0010694197 -0.056976393 -0.072101146 0.054577537 0.09360266 0.030816972 0.05402607 0.027162462 -0.056676958 -0.123865284 -0.19590427 -0.056379143 0.3292793 -0.14862145 -0.03304554 -0.0076830857 0.018915154 -0.0724198
7 0.1194314 0.07584415 -0.3927195 -0.21759811 0.32586253 -0.21456262 0.07696625 0.12648651 -0.28998187 -0.11452838 0.061798315 0.022231394 0.17851393 0.058020484 -0.4196666 -0.19482811 -0.05920661 0.014856877 0.28517804 0.003592782 -0.048208315 0.13498434 -0.05924018 0.17000055 0.049463086 -0.25254843 0.10748706 -0.17544393 0.17243595 0.037445657 -0.3466008 -0.028480615 0.033557083 0.038692124 -0.094744675 -0.04774852 0.012870314 -0.09778865 -0.076171085 0.01548838 0.16409561 0.018913535 -0.016306657 -0.03253643 0.07388129 -0.076504424 -0.01735251 -0.030643564 -0.071410626 0.03855872 0.102533065 0.063042976 0.03193141 0.07169169 -0.08999084 -0.21434626 -0.2686155 -0.035352938 0.36016944 -0.16518837 -0.090122946 -0.018383188 0.059538335 -0.096317925
13 0.30714303 -0.060824927 -0.5575722 0.18491177 0.13741332 0.03762676 0.24864006 0.15445055 -0.21173829 -0.105914995 0.16273972 0.13205755 0.4037335 -0.083107315 -0.4563393 0.28314346 -0.014016434 -0.14419523 0.13940322 -0.0006108693 -0.019431302 0.074793406 -0.15532888 0.32601544 -0.093594216 0.2475895 -0.03028263 -0.17538977 -0.06600641 -0.19870868 -0.013780317 0.0134325735 -0.11052361 0.056722727 -0.04664328 0.04359597 0.0024695466 -0.1043029 -0.020135446 0.01942158 0.06663326 0.048794754 -0.029844524 -0.14588325 0.13176514 -0.08723894 -0.05257314 0.030565774 -0.09998732 0.11181927 0.09388276 0.04129665 0.11046577 0.032064993 -0.059743118 -0.12763985 0.24563079 0.23936589 -0.14113416 0.2698494 -0.07258629 -0.07300205 -0.05990832 0.05212377
