26 64
25 -0.263684 0.2890714 0.07883774 -0.24925524 -0.08286478 0.20471862 0.23381083 -0.060214482 0.04100457 -0.113458924 0.014365898 -0.33326665 0.016266527 -0.014001259 -0.15980169 0.10311688 -0.0016833162 0.061341938 -0.06263105 -0.18521099 0.0005402807 -0.053424694 -0.16798139 -0.10991928 0.072862945 -0.03969086 -0.2974378 0.095760755 -0.123079926 -0.22976007 -0.51465046 -0.2843668 -0.043661702 -0.0322113 -0.015557751 0.0024354907 -0.008309543 -0.027569113 0.053879023 0.040830147 0.03631315 0.040070426 -0.038080372 -0.014338743 -0.017893493 0.014744695 -0.07500376 -0.07179828 0.020971963 -0.010892652 0.025973188 0.021411926 0.030860381 0.003647782 -0.011287988 -0.0114316065 0.13836533 -0.038187064 0.006479303 -0.015237892 -0.038492728 0.12053535 -0.13991763 0.020226784
3 -0.2400489 0.15767351 0.060461726 -0.20964079 -0.12128116 0.21638356 0.2529235 -0.010964638 0.09131834 -0.15174042 0.08125329 -0.29519823 0.060470156 -0.0028530355 -0.16619556 0.17473482 -0.054482676 0.03459434 0.020834148 -0.20983684 -0.0029623304 -0.08031646 -0.2821359 -0.07312482 0.112672955 -0.034301568 -0.3030764 0.07548089 -0.114846654 -0.21822333 -0.49019378 -0.30811426 -0.02587659 -0.0546284 0.052961398 -0.022718 -0.093215674 -0.0392174 0.020954568 0.030980388 -0.03568737 0.09244412 -0.019299889 -0.07078085 0.026919995 -0.07092071 0.03681969 -0.10040513 0.056772497 -0.004843555 -0.016439017 0.01604636 0.007900527 -0.035176888 -0.042572733 -0.05035143 0.070570566 0.046764467 -0.05984598 -0.062569164 0.0013063274 0.07092253 -0.20233908 -0.002941233
24 -0.2076532 0.24433398 -0.0040300353 -0.30135822 -0.09723402 0.12438209 0.2928693 -0.18617012 -0.06819794 0.034517787 -0.104200214 -0.2299436 0.08680671 0.029318327 -0.11735741 0.15115269 -0.06455241 0.07156152 0.01642928 -0.20098221 -0.033825107 -0.065092705 -0.23497006 -0.10532905 0.09532264 -0.033809226 -0.30711165 0.2223005 -0.10840698 -0.17876124 -0.44779196 -0.118757345 -0.00086911814 0.021430342 -0.0585647 0.032576226 0.14699413 0.007367312 0.02334478 -0.03277981 0.036790363 0.012356001 0.026893262 0.0028843712 -0.040015947 0.03982196 -0.1145424 -0.049756777 0.06814444 -0.0115889385 0.0013149237 0.024748273 0.010727914 -0.030703234 -0.04449884 -0.057148412 0.02573726 0.003008507 0.02627858 0.003237926 0.002408277 0.13705897 -0.11860229 -0.03592061
19 -0.22925094 0.19814396 0.016376292 -0.2540774 -0.079835445 0.19670139 0.27222764 -0.03373509 0.10446885 -0.16389549 0.11391021 -0.313112 0.003266679 -0.03745943 -0.12141267 0.059695985 -0.02866267 0.035389714 -0.005470776 -0.1609546 -0.0031412921 -0.05675287 -0.19337776 -0.06833927 0.06393482 0.02003214 -0.39394486 0.07924108 -0.21480437 -0.24721979 -0.45556623 -0.41361997 -0.046592124 -0.027481845 0.022777699 -0.042065162 -0.14637128 -0.012235435 0.04700394 0.09367665 -0.070238695 0.1760437 -0.0858546 -0.08794009 0.052795485 -0.08630291 0.050443195 -0.09840833 0.029315462 0.0013058572 -0.031202175 0.0060653333 0.014941296 -0.029876841 -0.03278431 -0.030957922 0.12792304 -0.053285044 0.023424689 -0.01981217 -0.009096198 0.034948718 -0.066447265 -0.0010733254
2 -0.20859592 0.29871425 0.12916413 -0.19923295 -0.08415909 0.13603117 0.115985274 -0.10001636 0.056136742 -0.1820336 -0.08571654 -0.27158132 -0.013045882 0.0039177877 -0.14086334 0.13172172 -0.046097927 0.11317335 -0.0062197065 -0.19554041 0.05364151 -0.026531953 -0.2108311 -0.12504746 0.14742124 -0.084005065 -0.33381182 0.14664501 -0.058677543 -0.21111718 -0.52921474 -0.2151086 0.022286767 0.0011074999 -0.026666865 0.041882854 0.027250342 -0.009612131 -0.008450029 -0.022301104 0.010919581 0.025276195 -0.07853525 -0.0018340547 -0.022025216 0.12470555 -0.06959189 -0.026875213 0.0469228 -0.011138433 0.09007584 0.054697562 0.06849702 0.014056876 -0.0059883026 0.00067314046 0.028536467 0.076717906 -0.05256216 -0.018146938 -0.019389542 0.117759876 -0.10614358 -0.0065902593
15 -0.09165545 -0.3545029 -0.09345589 0.14267196 -0.26521558 -0.04141885 0.38992834 -0.09539624 -0.06085201 -0.05477057 -0.2959897 0.033357114 -0.09136535 -0.0013824498 0.0068011573 0.031762935 -0.18187891 0.18613894 0.21577589 0.035655625 -0.12991236 0.07433672 0.04328918 -0.082595505 0.09423924 -0.06872797 -0.5023763 0.34630778 -0.060540523 -0.2232226 -0.5999522 -0.085460916 -0.11253592 0.056656767 -0.10920301 -0.0450814 0.20950145 0.07084066 0.06130048 0.0421266 0.025756313 -0.13241364 0.03161436 0.100294225 0.010748312 -0.09595028 0.06122414 0.085707515 -0.20863086 -0.023662861 0.102939054 -0.016430575 0.086091846 0.16349144 0.13421002 0.17271996 0.11617631 0.045103 -0.038039118 -0.03186462 -0.034917872 0.12405248 0.016357131 0.14746954
4 -0.22735958 0.1970612 0.06648246 -0.22996503 -0.12661317 0.17218591 0.23889683 -0.07271633 0.06415179 -0.10630358 0.11505758 -0.3453958 0.007437553 -0.010336269 -0.2069126 0.074747704 -0.015708115 0.06006202 -0.030782184 -0.16090514 0.011326872 -0.041657288 -0.16232038 -0.0913316 0.06681579 0.062853284 -0.40286827 0.14728284 -0.22365546 -0.22407603 -0.4249415 -0.39747238 -0.09246897 -0.11158403 0.07851015 -0.04569801 -0.08930968 -0.08238799 0.06741039 0.058325242 0.0669545 0.04984718 -0.03821491 -0.05993429 -0.0063593956 -0.12118347 0.007311924 -0.12757516 0.08340958 0.017992105 -0.0780555 -0.0055790693 -0.04566267 -0.084325254 -0.063986704 -0.07745116 0.14350516 -0.07064948 0.003295444 -0.08841461 0.056508116 -0.1097464 -0.051062033 0.07611454
18 -0.20185003 0.16026509 0.07710036 -0.17945679 -0.14005266 0.14518005 0.20628467 -0.106696844 0.12150492 -0.17356089 0.15133123 -0.3157212 0.036761146 -0.038201064 -0.17568554 0.09089768 0.0066008363 0.02295545 -0.074039884 -0.23432621 0.041851643 -0.08698751 -0.2664066 -0.092206426 0.05021918 0.031575233 -0.41225433 0.11133954 -0.24754308 -0.25058126 -0.44494513 -0.39041328 0.020034175 -0.047813993 0.11509057 -0.060275108 -0.20796885 -0.05897254 0.10097284 0.08277508 -0.03291905 0.07020402 0.023441961 -0.016130257 0.022790706 -0.07420946 -0.059548963 -0.09922529 -0.038631734 -0.034215003 -0.039321203 -0.013236616 0.022473773 0.021926893 -0.013943985 -0.020984128 0.14162202 -0.018732596 0.032202747 -0.07117354 0.0102662835 0.019581987 -0.021848865 0.0506348
12 -0.19511339 -0.07923849 -0.026877183 0.07544055 -0.22446598 -0.016816719 0.39599332 -0.21004274 -0.085750185 -0.036944687 -0.34941477 -0.034234602 0.018745113 0.024620453 0.0064594387 0.15555432 -0.19012468 0.138015 0.2198796 -0.046886913 -0.10766812 0.017153863 -0.11330697 -0.065618955 0.13680509 -0.013776153 -0.43269378 0.3178556 -0.032925963 -0.17234191 -0.40552637 -0.09390123 -0.1200939 -0.015995052 -0.024755448 -0.056326464 0.22654046 0.009769803 0.06041456 -0.007227261 -0.023802383 -0.09033086 0.021580951 0.11042975 -0.005119316 -0.0043704263 0.02129386 0.12113202 -0.17053689 -0.009120041 0.05597233 -0.028388187 0.04087675 0.118040174 0.10770189 0.13656618 0.020780914 0.08189658 -0.016645849 0.024678102 0.0045696185 0.07742833 0.0848865 0.06924646
1 -0.2077171 0.17065611 0.024867395 -0.21766712 -0.10330351 0.15664029 0.2556756 -0.083320364 -0.041640777 -0.029233225 -0.111937545 -0.30855188 0.08627022 0.00058924966 -0.17365332 0.16902852 -0.03759862 0.04519622 -0.009912564 -0.16902232 -0.06283512 -0.06664065 -0.17669919 -0.08973678 0.029033398 -0.048154548 -0.27728286 0.14518952 -0.1767719 -0.21540423 -0.5224143 -0.1983621 0.06165341 0.02215334 -0.04042521 0.057973865 -0.0070138755 -0.012632501 0.034209177 0.0013090663 -0.010112953 0.046327237 0.05147169 -0.07216472 0.005189886 -0.010298543 -0.014150397 -0.1000348 0.029891603 0.023937711 -0.07527125 -0.030323079 -0.078458175 -0.055902038 -0.023327751 -0.03566573 0.033608656 -0.020903375 0.005807311 -0.039698407 0.020789146 -0.035489507 -0.04751444 -0.021880317
17 -0.061087232 -0.2587271 -0.065224156 0.25915313 -0.122462094 -0.06748453 0.23086922 -0.013343998 -0.07894407 0.0032281186 -0.2641444 0.06582476 -0.0274283 0.0144033665 0.007729816 0.060244918 -0.15459654 0.12698862 0.18775997 0.03228172 -0.13578585 0.044585496 0.024012193 -0.05058559 0.13471615 -0.099912964 -0.54040796 0.42906085 -0.10850108 -0.25191686 -0.697272 -0.09017251 -0.1638435 -0.029460536 -0.04330346 -0.06564534 0.26848215 0.0053323135 0.093280405 0.010887877 0.03452555 -0.2024957 0.16138159 0.099542215 0.016117908 -0.10614071 0.07633254 0.11493157 -0.1559694 -0.064477526 0.15987864 0.02987918 0.14383443 0.17701018 0.10096498 0.12492476 -0.021856857 0.077469334 -0.07300007 -0.020607045 -0.04844479 0.1259903 -0.000730253 0.117864065
5 -0.09511472 -0.31956512 -0.08661597 0.06558067 -0.19862421 0.063034505 0.33372945 0.06619888 -0.06595604 -0.038028095 -0.30838308 0.16295305 -0.09744237 0.006694494 -0.019337926 0.07148491 -0.1739588 0.17069781 0.20392194 0.04655633 -0.19970942 0.06094977 0.082229786 -0.08303807 0.12662037 -0.1250894 -0.59151447 0.525786 -0.015649265 -0.1482805 -0.8112642 0.30639726 -0.13145947 -0.12230393 0.10427194 -0.09109153 0.00079383573 -0.08152314 0.09854836 0.04538112 0.11975297 -0.22478148 0.16305667 0.06283866 -0.0077149016 -0.15129903 0.05347429 0.029306911 -0.048684318 -0.045405857 0.053133693 0.013577868 0.055377632 0.06942684 0.020682495 0.016529817 0.03242389 0.032927673 -0.07159388 -0.058085002 -0.009190891 -0.0041312505 0.011554529 0.15458655
20 -0.061531454 -0.30131644 -0.102441676 0.20896545 -0.13171327 -0.03279086 0.28115246 0.008973454 -0.041104723 -0.07083255 -0.25897703 0.022892956 -0.091375574 0.0039220545 0.016424345 0.055719446 -0.18311262 0.17588603 0.2140915 0.023690237 -0.16812713 0.057879254 0.034960758 -0.0846389 0.18300645 -0.03950445 -0.64155227 0.44822428 0.043231804 -0.17095476 -0.7649599 0.1966456 -0.19443281 -0.07108252 -0.049091637 -0.048890606 0.12486424 -0.021722188 0.087471515 0.0705341 0.048288714 -0.2001467 0.1741115 0.08263194 0.041199192 -0.17366448 0.14601676 0.14663875 -0.05451979 -0.03932781 0.13914227 0.047983367 0.11713805 0.10159308 0.050564885 0.06753304 -0.020008022 -0.010619028 -0.021524515 -0.0087439 -0.07706931 0.08005771 -0.050596233 -0.012332249
9 -0.24260165 0.041057594 0.0058219396 -0.07057927 -0.17446214 0.12167131 0.3649621 -0.10425106 -0.04672702 -0.030448161 -0.16216493 -0.15935053 0.029726068 0.013765893 -0.12088798 0.18353115 -0.18062493 0.124005385 0.20199837 -0.070012264 -0.14547437 -0.005263505 -0.12616959 -0.072087154 0.120260604 -0.093484 -0.28384772 0.22655374 -0.063412905 -0.17099743 -0.40681815 -0.14570758 -0.083971836 -0.027553383 -0.006621345 -0.02808484 0.28874594 -0.0059310882 0.023487993 -0.0784227 -0.03222563 -0.09448914 0.00826611 0.09034933 -0.033437178 0.24960652 -0.062953845 0.19011107 -0.11332119 -0.04347862 0.1392819 0.029893734 0.11383368 0.13578099 0.0828656 0.104876466 0.097748466 0.01608155 0.0075876517 0.05644817 0.005774721 0.061098035 0.078055814 0.099438556
21 -0.22744843 0.21268208 -0.038852524 -0.16214912 -0.011716243 0.14098693 0.3016688 -0.06112407 0.022994129 -0.1109507 -0.055313986 -0.2623303 -0.019296072 -0.0045690155 -0.13560876 0.13179885 -0.16081657 0.1557902 0.14318907 -0.16169716 -0.1196772 -0.025624312 -0.19489087 -0.13134474 0.15947066 -0.07389242 -0.27073005 0.11386111 -0.06276628 -0.19035596 -0.51040155 -0.11927603 0.027426708 0.0346518 0.01903967 -0.019762062 0.10894898 0.039600298 -0.05841651 -0.077284105 -0.079637215 0.010269904 -0.058021005 0.051779576 -0.020214662 0.28803974 -0.11319739 0.108574435 0.02237381 -0.07585702 0.16111706 0.09157852 0.16073996 0.08625204 -0.0064695547 -0.006957517 -0.0672329 0.089820325 -0.015516753 0.05679181 -0.017710127 0.07850348 0.008565388 0.029545283
16 0.011825776 -0.42351183 -0.14147933 0.1927612 -0.1704059 -0.07373592 0.2756235 -0.0075941365 -0.06660003 -0.010475414 -0.27184197 0.12545082 -0.034409408 0.013220413 0.06951267 0.06635878 -0.17755361 0.13736147 0.2015663 -0.024386665 -0.1623604 0.018651728 -0.049412616 -0.0729066 0.12285131 -0.1036555 -0.6556857 0.5513278 -0.12679017 -0.20169498 -0.6780239 0.03610911 -0.14783084 -0.060608126 -0.072245 -0.012437414 0.08557934 -0.048869815 0.16852862 0.10694286 0.11165635 -0.25483778 0.21301602 0.08523289 0.011346986 -0.10858439 0.10046878 0.16884454 0.0006783828 -0.04907486 0.18207291 0.08861962 0.16663623 0.09197688 0.023785735 0.041420035 -0.10152496 0.061290663 -0.099026605 -0.11889344 0.016914172 0.058857944 -0.1168798 0.018643755
23 -0.23618585 0.19668652 0.08068473 -0.0755036 -0.15960918 0.06408726 0.26055917 -0.24439032 0.00671887 -0.050424937 -0.020361694 -0.22186844 0.045879666 0.024016075 -0.06112363 0.11483056 -0.22269803 0.12694202 0.26941785 -0.04889789 -0.14629602 0.0031951235 -0.14777072 -0.049686454 0.13651732 -0.038839392 -0.32255968 0.24619572 -0.12570529 -0.15806234 -0.45250127 -0.04115901 -0.06341683 -0.028132536 -0.024536228 0.0088627525 0.1665114 -0.0009356887 -0.042292368 -0.063320614 0.053405195 -0.087583676 -0.15699612 0.1294102 -0.095520355 0.38603503 -0.14971948 0.22319059 0.020150699 -0.019054558 0.21047169 0.09703981 0.15126757 0.07794561 0.040802 0.069102146 -0.04517656 0.04578463 -0.036364414 0.04537439 -0.038844123 0.11203797 0.008914464 0.020582026
10 -0.14876705 -0.23981756 0.016473455 0.21848568 -0.24996871 -0.008800163 0.302241 -0.07727504 -0.04426741 -0.023057224 -0.2228018 0.102289565 0.018112037 0.032702364 -0.04220251 0.15967122 -0.23942672 0.14560279 0.29711327 -0.053308856 -0.083812974 0.019774674 -0.18421523 -0.045940284 0.15348122 -0.08657044 -0.42359242 0.26075944 -0.14029928 -0.21676423 -0.51307166 -0.21628454 -0.15691327 -0.04085907 -0.06314518 -0.012536321 0.29400438 0.011409807 -0.03613139 -0.06252251 0.018838502 -0.18855324 -0.008836627 0.07520383 0.025982598 0.082576886 0.21094757 0.31715736 -0.19952165 0.019393865 0.12849699 -0.0155909555 0.066467844 0.1470489 0.16139066 0.2161752 0.09155542 -0.058032516 0.011846678 0.11363604 -0.065775126 0.1063517 0.10367676 -0.019756386
11 -0.17321225 -0.097388074 0.028604783 0.03954056 -0.22984464 0.049799573 0.29888245 -0.11467188 -0.1055155 0.06038003 -0.18664072 -0.13414717 0.010460235 0.004449027 -0.0636834 0.08434876 -0.13814528 0.08255243 0.17080489 0.015016496 -0.16410176 0.012057495 -0.004244375 -0.031882096 0.053985164 -0.09447398 -0.48161587 0.51174843 -0.07788573 -0.12918232 -0.6021705 0.22785255 0.0121360365 0.09324277 -0.09169235 -0.0035580455 0.15109909 0.068407856 0.05950698 0.010107554 -0.14764565 0.084749915 0.13020931 -0.008793991 0.03361338 -0.18062225 -0.011802812 -0.1592179 -0.2363295 0.037390787 -0.19816644 -0.17229317 -0.19220662 0.036277566 0.10209161 0.101602525 -0.10377386 0.054751478 0.066302516 0.026008397 -0.016233662 0.072285324 0.107675 -0.0146381995
0 -0.24934545 0.2905374 -0.019778319 -0.176069 -0.004088081 0.12916407 0.29801938 -0.11032239 0.05488741 -0.06192644 0.17030516 -0.38486585 0.008672737 -0.04126205 -0.14513077 -0.024429072 0.040309124 0.0014380305 -0.11647228 -0.2315654 0.041918796 -0.09412952 -0.24233966 -0.088084064 0.016975654 0.15869309 -0.39306527 0.08174833 -0.31886464 -0.24610902 -0.47093633 -0.3533464 -0.18186824 -0.19874865 0.17437845 -0.1344203 -0.19669783 -0.13604465 0.1511966 0.13651952 -0.05334044 0.06522739 0.019585125 -0.07765084 0.058142312 -0.11506175 0.12385927 -0.046337336 -0.09668988 0.015202782 -0.042224284 -0.043527123 -0.0113253575 0.027568111 0.044109367 0.062700614 0.08680954 0.038049374 -0.049156077 -0.09764887 0.0965215 -0.1386839 0.00522602 0.111907974
6 -0.15545522 -0.25709385 -0.056899406 0.038701847 -0.27007622 0.037959795 0.41245475 -0.05152713 0.02239079 -0.15551375 -0.27910405 0.15060388 -0.022349862 -0.020649131 0.08389984 0.116992034 -0.11998013 0.015719572 0.19261666 0.060000744 -0.05977544 0.019194016 -0.034517527 0.05221982 0.17490554 -0.35847443 -0.56682754 0.74350137 -0.01465379 -0.10114263 -0.86396074 0.57351893 -0.13680054 -0.12621206 0.18959892 -0.15020198 0.015812406 -0.051074747 -0.020183163 -0.028309226 0.02684832 -0.006782357 0.028021798 -0.026754977 0.050828017 -0.24901742 0.12074693 -0.04089644 0.04449423 -0.05273571 -0.028247979 0.023722263 0.054910205 -0.010159829 -0.06996381 -0.08998484 0.19463308 -0.19253013 0.0957412 0.07288473 -0.081912436 -0.03854731 0.23759523 0.09899903
22 -0.14207408 -0.107957624 0.16079317 0.16962916 -0.31388968 -0.035654385 0.15781784 -0.212155 -0.082585976 0.123026215 -0.088380836 0.24421893 -0.011658719 0.06996594 -0.11573509 0.040064152 -0.2487146 0.20922393 0.30203652 -0.023127925 -0.04298633 0.06970826 -0.120679736 -0.07699809 0.18753876 -0.12611364 -0.43707812 0.36761007 -0.120395996 -0.24422635 -0.55675435 -0.24176835 -0.13849717 -0.044301633 -0.0068393955 -0.03645397 0.31792298 0.01145621 -0.07535019 -0.1118186 -0.011499786 -0.2158489 0.07004653 0.055371832 0.066865906 0.01986146 0.30961683 0.38416573 -0.17915553 -0.025867281 0.17769274 0.023203235 0.13998377 0.1765719 0.13768259 0.18426672 0.11011832 -0.06435571 0.032623723 0.168046 -0.017307643 0.11313805 0.05954979 -0.053672522
8 -0.08783217 -0.20621647 -0.20827192 -0.09484994 -0.0513726 0.10401055 0.38344076 0.11508141 -0.05781581 -0.07368092 -0.40128216 0.26906624 -0.0707223 -0.00029846866 0.12648138 0.10992483 -0.14994153 0.083648644 0.21386531 0.11224427 -0.16779384 0.05506325 0.0987643 0.0048411614 0.19448912 -0.24741963 -0.6812176 0.66517997 -0.020751186 -0.13214739 -0.75297636 0.28239578 -0.21982394 -0.22046083 0.08662761 -0.067823574 -0.057196166 -0.16830856 0.20524563 0.12837264 0.023887835 -0.15327966 0.21595208 0.014192946 0.039916635 -0.031506125 0.1063429 0.1636431 -0.016579712 -0.027011113 0.104914784 0.04685843 0.10073629 0.061196826 0.02252491 0.036745388 0.09206714 -0.06873853 0.025948973 0.0067249257 -0.014647947 0.07997143 -0.033055574 -0.046124317
14 -0.0979188 -0.27795085 -0.09564615 -0.07867275 -0.23561996 0.076621175 0.37265024 -4.5974135e-05 -0.0061376337 -0.044523057 -0.11738076 0.061663516 -0.082813084 -0.017072935 0.0306642 -0.0045544733 -0.16437206 0.08388328 0.23254329 0.04030882 -0.09473039 0.035187446 -0.03679795 0.0043597184 0.083692916 -0.28078467 -0.54142946 0.6729857 -0.14622366 -0.078773014 -0.83317405 0.57498235 -0.056782115 0.006959001 0.00036479387 -0.043544885 0.013958417 0.04015279 -0.05604396 0.0027511476 -0.00085113174 0.029651316 -0.041764427 -0.06382147 0.028687678 -0.14371863 0.13335006 -0.04898916 -0.12919417 0.06595227 -0.14383622 -0.11243347 -0.13346171 -0.017298702 0.06439469 0.08168326 0.08135743 -0.0914913 0.05690137 0.020397065 -0.038103353 0.0440368 0.15354216 0.048165854
7 -0.16311818 -0.18716635 -0.07017317 0.021491153 -0.2540679 0.0066045043 0.4313137 -0.1532853 -0.020440143 -0.11864833 -0.3172789 0.052767336 -0.021018354 -0.011683099 0.107276335 0.118469544 -0.09327565 0.012070308 0.16307916 0.09192597 -0.042994775 0.035825394 0.024000838 0.057244297 0.2115131 -0.5871221 -0.40914795 0.8627365 0.11325872 -0.13070948 -0.9013316 0.55034333 -0.115604445 -0.18843345 0.22638607 -0.119848624 -0.1162704 -0.13094988 0.050506093 0.016074236 -0.09056774 0.008297795 0.14065923 -0.06176164 0.07866049 -0.08254445 0.16789076 0.11298009 -0.01793212 -0.03982748 0.02412087 0.021682821 0.07722559 0.036933128 -0.011968276 -0.010923826 0.4037812 -0.17441642 0.09439079 0.0073048365 0.06267623 -0.06731397 0.04299046 0.12427492
13 -0.046435002 0.083035216 0.09845277 -0.15208963 -0.13601163 0.049984466 0.011690783 -0.1753071 -0.17037402 0.13804539 -0.24433894 -0.32875457 0.28794074 0.028563054 -0.12775357 0.20747751 -0.17635383 -0.010920942 0.24413708 0.09032474 -0.30771747 -0.026685126 0.025840623 0.049902976 -0.12258864 -0.17152402 -0.28872198 0.3922781 -0.41349095 -0.20190693 -0.87921697 0.3188217 0.3247517 0.22032769 -0.16075853 0.19516604 -0.20075402 0.10685602 -0.116688535 -0.021456957 -0.05420128 0.028270923 0.10165198 -0.12284916 0.034714617 -0.10954299 0.15657069 -0.07676355 -0.12858844 0.15060093 -0.26219967 -0.19874991 -0.33963177 -0.101302095 0.08996699 0.09658949 -0.19953611 -0.024287656 0.01483884 0.043690242 -0.04640732 -0.06494393 0.15701956 -0.17719156
